851 100
</s> -0.085214 0.13977 -0.059669 -0.18335 0.13833 -0.036666 0.033711 0.012685 0.3164 0.42409 -0.035169 -0.0088057 -0.23423 0.34057 -0.10251 -0.16022 -0.11657 0.15615 0.07118 -0.23397 -0.23097 0.030232 0.20006 -0.016847 -0.25491 0.14949 0.23849 -0.19284 -0.073105 0.24732 -0.20201 0.047605 -0.25695 0.11123 -0.29201 0.10479 -0.11662 -0.1147 -0.071697 -0.048436 -0.31279 0.28814 0.21679 0.085275 0.192 -0.11484 -0.036158 -0.22885 -0.048033 -0.028397 -0.21268 0.0086951 -0.22724 0.35472 -0.23174 -0.091871 -0.014395 -0.06345 0.15882 -0.024664 -0.17299 0.26123 0.18574 0.061854 -0.1355 0.016405 -0.24491 -0.0033398 0.071717 0.067342 0.025797 0.12626 0.064293 0.29816 -0.13308 0.043081 0.059465 0.18141 0.11597 0.046264 -0.15066 0.42275 0.020822 -0.13347 0.052291 0.015051 0.14839 0.27585 -0.32789 -0.3068 0.091931 0.19101 0.24021 -0.32503 0.055242 -0.19931 0.025571 0.27527 0.018745 -0.24214 
1 -0.074706 0.14808 -0.05969 -0.22823 0.15598 -0.042883 0.028769 0.012472 0.34676 0.47892 -0.040432 -0.011287 -0.28804 0.39631 -0.10586 -0.19156 -0.13185 0.18195 0.073799 -0.25252 -0.26804 0.026221 0.22091 -0.0069749 -0.31098 0.17144 0.27038 -0.22661 -0.080124 0.26504 -0.23179 0.060462 -0.26603 0.13865 -0.33433 0.12286 -0.14086 -0.12153 -0.08485 -0.056086 -0.38448 0.33001 0.2406 0.096618 0.23542 -0.13655 -0.024693 -0.25487 -0.042094 -0.029443 -0.24416 -0.0026476 -0.26032 0.4055 -0.27115 -0.095979 -0.026518 -0.081756 0.18823 -0.040194 -0.19651 0.29764 0.20422 0.070464 -0.1394 0.015176 -0.27744 -0.015892 0.059289 0.072588 0.037872 0.1509 0.090508 0.34485 -0.15632 0.051488 0.05338 0.2036 0.14909 0.059528 -0.16447 0.47635 0.01515 -0.14084 0.073225 0.031006 0.18133 0.3143 -0.37486 -0.34427 0.09164 0.21748 0.27216 -0.36298 0.073852 -0.22248 0.022722 0.30128 0.027382 -0.28181 
2 -0.07729 0.14753 -0.066577 -0.23209 0.15365 -0.057702 0.032621 0.0090779 0.36924 0.49819 -0.047726 -0.0095552 -0.29422 0.39938 -0.10684 -0.1919 -0.146 0.18355 0.07237 -0.26352 -0.27337 0.019634 0.2229 -0.0068639 -0.31863 0.18221 0.28233 -0.23395 -0.0929 0.28489 -0.23743 0.070559 -0.28306 0.14561 -0.34812 0.12877 -0.14652 -0.12534 -0.079885 -0.043941 -0.39604 0.34819 0.25635 0.1046 0.24877 -0.14285 -0.031045 -0.26978 -0.045399 -0.033625 -0.25249 0.0025287 -0.26415 0.42155 -0.28272 -0.088192 -0.017663 -0.083571 0.18568 -0.035249 -0.20017 0.31894 0.2154 0.07331 -0.15098 0.019382 -0.28671 -0.01922 0.070019 0.072609 0.048133 0.15998 0.093638 0.35383 -0.17399 0.060437 0.068036 0.2034 0.15056 0.060817 -0.1675 0.49761 0.013517 -0.15334 0.066487 0.032362 0.18597 0.33064 -0.38779 -0.36787 0.090363 0.22604 0.28528 -0.38228 0.073598 -0.22765 0.020343 0.32122 0.039496 -0.28415 
X -0.072586 0.13212 -0.051639 -0.1721 0.1277 -0.035313 0.022707 0.0070516 0.30198 0.40292 -0.035483 -0.012606 -0.23992 0.3192 -0.087657 -0.15034 -0.11327 0.14168 0.068282 -0.20924 -0.22217 0.02693 0.18942 -0.0052344 -0.25113 0.15163 0.23215 -0.1849 -0.070118 0.22138 -0.18405 0.044619 -0.2407 0.11083 -0.27133 0.10484 -0.11846 -0.10048 -0.071564 -0.039793 -0.30769 0.26668 0.20161 0.075668 0.18524 -0.11293 -0.024239 -0.21535 -0.038819 -0.028544 -0.19912 -0.00033 -0.20223 0.33328 -0.22446 -0.085794 -0.013647 -0.065642 0.14922 -0.026353 -0.15964 0.24746 0.16974 0.048496 -0.12768 0.014963 -0.22943 -0.0076562 0.056427 0.060382 0.042501 0.1174 0.06721 0.28742 -0.13204 0.049171 0.049021 0.17345 0.11326 0.040839 -0.1352 0.39911 0.015684 -0.11635 0.058964 0.026657 0.14468 0.26773 -0.31052 -0.30078 0.082779 0.17908 0.22158 -0.29587 0.052006 -0.18501 0.017739 0.26132 0.022831 -0.23127 
mu -0.13311 0.18966 -0.055257 -0.23883 0.20557 -0.038132 0.018758 0.009882 0.44772 0.59897 -0.034238 -0.014868 -0.34671 0.47543 -0.14934 -0.24638 -0.15797 0.21357 0.097168 -0.32865 -0.34257 0.014891 0.29951 0.0058656 -0.37379 0.25348 0.34 -0.25625 -0.098553 0.35042 -0.27 0.052583 -0.39436 0.16103 -0.38275 0.13185 -0.20113 -0.15073 -0.097953 -0.04701 -0.43679 0.38499 0.31705 0.11027 0.26411 -0.15116 -0.061074 -0.31115 -0.05769 -0.078899 -0.27764 0.0028022 -0.28486 0.50606 -0.33565 -0.14566 -0.026313 -0.097868 0.21551 -0.042251 -0.20796 0.34208 0.25382 0.089779 -0.18931 0.045993 -0.34228 -0.012214 0.11867 0.086732 0.050447 0.17725 0.084559 0.44228 -0.17348 0.061308 0.061027 0.22409 0.1693 0.075893 -0.20786 0.59928 0.0081815 -0.18999 0.086333 0.049575 0.2049 0.42482 -0.47038 -0.43193 0.13159 0.26074 0.34358 -0.44771 0.067454 -0.26949 0.050268 0.38484 0.032112 -0.33363 
3 -0.079346 0.15457 -0.062357 -0.22773 0.15397 -0.047521 0.032722 0.017621 0.35034 0.49673 -0.043718 -0.0073664 -0.29243 0.39355 -0.1124 -0.18659 -0.14806 0.17199 0.082297 -0.26702 -0.26711 0.022343 0.22658 -0.0066283 -0.30581 0.18148 0.27743 -0.22896 -0.086287 0.2722 -0.23207 0.071827 -0.2821 0.144 -0.33066 0.13046 -0.14773 -0.13002 -0.092595 -0.049411 -0.38781 0.33829 0.24554 0.097516 0.24246 -0.14106 -0.028902 -0.27556 -0.043966 -0.031922 -0.24958 0.00082227 -0.26688 0.42158 -0.26941 -0.090499 -0.0162 -0.081131 0.19166 -0.042144 -0.20367 0.30706 0.20988 0.060565 -0.14192 0.016145 -0.29148 -0.01372 0.067474 0.077596 0.039315 0.15381 0.092976 0.34326 -0.16782 0.053485 0.059559 0.19495 0.14213 0.058967 -0.16604 0.49015 0.017677 -0.14359 0.071724 0.038533 0.17227 0.32593 -0.39235 -0.35661 0.09492 0.22492 0.26858 -0.37324 0.0743 -0.22814 0.018404 0.31221 0.035192 -0.29632 
u -0.082194 0.14372 -0.047689 -0.21259 0.14136 -0.045466 0.035995 0.016548 0.34821 0.47419 -0.04265 -0.005509 -0.27988 0.37963 -0.1113 -0.17833 -0.13478 0.1722 0.078013 -0.24599 -0.26047 0.034123 0.21941 -0.015431 -0.2979 0.18123 0.26705 -0.21603 -0.075648 0.27043 -0.23283 0.05301 -0.27976 0.13867 -0.31899 0.12533 -0.1357 -0.10702 -0.070974 -0.050442 -0.36969 0.31998 0.25011 0.086246 0.2352 -0.13355 -0.024215 -0.26112 -0.044785 -0.036437 -0.22376 0.0027456 -0.25149 0.3965 -0.26188 -0.092877 -0.019809 -0.073866 0.17811 -0.039279 -0.18639 0.29324 0.18794 0.056719 -0.15224 0.015482 -0.28235 -0.0080396 0.072105 0.082549 0.035831 0.14818 0.076965 0.34248 -0.15466 0.052751 0.060332 0.18792 0.12182 0.057431 -0.15977 0.48323 0.019231 -0.15112 0.066661 0.033775 0.17909 0.31389 -0.36081 -0.34647 0.09469 0.20735 0.26159 -0.35875 0.053491 -0.21549 0.016562 0.30019 0.03443 -0.27553 
5 -0.080903 0.14661 -0.065281 -0.2185 0.14985 -0.054841 0.035648 0.014672 0.33983 0.4614 -0.039291 -0.020949 -0.28367 0.38385 -0.09489 -0.1792 -0.14155 0.1661 0.077577 -0.24495 -0.25632 0.019861 0.2097 -0.0046568 -0.30188 0.17081 0.26616 -0.21646 -0.086203 0.26737 -0.2266 0.071168 -0.25846 0.13948 -0.32932 0.12961 -0.12784 -0.12632 -0.077459 -0.04331 -0.37223 0.32267 0.23846 0.095308 0.23843 -0.13517 -0.027981 -0.24732 -0.038955 -0.03069 -0.2347 -0.00049431 -0.25378 0.40167 -0.26469 -0.090829 -0.016761 -0.075828 0.1831 -0.038799 -0.19331 0.28918 0.20398 0.054884 -0.1432 0.0055532 -0.27285 -0.017998 0.055973 0.067615 0.036686 0.15219 0.079339 0.34145 -0.15381 0.064285 0.057349 0.19354 0.13766 0.050964 -0.1648 0.46357 0.020908 -0.13577 0.069961 0.034191 0.17014 0.31008 -0.37049 -0.34472 0.091298 0.21352 0.26435 -0.36081 0.066008 -0.21851 0.018159 0.29824 0.034835 -0.28065 
4 -0.070799 0.14607 -0.059364 -0.21924 0.14504 -0.058343 0.03541 0.021293 0.33602 0.46617 -0.048876 -0.019413 -0.28075 0.38909 -0.10118 -0.17884 -0.131 0.17167 0.076791 -0.25289 -0.26117 0.026919 0.21212 -0.016084 -0.28972 0.16542 0.26514 -0.21796 -0.072887 0.26897 -0.22101 0.066115 -0.25806 0.13536 -0.32901 0.12488 -0.1308 -0.11516 -0.07453 -0.046473 -0.36616 0.31267 0.24509 0.10098 0.23306 -0.13564 -0.023356 -0.25215 -0.036972 -0.031509 -0.22971 0.00098039 -0.25671 0.3973 -0.25942 -0.0896 -0.020061 -0.080943 0.17317 -0.033991 -0.19139 0.29414 0.20616 0.065333 -0.13772 0.013354 -0.26741 -0.018941 0.068478 0.07015 0.037461 0.14075 0.08969 0.33499 -0.15122 0.057028 0.049408 0.19551 0.14434 0.057883 -0.1635 0.46932 0.017106 -0.14533 0.07444 0.035901 0.18003 0.31346 -0.35994 -0.3425 0.0937 0.20373 0.26675 -0.34844 0.060875 -0.21461 0.023037 0.2975 0.035006 -0.27939 
iti -0.082932 0.12664 -0.056125 -0.18039 0.13062 -0.035058 0.028001 0.0066812 0.30581 0.40567 -0.035482 -0.012607 -0.23868 0.32176 -0.099425 -0.16575 -0.11715 0.14735 0.070402 -0.2158 -0.23092 0.022345 0.19163 -0.0062062 -0.26208 0.15208 0.23538 -0.18364 -0.07548 0.23147 -0.18754 0.043996 -0.25188 0.1159 -0.27638 0.095518 -0.11896 -0.096159 -0.065321 -0.043513 -0.31333 0.27866 0.21257 0.080759 0.19478 -0.10853 -0.031322 -0.21365 -0.038234 -0.031881 -0.20124 0.0010274 -0.21169 0.34303 -0.2225 -0.083679 -0.011541 -0.066972 0.15539 -0.024399 -0.16383 0.25113 0.17801 0.058398 -0.13027 0.014118 -0.23874 -0.0038713 0.065298 0.062425 0.033817 0.12651 0.06297 0.29444 -0.13336 0.04823 0.046006 0.16623 0.11365 0.051422 -0.1378 0.40836 0.012689 -0.1284 0.056765 0.030305 0.14417 0.27802 -0.31782 -0.30886 0.086383 0.17803 0.22492 -0.31073 0.045759 -0.19211 0.023656 0.26437 0.028171 -0.23406 
lugal -0.1486 0.22786 -0.088675 -0.30846 0.24676 -0.060646 0.037286 0.01464 0.54634 0.73329 -0.051084 -0.016025 -0.42621 0.58667 -0.16918 -0.28785 -0.20422 0.25893 0.12665 -0.40084 -0.4148 0.033474 0.35191 -0.013005 -0.46892 0.28887 0.41848 -0.33034 -0.12691 0.4222 -0.33394 0.079965 -0.45784 0.20512 -0.49122 0.17527 -0.22693 -0.18409 -0.13103 -0.074006 -0.56339 0.48268 0.38579 0.14141 0.33773 -0.19297 -0.065091 -0.38896 -0.0724 -0.067117 -0.35387 -0.0010166 -0.37265 0.61644 -0.41168 -0.16756 -0.032729 -0.12056 0.27875 -0.05159 -0.27721 0.44314 0.31494 0.10771 -0.23877 0.036278 -0.41469 -0.019388 0.12133 0.11179 0.06668 0.22569 0.12003 0.53428 -0.2253 0.083071 0.080028 0.30425 0.21205 0.091747 -0.25566 0.74377 0.0098298 -0.22062 0.10777 0.056246 0.2675 0.4976 -0.57406 -0.53753 0.15397 0.32511 0.41544 -0.56138 0.085367 -0.33871 0.049078 0.47175 0.041874 -0.41557 
sila -0.090604 0.18119 -0.075623 -0.25906 0.17874 -0.056442 0.04208 0.018594 0.41742 0.56747 -0.049406 -0.01406 -0.33744 0.46928 -0.12309 -0.21935 -0.16247 0.21183 0.09687 -0.29847 -0.31162 0.026759 0.26188 -0.0097188 -0.36475 0.20732 0.3256 -0.26685 -0.095742 0.3215 -0.26594 0.077666 -0.32524 0.16621 -0.39035 0.15294 -0.16442 -0.14709 -0.10329 -0.064638 -0.45269 0.38765 0.29338 0.11331 0.28126 -0.16384 -0.036274 -0.30538 -0.050199 -0.03585 -0.28582 -0.0042952 -0.30885 0.48014 -0.31723 -0.1106 -0.024542 -0.094681 0.21583 -0.043559 -0.23532 0.35995 0.24762 0.078793 -0.17095 0.014774 -0.32493 -0.017177 0.079157 0.08933 0.050644 0.18013 0.10406 0.41106 -0.18354 0.064169 0.068382 0.23752 0.16953 0.071002 -0.1953 0.57489 0.017769 -0.16645 0.082005 0.040635 0.2146 0.38005 -0.44824 -0.41935 0.1098 0.25742 0.32418 -0.43313 0.080716 -0.25939 0.019375 0.3649 0.037464 -0.33448 
pisanduba -0.048595 0.083614 -0.036346 -0.11717 0.086334 -0.024902 0.015757 0.0045473 0.19877 0.26418 -0.02228 -0.0085009 -0.15831 0.21144 -0.060475 -0.10331 -0.077155 0.095957 0.042997 -0.14326 -0.14703 0.01443 0.12558 -0.0047906 -0.16711 0.10002 0.1479 -0.12146 -0.044065 0.15032 -0.12376 0.029994 -0.15927 0.073804 -0.1783 0.069388 -0.077905 -0.065856 -0.046323 -0.025527 -0.20692 0.17374 0.13766 0.052634 0.12595 -0.07391 -0.021984 -0.14207 -0.026076 -0.02011 -0.12973 -0.00091666 -0.13956 0.22078 -0.14833 -0.055 -0.011273 -0.041799 0.098636 -0.019024 -0.10522 0.1613 0.11506 0.03796 -0.082601 0.0077058 -0.15155 -0.0074775 0.043481 0.038271 0.023006 0.080035 0.043149 0.19194 -0.085065 0.028143 0.029808 0.10996 0.075199 0.034609 -0.091128 0.26621 0.005255 -0.07988 0.037819 0.016624 0.096299 0.17792 -0.20686 -0.19563 0.054437 0.1174 0.15058 -0.20156 0.033593 -0.1225 0.012701 0.16857 0.014564 -0.14997 
gur -0.092275 0.17665 -0.070158 -0.26481 0.18037 -0.05939 0.041003 0.020568 0.4206 0.57647 -0.050984 -0.018286 -0.34961 0.47691 -0.12556 -0.22087 -0.16418 0.20828 0.090713 -0.30267 -0.3183 0.035604 0.26545 -0.01014 -0.36449 0.21177 0.33244 -0.27349 -0.095147 0.33143 -0.27763 0.07807 -0.32822 0.16579 -0.40138 0.15274 -0.16931 -0.14575 -0.095374 -0.057416 -0.45668 0.39262 0.29946 0.11659 0.28548 -0.16425 -0.043506 -0.31279 -0.048489 -0.038848 -0.28619 0.0038663 -0.31604 0.48537 -0.32525 -0.10773 -0.022826 -0.092456 0.21491 -0.039195 -0.24486 0.36364 0.24813 0.078074 -0.17778 0.014089 -0.33568 -0.018679 0.082998 0.086601 0.054732 0.18188 0.097318 0.41554 -0.1917 0.060714 0.077229 0.2337 0.17279 0.065776 -0.20206 0.57468 0.015286 -0.17098 0.083749 0.042248 0.2198 0.37953 -0.45781 -0.42651 0.11415 0.26442 0.32947 -0.43694 0.082746 -0.2646 0.017117 0.37275 0.041191 -0.34231 
dumu -0.087649 0.14652 -0.056842 -0.20541 0.15208 -0.042409 0.029314 0.0098693 0.35289 0.47065 -0.036031 -0.014752 -0.27784 0.37845 -0.11234 -0.1807 -0.13229 0.17461 0.07561 -0.25475 -0.26695 0.026501 0.22581 -0.0093474 -0.30036 0.17639 0.27286 -0.21992 -0.078462 0.27385 -0.21765 0.059459 -0.2887 0.13265 -0.32476 0.11944 -0.13599 -0.12117 -0.081022 -0.050674 -0.36562 0.31826 0.24296 0.095548 0.22066 -0.13404 -0.034302 -0.25934 -0.045857 -0.033608 -0.23493 0.0008389 -0.2435 0.39856 -0.268 -0.10357 -0.019017 -0.074985 0.17465 -0.035149 -0.1869 0.29022 0.20167 0.070267 -0.1495 0.018935 -0.26975 -0.015891 0.074231 0.066112 0.036849 0.14501 0.078739 0.34279 -0.14901 0.058578 0.055558 0.19644 0.13401 0.061975 -0.16081 0.47705 0.0092992 -0.14242 0.067539 0.027732 0.1756 0.31972 -0.36734 -0.3483 0.093765 0.21276 0.26617 -0.35537 0.059379 -0.21822 0.021777 0.30323 0.026729 -0.26915 
udu -0.098926 0.16548 -0.059259 -0.23847 0.17492 -0.050811 0.03215 0.014364 0.39396 0.53124 -0.040971 -0.013822 -0.31403 0.43282 -0.11956 -0.20853 -0.14541 0.19338 0.084607 -0.28721 -0.29586 0.025397 0.25009 -0.0025765 -0.33751 0.19926 0.30643 -0.24038 -0.09231 0.30089 -0.24425 0.065951 -0.31993 0.1451 -0.3552 0.12866 -0.15964 -0.13361 -0.085887 -0.050427 -0.41281 0.35606 0.28013 0.10678 0.24643 -0.14679 -0.047316 -0.27428 -0.053101 -0.04397 -0.26427 0.0078406 -0.27712 0.4526 -0.29391 -0.11389 -0.02158 -0.092198 0.20377 -0.038977 -0.20662 0.31951 0.23167 0.082784 -0.15993 0.0299 -0.30345 -0.009764 0.084248 0.083529 0.046866 0.16233 0.081449 0.38354 -0.16827 0.059566 0.063405 0.21696 0.15603 0.070969 -0.18375 0.53924 0.010876 -0.1598 0.075635 0.036545 0.19522 0.35849 -0.41929 -0.3985 0.10318 0.23859 0.30653 -0.40093 0.069761 -0.24603 0.025382 0.34168 0.032798 -0.30784 
igal -0.099482 0.1651 -0.067991 -0.23129 0.1728 -0.046551 0.031125 0.013756 0.38848 0.51795 -0.040551 -0.010616 -0.30344 0.42328 -0.11694 -0.20095 -0.14773 0.19152 0.0876 -0.28255 -0.29291 0.030044 0.24557 -0.0092767 -0.32851 0.20106 0.29908 -0.23595 -0.092749 0.29735 -0.23945 0.057718 -0.31402 0.14672 -0.35742 0.13329 -0.15876 -0.12983 -0.09145 -0.052189 -0.40581 0.34682 0.26957 0.099508 0.24849 -0.14442 -0.040554 -0.28078 -0.050545 -0.04176 -0.25554 -0.00084445 -0.27415 0.43409 -0.2914 -0.1137 -0.024486 -0.086595 0.1949 -0.042683 -0.20192 0.31728 0.22471 0.071782 -0.16334 0.020357 -0.29793 -0.01413 0.08027 0.078193 0.045342 0.16092 0.09034 0.37883 -0.16385 0.062549 0.059476 0.21356 0.14839 0.062179 -0.17787 0.52998 0.014437 -0.15103 0.075967 0.038466 0.19499 0.34705 -0.40758 -0.38352 0.10278 0.23471 0.29342 -0.39834 0.066681 -0.23912 0.029965 0.33482 0.034532 -0.29928 
kicib -0.0816 0.14284 -0.057192 -0.19998 0.15122 -0.044644 0.029112 0.0096888 0.34617 0.46151 -0.038106 -0.015839 -0.2726 0.3739 -0.10849 -0.18082 -0.13121 0.168 0.077696 -0.25151 -0.2579 0.027421 0.21953 -0.011902 -0.29647 0.16864 0.26374 -0.2059 -0.077433 0.26126 -0.21543 0.048704 -0.27884 0.13613 -0.31561 0.11446 -0.13438 -0.1145 -0.075769 -0.043091 -0.35796 0.31024 0.23813 0.093859 0.21557 -0.12887 -0.03239 -0.24866 -0.045869 -0.034799 -0.22847 0.001443 -0.23837 0.38729 -0.26023 -0.1002 -0.019334 -0.074665 0.16916 -0.031329 -0.1844 0.28896 0.19962 0.065236 -0.14659 0.018344 -0.26449 -0.0050429 0.070624 0.066293 0.039519 0.14037 0.075933 0.33527 -0.14609 0.05301 0.059654 0.19646 0.13121 0.062991 -0.15821 0.46569 0.011043 -0.139 0.06538 0.027777 0.16744 0.30362 -0.36015 -0.34011 0.097132 0.20602 0.26079 -0.35016 0.058959 -0.21287 0.023148 0.29458 0.02864 -0.26528 
gu -0.11 0.19768 -0.083733 -0.2885 0.203 -0.062519 0.045437 0.024753 0.46597 0.63452 -0.056706 -0.020001 -0.37863 0.51429 -0.14192 -0.24241 -0.17931 0.22556 0.099704 -0.33706 -0.34789 0.038194 0.2939 -0.010982 -0.40002 0.23237 0.36546 -0.29733 -0.10576 0.35877 -0.30531 0.080518 -0.37364 0.18738 -0.43588 0.16358 -0.18338 -0.15577 -0.10426 -0.058158 -0.49539 0.42259 0.32354 0.12273 0.30451 -0.18094 -0.051305 -0.3326 -0.054621 -0.04403 -0.31671 0.0080829 -0.34063 0.53124 -0.35368 -0.12839 -0.026769 -0.10131 0.2349 -0.040179 -0.25615 0.38666 0.27528 0.088624 -0.19691 0.0226 -0.36209 -0.019787 0.092475 0.099127 0.054818 0.19251 0.10527 0.45593 -0.20344 0.071493 0.075603 0.26205 0.1826 0.073895 -0.21792 0.63123 0.01588 -0.18677 0.092905 0.043017 0.23388 0.41659 -0.49365 -0.46357 0.11813 0.28724 0.35837 -0.48525 0.08071 -0.28557 0.023869 0.40618 0.038424 -0.36952 
ki -0.091657 0.15286 -0.062687 -0.21616 0.16552 -0.043861 0.030146 0.010605 0.36855 0.49717 -0.042235 -0.022614 -0.2938 0.40323 -0.12046 -0.1949 -0.13717 0.18076 0.083863 -0.2669 -0.28391 0.025532 0.24208 -0.014546 -0.31713 0.1821 0.28226 -0.22255 -0.079977 0.28711 -0.23407 0.058355 -0.30242 0.14084 -0.33611 0.12406 -0.14887 -0.12233 -0.083353 -0.043905 -0.38356 0.33574 0.26296 0.10249 0.23121 -0.13354 -0.037765 -0.26793 -0.050794 -0.041457 -0.24793 -0.0016483 -0.25779 0.41729 -0.28665 -0.10818 -0.017356 -0.083143 0.1876 -0.039477 -0.19602 0.31163 0.21314 0.070518 -0.15809 0.018339 -0.28404 -0.0060463 0.08062 0.079909 0.041404 0.15316 0.080401 0.36627 -0.16211 0.05742 0.058912 0.20801 0.14028 0.062798 -0.16801 0.50578 0.015464 -0.14722 0.065548 0.036179 0.18296 0.3305 -0.38687 -0.36677 0.1063 0.2285 0.28879 -0.38258 0.060125 -0.23465 0.03166 0.3228 0.029103 -0.28541 
ce -0.13444 0.24365 -0.092928 -0.34724 0.24678 -0.07597 0.058374 0.018401 0.58034 0.77693 -0.074874 -0.03047 -0.46677 0.64143 -0.16328 -0.29213 -0.22442 0.28477 0.12684 -0.41972 -0.43358 0.040129 0.35986 -0.01789 -0.49113 0.28142 0.43766 -0.35741 -0.13328 0.44145 -0.37073 0.10011 -0.45618 0.22682 -0.53649 0.20548 -0.23057 -0.19435 -0.12109 -0.075019 -0.61946 0.52564 0.39816 0.15176 0.37937 -0.2161 -0.059413 -0.42444 -0.065425 -0.057667 -0.38119 0.0048648 -0.4212 0.65422 -0.43922 -0.16194 -0.034701 -0.13075 0.28331 -0.060845 -0.32162 0.49132 0.33698 0.10594 -0.23719 0.028298 -0.44968 -0.019579 0.10554 0.11629 0.067097 0.24048 0.13801 0.564 -0.25415 0.096824 0.098192 0.31782 0.22311 0.09521 -0.26106 0.7919 0.015575 -0.23573 0.1087 0.061428 0.28985 0.51273 -0.61224 -0.5686 0.1543 0.34965 0.44158 -0.59653 0.10297 -0.35534 0.03164 0.49253 0.047579 -0.45982 
gin -0.087864 0.17591 -0.072574 -0.27701 0.17941 -0.067774 0.046642 0.020683 0.42375 0.57212 -0.055485 -0.016276 -0.34612 0.47406 -0.11735 -0.21948 -0.1721 0.21138 0.095612 -0.31391 -0.30598 0.027916 0.25862 -0.014523 -0.36737 0.20442 0.33896 -0.2766 -0.11027 0.32644 -0.27193 0.07974 -0.31531 0.17557 -0.40527 0.15857 -0.16816 -0.15051 -0.09837 -0.06016 -0.46088 0.40158 0.29019 0.11864 0.29565 -0.17222 -0.032438 -0.3143 -0.052849 -0.036665 -0.28808 0.0026405 -0.31717 0.48323 -0.32409 -0.10605 -0.025411 -0.099624 0.22458 -0.042986 -0.24824 0.37047 0.2482 0.077651 -0.16713 0.0081471 -0.33255 -0.018881 0.077479 0.091851 0.052234 0.18467 0.10925 0.41938 -0.19972 0.075729 0.064643 0.23786 0.17497 0.067608 -0.1994 0.58435 0.01726 -0.17127 0.087867 0.044166 0.22055 0.38355 -0.45829 -0.42524 0.10776 0.26506 0.32379 -0.44759 0.084826 -0.2657 0.021057 0.37293 0.042885 -0.34165 
6 -0.082636 0.15107 -0.056081 -0.21698 0.14386 -0.042654 0.036119 0.010776 0.35357 0.47888 -0.038828 -0.016414 -0.2801 0.39264 -0.10961 -0.17886 -0.13639 0.17867 0.07594 -0.25669 -0.2686 0.02886 0.22171 -0.010858 -0.30399 0.17903 0.27374 -0.21563 -0.087121 0.26796 -0.22404 0.059013 -0.27112 0.13615 -0.32593 0.13007 -0.13894 -0.11166 -0.086106 -0.047756 -0.38245 0.32863 0.23782 0.099966 0.23343 -0.13809 -0.025765 -0.26314 -0.043853 -0.037393 -0.22899 0.001152 -0.25374 0.41401 -0.26788 -0.09802 -0.019635 -0.070842 0.18204 -0.038394 -0.20118 0.29787 0.20164 0.063447 -0.14 0.0083205 -0.2703 -0.010502 0.071014 0.069005 0.044504 0.14653 0.079524 0.34521 -0.15892 0.052975 0.054213 0.19554 0.14328 0.061928 -0.16814 0.48367 0.0076018 -0.14585 0.060656 0.031648 0.18035 0.32192 -0.37763 -0.35497 0.090599 0.21115 0.2652 -0.36978 0.064779 -0.21676 0.016966 0.30881 0.033128 -0.28919 
12 -0.077665 0.14997 -0.064311 -0.20289 0.14522 -0.046309 0.033378 0.011842 0.34368 0.46225 -0.035386 -0.014966 -0.27551 0.38578 -0.10735 -0.17375 -0.13534 0.16773 0.07646 -0.25499 -0.25714 0.019622 0.21378 -0.0083462 -0.29629 0.172 0.26275 -0.2156 -0.08245 0.26763 -0.21853 0.057626 -0.26721 0.13501 -0.32152 0.11948 -0.13103 -0.11569 -0.077816 -0.045106 -0.36988 0.317 0.24024 0.09015 0.23276 -0.135 -0.030611 -0.25577 -0.036019 -0.038543 -0.22432 0.00050087 -0.2479 0.39311 -0.26331 -0.091024 -0.021381 -0.080427 0.17757 -0.032107 -0.18866 0.29419 0.19226 0.060538 -0.14523 0.01312 -0.27158 -0.011682 0.071787 0.069346 0.041236 0.14345 0.078389 0.33952 -0.15918 0.053514 0.050112 0.19192 0.13284 0.057944 -0.16227 0.47073 0.010215 -0.13832 0.068071 0.034957 0.17432 0.31685 -0.36781 -0.34491 0.08951 0.20616 0.26543 -0.35993 0.064426 -0.20668 0.027754 0.29626 0.032177 -0.27078 
cunigin -0.087742 0.16131 -0.065147 -0.24008 0.16258 -0.057642 0.038189 0.017335 0.38247 0.52125 -0.046453 -0.01594 -0.31402 0.42675 -0.11306 -0.20234 -0.15072 0.18851 0.083837 -0.27915 -0.28409 0.024871 0.23792 -0.0092086 -0.33113 0.19044 0.29964 -0.24349 -0.090769 0.29737 -0.24679 0.069736 -0.29557 0.15174 -0.361 0.14061 -0.15157 -0.13207 -0.086308 -0.052813 -0.41319 0.35555 0.26832 0.1036 0.25678 -0.14918 -0.034949 -0.2807 -0.045294 -0.038591 -0.26017 0.0036536 -0.2844 0.43999 -0.29244 -0.10033 -0.019307 -0.088285 0.1971 -0.040303 -0.21586 0.32734 0.22634 0.070516 -0.15532 0.015694 -0.3009 -0.015835 0.071006 0.082648 0.044102 0.16422 0.093978 0.3764 -0.17611 0.063275 0.062276 0.21414 0.15455 0.060869 -0.17925 0.52527 0.014808 -0.15389 0.077761 0.039322 0.19414 0.34393 -0.40884 -0.38513 0.10086 0.23754 0.295 -0.3961 0.076773 -0.23761 0.017729 0.33507 0.034856 -0.30614 
niga -0.10396 0.18411 -0.07568 -0.26278 0.19057 -0.06178 0.038662 0.013919 0.42934 0.58332 -0.049865 -0.019241 -0.35125 0.47367 -0.13723 -0.226 -0.16905 0.21382 0.096786 -0.30835 -0.32345 0.034099 0.27541 -0.012521 -0.37052 0.2165 0.33262 -0.26802 -0.099613 0.33245 -0.27265 0.074495 -0.34545 0.16451 -0.4071 0.15252 -0.16981 -0.14424 -0.097451 -0.057534 -0.46073 0.39303 0.30413 0.11847 0.27462 -0.16365 -0.043733 -0.31227 -0.061734 -0.04693 -0.29565 0.003564 -0.31296 0.4916 -0.32582 -0.12269 -0.021455 -0.095548 0.22359 -0.043516 -0.22862 0.35557 0.25183 0.081518 -0.18455 0.018165 -0.33275 -0.016137 0.089743 0.085608 0.050356 0.18311 0.1031 0.42366 -0.18781 0.07102 0.074406 0.24204 0.1738 0.068178 -0.20374 0.59044 0.018955 -0.17073 0.081564 0.036835 0.21159 0.38856 -0.45699 -0.43402 0.11308 0.26517 0.33093 -0.44694 0.07834 -0.26768 0.021929 0.37715 0.032934 -0.34002 
bahul -0.11321 0.17682 -0.054502 -0.21824 0.17953 -0.03444 0.018531 0.009635 0.3885 0.528 -0.029513 -0.018387 -0.30557 0.4184 -0.13184 -0.21035 -0.13235 0.18284 0.08786 -0.2881 -0.29677 0.014516 0.25169 0.0024746 -0.32273 0.22029 0.29524 -0.22646 -0.088503 0.30199 -0.24265 0.053576 -0.33805 0.14157 -0.33778 0.11387 -0.17347 -0.13299 -0.084506 -0.049065 -0.39193 0.33759 0.26735 0.088026 0.22155 -0.12822 -0.044142 -0.27606 -0.050832 -0.057639 -0.24219 0.0052653 -0.25012 0.43848 -0.28781 -0.12948 -0.026206 -0.090418 0.1862 -0.041072 -0.18666 0.30613 0.2169 0.083752 -0.16473 0.035808 -0.3013 -0.0035192 0.091203 0.078436 0.049053 0.15018 0.082222 0.38611 -0.16052 0.055057 0.056411 0.20972 0.13918 0.068533 -0.18173 0.51896 -0.0007414 -0.16811 0.076786 0.03789 0.18217 0.35196 -0.41189 -0.38157 0.11268 0.22561 0.30098 -0.39471 0.059194 -0.23517 0.042799 0.33441 0.029338 -0.2924 
e -0.079902 0.12128 -0.054029 -0.17469 0.14031 -0.031004 0.025605 0.0089547 0.315 0.41864 -0.032389 -0.011831 -0.24423 0.32961 -0.10918 -0.1698 -0.1099 0.15143 0.069838 -0.23067 -0.23654 0.018353 0.19815 -0.0023687 -0.26069 0.1646 0.23435 -0.18584 -0.071972 0.24681 -0.19247 0.053024 -0.26357 0.1093 -0.27179 0.10632 -0.12536 -0.10143 -0.061657 -0.050323 -0.33022 0.27933 0.21591 0.081586 0.19887 -0.10926 -0.033455 -0.22405 -0.040217 -0.027984 -0.20008 -0.0075568 -0.20879 0.35406 -0.23249 -0.095942 -0.016534 -0.065011 0.14949 -0.027951 -0.16218 0.25699 0.17771 0.056304 -0.12986 0.024159 -0.23203 -0.0068429 0.061116 0.063409 0.039955 0.12364 0.055779 0.30386 -0.12798 0.051149 0.055852 0.1712 0.11523 0.057574 -0.14133 0.42046 0.0085085 -0.12384 0.061701 0.030985 0.1471 0.28098 -0.32348 -0.31421 0.079773 0.18174 0.2396 -0.31292 0.054824 -0.18611 0.011063 0.26475 0.027868 -0.24302 
7 -0.071628 0.14288 -0.051324 -0.18835 0.13228 -0.043769 0.02597 0.01141 0.31229 0.42486 -0.033245 -0.010221 -0.25671 0.3517 -0.088578 -0.16429 -0.11946 0.15309 0.073743 -0.22873 -0.23327 0.025195 0.19838 -0.0061566 -0.27261 0.1576 0.24318 -0.19925 -0.073448 0.25019 -0.20582 0.052123 -0.24083 0.12677 -0.29531 0.10402 -0.13125 -0.1093 -0.073161 -0.04462 -0.33208 0.29605 0.21785 0.083728 0.21089 -0.12331 -0.023087 -0.23381 -0.031863 -0.027585 -0.20828 0.00015975 -0.22508 0.36842 -0.24639 -0.083488 -0.020251 -0.078224 0.15913 -0.029954 -0.16954 0.26731 0.17651 0.061372 -0.12359 0.011041 -0.25217 -0.010668 0.05771 0.060168 0.036358 0.14173 0.067501 0.31665 -0.14714 0.045421 0.059209 0.1811 0.12765 0.057694 -0.14802 0.42894 0.015087 -0.12735 0.062599 0.026096 0.15596 0.28556 -0.34507 -0.31326 0.084188 0.19339 0.2436 -0.32648 0.057462 -0.1887 0.018056 0.27051 0.032025 -0.25775 
cusuen -0.12425 0.19625 -0.07241 -0.26608 0.2052 -0.056894 0.026862 0.014229 0.46934 0.6307 -0.045541 -0.016126 -0.37239 0.50025 -0.14581 -0.24569 -0.17611 0.22773 0.10497 -0.34275 -0.35632 0.023749 0.30561 -0.0048361 -0.39806 0.24695 0.35629 -0.27959 -0.10313 0.36401 -0.28858 0.071419 -0.39027 0.17598 -0.41457 0.15079 -0.1979 -0.15702 -0.1063 -0.054491 -0.47977 0.41453 0.33216 0.12472 0.2898 -0.1653 -0.056222 -0.33141 -0.058256 -0.060836 -0.29853 0.0017854 -0.31881 0.53049 -0.35376 -0.14172 -0.026181 -0.10224 0.23135 -0.041067 -0.23794 0.37498 0.2695 0.092665 -0.19761 0.035999 -0.3581 -0.011948 0.10797 0.093044 0.056449 0.19151 0.099125 0.45855 -0.19228 0.066372 0.069767 0.25371 0.17976 0.080236 -0.21638 0.63454 0.0076221 -0.19336 0.086483 0.047172 0.22767 0.43116 -0.491 -0.46233 0.12964 0.27711 0.35811 -0.47524 0.077762 -0.28353 0.040112 0.40249 0.038166 -0.3568 
8 -0.075538 0.13575 -0.055326 -0.20063 0.13486 -0.051001 0.025004 0.010643 0.32241 0.44345 -0.035059 -0.020704 -0.25662 0.36265 -0.092829 -0.17569 -0.13241 0.16651 0.069227 -0.22995 -0.23847 0.022832 0.1982 -0.010396 -0.2799 0.16423 0.24918 -0.19901 -0.072319 0.25116 -0.2144 0.058289 -0.25087 0.12554 -0.29057 0.11759 -0.12851 -0.10624 -0.067279 -0.041269 -0.34401 0.29927 0.22645 0.084193 0.21328 -0.12889 -0.030322 -0.23079 -0.031917 -0.031391 -0.21709 -0.0047808 -0.23231 0.3642 -0.25171 -0.082748 -0.014564 -0.073591 0.16992 -0.031597 -0.17184 0.27836 0.18565 0.060808 -0.13415 0.014353 -0.24976 -0.010386 0.056518 0.069167 0.041599 0.13731 0.081582 0.32033 -0.14526 0.051496 0.058668 0.17448 0.12765 0.049097 -0.15763 0.43976 0.016143 -0.13607 0.064751 0.032255 0.1603 0.29167 -0.35072 -0.32178 0.081303 0.19842 0.24635 -0.3404 0.056902 -0.19512 0.018003 0.27369 0.031513 -0.26161 
1ce -0.089021 0.15185 -0.064655 -0.2216 0.1564 -0.048344 0.041549 0.011711 0.36405 0.49435 -0.04493 -0.017021 -0.29689 0.40295 -0.10734 -0.19286 -0.1438 0.18008 0.074878 -0.26044 -0.27449 0.025633 0.22519 -0.0084685 -0.3191 0.18359 0.27892 -0.22704 -0.081174 0.28259 -0.23393 0.059439 -0.28706 0.14248 -0.333 0.12934 -0.15205 -0.11804 -0.073287 -0.043535 -0.3917 0.32864 0.2566 0.093863 0.24222 -0.13958 -0.033602 -0.26264 -0.039997 -0.040843 -0.23934 0.0027818 -0.25972 0.40806 -0.27418 -0.10286 -0.021601 -0.083872 0.18228 -0.041679 -0.2005 0.30381 0.2118 0.063514 -0.15077 0.020344 -0.28742 -0.01309 0.065144 0.077539 0.043887 0.14703 0.084504 0.35677 -0.15551 0.051989 0.063583 0.19596 0.14179 0.059733 -0.16984 0.49734 0.0058069 -0.14387 0.068196 0.041521 0.18077 0.31911 -0.38704 -0.36061 0.098831 0.21856 0.28245 -0.37325 0.066285 -0.22382 0.018796 0.31379 0.02933 -0.28843 
giri -0.098183 0.16902 -0.069709 -0.24029 0.17555 -0.053477 0.036383 0.012712 0.4062 0.54384 -0.045724 -0.020714 -0.3278 0.43977 -0.12885 -0.20796 -0.15875 0.20269 0.091967 -0.29204 -0.30702 0.030645 0.25562 -0.011459 -0.34857 0.20176 0.30893 -0.24492 -0.095851 0.31042 -0.2556 0.063851 -0.33049 0.15329 -0.3734 0.13692 -0.15999 -0.13754 -0.094721 -0.057843 -0.42627 0.36947 0.28419 0.1118 0.2571 -0.15201 -0.045188 -0.29156 -0.051696 -0.042572 -0.27013 0.00059849 -0.28995 0.45926 -0.30616 -0.11705 -0.022227 -0.086904 0.20456 -0.038814 -0.21766 0.33869 0.23876 0.077779 -0.16966 0.021759 -0.31391 -0.0087733 0.086576 0.077776 0.04929 0.16751 0.092449 0.39677 -0.1756 0.06226 0.063807 0.23029 0.15593 0.068481 -0.19012 0.55315 0.01318 -0.16463 0.080154 0.036342 0.19829 0.3669 -0.42662 -0.40111 0.11028 0.24434 0.30968 -0.41682 0.06995 -0.25536 0.024778 0.35218 0.034233 -0.31388 
guruc -0.077478 0.14413 -0.056499 -0.21381 0.15082 -0.048365 0.03459 0.018629 0.34681 0.47406 -0.042819 -0.016546 -0.28317 0.38416 -0.10607 -0.18394 -0.13314 0.17153 0.073419 -0.24833 -0.25957 0.02938 0.22202 -0.010145 -0.30084 0.17638 0.26915 -0.22359 -0.079315 0.27475 -0.2265 0.060051 -0.27731 0.13861 -0.32683 0.12556 -0.13797 -0.11543 -0.074669 -0.048451 -0.37319 0.32465 0.24733 0.093723 0.23187 -0.13111 -0.036102 -0.25472 -0.043884 -0.03495 -0.23308 0.0026031 -0.2537 0.39653 -0.26569 -0.093287 -0.01809 -0.077419 0.17705 -0.034838 -0.19509 0.29407 0.20093 0.063601 -0.14426 0.014812 -0.27352 -0.01321 0.066986 0.074713 0.041899 0.14658 0.079765 0.34191 -0.15596 0.052277 0.06272 0.19186 0.13698 0.058784 -0.16265 0.4769 0.013604 -0.14269 0.072134 0.034558 0.17815 0.31153 -0.37284 -0.35357 0.091161 0.21207 0.26572 -0.35833 0.06816 -0.21665 0.016998 0.30334 0.031015 -0.28061 
geme -0.090808 0.16255 -0.064048 -0.23307 0.16485 -0.053766 0.039052 0.015913 0.38769 0.52777 -0.045795 -0.010906 -0.30747 0.42383 -0.12492 -0.19903 -0.14859 0.1924 0.084391 -0.28298 -0.2881 0.025104 0.24823 -0.013935 -0.33661 0.19636 0.2976 -0.24178 -0.089138 0.30096 -0.25128 0.066817 -0.30889 0.14909 -0.36213 0.13664 -0.15278 -0.13248 -0.08656 -0.048136 -0.4135 0.35656 0.28023 0.10901 0.25372 -0.14566 -0.035861 -0.28068 -0.044431 -0.03843 -0.26293 -0.00012769 -0.27762 0.44231 -0.2995 -0.10883 -0.017808 -0.087053 0.19517 -0.039108 -0.21203 0.32868 0.22301 0.072053 -0.1618 0.016043 -0.30266 -0.013634 0.079615 0.080021 0.044988 0.16664 0.090136 0.38367 -0.17381 0.061338 0.062978 0.21864 0.15061 0.062572 -0.17936 0.53032 0.017668 -0.16187 0.075677 0.035237 0.19692 0.3484 -0.41107 -0.38973 0.10626 0.23958 0.29354 -0.40339 0.075334 -0.24144 0.021765 0.33477 0.031555 -0.30852 
dubsar -0.065161 0.10942 -0.044639 -0.1566 0.11595 -0.032848 0.021775 0.009588 0.26642 0.35721 -0.030812 -0.0093357 -0.21083 0.28821 -0.081186 -0.13795 -0.10108 0.13066 0.055988 -0.18933 -0.19843 0.017986 0.16579 -0.0071447 -0.22351 0.13197 0.20273 -0.16321 -0.059844 0.20391 -0.1619 0.043878 -0.21056 0.10327 -0.24086 0.089824 -0.10407 -0.088518 -0.061373 -0.033563 -0.27262 0.24081 0.18507 0.071224 0.17071 -0.097544 -0.025736 -0.19353 -0.031057 -0.026861 -0.17407 0.0006031 -0.18525 0.29904 -0.19978 -0.073362 -0.01532 -0.058274 0.13403 -0.026302 -0.14247 0.21857 0.15306 0.048458 -0.10997 0.012479 -0.19977 -0.0076489 0.057553 0.052112 0.028392 0.10972 0.062543 0.25916 -0.11402 0.038834 0.043119 0.1484 0.10291 0.04637 -0.12471 0.35932 0.0075597 -0.10564 0.046599 0.023881 0.13098 0.23666 -0.27772 -0.26377 0.070344 0.15937 0.19811 -0.27052 0.047031 -0.16489 0.016515 0.22379 0.022719 -0.2046 
ca -0.10984 0.17325 -0.073336 -0.26129 0.20158 -0.059543 0.042363 0.020443 0.44624 0.59654 -0.042578 -0.028007 -0.34997 0.48894 -0.14234 -0.23292 -0.1602 0.21973 0.10039 -0.32234 -0.33771 0.029153 0.29059 -0.012721 -0.38366 0.2198 0.34181 -0.26859 -0.10274 0.3462 -0.27407 0.065253 -0.3685 0.1726 -0.40091 0.14796 -0.17585 -0.14471 -0.092393 -0.057273 -0.45952 0.40106 0.31911 0.11484 0.28656 -0.15906 -0.045432 -0.32124 -0.054946 -0.042363 -0.29345 0.0033455 -0.31526 0.50485 -0.33657 -0.13043 -0.019388 -0.10275 0.22381 -0.039841 -0.23159 0.36824 0.25893 0.084899 -0.18862 0.02113 -0.35002 -0.011556 0.09212 0.091018 0.057035 0.17864 0.089965 0.43019 -0.18984 0.073117 0.069198 0.24018 0.17075 0.07611 -0.21217 0.60888 0.012276 -0.18271 0.078843 0.041947 0.21541 0.39666 -0.47475 -0.44844 0.11799 0.26316 0.33599 -0.45472 0.080941 -0.28313 0.036338 0.38143 0.042399 -0.33288 
ugula -0.07839 0.13351 -0.049831 -0.18926 0.1374 -0.040685 0.024064 0.014272 0.32071 0.4342 -0.03548 -0.012524 -0.25766 0.34926 -0.09944 -0.16639 -0.12661 0.16097 0.071294 -0.23626 -0.24229 0.024473 0.20633 -0.0061958 -0.2755 0.16163 0.24686 -0.1976 -0.071498 0.24784 -0.20198 0.050403 -0.26086 0.12354 -0.29637 0.10997 -0.1252 -0.10945 -0.074263 -0.042459 -0.3372 0.29026 0.22568 0.086092 0.20372 -0.11756 -0.03236 -0.23163 -0.037834 -0.031372 -0.21581 -0.00072071 -0.22344 0.36219 -0.2449 -0.092286 -0.016895 -0.070251 0.16493 -0.028046 -0.16893 0.2701 0.18557 0.061524 -0.137 0.019483 -0.24395 -0.011555 0.068464 0.065045 0.037679 0.13137 0.073314 0.31647 -0.13913 0.052498 0.053931 0.18016 0.12507 0.053794 -0.15023 0.43575 0.0076239 -0.12768 0.059412 0.024651 0.15721 0.28698 -0.33808 -0.31913 0.085932 0.19445 0.24396 -0.32965 0.054887 -0.19995 0.022378 0.27846 0.027263 -0.24837 
la -0.10464 0.19128 -0.076614 -0.27799 0.19839 -0.062193 0.044331 0.014875 0.45724 0.6144 -0.050049 -0.01259 -0.36645 0.50162 -0.13986 -0.24276 -0.18065 0.22788 0.097701 -0.32891 -0.33884 0.032252 0.28747 -0.010013 -0.39473 0.22808 0.35209 -0.28151 -0.10577 0.35255 -0.28882 0.081014 -0.36483 0.18232 -0.4199 0.15532 -0.18167 -0.15254 -0.10509 -0.063092 -0.48178 0.416 0.31435 0.11582 0.28741 -0.16932 -0.051077 -0.33355 -0.052218 -0.039933 -0.30594 0.0033585 -0.3221 0.50718 -0.34904 -0.12873 -0.027586 -0.10433 0.22165 -0.051151 -0.24252 0.38507 0.26357 0.086156 -0.19051 0.025115 -0.34875 -0.018639 0.092132 0.096685 0.056717 0.1928 0.10272 0.45312 -0.19839 0.068424 0.073017 0.26032 0.16971 0.073349 -0.20623 0.62343 0.019827 -0.18576 0.089299 0.041303 0.2289 0.40963 -0.47661 -0.45488 0.1252 0.27574 0.35447 -0.47225 0.0803 -0.28178 0.028856 0.39717 0.039213 -0.35643 
kuc -0.061346 0.11884 -0.048532 -0.1761 0.12411 -0.040937 0.02001 0.012525 0.28459 0.38924 -0.031068 -0.01134 -0.23664 0.31506 -0.086946 -0.15467 -0.11054 0.13893 0.060615 -0.2041 -0.20904 0.022115 0.18083 -0.0073937 -0.24909 0.14017 0.21948 -0.17452 -0.06053 0.22322 -0.1794 0.053911 -0.22114 0.11692 -0.26892 0.097116 -0.11127 -0.095855 -0.070291 -0.038125 -0.30603 0.26758 0.20274 0.07578 0.19435 -0.10657 -0.028921 -0.20718 -0.035002 -0.026658 -0.19448 0.0080261 -0.21117 0.32411 -0.21229 -0.076858 -0.013654 -0.067497 0.14724 -0.022008 -0.16045 0.23825 0.16858 0.054171 -0.11291 0.0072755 -0.21426 -0.0073855 0.054805 0.054336 0.029095 0.11866 0.066715 0.27851 -0.12483 0.041864 0.045322 0.16249 0.11729 0.051508 -0.13106 0.39422 0.014327 -0.11214 0.060929 0.028831 0.14537 0.25275 -0.30264 -0.28373 0.077475 0.17126 0.2135 -0.28832 0.05964 -0.17473 0.013678 0.24586 0.034892 -0.21967 
a -0.073782 0.13292 -0.055165 -0.19223 0.13755 -0.036953 0.031409 0.016292 0.33767 0.43756 -0.037543 -0.014013 -0.26911 0.35784 -0.10564 -0.17408 -0.12622 0.16772 0.069704 -0.22659 -0.24943 0.02354 0.20639 -0.01044 -0.28875 0.1685 0.24311 -0.1952 -0.069691 0.25121 -0.21655 0.060805 -0.26539 0.12285 -0.30489 0.11436 -0.13245 -0.1106 -0.075206 -0.039397 -0.34864 0.28693 0.23773 0.096051 0.20384 -0.12481 -0.036911 -0.23199 -0.050509 -0.035787 -0.21808 -0.007452 -0.22397 0.3712 -0.24277 -0.10525 -0.01773 -0.073944 0.16293 -0.035027 -0.17468 0.27531 0.18586 0.060295 -0.13993 0.015047 -0.25808 -0.010252 0.068554 0.069916 0.032354 0.13654 0.079194 0.32203 -0.14499 0.040013 0.055749 0.18972 0.12265 0.056299 -0.15863 0.44545 0.0099284 -0.12534 0.065368 0.030463 0.1634 0.28604 -0.35038 -0.32426 0.085601 0.19885 0.24591 -0.33314 0.0618 -0.20803 0.016666 0.28152 0.033948 -0.25042 
urima -0.11471 0.17947 -0.06762 -0.25007 0.19623 -0.056001 0.025193 0.011866 0.4382 0.59484 -0.042418 -0.017133 -0.34789 0.47032 -0.13974 -0.24101 -0.16247 0.21109 0.098172 -0.32424 -0.33687 0.023641 0.28527 -0.0056972 -0.37404 0.23412 0.33287 -0.2665 -0.1014 0.3456 -0.26846 0.0676 -0.36768 0.16676 -0.39273 0.1386 -0.1859 -0.14665 -0.098151 -0.051808 -0.45386 0.39417 0.31684 0.1186 0.27184 -0.15078 -0.049296 -0.31356 -0.052269 -0.054621 -0.28406 0.0012008 -0.30279 0.50126 -0.33516 -0.13419 -0.023238 -0.097419 0.22171 -0.037952 -0.22543 0.35214 0.25547 0.087111 -0.18607 0.032 -0.33947 -0.01191 0.10451 0.086156 0.052154 0.18163 0.090045 0.43631 -0.18273 0.063608 0.066524 0.23808 0.17343 0.07639 -0.2068 0.59672 0.0081047 -0.18248 0.081898 0.0417 0.21287 0.40613 -0.46646 -0.43545 0.12583 0.26206 0.33829 -0.44885 0.072484 -0.27203 0.039001 0.37913 0.034118 -0.33707 
en -0.16309 0.24588 -0.074112 -0.32157 0.24346 -0.051664 0.019605 0.020596 0.56129 0.74405 -0.045054 -0.026904 -0.44304 0.59589 -0.18486 -0.28652 -0.20233 0.26389 0.13391 -0.40606 -0.42119 0.038691 0.36383 -0.0084092 -0.45811 0.30133 0.42433 -0.32324 -0.12096 0.42674 -0.33514 0.083119 -0.46822 0.20459 -0.49008 0.17923 -0.23377 -0.19667 -0.13269 -0.068993 -0.55508 0.47365 0.38227 0.14077 0.33548 -0.19576 -0.062095 -0.39836 -0.08083 -0.080544 -0.36017 -0.0041764 -0.36521 0.61944 -0.41105 -0.17616 -0.036762 -0.12164 0.26635 -0.066482 -0.27436 0.43755 0.31604 0.10526 -0.23853 0.0499 -0.42613 -0.020227 0.14048 0.10194 0.065421 0.21551 0.12977 0.52075 -0.22524 0.072897 0.086547 0.29204 0.19679 0.092971 -0.24214 0.74909 -0.0034035 -0.23973 0.10234 0.056769 0.26567 0.50242 -0.58172 -0.53425 0.15889 0.32411 0.41316 -0.56688 0.082663 -0.33152 0.056949 0.47197 0.041999 -0.4176 
aca -0.12661 0.20032 -0.078398 -0.28612 0.21011 -0.063998 0.040629 0.015897 0.48616 0.65355 -0.05224 -0.02363 -0.38714 0.52988 -0.14997 -0.24761 -0.18058 0.24333 0.11075 -0.35456 -0.36847 0.036393 0.31262 -0.0016355 -0.41308 0.24555 0.3818 -0.30301 -0.10739 0.37698 -0.30773 0.075352 -0.39302 0.18573 -0.44901 0.16325 -0.19047 -0.16152 -0.10879 -0.067489 -0.50922 0.43884 0.34588 0.13617 0.30927 -0.17817 -0.044652 -0.35043 -0.06134 -0.051554 -0.3204 0.0014805 -0.34756 0.54778 -0.37175 -0.14073 -0.019329 -0.10785 0.23783 -0.047867 -0.26209 0.39914 0.28466 0.095237 -0.19955 0.025908 -0.38371 -0.015681 0.10058 0.10024 0.057724 0.20034 0.098177 0.46541 -0.21511 0.064716 0.078508 0.27643 0.18427 0.082149 -0.23675 0.65812 0.0099468 -0.19799 0.085616 0.036654 0.23147 0.43333 -0.51343 -0.48946 0.13213 0.29066 0.36863 -0.49356 0.086851 -0.30819 0.035079 0.41327 0.049658 -0.37283 
usa -0.10806 0.16788 -0.057639 -0.22072 0.17244 -0.043261 0.023286 0.006082 0.3898 0.52449 -0.03686 -0.015384 -0.3018 0.42127 -0.12915 -0.21071 -0.13852 0.18533 0.084435 -0.28513 -0.29645 0.019646 0.25174 -0.001744 -0.32891 0.21246 0.29351 -0.23013 -0.090496 0.30405 -0.23878 0.053728 -0.32938 0.14459 -0.33927 0.12096 -0.16059 -0.13012 -0.09009 -0.048308 -0.3979 0.34186 0.27204 0.097538 0.23507 -0.13425 -0.042148 -0.2739 -0.052748 -0.051745 -0.24408 -0.00061031 -0.25904 0.44285 -0.29335 -0.12175 -0.02194 -0.086089 0.19359 -0.035753 -0.19916 0.31247 0.22087 0.077549 -0.16149 0.030642 -0.29962 -0.0094818 0.087848 0.077202 0.045373 0.16293 0.07552 0.38477 -0.16222 0.056724 0.056447 0.21028 0.14914 0.066373 -0.18209 0.52937 0.0058764 -0.16237 0.073614 0.035547 0.18501 0.35555 -0.40807 -0.38593 0.10621 0.2267 0.29255 -0.39435 0.067007 -0.23837 0.036146 0.33711 0.030957 -0.29679 
kalga -0.059805 0.10092 -0.042743 -0.14111 0.101 -0.03064 0.020133 0.0066497 0.23976 0.32033 -0.024979 -0.0090846 -0.19288 0.2598 -0.077388 -0.12415 -0.093555 0.11774 0.055436 -0.17568 -0.17756 0.016495 0.15274 -0.0052227 -0.20221 0.1188 0.18032 -0.14869 -0.058582 0.1869 -0.14824 0.041434 -0.19532 0.089192 -0.21544 0.084717 -0.095064 -0.079349 -0.052051 -0.030524 -0.25309 0.21452 0.16672 0.064607 0.15141 -0.08625 -0.023705 -0.17209 -0.028363 -0.026762 -0.15903 0.0010621 -0.17137 0.27118 -0.18032 -0.071591 -0.013959 -0.050296 0.11823 -0.022495 -0.12555 0.19628 0.13825 0.046913 -0.099256 0.01186 -0.18215 -0.0087338 0.046381 0.046916 0.028407 0.10058 0.050732 0.23284 -0.1058 0.036361 0.039703 0.13358 0.093287 0.040468 -0.112 0.32624 0.0030899 -0.095648 0.04554 0.017952 0.11725 0.21771 -0.25034 -0.2367 0.063073 0.14196 0.1814 -0.24534 0.043949 -0.1476 0.017523 0.20923 0.018711 -0.18454 
an -0.064846 0.11015 -0.049401 -0.15382 0.11416 -0.037873 0.018382 0.0047737 0.27001 0.3668 -0.025813 -0.011315 -0.20822 0.28575 -0.085534 -0.15052 -0.11235 0.12213 0.063562 -0.20013 -0.20129 0.013636 0.17173 -0.0064496 -0.23319 0.14714 0.20825 -0.15659 -0.054347 0.21111 -0.16825 0.048715 -0.22391 0.10138 -0.24022 0.096499 -0.11396 -0.090807 -0.06731 -0.034881 -0.28401 0.24059 0.19549 0.075268 0.16773 -0.10272 -0.033621 -0.18796 -0.030847 -0.024395 -0.17757 -0.0050966 -0.1842 0.31679 -0.20001 -0.076118 -0.015635 -0.057565 0.13954 -0.027917 -0.13959 0.21833 0.15554 0.048382 -0.12218 0.010375 -0.197 -0.010566 0.061406 0.056244 0.023651 0.11785 0.051459 0.26516 -0.11632 0.038818 0.038291 0.14752 0.1155 0.046011 -0.12896 0.36544 0.00063706 -0.11034 0.053481 0.025522 0.13024 0.2467 -0.28491 -0.25785 0.070306 0.16392 0.20127 -0.27898 0.048436 -0.16251 0.016155 0.23014 0.016642 -0.20295 
cu -0.094226 0.15957 -0.055715 -0.22789 0.16167 -0.054879 0.026063 0.014375 0.39106 0.52883 -0.044256 -0.015712 -0.31606 0.42427 -0.11907 -0.20352 -0.15264 0.19303 0.091151 -0.2922 -0.28836 0.019461 0.24845 -0.0079025 -0.33976 0.19457 0.29995 -0.24468 -0.08639 0.30151 -0.24699 0.065557 -0.31515 0.15414 -0.35717 0.13572 -0.15578 -0.1324 -0.086548 -0.050869 -0.41239 0.35228 0.27711 0.10106 0.24105 -0.1483 -0.04212 -0.27982 -0.046255 -0.04158 -0.24967 -0.00058786 -0.28486 0.43629 -0.29072 -0.10729 -0.018861 -0.082975 0.20385 -0.031812 -0.21117 0.32555 0.22796 0.070564 -0.15613 0.021407 -0.30104 -0.015188 0.084635 0.08523 0.051519 0.16727 0.096015 0.38018 -0.16733 0.064087 0.059986 0.22097 0.14881 0.061719 -0.18391 0.53033 0.0096033 -0.15788 0.073411 0.035425 0.19945 0.35223 -0.41496 -0.385 0.10281 0.23059 0.29792 -0.39701 0.081073 -0.23766 0.021902 0.33952 0.034186 -0.30195 
ubda -0.057991 0.10062 -0.048735 -0.13292 0.10162 -0.029791 0.015801 -0.0040928 0.23811 0.31711 -0.024052 -0.0074985 -0.17884 0.24605 -0.0724 -0.1244 -0.094662 0.10954 0.053964 -0.16978 -0.1735 0.011549 0.14342 -0.0064903 -0.19947 0.116 0.176 -0.13746 -0.055824 0.18096 -0.14076 0.041942 -0.19354 0.092689 -0.20588 0.07954 -0.096601 -0.079422 -0.057966 -0.027661 -0.24385 0.2073 0.16617 0.066983 0.1466 -0.086565 -0.024001 -0.16708 -0.023175 -0.019482 -0.15173 -0.00049045 -0.16155 0.26587 -0.1746 -0.067634 -0.015558 -0.050471 0.11804 -0.020443 -0.12113 0.19059 0.13044 0.043679 -0.10506 0.011431 -0.17342 -0.0070087 0.050631 0.037908 0.022627 0.10113 0.045165 0.22287 -0.10278 0.033172 0.031465 0.12755 0.096901 0.04143 -0.11367 0.31931 -0.0017783 -0.094597 0.04349 0.021816 0.10985 0.21448 -0.24322 -0.23027 0.067131 0.14107 0.17009 -0.24161 0.043864 -0.14203 0.016533 0.19633 0.014085 -0.17186 
nigkak -0.06518 0.11119 -0.045016 -0.15646 0.1184 -0.03594 0.022309 0.011281 0.26416 0.35901 -0.030325 -0.012143 -0.21257 0.29215 -0.084101 -0.13862 -0.10226 0.12968 0.060137 -0.19134 -0.20029 0.017829 0.1686 -0.004813 -0.22753 0.13274 0.2057 -0.16118 -0.061375 0.20342 -0.16562 0.043798 -0.21298 0.10114 -0.24538 0.091804 -0.10402 -0.089367 -0.060394 -0.033156 -0.27979 0.24046 0.18699 0.073441 0.16949 -0.09818 -0.029067 -0.18923 -0.034788 -0.030155 -0.17731 0.00068104 -0.18824 0.30098 -0.20187 -0.076352 -0.013626 -0.060304 0.13429 -0.027447 -0.14108 0.22075 0.15333 0.051987 -0.11151 0.014022 -0.20363 -0.010657 0.05298 0.05455 0.033433 0.11004 0.062203 0.25948 -0.1139 0.042828 0.042716 0.14923 0.10333 0.045574 -0.12392 0.36188 0.0095933 -0.10798 0.050257 0.022101 0.13039 0.23991 -0.27727 -0.26392 0.071669 0.1593 0.20277 -0.27154 0.047345 -0.16645 0.017601 0.23088 0.019968 -0.2064 
n -0.075399 0.12431 -0.047994 -0.17358 0.13116 -0.039794 0.018182 0.0067829 0.29709 0.40016 -0.030757 -0.010223 -0.23987 0.32215 -0.092697 -0.1524 -0.11158 0.15146 0.062119 -0.22391 -0.22887 0.019884 0.19456 -0.0073204 -0.25516 0.15679 0.22091 -0.18514 -0.062299 0.23075 -0.18621 0.048783 -0.23698 0.11828 -0.27653 0.108 -0.12333 -0.10235 -0.06641 -0.042665 -0.31453 0.27144 0.20966 0.086707 0.19608 -0.11893 -0.02997 -0.21521 -0.036382 -0.032058 -0.19422 -0.0069031 -0.21525 0.34247 -0.22986 -0.080596 -0.01821 -0.067435 0.14597 -0.023028 -0.15521 0.24437 0.164 0.057982 -0.12103 0.01556 -0.24064 -0.0071647 0.058616 0.054241 0.034164 0.12385 0.061668 0.2981 -0.13544 0.047326 0.045442 0.16758 0.11861 0.048908 -0.14478 0.40727 0.0062494 -0.1289 0.056182 0.018688 0.14057 0.26828 -0.3154 -0.29592 0.080497 0.18289 0.21963 -0.30545 0.058275 -0.18135 0.015948 0.24923 0.031352 -0.23627 
ninda -0.11152 0.19009 -0.073992 -0.27559 0.20078 -0.06182 0.037301 0.018451 0.45766 0.62518 -0.044242 -0.017941 -0.3696 0.50512 -0.13661 -0.24092 -0.17691 0.22482 0.10401 -0.33328 -0.34662 0.024628 0.28893 -0.006456 -0.39398 0.23377 0.35757 -0.28671 -0.10733 0.35751 -0.28679 0.077109 -0.36258 0.17982 -0.42203 0.16024 -0.18493 -0.15729 -0.10791 -0.063846 -0.48746 0.42406 0.32008 0.12264 0.30054 -0.17221 -0.04519 -0.33421 -0.055846 -0.047331 -0.30799 -7.2192e-05 -0.32889 0.52417 -0.34947 -0.12796 -0.027171 -0.10302 0.235 -0.040983 -0.25072 0.37915 0.269 0.087683 -0.19216 0.020618 -0.35172 -0.015627 0.096545 0.093963 0.055211 0.19224 0.10907 0.44919 -0.20477 0.071783 0.073254 0.25936 0.18452 0.075 -0.21289 0.62612 0.015211 -0.18691 0.088246 0.04122 0.23167 0.41933 -0.4837 -0.45593 0.12266 0.27481 0.35082 -0.47273 0.086561 -0.28293 0.029673 0.39839 0.038134 -0.35429 
limmuba -0.050496 0.091928 -0.043664 -0.12898 0.093587 -0.025645 0.020059 0.00030473 0.22373 0.29246 -0.018829 -0.0038775 -0.17123 0.23072 -0.064725 -0.12049 -0.09221 0.10243 0.047346 -0.1585 -0.16154 0.013138 0.13589 -0.0073511 -0.18671 0.11488 0.16466 -0.13135 -0.049022 0.16496 -0.13202 0.034226 -0.17828 0.084768 -0.19494 0.075244 -0.089046 -0.072283 -0.04981 -0.024873 -0.23054 0.19928 0.15225 0.06429 0.14276 -0.082545 -0.026607 -0.15194 -0.02443 -0.021604 -0.13958 -0.0020792 -0.14743 0.2559 -0.16442 -0.060839 -0.013727 -0.045524 0.10949 -0.017859 -0.10918 0.17362 0.12467 0.036191 -0.096199 0.006851 -0.16209 -0.0099594 0.0439 0.043472 0.022335 0.092066 0.043234 0.20951 -0.098461 0.031254 0.032367 0.11872 0.093549 0.038888 -0.10281 0.29346 -0.0013584 -0.086101 0.042999 0.021559 0.099509 0.19622 -0.23072 -0.21339 0.059091 0.13195 0.16307 -0.2298 0.039428 -0.13508 0.01507 0.19066 0.014675 -0.16318 
ARADzu -0.026676 0.043194 -0.017353 -0.059373 0.044767 -0.011335 0.0075683 -0.00015765 0.10195 0.13523 -0.0088765 -0.0041676 -0.079403 0.11072 -0.032788 -0.054157 -0.036855 0.049479 0.022182 -0.072891 -0.075644 0.0078497 0.063515 -0.0024687 -0.086399 0.050769 0.075805 -0.061099 -0.024571 0.078641 -0.062719 0.015713 -0.08393 0.037644 -0.089151 0.032512 -0.039675 -0.034993 -0.020488 -0.010204 -0.10515 0.091491 0.06858 0.027504 0.061918 -0.034371 -0.010625 -0.072749 -0.011987 -0.011583 -0.066739 -0.0012171 -0.071467 0.11373 -0.075518 -0.028503 -0.0036137 -0.021673 0.053005 -0.0099677 -0.052867 0.083152 0.056539 0.01992 -0.040855 0.006689 -0.07849 -0.0012529 0.021445 0.021134 0.01171 0.042112 0.023166 0.099219 -0.044166 0.015951 0.015077 0.053245 0.03878 0.015383 -0.046516 0.13991 0.0023751 -0.042063 0.018634 0.0093263 0.048225 0.090477 -0.10708 -0.10176 0.02514 0.060474 0.077365 -0.10266 0.017552 -0.063427 0.0084663 0.087328 0.0095015 -0.076655 
idab -0.076596 0.12731 -0.05116 -0.17684 0.13354 -0.041106 0.01805 0.0094592 0.30469 0.40832 -0.030539 -0.016139 -0.23763 0.32769 -0.094386 -0.15717 -0.11645 0.14948 0.071075 -0.22318 -0.22426 0.020983 0.19123 -0.006841 -0.25424 0.1523 0.23556 -0.18453 -0.067389 0.23746 -0.18991 0.051969 -0.24652 0.11841 -0.2747 0.09991 -0.12108 -0.10206 -0.068748 -0.039262 -0.31669 0.2732 0.21435 0.081214 0.19077 -0.11238 -0.030103 -0.2213 -0.036768 -0.031712 -0.20161 -0.0051871 -0.2116 0.34439 -0.2283 -0.08708 -0.018347 -0.067154 0.15582 -0.027383 -0.16119 0.25368 0.17372 0.060478 -0.12642 0.013129 -0.23478 -0.011633 0.062631 0.056852 0.037469 0.12184 0.068114 0.29668 -0.13153 0.049571 0.049911 0.17119 0.11582 0.052781 -0.13825 0.41307 0.008113 -0.12218 0.056981 0.022429 0.14626 0.27608 -0.32024 -0.30202 0.083059 0.18354 0.22578 -0.31546 0.053366 -0.18735 0.021838 0.26083 0.02939 -0.23536 
lu -0.11863 0.18145 -0.071626 -0.24582 0.19185 -0.05583 0.033191 0.016097 0.43751 0.5813 -0.046097 -0.017711 -0.34496 0.47428 -0.13709 -0.22804 -0.16659 0.20838 0.095801 -0.31994 -0.33358 0.021475 0.28103 -0.0041844 -0.37543 0.22286 0.3332 -0.26421 -0.11047 0.33806 -0.27055 0.0643 -0.35554 0.16454 -0.39773 0.14965 -0.18355 -0.14031 -0.10631 -0.058875 -0.45822 0.39018 0.30757 0.11434 0.26801 -0.15995 -0.042431 -0.311 -0.058684 -0.049567 -0.27732 -0.0012057 -0.29577 0.48986 -0.32429 -0.12242 -0.025807 -0.096074 0.22375 -0.046272 -0.2256 0.35662 0.24851 0.082422 -0.18834 0.029363 -0.33102 -0.012857 0.092874 0.083813 0.057073 0.18201 0.094771 0.42843 -0.18151 0.066361 0.067442 0.24212 0.1674 0.074116 -0.20073 0.59214 0.016388 -0.17179 0.086719 0.041534 0.2087 0.39753 -0.45326 -0.43317 0.12634 0.25827 0.33253 -0.44834 0.069034 -0.27039 0.030902 0.38066 0.027785 -0.33458 
GAN -0.075641 0.13819 -0.060607 -0.19151 0.14041 -0.036484 0.028273 0.011468 0.3169 0.43223 -0.035392 -0.010971 -0.25658 0.34629 -0.095309 -0.16755 -0.12475 0.1561 0.073747 -0.23329 -0.23807 0.019563 0.20223 -0.0093241 -0.2745 0.15628 0.24391 -0.19691 -0.067057 0.24342 -0.20134 0.05419 -0.25639 0.12299 -0.29569 0.10841 -0.12387 -0.10631 -0.073239 -0.04839 -0.33299 0.2926 0.22897 0.086169 0.20417 -0.11902 -0.034548 -0.23588 -0.036934 -0.030488 -0.21706 -0.0039438 -0.23164 0.36585 -0.23927 -0.093079 -0.018477 -0.069265 0.16433 -0.030805 -0.17428 0.27017 0.18311 0.056259 -0.13405 0.020107 -0.24828 -0.013656 0.066137 0.068518 0.037654 0.13007 0.069524 0.3107 -0.14619 0.044127 0.055366 0.18038 0.1205 0.052998 -0.14908 0.42956 0.015718 -0.13196 0.062244 0.027853 0.15804 0.28848 -0.33471 -0.31862 0.086419 0.19322 0.24902 -0.32873 0.056776 -0.20403 0.022654 0.27606 0.028536 -0.24921 
muku -0.084865 0.13811 -0.05014 -0.18851 0.14479 -0.040171 0.023857 0.012965 0.32632 0.44168 -0.035263 -0.016041 -0.25999 0.35588 -0.10159 -0.17273 -0.12365 0.16426 0.073998 -0.23836 -0.24891 0.018639 0.21507 -0.0034223 -0.28007 0.17057 0.25165 -0.19838 -0.072528 0.25626 -0.20719 0.051902 -0.27066 0.12566 -0.29403 0.1075 -0.1336 -0.10941 -0.07102 -0.041137 -0.33729 0.29654 0.23337 0.084158 0.2073 -0.12116 -0.033457 -0.23469 -0.040863 -0.038826 -0.21265 -0.00090995 -0.2278 0.37429 -0.24859 -0.099169 -0.016255 -0.074248 0.16618 -0.029766 -0.17134 0.26535 0.19079 0.061562 -0.13805 0.020643 -0.25483 -0.0090095 0.074462 0.062734 0.038376 0.13313 0.070614 0.3249 -0.13725 0.047443 0.053629 0.17892 0.12333 0.06031 -0.1552 0.44595 0.0074745 -0.13563 0.060437 0.030688 0.16072 0.29857 -0.34677 -0.32624 0.090271 0.19534 0.25029 -0.33445 0.057812 -0.2036 0.026487 0.28719 0.026525 -0.2535 
bahun -0.11801 0.17913 -0.052273 -0.21812 0.179 -0.033631 0.012419 0.012656 0.38922 0.51886 -0.029236 -0.022575 -0.30513 0.41504 -0.12849 -0.20277 -0.1345 0.18252 0.09137 -0.28177 -0.29279 0.01842 0.25034 0.0011457 -0.31476 0.21693 0.29706 -0.2271 -0.085488 0.29954 -0.23465 0.05145 -0.3278 0.14252 -0.34116 0.11919 -0.16872 -0.13545 -0.087973 -0.049163 -0.38966 0.32762 0.25965 0.086185 0.22288 -0.13274 -0.041658 -0.27918 -0.052156 -0.057399 -0.2451 -0.0021981 -0.25315 0.42993 -0.28403 -0.13119 -0.024643 -0.090027 0.17969 -0.050023 -0.18569 0.30145 0.21398 0.077001 -0.16697 0.031072 -0.29959 -0.011797 0.089855 0.07047 0.046941 0.14889 0.083712 0.37204 -0.1588 0.056964 0.059081 0.20459 0.13454 0.066823 -0.17323 0.51284 -0.0044551 -0.1692 0.073635 0.038221 0.18079 0.3437 -0.40728 -0.37454 0.11286 0.2224 0.29173 -0.39338 0.053171 -0.22681 0.041644 0.32626 0.02571 -0.29112 
mac -0.14611 0.24393 -0.085268 -0.3248 0.24893 -0.068955 0.041948 0.017842 0.56022 0.75507 -0.056245 -0.019267 -0.44669 0.61319 -0.17743 -0.29119 -0.20162 0.27277 0.12362 -0.40824 -0.41768 0.034306 0.36001 -0.0077933 -0.47725 0.2879 0.427 -0.33208 -0.13068 0.42934 -0.35295 0.08388 -0.45512 0.20806 -0.50151 0.18719 -0.23297 -0.191 -0.12947 -0.076683 -0.579 0.50299 0.38101 0.14141 0.33893 -0.1997 -0.057431 -0.39751 -0.068021 -0.065346 -0.36516 0.007026 -0.37911 0.62939 -0.41131 -0.16854 -0.039972 -0.12542 0.27671 -0.054317 -0.28547 0.4527 0.3219 0.10819 -0.23646 0.043872 -0.43048 -0.014421 0.11625 0.1173 0.066619 0.23282 0.12315 0.54925 -0.23523 0.083551 0.090889 0.30794 0.20595 0.092993 -0.25937 0.75561 0.0098413 -0.22679 0.10125 0.060027 0.27065 0.49797 -0.58635 -0.55214 0.14691 0.33396 0.42763 -0.56904 0.093515 -0.33849 0.049106 0.47988 0.045061 -0.42948 
ziga -0.086436 0.14752 -0.060889 -0.21137 0.15216 -0.046958 0.033349 0.012447 0.35025 0.47535 -0.045464 -0.016892 -0.28098 0.38417 -0.10678 -0.18472 -0.13911 0.17581 0.079508 -0.25451 -0.26376 0.024341 0.22448 -0.011279 -0.30294 0.17564 0.2664 -0.21447 -0.079215 0.26951 -0.21987 0.058583 -0.28175 0.13465 -0.32362 0.12422 -0.13957 -0.11439 -0.078313 -0.047448 -0.36753 0.31694 0.24573 0.096261 0.22718 -0.13227 -0.037199 -0.25753 -0.044623 -0.040462 -0.23648 0.0035879 -0.25047 0.39928 -0.26404 -0.10099 -0.016638 -0.079005 0.17905 -0.033239 -0.18881 0.28947 0.20201 0.064659 -0.15247 0.014079 -0.27112 -0.013787 0.074203 0.068835 0.03932 0.14675 0.081685 0.34347 -0.15095 0.055474 0.058059 0.19488 0.134 0.057251 -0.16544 0.48091 0.012688 -0.14291 0.064749 0.030396 0.17362 0.3154 -0.37071 -0.34827 0.095144 0.21512 0.26871 -0.36472 0.065193 -0.2143 0.022257 0.30236 0.027851 -0.27613 
sar -0.12083 0.20683 -0.083246 -0.29227 0.2104 -0.06823 0.043035 0.016946 0.49024 0.66207 -0.052673 -0.017111 -0.38442 0.53745 -0.14875 -0.26154 -0.19395 0.24325 0.10939 -0.35848 -0.36257 0.033632 0.30892 -0.013221 -0.41972 0.2432 0.37833 -0.30636 -0.11241 0.38022 -0.30737 0.085056 -0.38905 0.18958 -0.44944 0.17343 -0.19674 -0.16347 -0.1075 -0.06178 -0.51117 0.44792 0.34692 0.13179 0.32276 -0.18337 -0.041676 -0.35295 -0.05663 -0.048251 -0.32304 0.0012693 -0.35033 0.55742 -0.37221 -0.13561 -0.026321 -0.10498 0.25246 -0.050827 -0.27117 0.40872 0.28425 0.08849 -0.20174 0.023668 -0.38133 -0.013585 0.10217 0.098319 0.054719 0.20812 0.11419 0.48152 -0.21411 0.070949 0.081231 0.27604 0.19013 0.082061 -0.2357 0.67306 0.015348 -0.20193 0.091824 0.041092 0.24198 0.44017 -0.51791 -0.48895 0.12867 0.30386 0.36932 -0.50327 0.095241 -0.30897 0.031791 0.42227 0.047018 -0.38182 
abi -0.094037 0.17145 -0.07007 -0.24086 0.17562 -0.053315 0.042326 0.017179 0.40194 0.53964 -0.044943 -0.016921 -0.31954 0.44073 -0.12228 -0.21129 -0.15527 0.20142 0.094232 -0.29156 -0.29674 0.026385 0.25548 -0.0076349 -0.34395 0.20377 0.30964 -0.24696 -0.09187 0.31312 -0.25577 0.062131 -0.32184 0.15691 -0.37046 0.14284 -0.1605 -0.13255 -0.09138 -0.052913 -0.42676 0.36706 0.28425 0.10709 0.26148 -0.14923 -0.03985 -0.29318 -0.049152 -0.044839 -0.26636 0.0016148 -0.28775 0.45804 -0.30196 -0.11031 -0.02359 -0.086694 0.19884 -0.038159 -0.21734 0.33542 0.2326 0.071358 -0.16629 0.020538 -0.31545 -0.010349 0.080983 0.087008 0.045486 0.16976 0.093535 0.39085 -0.1771 0.065943 0.067398 0.22213 0.15654 0.065519 -0.18773 0.54774 0.01381 -0.16766 0.07713 0.043793 0.20211 0.35987 -0.42659 -0.39947 0.10712 0.24115 0.30595 -0.41103 0.075798 -0.25522 0.025297 0.34307 0.037374 -0.31324 
mana -0.10785 0.18025 -0.069574 -0.25354 0.18382 -0.053396 0.03619 0.016855 0.42286 0.56769 -0.04368 -0.016152 -0.33956 0.46343 -0.12816 -0.21797 -0.16137 0.20519 0.095614 -0.31108 -0.31622 0.02833 0.26417 -0.012226 -0.35603 0.21463 0.32522 -0.25729 -0.1017 0.3265 -0.26596 0.069641 -0.33941 0.16156 -0.3805 0.14225 -0.17427 -0.14632 -0.097709 -0.055741 -0.44032 0.37808 0.29019 0.11216 0.27078 -0.15393 -0.041718 -0.30121 -0.055285 -0.046703 -0.27647 0.0024028 -0.29871 0.47718 -0.31877 -0.12356 -0.027138 -0.093826 0.21245 -0.043282 -0.22724 0.34873 0.24233 0.078255 -0.17729 0.023896 -0.32723 -0.014701 0.087976 0.087512 0.047312 0.17461 0.096471 0.40795 -0.1844 0.069149 0.067181 0.23246 0.16399 0.070493 -0.19376 0.57518 0.011757 -0.16987 0.078692 0.035419 0.20843 0.37916 -0.44395 -0.41502 0.11323 0.25483 0.32027 -0.43736 0.074755 -0.25921 0.032183 0.36529 0.036147 -0.32601 
i -0.090074 0.14985 -0.062051 -0.22022 0.15454 -0.049542 0.035118 0.0073443 0.37172 0.48636 -0.044145 -0.0077345 -0.28924 0.39125 -0.10757 -0.1884 -0.14454 0.17977 0.081497 -0.25605 -0.27247 0.012144 0.23472 -0.00056397 -0.31189 0.18771 0.28294 -0.22759 -0.084492 0.28423 -0.22434 0.058685 -0.28048 0.14094 -0.31967 0.1173 -0.14741 -0.11992 -0.086867 -0.05245 -0.38148 0.33252 0.25515 0.1067 0.23373 -0.13937 -0.03154 -0.27178 -0.037709 -0.028669 -0.24051 8.6697e-05 -0.26022 0.41096 -0.28402 -0.097578 -0.021853 -0.083327 0.18345 -0.026149 -0.19709 0.3108 0.20808 0.065616 -0.1461 0.017307 -0.27609 -0.012661 0.076255 0.063258 0.040812 0.16055 0.085005 0.35861 -0.1546 0.058057 0.055088 0.20274 0.13838 0.067142 -0.16399 0.49689 -0.00014836 -0.15054 0.061508 0.029661 0.17473 0.32994 -0.38023 -0.35913 0.095308 0.21626 0.27825 -0.38006 0.063276 -0.22345 0.025715 0.31124 0.036842 -0.2824 
kubi -0.092693 0.16716 -0.073731 -0.25063 0.17494 -0.056736 0.040595 0.015633 0.40672 0.54353 -0.042954 -0.013522 -0.32316 0.44861 -0.12012 -0.20804 -0.16035 0.19766 0.08965 -0.29461 -0.29481 0.028303 0.25379 -0.0065513 -0.35137 0.20014 0.3123 -0.25261 -0.095177 0.31062 -0.2522 0.071374 -0.31903 0.15986 -0.3721 0.13931 -0.16021 -0.13879 -0.092922 -0.05467 -0.43221 0.37245 0.28416 0.1096 0.26462 -0.15505 -0.036994 -0.2979 -0.047758 -0.035467 -0.27103 0.00062078 -0.29378 0.46041 -0.30389 -0.10779 -0.026123 -0.094025 0.20057 -0.041393 -0.22205 0.34074 0.23367 0.074805 -0.16084 0.016354 -0.31346 -0.011705 0.075712 0.084365 0.047621 0.16774 0.09689 0.39375 -0.18023 0.067197 0.063733 0.22399 0.15673 0.07081 -0.18763 0.55477 0.014346 -0.16228 0.076077 0.038382 0.20292 0.36202 -0.4316 -0.39708 0.10345 0.25017 0.30571 -0.42069 0.077461 -0.25348 0.023045 0.34861 0.039461 -0.31438 
13 -0.078015 0.14513 -0.055759 -0.20643 0.14593 -0.046393 0.030899 0.0178 0.34173 0.46185 -0.036149 -0.0089559 -0.27923 0.37918 -0.10115 -0.1746 -0.13664 0.16697 0.077583 -0.25358 -0.25926 0.021888 0.21322 -0.010563 -0.28923 0.17271 0.26417 -0.20922 -0.078931 0.26475 -0.21874 0.061055 -0.26094 0.13534 -0.3152 0.12203 -0.1387 -0.12021 -0.078141 -0.048679 -0.35952 0.31685 0.24226 0.09674 0.22759 -0.12932 -0.035543 -0.25545 -0.045362 -0.032012 -0.23346 0.0048628 -0.24572 0.38509 -0.25997 -0.094707 -0.020038 -0.074109 0.17848 -0.031686 -0.18787 0.28686 0.19595 0.055279 -0.1425 0.012775 -0.26771 -0.0057966 0.063443 0.07201 0.0355 0.15171 0.081405 0.33512 -0.15448 0.055437 0.056079 0.18956 0.13646 0.053673 -0.16013 0.4667 0.013487 -0.13334 0.069226 0.034582 0.17421 0.30629 -0.36762 -0.3396 0.088958 0.20849 0.26397 -0.35768 0.065043 -0.21072 0.021966 0.29198 0.036741 -0.26672 
ma -0.1484 0.23039 -0.086547 -0.31967 0.25224 -0.069421 0.041592 0.02138 0.55677 0.75871 -0.054856 -0.023171 -0.44683 0.60675 -0.16786 -0.29114 -0.20169 0.27661 0.12427 -0.41139 -0.42053 0.029501 0.35744 -0.014764 -0.4704 0.28738 0.42616 -0.33915 -0.13507 0.43267 -0.35097 0.090621 -0.45584 0.21421 -0.49985 0.1902 -0.23674 -0.18863 -0.12792 -0.069797 -0.57838 0.49736 0.38531 0.15272 0.35041 -0.19376 -0.054783 -0.39812 -0.070971 -0.068615 -0.37068 0.0050664 -0.38986 0.63956 -0.42257 -0.16068 -0.032789 -0.11979 0.27886 -0.051104 -0.28978 0.45999 0.32824 0.11209 -0.2407 0.041094 -0.43295 -0.010468 0.11739 0.11888 0.059561 0.23379 0.12606 0.547 -0.23582 0.083949 0.092153 0.31115 0.21282 0.098656 -0.2667 0.7621 0.010558 -0.22737 0.1012 0.049222 0.27035 0.50943 -0.59471 -0.55315 0.1568 0.34064 0.42357 -0.57903 0.093705 -0.34226 0.046621 0.47148 0.046999 -0.4301 
erin -0.093425 0.15989 -0.060665 -0.22719 0.16075 -0.051293 0.035082 0.015987 0.37798 0.50763 -0.042379 -0.011528 -0.30345 0.41231 -0.11574 -0.19255 -0.14625 0.1839 0.086877 -0.27351 -0.28008 0.026131 0.23904 -0.0092305 -0.3214 0.18911 0.29051 -0.23476 -0.088456 0.29163 -0.23639 0.064329 -0.30073 0.14881 -0.34436 0.13175 -0.15139 -0.12961 -0.082582 -0.046381 -0.40047 0.34067 0.26947 0.10284 0.24468 -0.14257 -0.041603 -0.27441 -0.045161 -0.038672 -0.25085 0.0035791 -0.2697 0.42536 -0.28297 -0.10757 -0.016796 -0.085056 0.1918 -0.039405 -0.20067 0.31852 0.21477 0.071296 -0.16004 0.020752 -0.29401 -0.010833 0.077249 0.079499 0.042924 0.15899 0.088139 0.36375 -0.16767 0.057027 0.066488 0.21474 0.14792 0.060106 -0.17336 0.51345 0.010482 -0.1551 0.070938 0.033599 0.19011 0.33601 -0.39769 -0.3741 0.10148 0.22751 0.28556 -0.38649 0.071028 -0.23292 0.024492 0.32924 0.031615 -0.29765 
9 -0.081884 0.1373 -0.058178 -0.19321 0.14457 -0.044414 0.03006 0.0093763 0.32553 0.44298 -0.031978 -0.013701 -0.26281 0.35471 -0.10347 -0.16207 -0.12733 0.16295 0.079065 -0.24591 -0.24528 0.015597 0.20017 -0.016139 -0.27716 0.1676 0.25224 -0.20297 -0.079047 0.25894 -0.20242 0.060024 -0.25907 0.12912 -0.29669 0.11348 -0.13103 -0.11367 -0.071563 -0.046321 -0.35223 0.30288 0.22519 0.094691 0.21808 -0.12569 -0.030998 -0.24312 -0.041123 -0.039153 -0.21921 -0.0035517 -0.233 0.37144 -0.2422 -0.088818 -0.021999 -0.073008 0.16268 -0.023501 -0.18116 0.27082 0.19143 0.06308 -0.13774 0.014732 -0.25697 -0.0083141 0.063174 0.071931 0.032705 0.1363 0.082815 0.31627 -0.15369 0.044586 0.043604 0.18307 0.1278 0.047528 -0.15364 0.44846 0.012103 -0.125 0.068039 0.033397 0.16708 0.29602 -0.34011 -0.32331 0.084652 0.19206 0.24374 -0.33512 0.064051 -0.20173 0.019259 0.27447 0.030206 -0.25104 
bati -0.07296 0.10813 -0.041047 -0.14365 0.11142 -0.026958 0.015194 0.0032053 0.25339 0.33691 -0.024027 -0.01382 -0.19644 0.26471 -0.079816 -0.1337 -0.090809 0.12132 0.054394 -0.18122 -0.19067 0.016274 0.15951 -0.0034374 -0.21391 0.1344 0.19151 -0.15164 -0.055742 0.19455 -0.15531 0.036917 -0.21231 0.094754 -0.22458 0.080642 -0.10376 -0.083806 -0.055073 -0.032991 -0.2516 0.22068 0.178 0.06445 0.14846 -0.085045 -0.0309 -0.17775 -0.032531 -0.032986 -0.16116 0.0026143 -0.17019 0.28096 -0.18669 -0.076594 -0.011746 -0.053469 0.12312 -0.024694 -0.13013 0.20046 0.14367 0.048994 -0.10735 0.015933 -0.19291 -0.0053187 0.057408 0.052213 0.025669 0.10079 0.052633 0.24387 -0.10609 0.030705 0.037359 0.13741 0.094007 0.044985 -0.11769 0.34233 0.002842 -0.10362 0.045786 0.0213 0.11776 0.22761 -0.26714 -0.24972 0.069542 0.1466 0.19008 -0.25691 0.039857 -0.15404 0.022588 0.21778 0.018528 -0.18715 
kimac -0.085874 0.14719 -0.055047 -0.19453 0.15374 -0.04101 0.024136 0.0095337 0.33861 0.45484 -0.032589 -0.013029 -0.26495 0.36695 -0.11151 -0.18243 -0.12128 0.16344 0.073466 -0.24835 -0.25434 0.02241 0.21711 -0.0037583 -0.29102 0.1733 0.25689 -0.20207 -0.07893 0.26083 -0.21564 0.049281 -0.27887 0.12866 -0.30079 0.11255 -0.1399 -0.11416 -0.077572 -0.044872 -0.35169 0.30314 0.23401 0.086469 0.20287 -0.11753 -0.035031 -0.24096 -0.043205 -0.041636 -0.2169 0.0016905 -0.22663 0.37678 -0.25019 -0.10359 -0.019753 -0.076989 0.16422 -0.034095 -0.17385 0.27414 0.19334 0.06553 -0.14119 0.024969 -0.26058 -0.0068949 0.074459 0.066482 0.042926 0.14214 0.071669 0.33368 -0.14693 0.048071 0.050066 0.18911 0.12555 0.055242 -0.15517 0.45665 0.0079292 -0.1361 0.063676 0.034737 0.16466 0.29994 -0.35351 -0.33408 0.091948 0.20063 0.26098 -0.34357 0.054238 -0.20677 0.030907 0.29247 0.024198 -0.25515 
2kam -0.080003 0.13484 -0.056244 -0.18823 0.14106 -0.041034 0.031507 0.010319 0.31066 0.42589 -0.037051 -0.013107 -0.25808 0.34687 -0.10375 -0.16685 -0.11946 0.15483 0.066651 -0.23285 -0.23812 0.02462 0.19674 -0.0058114 -0.2734 0.16116 0.24481 -0.1902 -0.07092 0.24292 -0.20153 0.053104 -0.25794 0.12164 -0.29039 0.10491 -0.13171 -0.1072 -0.072801 -0.047813 -0.33402 0.28802 0.22385 0.081836 0.19452 -0.11675 -0.036675 -0.22594 -0.035445 -0.033956 -0.21226 0.0026345 -0.22197 0.35326 -0.23369 -0.094656 -0.021661 -0.069207 0.15404 -0.035185 -0.16487 0.2613 0.18441 0.057746 -0.13426 0.018556 -0.24244 -0.012009 0.063388 0.06297 0.036345 0.13007 0.069156 0.31255 -0.13288 0.048591 0.04512 0.17705 0.12092 0.053256 -0.15096 0.42803 0.0093373 -0.12672 0.061824 0.030746 0.15534 0.28181 -0.33592 -0.31455 0.081678 0.19189 0.24341 -0.32207 0.056108 -0.19981 0.022289 0.27354 0.027899 -0.24316 
ensi -0.074064 0.11954 -0.04698 -0.17089 0.12405 -0.034354 0.018365 0.012583 0.28528 0.38267 -0.030437 -0.015898 -0.22753 0.31289 -0.089133 -0.14846 -0.10901 0.14364 0.065844 -0.21168 -0.21664 0.016153 0.18334 -0.0060422 -0.24411 0.14845 0.21926 -0.17254 -0.065164 0.22171 -0.17677 0.044754 -0.23875 0.10976 -0.25645 0.094643 -0.11517 -0.09963 -0.064887 -0.037705 -0.29566 0.25709 0.20066 0.076152 0.17957 -0.10422 -0.030088 -0.20555 -0.037523 -0.031768 -0.18962 0.00071776 -0.1984 0.31995 -0.21191 -0.083793 -0.012586 -0.06159 0.14374 -0.033526 -0.14733 0.23399 0.16562 0.052663 -0.11848 0.020716 -0.221 -0.0060148 0.064563 0.058867 0.033999 0.11811 0.065174 0.2779 -0.11957 0.042617 0.045218 0.15999 0.10786 0.049752 -0.13071 0.38973 0.0040038 -0.1191 0.052254 0.027586 0.13966 0.25815 -0.30129 -0.28068 0.078532 0.17085 0.21441 -0.29343 0.051618 -0.17573 0.023002 0.24863 0.023088 -0.2211 
gida -0.11048 0.18406 -0.07323 -0.26226 0.19132 -0.057973 0.030817 0.016982 0.4457 0.59866 -0.047375 -0.02006 -0.35682 0.48723 -0.13491 -0.22527 -0.17022 0.21711 0.10288 -0.32038 -0.33486 0.030224 0.27849 -0.004693 -0.37476 0.22858 0.34084 -0.27456 -0.10856 0.34204 -0.2766 0.071522 -0.35666 0.17217 -0.40404 0.15499 -0.17291 -0.15337 -0.10258 -0.062371 -0.46459 0.39786 0.30757 0.12513 0.28151 -0.16779 -0.045936 -0.3189 -0.056991 -0.043591 -0.29668 -0.0012009 -0.31491 0.50067 -0.33572 -0.12726 -0.021357 -0.095117 0.22503 -0.040039 -0.23999 0.36701 0.25598 0.085386 -0.18324 0.016453 -0.33709 -0.016193 0.086905 0.085661 0.054398 0.18568 0.098148 0.43278 -0.19588 0.069381 0.072551 0.24842 0.16828 0.079999 -0.20566 0.60588 0.0081793 -0.18302 0.080601 0.042181 0.21893 0.40249 -0.46848 -0.44413 0.12094 0.26712 0.33653 -0.45814 0.07708 -0.27004 0.03077 0.3745 0.039178 -0.33394 
nanna -0.13062 0.19876 -0.062786 -0.25196 0.19819 -0.047418 0.022446 0.013682 0.44504 0.59001 -0.037724 -0.021688 -0.34708 0.46912 -0.14289 -0.21658 -0.16721 0.21391 0.10581 -0.31984 -0.33225 0.028988 0.28955 -0.0048211 -0.36192 0.23416 0.33703 -0.25118 -0.10161 0.34172 -0.26508 0.063229 -0.36591 0.16221 -0.39158 0.14175 -0.19469 -0.16365 -0.10669 -0.057098 -0.44127 0.37044 0.30168 0.11424 0.27022 -0.16043 -0.049274 -0.31342 -0.064689 -0.05171 -0.28943 -0.0068128 -0.28771 0.49285 -0.32044 -0.14398 -0.027438 -0.099551 0.20825 -0.052886 -0.22387 0.35566 0.2478 0.077802 -0.19091 0.03865 -0.33451 -0.015698 0.098907 0.084315 0.056158 0.1779 0.10531 0.40816 -0.18284 0.066836 0.076858 0.23204 0.16077 0.070317 -0.19176 0.59187 -0.0068593 -0.19468 0.081636 0.0346 0.20797 0.39153 -0.46597 -0.42615 0.12264 0.2579 0.32475 -0.45167 0.062537 -0.26262 0.041166 0.37322 0.029909 -0.33456 
ga -0.1575 0.26583 -0.10539 -0.3875 0.27373 -0.090543 0.05753 0.025491 0.63083 0.85033 -0.073346 -0.027188 -0.51225 0.692 -0.2 -0.33014 -0.25543 0.31136 0.14193 -0.45875 -0.47163 0.043258 0.40203 -0.013008 -0.54095 0.31948 0.48642 -0.39071 -0.14321 0.48793 -0.39805 0.10467 -0.50602 0.24885 -0.58546 0.22872 -0.25342 -0.20739 -0.14203 -0.082947 -0.66749 0.56763 0.44002 0.17011 0.41723 -0.23781 -0.066482 -0.46141 -0.078114 -0.065714 -0.42333 0.0068073 -0.46311 0.7219 -0.48449 -0.18349 -0.032684 -0.14351 0.32799 -0.054842 -0.34193 0.53049 0.36422 0.12287 -0.27488 0.033375 -0.49071 -0.029195 0.12652 0.12002 0.06665 0.26709 0.14123 0.62258 -0.28945 0.099305 0.1042 0.3518 0.24568 0.10335 -0.30437 0.86929 0.020201 -0.25055 0.12615 0.048246 0.31553 0.57071 -0.66925 -0.63034 0.17021 0.39223 0.48335 -0.65747 0.11656 -0.39455 0.042509 0.55002 0.050968 -0.49414 
ara -0.1216 0.208 -0.08438 -0.2788 0.20871 -0.064317 0.032633 0.010972 0.48663 0.65636 -0.045788 -0.019298 -0.38043 0.52272 -0.1604 -0.25279 -0.17348 0.2346 0.098407 -0.35625 -0.36275 0.030005 0.31113 -0.0066054 -0.40732 0.24739 0.35822 -0.29067 -0.11323 0.37265 -0.30167 0.073223 -0.39861 0.18361 -0.44073 0.15639 -0.19696 -0.15513 -0.1081 -0.066937 -0.49483 0.43821 0.34267 0.12278 0.29293 -0.16013 -0.052305 -0.35044 -0.058451 -0.058469 -0.31194 0.0098426 -0.33137 0.52884 -0.35563 -0.14403 -0.031845 -0.10286 0.23278 -0.045947 -0.25133 0.39216 0.27472 0.099251 -0.20561 0.032567 -0.37031 -0.015106 0.106 0.10633 0.051446 0.19666 0.097086 0.48244 -0.20254 0.067618 0.072783 0.27184 0.17615 0.08353 -0.22321 0.65313 0.014317 -0.20408 0.090101 0.052103 0.23385 0.42955 -0.50483 -0.47825 0.12693 0.28634 0.37096 -0.48622 0.077106 -0.29647 0.050284 0.42072 0.042622 -0.36844 
amarsuen -0.083292 0.13538 -0.048498 -0.18007 0.13953 -0.037111 0.021338 0.0082712 0.31886 0.4273 -0.030863 -0.010378 -0.2493 0.33989 -0.10126 -0.16646 -0.11746 0.15233 0.072964 -0.23305 -0.24019 0.018362 0.20481 -0.0039881 -0.27166 0.16934 0.24234 -0.18835 -0.072146 0.24593 -0.19584 0.049372 -0.26311 0.12128 -0.2803 0.1 -0.13319 -0.10581 -0.072671 -0.039957 -0.325 0.27961 0.22336 0.083914 0.19541 -0.11267 -0.034666 -0.22553 -0.039613 -0.04167 -0.20313 -0.00076937 -0.21423 0.35863 -0.23878 -0.095269 -0.019273 -0.068637 0.15726 -0.028482 -0.16281 0.25631 0.18212 0.062316 -0.13436 0.024497 -0.24083 -0.0077139 0.073608 0.063344 0.036258 0.12977 0.067541 0.31013 -0.13005 0.043505 0.047274 0.1715 0.12053 0.053211 -0.14609 0.43151 0.004072 -0.13286 0.058229 0.03141 0.15066 0.28888 -0.33234 -0.31415 0.087032 0.18771 0.24016 -0.32186 0.051794 -0.19441 0.028288 0.2731 0.025533 -0.24217 
1kam -0.094098 0.16443 -0.066503 -0.23399 0.17916 -0.049901 0.033648 0.0095942 0.39333 0.53236 -0.042779 -0.016313 -0.3185 0.4307 -0.12771 -0.20495 -0.1496 0.18939 0.085315 -0.28773 -0.29798 0.023043 0.24943 -0.0047494 -0.33877 0.20534 0.30128 -0.23838 -0.094025 0.30039 -0.24967 0.064313 -0.32346 0.1516 -0.35791 0.13045 -0.16499 -0.12683 -0.091107 -0.060525 -0.41411 0.35761 0.27605 0.09422 0.23754 -0.14077 -0.042754 -0.28222 -0.043898 -0.042294 -0.25866 0.0060527 -0.27084 0.4344 -0.29148 -0.11732 -0.027634 -0.086225 0.18908 -0.042819 -0.19928 0.31852 0.22455 0.076536 -0.16405 0.024117 -0.30626 -0.010722 0.083289 0.083015 0.047132 0.16523 0.088531 0.39053 -0.16495 0.058359 0.05677 0.21859 0.14275 0.066046 -0.18637 0.52807 0.012434 -0.15666 0.076 0.040146 0.19414 0.35248 -0.41362 -0.3944 0.10105 0.23151 0.30559 -0.39687 0.069574 -0.24231 0.030762 0.34377 0.035645 -0.29736 
23 -0.077283 0.13177 -0.053011 -0.18728 0.13247 -0.040657 0.028683 0.017315 0.31034 0.42318 -0.034911 -0.0079506 -0.25283 0.34916 -0.091087 -0.16242 -0.12419 0.15449 0.072618 -0.22996 -0.23829 0.025146 0.19742 -0.0099301 -0.26991 0.16232 0.24089 -0.19746 -0.074969 0.24336 -0.19699 0.054151 -0.2427 0.11762 -0.28875 0.10972 -0.12856 -0.11134 -0.069921 -0.040958 -0.33119 0.28499 0.22724 0.085229 0.2068 -0.11586 -0.036818 -0.23317 -0.040322 -0.030002 -0.20836 0.0055027 -0.22758 0.35844 -0.24118 -0.090619 -0.017749 -0.072903 0.16094 -0.031816 -0.17179 0.26499 0.17576 0.057772 -0.12757 0.013177 -0.24289 -0.010503 0.05956 0.065524 0.035942 0.12962 0.07274 0.30299 -0.13717 0.050008 0.04829 0.17654 0.12237 0.054505 -0.14656 0.42961 0.0093005 -0.12443 0.061491 0.031293 0.15634 0.28428 -0.32502 -0.31058 0.08116 0.18809 0.23914 -0.32335 0.059332 -0.1907 0.014783 0.26604 0.023914 -0.2412 
nubanda -0.083552 0.13874 -0.058658 -0.19992 0.14838 -0.04491 0.02573 0.010562 0.33986 0.45821 -0.034715 -0.011111 -0.27076 0.36849 -0.10361 -0.17625 -0.13092 0.16768 0.077927 -0.24704 -0.25697 0.023716 0.21875 -0.0073056 -0.28948 0.17298 0.26158 -0.21126 -0.08115 0.26352 -0.21304 0.056365 -0.27584 0.13189 -0.31075 0.11687 -0.13257 -0.11549 -0.077956 -0.045925 -0.35931 0.30952 0.23545 0.091728 0.21745 -0.128 -0.037764 -0.24671 -0.042616 -0.03581 -0.22639 0.00033961 -0.23918 0.389 -0.25877 -0.097063 -0.018073 -0.074065 0.17057 -0.029653 -0.18236 0.28445 0.19887 0.064284 -0.1428 0.018214 -0.26037 -0.012957 0.073989 0.067331 0.03817 0.14193 0.075178 0.33327 -0.14898 0.053667 0.052394 0.19226 0.13361 0.059626 -0.15621 0.4638 0.010058 -0.14075 0.065216 0.02801 0.16632 0.30825 -0.35849 -0.33561 0.091417 0.20514 0.25674 -0.35041 0.063397 -0.21227 0.021593 0.29512 0.030149 -0.25929 
ab -0.071429 0.13226 -0.048073 -0.18241 0.13043 -0.040185 0.026787 0.012836 0.29796 0.40955 -0.037742 -0.015466 -0.23988 0.33208 -0.095906 -0.15402 -0.11776 0.1471 0.070933 -0.22468 -0.22823 0.018434 0.18988 -0.0040207 -0.26138 0.15593 0.23759 -0.18807 -0.069732 0.23675 -0.19272 0.046366 -0.24353 0.11955 -0.27822 0.10056 -0.12263 -0.1044 -0.068198 -0.034753 -0.31718 0.27448 0.21476 0.078887 0.19723 -0.10749 -0.028411 -0.21919 -0.036127 -0.031618 -0.19899 -0.0023263 -0.21635 0.34763 -0.22993 -0.084852 -0.020284 -0.068783 0.15433 -0.030187 -0.16135 0.25303 0.17251 0.053851 -0.12199 0.016605 -0.23807 -0.01533 0.063258 0.0607 0.029475 0.12693 0.067064 0.29704 -0.13406 0.044834 0.056542 0.16878 0.11695 0.048914 -0.13525 0.41094 0.0090696 -0.1202 0.05337 0.026783 0.15119 0.27615 -0.31661 -0.30056 0.082428 0.18507 0.2335 -0.31152 0.059868 -0.19499 0.016451 0.25982 0.027459 -0.24137 
daba -0.09701 0.16126 -0.068052 -0.229 0.16843 -0.054969 0.034063 0.0087296 0.3925 0.52823 -0.046111 -0.018173 -0.30819 0.42315 -0.12072 -0.20071 -0.14861 0.19365 0.089106 -0.28394 -0.29522 0.029689 0.24976 -0.0093499 -0.33404 0.19646 0.29832 -0.24091 -0.092317 0.30563 -0.24565 0.060701 -0.3146 0.14873 -0.35863 0.13471 -0.15653 -0.12507 -0.091364 -0.050947 -0.41135 0.34931 0.27374 0.1098 0.24722 -0.14223 -0.04253 -0.28387 -0.049647 -0.037761 -0.2596 -0.0036142 -0.27642 0.44136 -0.2944 -0.11517 -0.019403 -0.08414 0.19393 -0.037726 -0.2119 0.32138 0.22307 0.071617 -0.16544 0.014441 -0.30293 -0.012929 0.081625 0.073908 0.046692 0.16157 0.085636 0.37931 -0.1704 0.053084 0.062941 0.21796 0.15222 0.06591 -0.18107 0.53626 0.014589 -0.16003 0.07286 0.034252 0.18973 0.35061 -0.41464 -0.38655 0.10831 0.23482 0.2971 -0.39912 0.06685 -0.24102 0.026792 0.33984 0.037433 -0.30086 
kac -0.11262 0.19554 -0.075769 -0.27749 0.1911 -0.058695 0.037471 0.014852 0.44965 0.60426 -0.052811 -0.015313 -0.35837 0.49728 -0.14246 -0.23731 -0.17107 0.22344 0.10393 -0.32556 -0.33708 0.024639 0.28592 -0.0061545 -0.38983 0.22824 0.34888 -0.27751 -0.10825 0.34851 -0.27935 0.077958 -0.35698 0.17388 -0.40792 0.15604 -0.17782 -0.15658 -0.10643 -0.07126 -0.47661 0.41192 0.30922 0.11859 0.28258 -0.17111 -0.037717 -0.32997 -0.057042 -0.043997 -0.30044 -0.0016322 -0.31434 0.51047 -0.34119 -0.13211 -0.025584 -0.10126 0.23041 -0.042866 -0.24056 0.37669 0.2624 0.088608 -0.17912 0.017331 -0.34896 -0.014563 0.088905 0.087725 0.052165 0.19158 0.10271 0.44133 -0.20124 0.071014 0.069546 0.25045 0.1731 0.081465 -0.20318 0.60899 0.011157 -0.18244 0.085013 0.039548 0.21992 0.40313 -0.47015 -0.45257 0.11659 0.27075 0.34533 -0.4696 0.081276 -0.27562 0.034984 0.3867 0.033585 -0.34818 
bala -0.13422 0.22384 -0.086461 -0.31031 0.2336 -0.064227 0.038933 0.018688 0.53725 0.71742 -0.054887 -0.02557 -0.42981 0.58405 -0.16863 -0.28484 -0.20079 0.26455 0.1152 -0.38547 -0.41004 0.030419 0.34301 -0.010774 -0.45177 0.27613 0.40486 -0.32769 -0.12271 0.41455 -0.33434 0.085192 -0.43906 0.20551 -0.48733 0.1802 -0.21425 -0.17525 -0.11804 -0.068985 -0.56089 0.47397 0.37745 0.13741 0.33768 -0.19607 -0.053685 -0.38598 -0.068935 -0.057385 -0.3511 0.0018315 -0.37829 0.60046 -0.40276 -0.15692 -0.030266 -0.11641 0.2692 -0.055403 -0.28454 0.44155 0.30674 0.107 -0.22666 0.027965 -0.40937 -0.021925 0.11834 0.10673 0.06122 0.21969 0.1181 0.52462 -0.22979 0.082601 0.082922 0.29307 0.19831 0.091735 -0.24981 0.72957 0.010101 -0.21812 0.09985 0.046811 0.26468 0.48154 -0.56396 -0.53521 0.14648 0.31978 0.40945 -0.54796 0.091188 -0.3331 0.038493 0.46122 0.042824 -0.41107 
laia -0.071645 0.12234 -0.047089 -0.1754 0.12174 -0.039817 0.027026 0.011803 0.28585 0.3853 -0.029979 -0.010431 -0.23224 0.31369 -0.089639 -0.15125 -0.11486 0.14225 0.06653 -0.21075 -0.21411 0.019467 0.18256 -0.0051148 -0.24864 0.14461 0.21895 -0.1779 -0.068797 0.22317 -0.17944 0.050388 -0.23025 0.11244 -0.26668 0.099365 -0.11 -0.098471 -0.065493 -0.035458 -0.30069 0.26066 0.19937 0.075398 0.18552 -0.10773 -0.028913 -0.20733 -0.03574 -0.032576 -0.19167 1.7851e-05 -0.20492 0.32646 -0.22073 -0.07959 -0.01534 -0.064621 0.14454 -0.029182 -0.15402 0.24069 0.16829 0.052954 -0.12086 0.012408 -0.22019 -0.007796 0.057916 0.057997 0.03297 0.12065 0.068488 0.28307 -0.12772 0.044181 0.046949 0.16399 0.11276 0.049841 -0.13363 0.39472 0.0083882 -0.11693 0.058197 0.02463 0.14308 0.26052 -0.30231 -0.28829 0.074316 0.17848 0.21948 -0.29576 0.051654 -0.17701 0.019205 0.24924 0.026161 -0.22424 
inanna -0.10922 0.16868 -0.052469 -0.21061 0.16646 -0.037349 0.017775 0.01063 0.36942 0.49043 -0.030393 -0.017223 -0.28724 0.3931 -0.11615 -0.17791 -0.13766 0.1796 0.089665 -0.26435 -0.27661 0.025677 0.24134 -0.0032949 -0.30051 0.19412 0.27835 -0.20997 -0.086404 0.28542 -0.21918 0.053364 -0.30501 0.13412 -0.32523 0.11902 -0.161 -0.13565 -0.088315 -0.045937 -0.36779 0.30761 0.24958 0.093989 0.22435 -0.1343 -0.039461 -0.25997 -0.055389 -0.044658 -0.24088 -0.003165 -0.24014 0.40986 -0.26449 -0.11852 -0.021577 -0.082829 0.17284 -0.046725 -0.18763 0.29601 0.20796 0.063915 -0.15865 0.02932 -0.2795 -0.014229 0.079633 0.069648 0.049227 0.14843 0.088576 0.33957 -0.15214 0.054912 0.063956 0.1938 0.1319 0.059218 -0.15908 0.49591 -0.0053955 -0.15861 0.065374 0.030515 0.17417 0.32495 -0.38841 -0.35369 0.1025 0.21465 0.27154 -0.37666 0.051446 -0.21678 0.035306 0.30822 0.022283 -0.27773 
sa -0.1088 0.18202 -0.069667 -0.24688 0.18566 -0.05383 0.03618 0.019816 0.42118 0.57059 -0.049019 -0.012458 -0.3368 0.46443 -0.12437 -0.2228 -0.1599 0.20851 0.097392 -0.30718 -0.31186 0.022033 0.26633 -0.010294 -0.36617 0.2137 0.3296 -0.26521 -0.09784 0.32814 -0.26307 0.067986 -0.34562 0.1633 -0.38721 0.14681 -0.16886 -0.14126 -0.094001 -0.056623 -0.44134 0.37885 0.29347 0.11444 0.27113 -0.1633 -0.039724 -0.30541 -0.052635 -0.043104 -0.27841 -0.0014851 -0.29862 0.48358 -0.32403 -0.12625 -0.024848 -0.089154 0.21896 -0.036365 -0.23162 0.35008 0.24145 0.076739 -0.17547 0.02028 -0.3263 -0.017895 0.086321 0.08928 0.049073 0.18518 0.097871 0.41542 -0.18371 0.069036 0.070411 0.2321 0.16693 0.066337 -0.19858 0.5817 0.010671 -0.1764 0.078386 0.038742 0.20362 0.382 -0.45104 -0.42108 0.10471 0.25923 0.3179 -0.43084 0.083681 -0.26155 0.021257 0.36609 0.033377 -0.32673 
bad -0.14996 0.2219 -0.069472 -0.28912 0.2354 -0.048709 0.021562 0.013726 0.53369 0.70372 -0.043601 -0.022545 -0.40714 0.56089 -0.17129 -0.29092 -0.17773 0.25032 0.11403 -0.37985 -0.41016 0.018394 0.34977 -0.0010102 -0.44438 0.2901 0.39696 -0.30829 -0.12214 0.41614 -0.32355 0.075336 -0.44681 0.18896 -0.45806 0.15839 -0.22656 -0.17922 -0.12085 -0.058046 -0.52928 0.46171 0.37746 0.12888 0.32292 -0.17468 -0.063808 -0.37075 -0.07239 -0.074378 -0.32321 0.0058919 -0.35171 0.60443 -0.39799 -0.15935 -0.026537 -0.11896 0.25819 -0.050871 -0.26296 0.40771 0.30502 0.10503 -0.22572 0.047447 -0.40446 -0.0092113 0.13061 0.10452 0.065177 0.20997 0.094963 0.51988 -0.21224 0.081675 0.075518 0.27221 0.19691 0.10069 -0.25229 0.71603 0.01104 -0.21965 0.09871 0.051058 0.2482 0.48379 -0.56372 -0.52589 0.15267 0.30637 0.40682 -0.52973 0.080655 -0.31804 0.047962 0.44688 0.048014 -0.39812 
sarta -0.086825 0.15265 -0.063972 -0.21 0.15377 -0.045622 0.032923 0.016605 0.35405 0.47966 -0.036664 -0.015934 -0.28017 0.39198 -0.10861 -0.18904 -0.13613 0.17703 0.081558 -0.26038 -0.2655 0.02327 0.22453 -0.0078314 -0.30376 0.17556 0.27348 -0.2209 -0.083983 0.2759 -0.22562 0.062291 -0.28175 0.13827 -0.32967 0.12573 -0.14375 -0.12136 -0.080589 -0.047649 -0.37277 0.32826 0.25026 0.095154 0.23413 -0.13487 -0.031522 -0.26001 -0.039967 -0.034976 -0.23594 0.0024904 -0.25313 0.40589 -0.26938 -0.098606 -0.018088 -0.080047 0.18142 -0.034199 -0.19441 0.29417 0.20624 0.065358 -0.14745 0.017101 -0.27559 -0.0087163 0.073733 0.070439 0.039752 0.14847 0.081568 0.34747 -0.15746 0.055644 0.058446 0.19819 0.14055 0.059916 -0.17096 0.4858 0.010505 -0.14568 0.069503 0.031362 0.17525 0.31939 -0.37442 -0.35353 0.094206 0.21665 0.26953 -0.36197 0.066753 -0.22323 0.022072 0.30398 0.032429 -0.28018 
cebi -0.067082 0.1262 -0.05003 -0.18407 0.12864 -0.038937 0.028836 0.015866 0.29789 0.40351 -0.035085 -0.014927 -0.24102 0.33084 -0.084496 -0.15677 -0.11862 0.14693 0.067877 -0.21887 -0.21885 0.023143 0.18556 -0.0050224 -0.25433 0.14806 0.2314 -0.18861 -0.070482 0.23051 -0.19118 0.052332 -0.23479 0.11701 -0.27809 0.10299 -0.11979 -0.1027 -0.067691 -0.04086 -0.31849 0.27691 0.20984 0.077829 0.19552 -0.11804 -0.026283 -0.2163 -0.03668 -0.026798 -0.20059 0.001421 -0.21904 0.34348 -0.22568 -0.076646 -0.018105 -0.065911 0.15311 -0.02946 -0.1631 0.25316 0.1765 0.055635 -0.1226 0.0090064 -0.23477 -0.010729 0.056752 0.066899 0.038308 0.12827 0.068514 0.29455 -0.13784 0.047678 0.047694 0.1645 0.11769 0.047246 -0.13839 0.40776 0.014569 -0.12206 0.058212 0.030113 0.15305 0.26799 -0.3147 -0.29678 0.078568 0.18048 0.22844 -0.30781 0.054888 -0.18522 0.014595 0.26147 0.026324 -0.23537 
3kam -0.077528 0.14086 -0.054927 -0.1906 0.1436 -0.040896 0.027854 0.0096784 0.31901 0.43653 -0.039734 -0.012995 -0.25901 0.35175 -0.10463 -0.16842 -0.12367 0.15717 0.070836 -0.23211 -0.24319 0.022823 0.19892 -0.0045036 -0.27499 0.16464 0.24707 -0.19678 -0.073074 0.2469 -0.20474 0.05414 -0.26431 0.12409 -0.29422 0.10836 -0.13428 -0.10625 -0.073739 -0.049962 -0.33916 0.29025 0.2258 0.081678 0.19626 -0.1182 -0.034166 -0.22969 -0.035087 -0.033195 -0.21307 0.0035961 -0.2215 0.36111 -0.2383 -0.095819 -0.021569 -0.072864 0.15766 -0.033958 -0.16484 0.26218 0.18564 0.059489 -0.13744 0.019933 -0.24924 -0.010759 0.067181 0.064585 0.037977 0.1354 0.071701 0.31964 -0.13564 0.048851 0.048509 0.18031 0.12012 0.056366 -0.15182 0.43467 0.012044 -0.12965 0.062719 0.033225 0.15902 0.28897 -0.34039 -0.31891 0.085687 0.19386 0.24529 -0.32713 0.056041 -0.19907 0.025669 0.27853 0.027144 -0.24566 
urbilum -0.081958 0.1278 -0.048077 -0.17971 0.13428 -0.038792 0.021833 0.010234 0.30471 0.41219 -0.030474 -0.012914 -0.24248 0.32717 -0.096661 -0.16158 -0.1156 0.14583 0.069631 -0.22398 -0.23222 0.0206 0.19681 -0.0061369 -0.2639 0.16029 0.23709 -0.18638 -0.073288 0.23613 -0.19094 0.04758 -0.25183 0.1141 -0.27279 0.099461 -0.12847 -0.10306 -0.070908 -0.041911 -0.31542 0.27455 0.21618 0.08127 0.19168 -0.1086 -0.033828 -0.2196 -0.038804 -0.037807 -0.19876 -0.00018736 -0.2111 0.344 -0.22844 -0.091226 -0.019177 -0.066613 0.15462 -0.02915 -0.15902 0.25022 0.17732 0.05834 -0.13091 0.019038 -0.23483 -0.0089452 0.06776 0.062632 0.035904 0.12501 0.064826 0.30209 -0.12989 0.042222 0.045165 0.16912 0.11832 0.053118 -0.14112 0.41445 0.0045279 -0.12961 0.056241 0.031353 0.14861 0.27719 -0.32122 -0.30341 0.08338 0.18119 0.23225 -0.31263 0.050003 -0.18777 0.023969 0.26516 0.024802 -0.23268 
lugale -0.11272 0.16916 -0.061557 -0.22539 0.18471 -0.041205 0.026183 0.0099521 0.40672 0.54999 -0.036473 -0.012953 -0.31756 0.43615 -0.12686 -0.21807 -0.15059 0.19057 0.095028 -0.30119 -0.31461 0.019552 0.26532 -0.0081731 -0.34926 0.21978 0.30967 -0.24752 -0.094456 0.31739 -0.25031 0.05982 -0.34498 0.15322 -0.36669 0.12904 -0.17078 -0.13818 -0.096875 -0.053272 -0.42089 0.36204 0.29008 0.10599 0.2473 -0.13925 -0.049751 -0.28835 -0.052139 -0.055872 -0.26162 -0.0019119 -0.27662 0.46348 -0.30916 -0.12675 -0.02289 -0.090808 0.20886 -0.032603 -0.20841 0.32888 0.23681 0.081477 -0.17918 0.031445 -0.31069 -0.011887 0.094249 0.082688 0.050132 0.16422 0.086719 0.40355 -0.16553 0.061463 0.057558 0.22613 0.15976 0.070208 -0.19365 0.55335 0.0043545 -0.16593 0.078365 0.040592 0.19741 0.37687 -0.42968 -0.40145 0.11997 0.24215 0.31099 -0.41944 0.062504 -0.25213 0.039215 0.35263 0.030159 -0.31034 
tug -0.085774 0.14485 -0.055522 -0.20188 0.14618 -0.044082 0.034204 0.011803 0.34174 0.45429 -0.038309 -0.0090006 -0.27249 0.36754 -0.1087 -0.17674 -0.12749 0.17145 0.075565 -0.25075 -0.25649 0.019376 0.21487 -0.0072455 -0.29185 0.17279 0.26448 -0.20576 -0.074956 0.26277 -0.21387 0.056082 -0.27049 0.12888 -0.3082 0.11955 -0.14001 -0.11274 -0.079178 -0.043552 -0.35409 0.30609 0.24389 0.092128 0.21487 -0.12411 -0.03205 -0.2448 -0.042794 -0.037276 -0.22392 -0.0066298 -0.2419 0.38855 -0.255 -0.099313 -0.016632 -0.079858 0.17075 -0.035064 -0.17931 0.28411 0.19523 0.066262 -0.14202 0.020496 -0.26338 -0.0084452 0.072296 0.068675 0.040615 0.13641 0.076154 0.33073 -0.1462 0.047222 0.053372 0.18913 0.13322 0.057082 -0.14898 0.46331 0.0058706 -0.13801 0.058342 0.02659 0.16357 0.30513 -0.35439 -0.33864 0.090083 0.20537 0.25765 -0.35151 0.057274 -0.20861 0.026676 0.29168 0.030842 -0.26235 
ceba -0.08548 0.14383 -0.059919 -0.20489 0.14707 -0.044532 0.030966 0.012447 0.34808 0.46536 -0.043597 -0.013352 -0.27599 0.3762 -0.10141 -0.18 -0.13429 0.17294 0.076162 -0.2534 -0.26091 0.025032 0.21842 -0.0085787 -0.29546 0.17308 0.26496 -0.21752 -0.077567 0.26574 -0.21666 0.057702 -0.2722 0.1321 -0.31778 0.1172 -0.13741 -0.1156 -0.077446 -0.045955 -0.36536 0.31532 0.24015 0.095966 0.22151 -0.13079 -0.034647 -0.25536 -0.044576 -0.034803 -0.22995 -0.00012841 -0.24827 0.39413 -0.26028 -0.094167 -0.020919 -0.07665 0.17182 -0.035382 -0.18359 0.28924 0.20356 0.065377 -0.1437 0.014202 -0.26407 -0.0081237 0.069484 0.071701 0.03765 0.14386 0.081119 0.33997 -0.15275 0.054278 0.057205 0.18856 0.13446 0.056701 -0.16143 0.46674 0.01428 -0.1397 0.066196 0.034288 0.17159 0.31065 -0.36459 -0.34464 0.093874 0.20831 0.26231 -0.35561 0.062051 -0.21325 0.016974 0.30165 0.031232 -0.27094 
badu -0.14702 0.21825 -0.070886 -0.28956 0.22963 -0.051691 0.0244 0.0098047 0.52095 0.69235 -0.047422 -0.017631 -0.40282 0.55469 -0.16524 -0.28584 -0.17845 0.24877 0.11197 -0.37574 -0.39588 0.024578 0.33974 -0.0013604 -0.43665 0.27731 0.38979 -0.3061 -0.11657 0.40787 -0.31886 0.07659 -0.43889 0.18574 -0.45047 0.15647 -0.21823 -0.17306 -0.11726 -0.059049 -0.52339 0.45339 0.37044 0.13265 0.3165 -0.1753 -0.064541 -0.3586 -0.067267 -0.071385 -0.32489 0.0039347 -0.34749 0.58925 -0.38762 -0.15595 -0.025109 -0.11715 0.25503 -0.048667 -0.25718 0.40127 0.29981 0.10396 -0.2146 0.042867 -0.3984 -0.011282 0.12569 0.10331 0.058702 0.20364 0.098476 0.50761 -0.211 0.076355 0.076752 0.2731 0.19311 0.096528 -0.24166 0.70016 0.010922 -0.21577 0.095058 0.048056 0.24532 0.4746 -0.54832 -0.51716 0.145 0.29979 0.39831 -0.51957 0.083239 -0.313 0.044638 0.44163 0.043205 -0.39172 
guba -0.10128 0.17218 -0.073986 -0.2458 0.17799 -0.05276 0.035502 0.011958 0.41051 0.55425 -0.048061 -0.016272 -0.33275 0.44762 -0.12641 -0.21496 -0.16065 0.2013 0.091385 -0.30031 -0.30536 0.02987 0.26234 -0.0080051 -0.34715 0.20976 0.31462 -0.25655 -0.09316 0.31561 -0.26115 0.066292 -0.3325 0.159 -0.38017 0.14376 -0.16072 -0.13372 -0.090906 -0.05029 -0.43637 0.37022 0.29051 0.11594 0.26431 -0.15667 -0.045148 -0.29345 -0.049247 -0.038421 -0.2683 -0.00043308 -0.29267 0.4627 -0.31092 -0.11421 -0.019602 -0.088992 0.20156 -0.037711 -0.22079 0.34287 0.23957 0.073374 -0.17411 0.019009 -0.3189 -0.01331 0.08419 0.079344 0.049477 0.17116 0.089733 0.40182 -0.18432 0.059076 0.063742 0.23003 0.16171 0.069237 -0.19306 0.55877 0.0080263 -0.16553 0.076999 0.036637 0.19761 0.36554 -0.43492 -0.40881 0.11192 0.24824 0.31016 -0.42141 0.072886 -0.25488 0.024302 0.35887 0.033353 -0.31723 
sadu -0.08502 0.14037 -0.052988 -0.19451 0.14743 -0.039953 0.025704 0.013265 0.32924 0.44323 -0.035333 -0.010977 -0.26084 0.36164 -0.10413 -0.1754 -0.11779 0.1652 0.073837 -0.24402 -0.2488 0.019764 0.21009 -0.0047746 -0.28085 0.17008 0.25152 -0.19912 -0.074911 0.25718 -0.204 0.05303 -0.27276 0.12628 -0.2951 0.10959 -0.1343 -0.1108 -0.074703 -0.043137 -0.33967 0.29607 0.23771 0.089596 0.20869 -0.121 -0.035455 -0.23195 -0.042353 -0.038983 -0.21578 0.0032466 -0.22969 0.37421 -0.24715 -0.095002 -0.019905 -0.072526 0.16529 -0.031677 -0.17197 0.2669 0.18904 0.064588 -0.13335 0.020267 -0.25285 -0.010685 0.073373 0.066516 0.039773 0.13412 0.068626 0.31878 -0.14058 0.049086 0.052204 0.18331 0.12845 0.056311 -0.15264 0.44808 0.0093436 -0.13488 0.062699 0.031287 0.15793 0.29834 -0.34784 -0.32767 0.08877 0.19544 0.25359 -0.33455 0.056317 -0.20461 0.024194 0.2823 0.027756 -0.25024 
amar -0.097223 0.16297 -0.063537 -0.22879 0.16775 -0.050708 0.031805 0.011833 0.39607 0.52404 -0.041655 -0.014041 -0.31018 0.42416 -0.12074 -0.20687 -0.15058 0.19247 0.088658 -0.28466 -0.29388 0.02809 0.25054 -0.0013412 -0.3372 0.20289 0.3004 -0.23868 -0.087643 0.30536 -0.24678 0.06032 -0.31572 0.15381 -0.35366 0.12734 -0.15969 -0.13209 -0.091402 -0.050928 -0.4065 0.35133 0.28163 0.10126 0.24925 -0.14267 -0.03758 -0.28226 -0.05176 -0.044661 -0.25665 -0.0034143 -0.27433 0.44356 -0.29736 -0.11287 -0.025286 -0.087512 0.19837 -0.039803 -0.20817 0.32537 0.2274 0.074807 -0.1617 0.026466 -0.29773 -0.0099766 0.086772 0.078718 0.042496 0.16293 0.086841 0.38502 -0.16325 0.053924 0.06076 0.21746 0.14832 0.072108 -0.17964 0.5395 0.0094101 -0.16332 0.069563 0.03837 0.19393 0.35423 -0.41314 -0.39204 0.10804 0.23795 0.29563 -0.39828 0.069749 -0.24414 0.029825 0.33589 0.035878 -0.3017 
ku -0.10943 0.19181 -0.079675 -0.27585 0.20084 -0.059929 0.04077 0.019566 0.45459 0.61382 -0.04508 -0.015304 -0.36526 0.50269 -0.133 -0.23648 -0.17869 0.22442 0.10327 -0.32756 -0.339 0.033221 0.28933 -0.011197 -0.39101 0.22182 0.35835 -0.28006 -0.10516 0.35116 -0.2897 0.072298 -0.35682 0.17425 -0.42129 0.15793 -0.17806 -0.15329 -0.10536 -0.061714 -0.47902 0.42011 0.32096 0.12038 0.30198 -0.1751 -0.042353 -0.3274 -0.057743 -0.038759 -0.30429 -0.00055774 -0.33007 0.51113 -0.33704 -0.12698 -0.024088 -0.10417 0.22861 -0.043956 -0.2456 0.38117 0.26912 0.084001 -0.18852 0.016666 -0.35024 -0.01397 0.089078 0.092491 0.057773 0.19255 0.10591 0.44471 -0.19839 0.074262 0.073593 0.25803 0.17402 0.081675 -0.21465 0.61689 0.01894 -0.18477 0.082357 0.036659 0.22512 0.40456 -0.47824 -0.44929 0.12183 0.28148 0.34019 -0.47027 0.09366 -0.28148 0.025245 0.39407 0.040995 -0.35553 
saga -0.11834 0.20392 -0.080572 -0.29254 0.21039 -0.063928 0.039219 0.017531 0.47864 0.64841 -0.05733 -0.014726 -0.38263 0.5277 -0.14447 -0.25207 -0.18482 0.23942 0.10775 -0.35003 -0.36131 0.031849 0.30378 -0.011874 -0.41704 0.24236 0.37282 -0.29674 -0.11068 0.37397 -0.29894 0.082676 -0.38406 0.18792 -0.44335 0.17058 -0.19243 -0.16074 -0.11465 -0.070023 -0.50786 0.43693 0.33733 0.12782 0.3117 -0.18264 -0.044107 -0.3492 -0.059519 -0.048154 -0.32114 -0.00038892 -0.34238 0.55124 -0.36582 -0.13929 -0.0288 -0.1055 0.24687 -0.048461 -0.25694 0.39974 0.277 0.091507 -0.19829 0.022119 -0.37082 -0.019914 0.098114 0.092685 0.05379 0.20387 0.11194 0.47053 -0.21157 0.075395 0.077915 0.27329 0.18875 0.082211 -0.22318 0.65854 0.016198 -0.18677 0.090842 0.041213 0.23698 0.43249 -0.50978 -0.47895 0.12601 0.29545 0.36477 -0.50156 0.090577 -0.29864 0.030013 0.41762 0.039579 -0.37414 
mackim -0.078933 0.12917 -0.049435 -0.17571 0.13605 -0.03666 0.021999 0.011997 0.30609 0.40981 -0.032611 -0.010922 -0.24355 0.33523 -0.094437 -0.1587 -0.11585 0.14939 0.066236 -0.22402 -0.22818 0.020546 0.19434 -0.0035726 -0.26142 0.15406 0.23345 -0.18098 -0.070332 0.23713 -0.19025 0.049639 -0.24931 0.11491 -0.27524 0.10446 -0.12703 -0.10043 -0.067839 -0.039113 -0.31817 0.2727 0.21283 0.080868 0.19289 -0.11135 -0.030932 -0.2202 -0.040109 -0.032386 -0.20181 0.0015103 -0.21134 0.34515 -0.22929 -0.08851 -0.017474 -0.066745 0.15366 -0.027709 -0.15877 0.24976 0.17688 0.057637 -0.12917 0.020138 -0.23309 -0.0059227 0.066078 0.064697 0.034871 0.12814 0.06669 0.29946 -0.12807 0.045869 0.051126 0.17172 0.11358 0.053089 -0.14426 0.41484 0.0041454 -0.12231 0.056556 0.026699 0.14919 0.2759 -0.3227 -0.30252 0.082998 0.18226 0.23386 -0.31038 0.050444 -0.18571 0.025673 0.26183 0.023984 -0.23556 
muhul -0.092817 0.14087 -0.047108 -0.19009 0.15148 -0.038531 0.022838 0.013966 0.33551 0.45074 -0.030601 -0.014981 -0.26669 0.36299 -0.10798 -0.1814 -0.11841 0.16057 0.07661 -0.24951 -0.25792 0.016599 0.21974 0.00083 -0.28894 0.18523 0.25549 -0.1975 -0.07873 0.2629 -0.20739 0.051619 -0.28615 0.12816 -0.29065 0.10408 -0.14483 -0.1138 -0.076975 -0.041687 -0.33885 0.29582 0.23846 0.083182 0.20198 -0.11657 -0.042276 -0.23469 -0.043142 -0.048882 -0.21335 0.00096647 -0.22263 0.38438 -0.25517 -0.1076 -0.019087 -0.075603 0.16803 -0.033858 -0.16639 0.27082 0.19377 0.071295 -0.1433 0.030873 -0.255 -0.0052623 0.081557 0.070663 0.039667 0.13232 0.069166 0.3376 -0.13714 0.047114 0.049598 0.18396 0.12866 0.059896 -0.15658 0.45716 0.0023416 -0.1422 0.066765 0.031329 0.15636 0.31643 -0.35832 -0.33409 0.09196 0.19675 0.25826 -0.34546 0.055889 -0.20937 0.03309 0.29221 0.028403 -0.25894 
simurum -0.10105 0.17791 -0.069573 -0.25047 0.18811 -0.053009 0.030172 0.0079744 0.4244 0.56908 -0.041049 -0.014904 -0.33693 0.45878 -0.14106 -0.21988 -0.15483 0.20283 0.084574 -0.30879 -0.31491 0.027636 0.27204 -0.0018336 -0.36267 0.21956 0.3205 -0.255 -0.10285 0.32338 -0.26519 0.065105 -0.34799 0.15906 -0.38099 0.13974 -0.17905 -0.1381 -0.093481 -0.060706 -0.43711 0.378 0.29374 0.099949 0.2555 -0.1444 -0.049396 -0.30214 -0.04898 -0.048721 -0.27406 0.0074084 -0.28587 0.46803 -0.31284 -0.12518 -0.028732 -0.094308 0.20782 -0.041927 -0.21584 0.34272 0.2412 0.080626 -0.18023 0.024986 -0.3224 -0.010861 0.090483 0.092725 0.052907 0.17487 0.089788 0.41547 -0.18018 0.060027 0.062696 0.23656 0.15669 0.073211 -0.19344 0.56954 0.012156 -0.17334 0.082266 0.046958 0.20859 0.37696 -0.44121 -0.41912 0.10931 0.24827 0.32534 -0.42909 0.072467 -0.25739 0.034343 0.36903 0.033791 -0.32088 
bazi -0.084382 0.13991 -0.051414 -0.18923 0.142 -0.036633 0.022226 0.010647 0.32685 0.43806 -0.03057 -0.010753 -0.25487 0.34933 -0.10013 -0.17237 -0.12146 0.15706 0.071788 -0.23058 -0.24553 0.018995 0.20841 -0.010885 -0.27394 0.16735 0.24772 -0.1962 -0.070611 0.24946 -0.20093 0.053519 -0.26522 0.11938 -0.29345 0.10614 -0.13184 -0.10708 -0.073358 -0.043169 -0.3359 0.28988 0.22735 0.082146 0.20435 -0.11654 -0.034765 -0.23169 -0.041726 -0.039528 -0.21374 -0.0010798 -0.2241 0.36672 -0.24507 -0.095872 -0.015184 -0.069872 0.16182 -0.035474 -0.1698 0.26281 0.18541 0.061242 -0.13775 0.020604 -0.25069 -0.008206 0.072504 0.064272 0.03919 0.13352 0.069471 0.31825 -0.1384 0.04989 0.050892 0.17456 0.12064 0.050423 -0.14667 0.43875 0.0090558 -0.13211 0.062147 0.0287 0.15575 0.29175 -0.34553 -0.31868 0.091985 0.1901 0.24524 -0.32815 0.052924 -0.19878 0.026624 0.27896 0.025459 -0.25383 
gid -0.07483 0.13399 -0.050679 -0.19588 0.13736 -0.050241 0.027272 0.01424 0.32106 0.43911 -0.032964 -0.016606 -0.26292 0.35939 -0.095636 -0.17074 -0.1252 0.16074 0.074296 -0.23614 -0.23971 0.023142 0.20046 -0.0087784 -0.28113 0.16991 0.25299 -0.20453 -0.079453 0.24906 -0.20141 0.054214 -0.25251 0.13113 -0.3032 0.11174 -0.12845 -0.1133 -0.073325 -0.045869 -0.33984 0.29932 0.23082 0.089602 0.21142 -0.1251 -0.035498 -0.23418 -0.038024 -0.034069 -0.22083 0.00087678 -0.24049 0.37181 -0.25022 -0.088679 -0.014512 -0.072504 0.16901 -0.027748 -0.18152 0.27442 0.19564 0.058572 -0.13002 0.014621 -0.24787 -0.016718 0.066017 0.069321 0.041894 0.14063 0.076482 0.3222 -0.14081 0.052502 0.047446 0.18309 0.12766 0.061222 -0.14729 0.44692 0.011371 -0.12929 0.066214 0.030503 0.16773 0.29851 -0.35063 -0.32184 0.085134 0.19926 0.24726 -0.33505 0.064204 -0.19701 0.016329 0.27865 0.0368 -0.25054 
igi -0.097595 0.16949 -0.072394 -0.25307 0.17974 -0.056441 0.042537 0.01637 0.41983 0.55921 -0.049442 -0.015831 -0.33557 0.46038 -0.1199 -0.21972 -0.16178 0.20533 0.0893 -0.30943 -0.31403 0.026077 0.2658 -0.0066978 -0.35536 0.20519 0.32361 -0.25677 -0.099643 0.32016 -0.26395 0.072806 -0.33008 0.16405 -0.38646 0.14059 -0.16605 -0.14256 -0.095855 -0.050685 -0.44382 0.38135 0.2902 0.1108 0.2742 -0.15358 -0.041536 -0.3036 -0.051959 -0.041873 -0.27228 0.0021314 -0.30334 0.47532 -0.31868 -0.11411 -0.025435 -0.093373 0.208 -0.037649 -0.22592 0.34903 0.24324 0.075435 -0.16862 0.019153 -0.32228 -0.012035 0.080249 0.087591 0.048517 0.17458 0.098232 0.41315 -0.18271 0.066045 0.064195 0.23054 0.16192 0.066551 -0.19349 0.57271 0.015444 -0.16772 0.078913 0.032992 0.21406 0.37362 -0.44502 -0.41711 0.10851 0.25492 0.316 -0.43219 0.080611 -0.25954 0.024302 0.35496 0.038564 -0.32415 
urimake -0.12487 0.19121 -0.070307 -0.26603 0.20679 -0.056646 0.025484 0.012074 0.47027 0.63787 -0.042909 -0.016184 -0.3712 0.50387 -0.15055 -0.25752 -0.17148 0.22529 0.10391 -0.34743 -0.36289 0.022137 0.30674 -0.0054345 -0.39987 0.2529 0.35459 -0.28378 -0.10837 0.3704 -0.28861 0.070604 -0.39582 0.17879 -0.41652 0.14766 -0.19935 -0.15465 -0.10668 -0.056076 -0.48445 0.41933 0.34091 0.12646 0.29167 -0.16103 -0.056088 -0.33063 -0.058701 -0.060729 -0.30056 0.00089199 -0.32175 0.54044 -0.36171 -0.14389 -0.02532 -0.10175 0.23708 -0.040364 -0.24032 0.37365 0.27106 0.094851 -0.19921 0.037114 -0.36298 -0.0099106 0.11204 0.095887 0.055287 0.19576 0.093654 0.46705 -0.19392 0.06816 0.070713 0.25279 0.18708 0.083535 -0.21909 0.63909 0.0077635 -0.19428 0.089344 0.0461 0.22618 0.43835 -0.49959 -0.4637 0.13639 0.27834 0.36301 -0.47715 0.080474 -0.28795 0.04327 0.40826 0.035633 -0.35983 
abasagata -0.051171 0.08702 -0.03315 -0.12425 0.091557 -0.027294 0.016583 0.0067772 0.21039 0.28256 -0.02526 -0.0091639 -0.16612 0.22776 -0.063213 -0.10998 -0.078786 0.10407 0.045799 -0.15008 -0.15767 0.014678 0.13188 -0.0051638 -0.17923 0.10602 0.16037 -0.13038 -0.048937 0.16066 -0.132 0.031583 -0.16697 0.082234 -0.19305 0.07224 -0.084053 -0.070296 -0.049279 -0.030216 -0.22033 0.1903 0.14687 0.056426 0.1359 -0.077911 -0.022889 -0.15313 -0.026236 -0.020403 -0.13979 0.00084939 -0.1484 0.24117 -0.16027 -0.058757 -0.012459 -0.04335 0.10673 -0.022073 -0.11215 0.17348 0.12176 0.03925 -0.089968 0.01044 -0.16142 -0.0070472 0.043923 0.041309 0.022389 0.087063 0.047586 0.2069 -0.091529 0.031073 0.036138 0.11704 0.079768 0.035269 -0.096428 0.28364 0.0071803 -0.083396 0.040005 0.020826 0.10296 0.18977 -0.22218 -0.20592 0.056946 0.12762 0.15919 -0.21557 0.038894 -0.13125 0.013449 0.18042 0.017871 -0.16403 
enlila -0.10147 0.16681 -0.063863 -0.23812 0.1802 -0.048345 0.025075 0.01976 0.40583 0.55072 -0.032004 -0.016118 -0.32319 0.44912 -0.12726 -0.21851 -0.15263 0.2035 0.085899 -0.29314 -0.31029 0.023627 0.26197 -0.0034229 -0.3431 0.21121 0.31007 -0.24696 -0.084085 0.31668 -0.24832 0.062463 -0.33496 0.15602 -0.36033 0.14028 -0.16767 -0.1359 -0.094567 -0.055705 -0.41612 0.3632 0.28764 0.10296 0.25658 -0.14801 -0.049789 -0.28556 -0.05097 -0.049303 -0.26699 -0.0061317 -0.28199 0.45926 -0.30692 -0.11924 -0.029021 -0.090538 0.20024 -0.040924 -0.2089 0.32879 0.23846 0.078523 -0.16811 0.031164 -0.30909 -0.012101 0.096653 0.078829 0.047707 0.16532 0.090077 0.39958 -0.1617 0.058355 0.06556 0.22512 0.15557 0.070432 -0.18514 0.55468 0.0072969 -0.16619 0.076734 0.042438 0.19927 0.37348 -0.42983 -0.40026 0.1185 0.24279 0.31222 -0.415 0.069179 -0.24344 0.031666 0.35266 0.033341 -0.30593 
bauc -0.069744 0.11551 -0.041603 -0.15461 0.11871 -0.031862 0.020995 0.010585 0.26956 0.36226 -0.029758 -0.011569 -0.21382 0.287 -0.086404 -0.14151 -0.09749 0.13131 0.060401 -0.19277 -0.20095 0.015409 0.17219 -0.0058626 -0.22847 0.14141 0.20446 -0.15932 -0.05985 0.20815 -0.16966 0.039445 -0.22222 0.10145 -0.24037 0.086172 -0.11157 -0.089087 -0.057351 -0.034413 -0.27532 0.23862 0.19306 0.06773 0.16768 -0.095472 -0.03095 -0.19285 -0.035518 -0.033337 -0.17708 0.0020805 -0.18411 0.30426 -0.20238 -0.08152 -0.016403 -0.061398 0.13111 -0.024797 -0.13914 0.21683 0.1554 0.050933 -0.11206 0.017436 -0.20254 -0.0056626 0.06112 0.053248 0.028726 0.10528 0.056744 0.25966 -0.11017 0.043321 0.042729 0.14593 0.10279 0.04722 -0.12725 0.36146 0.0087497 -0.11015 0.052574 0.021318 0.13105 0.24214 -0.28413 -0.2649 0.074999 0.15929 0.20492 -0.2735 0.047612 -0.16277 0.020836 0.23131 0.020761 -0.20363 
