0 4 0.049674
0 5 2.49586e-07
0 6 0.582436
0 10 0.187499
0 11 0.0141265
0 17 0.00910245
0 24 0.0302399
0 25 3.84433e-07
0 28 0.0912232
0 42 0.000204631
0 89 0.000736442
0 94 0.0105148
0 95 0.023794
0 96 8.99355e-05
0 187 2.91527e-06
0 392 1.98234e-05
0 429 0.000159691
0 701 1.25489e-05
0 948 1.10639e-06
0 952 3.27477e-07
0 1324 8.96998e-06
0 1377 7.82196e-05
0 2197 5.06803e-05
0 3419 1.17138e-05
0 3686 1.61528e-07
0 3991 1.00593e-05
0 4625 1.7743e-07
2 2 0.99336
2 187 0.00132802
2 1916 0.00531208
3 3 0.328267
3 4 0.000688451
3 63 0.00555953
3 212 0.222381
3 312 0.404189
3 999 0.0111165
3 1382 0.0277977
4 4 0.13651
4 6 0.000421687
4 108 2.76283e-05
4 145 0.46753
4 160 0.251756
4 194 0.0179819
4 1537 0.0179819
4 2143 0.0179256
4 4341 0.0359638
4 4416 0.0179729
4 4422 0.0179815
4 4427 0.0179477
5 11 0.131545
5 42 0.357456
5 173 0.00144972
5 195 0.0389491
5 227 0.0677624
5 312 0.0133587
5 413 0.00913842
5 429 0.00144357
5 473 0.0346034
5 497 0.182583
5 704 0.00154094
5 705 0.0812867
5 981 6.64651e-07
5 1069 0.00155596
5 1144 0.012186
5 1160 0.0651387
5 2916 7.65533e-07
6 4 0.0309547
6 5 0.969045
7 18 0.0994736
7 24 1.45127e-06
7 124 0.135966
7 312 4.22086e-07
7 796 1.95449e-06
7 945 0.489598
7 1627 3.46893e-07
7 2025 0.175169
7 2059 3.93096e-07
7 2063 1.74314e-07
7 2729 0.0700993
7 3469 0.0148379
7 4507 3.91866e-07
7 4694 0.0148512
8 4 0.011354
8 516 0.494324
8 1136 0.164775
8 1186 0.164774
8 2630 0.164774
9 4 0.00229273
9 5 0.668168
9 7 0.00591604
9 10 1.97347e-07
9 15 0.00431498
9 17 0.012973
9 24 4.75863e-07
9 25 0.0025598
9 28 0.0832124
9 35 0.000848682
9 50 0.000850468
9 65 0.00851336
9 79 0.00084583
9 82 0.000845089
9 83 0.00172612
9 89 0.0024618
9 94 1.02607e-06
9 95 3.70728e-05
9 195 0.0136831
9 291 0.00253545
9 292 0.000845766
9 311 0.00171634
9 312 0.05507
9 341 0.000862078
9 344 0.000845462
9 373 0.000845093
9 392 0.000845109
9 429 2.11749e-07
9 460 0.00253543
9 484 3.24128e-06
9 510 0.00110282
9 533 0.00422283
9 559 0.00169031
9 666 0.00718941
9 688 0.000845151
9 730 0.000845138
9 732 0.000844539
9 733 0.0016903
9 801 0.000845142
9 839 0.000844923
9 842 0.00084515
9 857 0.0016902
9 859 0.00169027
9 948 0.000826704
9 1065 0.000845065
9 1080 0.000845126
9 1086 0.000704886
9 1094 0.000845143
9 1097 0.000646865
9 1098 0.0143675
9 1129 0.000844755
9 1242 0.00084515
9 1245 0.00253545
9 1266 0.0016903
9 1271 0.000845151
9 1324 0.0023859
9 1337 0.000845151
9 1338 0.000845151
9 1345 0.00169028
9 1350 0.000845059
9 1354 0.00817834
9 1385 0.000845151
9 1394 0.000845151
9 1402 0.000844948
9 1509 0.000150115
9 1562 0.000845151
9 1649 0.000845122
9 1934 0.000844702
9 1970 0.00169028
9 2210 0.000250386
9 2243 0.000845078
9 2247 0.000845138
9 2272 0.000845151
9 2273 0.000845138
9 2285 0.000845151
9 2286 0.000845138
9 2295 0.00170382
9 2340 0.000845151
9 2356 0.000845151
9 2365 0.000845151
9 2370 0.000845151
9 2393 0.000845151
9 2394 0.000845138
9 2398 0.000845151
9 2399 0.000845151
9 2403 0.000845138
9 2493 0.000845147
9 2519 0.000844986
9 2537 0.000126145
9 2629 0.00084642
9 2732 0.000845151
9 2768 0.000843771
9 2769 0.000844921
9 2795 0.000844957
9 2826 0.00084515
9 2827 0.00084515
9 2853 0.00084486
9 2870 0.000845147
9 2871 0.000845147
9 2893 0.000844984
9 2904 0.000845151
9 2905 0.000845146
9 2916 0.000844685
9 2989 0.000845037
9 3003 0.000845138
9 3187 0.000845151
9 3188 0.00084515
9 3189 0.000845111
9 3208 0.000845151
9 3259 0.00084515
9 3260 0.00175262
9 3275 8.915e-07
9 3326 0.00169028
9 3328 0.000845076
9 3337 0.000845068
9 3386 0.000845111
9 3392 0.000845147
9 3477 0.000814249
9 3558 0.000844791
9 3932 7.8901e-06
9 3953 0.000845151
9 3954 0.000845138
9 3969 0.000845026
9 4031 0.000844948
9 4146 0.000844957
9 4163 0.000845138
9 4309 1.57324e-07
9 4312 0.000845151
9 4391 0.000844702
9 4475 0.000845151
9 4581 0.00084515
9 4582 0.000845108
9 4625 0.000775446
10 8 0.321409
10 9 0.318073
10 312 0.357182
10 1566 0.00111211
10 1963 0.00111211
10 2001 0.00111214
11 4 0.026871
11 15 0.105053
11 187 0.691379
11 206 0.00585753
11 224 0.0286387
11 312 0.0359154
11 595 0.0409534
11 709 0.00585069
11 765 0.00585063
11 1412 1.73853e-07
11 1745 0.0175501
11 2474 0.0185283
11 3418 0.0175519
12 4 0.105388
12 11 0.197248
12 12 0.432425
12 15 0.00697359
12 187 0.0767719
12 312 0.000334668
12 595 1.57658e-06
12 995 0.0488294
12 1060 4.37817e-05
12 2349 0.00697359
12 2620 0.0836831
12 2639 0.0273807
12 2788 0.00697358
12 4335 0.00697359
13 4 6.90847e-06
13 5 0.0118908
13 14 0.0188203
13 15 0.000990087
13 16 0.340587
13 17 0.294637
13 18 0.296097
13 19 6.79061e-07
13 25 0.00193044
13 187 0.00071914
13 312 0.0160585
13 703 0.0172105
13 1464 0.000316476
13 1611 0.000365479
13 3405 3.03188e-06
13 4363 0.000366181
14 11 0.0018759
14 13 0.11917
14 14 0.0509198
14 277 0.0170242
14 312 0.0631578
14 356 0.0159332
14 413 0.340047
14 497 0.000312329
14 552 0.0851216
14 642 0.0170242
14 961 0.102146
14 2102 0.170243
14 2724 0.0170241
15 4 1.68581e-07
15 11 0.0597453
15 17 4.0719e-07
15 19 0.401157
15 20 0.0938544
15 195 1.45824e-06
15 292 0.00460812
15 312 0.035074
15 327 0.0111987
15 409 0.00202353
15 493 0.0338538
15 555 0.0867936
15 765 3.86749e-06
15 963 0.115252
15 1181 0.0373148
15 1462 0.0322617
15 1785 0.0369319
15 2680 0.0338
15 2742 0.00461008
15 2801 0.00931464
15 4204 0.00220077
16 4 0.290402
16 20 0.00999566
16 21 0.484086
16 24 9.42132e-06
16 187 0.06246
16 224 0.0156155
16 327 5.73139e-06
16 493 0.0334499
16 510 0.0156144
16 555 0.0183141
16 765 7.69456e-07
16 1785 2.05695e-07
16 2680 0.00999948
16 2801 0.0444326
16 4087 0.0156151
17 11 6.02974e-05
17 15 0.165789
17 22 0.177786
17 23 0.177786
17 24 4.97158e-05
17 312 0.478528
18 22 0.0346115
18 24 0.00681167
18 26 0.766395
18 312 0.192182
19 11 0.0173882
19 22 0.241336
19 24 0.183584
19 25 0.126393
19 27 0.322318
19 305 0.00158157
19 312 3.60428e-06
19 1823 0.0268644
19 1965 0.0268645
19 3008 0.0268011
19 4390 0.0268648
20 4 0.225103
20 6 1.2332e-06
20 10 1.56405e-06
20 29 0.65721
20 312 0.0237949
20 472 0.0563323
20 1588 0.0187792
20 1767 0.0187774
21 4 0.139188
21 11 0.120438
21 30 0.242808
21 31 0.0485611
21 312 0.0122992
21 505 0.0971029
21 1103 0.0478199
21 1135 0.0484441
21 1703 0.24334
22 4 0.0892372
22 5 0.0212808
22 6 0.00513524
22 300 0.020849
22 312 0.0742667
22 429 0.020229
22 994 0.625472
22 1103 0.122681
22 1374 0.0208491
23 4 0.00674699
23 10 4.03787e-06
23 32 0.403588
23 33 0.403588
23 1108 0.0600241
23 1928 0.0587886
23 2175 0.0672602
24 4 0.00272057
24 5 0.149703
24 34 0.299407
24 312 0.548169
25 4 0.0906515
25 11 0.179215
25 19 0.107277
25 35 0.417282
25 195 3.62359e-06
25 312 0.122913
25 1080 0.061997
25 1319 0.0071532
25 1389 0.00937608
25 1731 0.00413219
26 4 0.444872
26 25 0.00970587
26 36 0.504717
26 195 0.0212933
26 1926 0.0194122
27 4 0.237485
27 10 0.000433851
27 17 0.0620987
27 37 0.536311
27 195 0.0487555
27 586 0.0487555
27 686 0.0487555
27 1389 0.0174057
28 4 0.42528
28 10 4.31638e-06
28 38 0.573341
28 1389 0.0013756
29 4 0.0879251
29 5 0.0870459
29 11 0.0861764
29 28 0.0177335
29 137 0.174092
29 312 0.113416
29 511 0.172474
29 1972 0.0870458
29 3491 0.174092
30 4 0.245562
30 11 0.136417
30 35 0.136583
30 40 0.136846
30 312 0.070899
30 1732 0.273693
31 6 2.11103e-07
31 14 0.0605492
31 39 0.344859
31 47 0.0202858
31 166 0.0405641
31 195 0.0202858
31 267 0.00837824
31 312 0.403342
31 313 0.0408787
31 599 0.0202858
31 1539 0.0202858
31 1956 0.0202858
32 4 0.200987
32 11 0.292957
32 29 0.089226
32 312 0.0563643
32 472 0.327098
32 473 0.0247523
32 1354 0.00861539
33 4 0.261338
33 11 0.0888747
33 41 0.150708
33 296 0.0301261
33 312 0.0208405
33 851 0.361398
33 1123 0.0867141
34 6 0.143181
34 42 0.175045
34 43 0.350187
34 312 0.331588
35 6 0.12971
35 11 0.20823
35 1910 0.220686
35 3073 0.441373
36 5 0.5
36 44 0.5
37 4 5.50635e-07
37 6 2.71157e-05
37 10 4.04991e-07
37 11 0.237679
37 42 0.0236735
37 45 0.111211
37 46 0.111211
37 214 0.200179
37 312 0.0491132
37 1723 0.200179
37 3845 0.0222421
37 4060 0.0444843
38 11 0.290083
38 47 0.000149635
38 48 0.290202
38 49 0.242862
38 312 0.176703
39 5 0.000412531
39 49 0.00934044
39 50 0.83497
39 56 0.0238232
39 59 0.000457756
39 65 0.00146018
39 66 0.0736599
39 67 1.108e-05
39 88 0.0206771
39 89 0.000864326
39 100 0.00111226
39 199 0.0020577
39 230 2.19805e-06
39 231 1.27466e-05
39 249 0.00162375
39 250 2.47996e-07
39 251 2.61126e-06
39 263 0.000406091
39 270 5.19557e-05
39 273 2.46182e-07
39 276 0.00208837
39 312 6.71523e-05
39 336 0.0061612
39 375 0.00040518
39 378 0.000134451
39 627 0.00365108
39 677 1.97162e-06
39 701 0.000349257
39 888 0.000103344
39 889 0.000811029
39 1175 0.0048815
39 1340 0.000812875
39 1364 2.35073e-05
39 1595 0.00121656
39 1917 0.000406074
39 1919 0.000406048
39 1925 1.06497e-06
39 1929 7.65041e-07
39 1932 9.68956e-06
39 2040 0.000724809
39 2143 1.26589e-06
39 2210 2.14269e-06
39 2211 7.09038e-07
39 2215 0.00203047
39 2223 4.6616e-05
39 2653 2.72581e-07
39 2657 1.27807e-07
39 2751 6.63602e-06
39 2768 6.61148e-07
39 2842 0.000807923
39 2924 4.93424e-05
39 3107 0.00032256
39 3115 0.000406198
39 3116 7.30442e-06
39 3180 2.71378e-05
39 3526 0.000998367
39 3621 5.14134e-07
39 3636 0.000377461
39 3667 0.000253548
39 3726 0.000388212
39 4110 6.03979e-05
39 4123 0.000249348
39 4124 0.000307084
39 4127 3.12527e-05
39 4132 6.09446e-07
39 4134 4.70931e-07
39 4323 5.42928e-07
39 4411 1.0234e-07
39 4424 1.47857e-06
39 4438 4.12752e-05
39 4440 0.00037424
40 8 0.0634948
40 17 0.344179
40 47 0.211294
40 59 0.380969
40 313 6.25132e-05
41 22 0.334422
41 23 0.1225
41 24 0.315436
41 219 0.221097
41 312 7.63646e-06
41 510 2.25032e-07
41 765 0.00355064
41 2662 0.00298779
42 13 0.00491462
42 28 1.1281e-07
42 49 0.00246046
42 51 0.948452
42 65 0.00227625
42 113 0.00243527
42 361 0.0343999
42 497 0.000149321
42 1365 0.00245713
42 3275 0.00245438
43 4 9.12866e-05
43 52 0.532784
43 94 0.000238753
43 95 0.012483
43 96 0.00617939
43 571 0.430014
43 788 0.00605508
43 1377 0.0060984
43 3781 0.00605653
44 5 0.00102008
44 53 0.438004
44 96 0.00634863
44 130 0.00163445
44 136 0.00634772
44 173 0.228523
44 174 0.0952182
44 186 0.0317396
44 193 0.0253504
44 312 0.0323028
44 375 1.14001e-07
44 625 0.014918
44 685 0.0126956
44 854 0.0126956
44 1012 0.0126956
44 1172 0.00634775
44 1206 1.16541e-05
44 1249 0.00370529
44 1303 4.43533e-06
44 1692 0.00891098
44 1695 0.00488373
44 2212 0.00634773
44 2634 0.0062889
44 2901 0.0126954
44 2924 0.0122916
44 3663 0.00634781
44 3726 8.99739e-06
44 4036 0.0063478
44 4128 4.37494e-07
44 4542 0.00631341
45 5 6.22748e-06
45 6 0.0449964
45 18 0.318262
45 24 0.00508501
45 54 0.212174
45 60 0.106087
45 312 0.101214
45 780 0.106087
45 3456 0.106087
46 11 0.189166
46 55 0.447002
46 191 0.00745004
46 224 0.252123
46 1103 0.104258
47 4 1.65659e-05
47 11 0.00461343
47 57 0.314885
47 312 0.00455613
47 349 0.0241012
47 435 0.228178
47 1302 0.00456354
47 1304 0.0684532
47 1305 0.0319448
47 1306 0.00912709
47 1309 0.00449233
47 1312 0.00912706
47 1315 0.0136906
47 1976 0.223614
47 1977 0.0130017
47 2154 0.0456355
48 5 6.85289e-07
48 11 0.489144
48 58 0.510753
48 1693 0.000102027
49 13 3.17412e-07
49 49 0.036259
49 50 0.00574207
49 59 0.763776
49 66 7.83383e-06
49 80 1.73688e-05
49 89 0.000364431
49 94 1.06484e-07
49 98 0.0147194
49 112 0.0241148
49 118 0.0124336
49 130 1.17641e-05
49 173 1.45998e-07
49 246 1.78138e-07
49 247 0.000323054
49 248 1.84025e-06
49 259 0.0680723
49 263 0.0110389
49 270 4.11542e-05
49 271 0.000389839
49 273 3.78656e-06
49 375 6.79455e-07
49 427 9.32658e-07
49 526 0.00267588
49 627 6.61292e-06
49 652 1.2172e-07
49 656 0.0131715
49 658 3.59821e-07
49 677 1.0314e-06
49 1046 0.000730693
49 1101 0.00207601
49 1108 0.00524187
49 1188 0.00789011
49 1201 0.000661473
49 1599 2.46652e-07
49 1692 9.70987e-07
49 1908 1.44654e-06
49 1925 4.11073e-06
49 1932 6.42837e-05
49 1977 0.000115045
49 2038 1.64674e-05
49 2041 0.00678046
49 2078 0.000730691
49 2079 0.000730724
49 2102 7.24371e-07
49 2210 0.000510355
49 2211 0.000729475
49 2216 1.22519e-07
49 2225 2.24104e-07
49 2479 0.000730718
49 2546 0.00121927
49 2571 2.49411e-05
49 2581 1.01294e-07
49 2589 7.9003e-07
49 2634 3.29141e-07
49 2751 0.000101411
49 2816 0.000730752
49 2902 0.00060889
49 2953 6.49643e-05
49 2954 0.000730141
49 3107 0.000132831
49 3171 0.000650401
49 3179 1.06192e-05
49 3403 0.000171021
49 3621 3.60301e-07
49 3636 5.15273e-05
49 3637 0.00219217
49 3644 0.000730589
49 3683 0.000730695
49 3692 0.0007307
49 3698 0.000712369
49 3701 0.00146144
49 3712 0.00146117
49 3839 0.000724388
49 3938 2.19733e-05
49 4051 0.000730708
49 4109 1.08777e-07
49 4110 4.01439e-05
49 4118 2.26332e-05
49 4122 0.00189307
49 4123 0.000278349
49 4125 1.87852e-07
49 4131 1.75479e-07
49 4414 4.77623e-06
49 4424 1.91113e-05
49 4425 1.49861e-07
49 4427 1.71772e-07
49 4442 0.000730604
49 4466 0.000730686
49 4529 5.75669e-07
49 4530 0.000730632
49 4539 0.000730679
49 4701 0.000630426
50 15 9.34675e-05
50 17 0.0014488
50 59 0.0013685
50 61 0.704653
50 89 0.0189047
50 94 0.00383474
50 95 0.000762291
50 100 0.058173
50 118 0.0123188
50 173 7.46961e-06
50 177 0.0192358
50 226 0.00437655
50 229 0.00376367
50 231 0.0129244
50 233 5.14134e-07
50 248 0.00453679
50 261 0.00822546
50 279 0.0422209
50 295 0.000230078
50 427 3.16071e-05
50 510 7.10277e-06
50 526 0.000462152
50 790 0.00137091
50 791 0.00137003
50 792 0.0013709
50 793 0.00137013
50 889 3.8575e-06
50 896 6.04099e-05
50 915 0.0013706
50 1018 0.00943828
50 1161 7.20609e-05
50 1177 0.00675596
50 1201 0.00150088
50 1205 0.00137083
50 1295 5.86547e-07
50 1364 0.0122584
50 1377 0.00312082
50 1554 2.5147e-07
50 1595 5.83893e-06
50 1602 6.8784e-05
50 1603 0.00274168
50 1620 0.00685445
50 1911 1.51615e-06
50 1929 1.31122e-05
50 2040 0.000294896
50 2196 0.00411266
50 2225 3.44952e-06
50 2546 0.000452287
50 2551 1.208e-06
50 2563 1.24503e-06
50 2580 2.72955e-07
50 2595 2.50047e-05
50 2700 1.26951e-06
50 2824 1.06118e-07
50 2902 0.000168852
50 2930 0.0109672
50 3107 3.27451e-05
50 3116 0.00134625
50 3141 0.000791874
50 3171 0.00015079
50 3179 8.26901e-05
50 3437 4.49345e-06
50 3620 5.15471e-07
50 3621 5.53697e-06
50 3658 2.4925e-07
50 3691 0.0082225
50 3694 0.00136898
50 3707 0.00274175
50 3708 0.00137061
50 3712 5.43474e-07
50 3726 4.99456e-05
50 3903 5.71133e-07
50 3984 1.72461e-07
50 4040 0.00136909
50 4042 2.29228e-07
50 4050 0.00083884
50 4110 0.00102012
50 4118 0.00132793
50 4122 0.000203183
50 4127 6.8402e-05
50 4131 4.30497e-06
50 4132 6.89686e-05
50 4307 1.39929e-05
50 4308 6.24774e-07
50 4316 0.00136941
50 4405 5.4615e-07
50 4423 0.00136615
50 4424 0.00133006
50 4432 0.000558798
50 4443 0.00137005
50 4469 0.0013708
50 4503 0.000605918
50 4511 0.00136992
50 4524 0.000411384
50 4526 0.00274178
50 4527 3.0801e-07
50 4543 0.00137084
50 4595 0.00012964
50 4701 0.000187888
51 18 0.446227
51 24 0.107547
51 62 0.446226
52 13 0.67767
52 65 0.000750217
52 66 0.00139444
52 67 1.49791e-07
52 89 0.000178803
52 94 2.48107e-06
52 95 0.00119569
52 144 0.117065
52 177 1.07776e-06
52 222 1.01281e-06
52 233 1.08461e-05
52 247 0.00348067
52 248 4.99795e-05
52 250 0.000902384
52 251 0.00407815
52 256 6.84175e-07
52 257 0.0122474
52 259 0.00119899
52 260 0.00544319
52 270 0.00111009
52 273 0.00135219
52 276 0.00385742
52 277 0.0258557
52 427 0.00678305
52 429 0.00219177
52 642 0.00984608
52 644 0.00544286
52 677 3.71718e-05
52 899 4.06846e-05
52 915 1.98425e-07
52 1043 0.000670824
52 1101 0.0247113
52 1134 0.00680406
52 1140 0.0108866
52 1202 0.0176833
52 1361 0.00533258
52 1463 0.00274716
52 1554 2.93744e-07
52 1599 4.72558e-06
52 1602 0.00129255
52 1908 2.03724e-06
52 1912 0.00424842
52 2102 0.000617252
52 2160 0.000194941
52 2206 0.00788387
52 2223 0.000919036
52 2505 1.65444e-07
52 2545 0.00136083
52 2546 1.88302e-06
52 2551 6.66515e-05
52 2563 2.68834e-05
52 2572 0.00136079
52 2595 1.68225e-06
52 2599 6.66939e-05
52 2606 3.68386e-07
52 2634 1.19235e-05
52 2645 0.00136051
52 2646 8.40245e-05
52 2666 0.00278096
52 2761 0.00136083
52 2824 0.00136465
52 2842 3.15049e-06
52 2925 0.00136077
52 2953 0.00274468
52 3049 0.00136074
52 3141 0.00193547
52 3571 0.00129625
52 3618 2.55931e-05
52 3667 0.000511142
52 3672 7.75846e-07
52 3686 1.074e-05
52 3691 2.82681e-06
52 3697 0.00129976
52 3698 3.40709e-05
52 3709 1.28037e-05
52 3720 4.25708e-07
52 3722 0.00121741
52 3839 1.16633e-05
52 3903 0.00136003
52 3923 4.78343e-05
52 3984 1.83652e-07
52 3991 0.00272124
52 4122 1.25034e-06
52 4125 6.80517e-06
52 4134 1.96286e-06
52 4317 0.0027216
52 4323 2.69859e-06
52 4351 0.00136079
52 4408 6.66878e-05
52 4411 1.71307e-06
52 4412 1.7038e-06
52 4421 2.30342e-07
52 4423 4.7308e-06
52 4427 2.11138e-06
52 4432 0.000716588
52 4435 0.000172436
52 4436 0.000221544
52 4466 1.19979e-07
52 4505 0.00136072
52 4527 4.55877e-07
52 4550 0.00136078
53 5 0.0803556
53 6 1.22409e-06
53 63 0.0200953
53 95 0.0763811
53 146 0.0194641
53 272 0.020094
53 326 0.482295
53 429 0.0200556
53 442 0.100391
53 445 8.04139e-06
53 959 0.0803824
53 2027 0.0200956
53 2745 0.0200955
53 4507 0.0200946
53 4508 0.0200956
53 4617 0.0200955
54 24 1.49078e-07
54 64 0.59775
54 227 3.81369e-06
54 228 0.117506
54 252 0.00766343
54 253 0.0153268
54 254 1.51457e-07
54 265 6.65656e-05
54 266 0.0434262
54 343 9.26916e-06
54 370 0.0306538
54 429 0.00255261
54 497 0.00260337
54 565 0.00255447
54 570 0.0383173
54 662 0.00255445
54 668 0.000116585
54 681 0.00255434
54 787 0.00510892
54 1014 0.00284591
54 1019 0.00255441
54 1045 0.00019421
54 1121 0.00766343
54 1358 0.00255439
54 1377 7.97745e-07
54 1600 0.00255432
54 1605 0.0178813
54 1696 0.00252289
54 1918 0.00276806
54 2059 0.00107123
54 2611 0.00255445
54 2625 0.00254215
54 2671 0.00510897
54 2841 0.00255442
54 3084 0.00232661
54 3437 0.00254586
54 3620 0.000232019
54 3643 0.00255415
54 3674 0.00510885
54 3693 0.00255439
54 3694 3.48464e-06
54 3695 0.00255441
54 3697 0.000114636
54 3724 0.00255441
54 3928 0.00510892
54 4009 0.00510895
54 4025 0.00510884
54 4042 0.000129309
54 4111 0.0025544
54 4121 8.59235e-06
54 4125 0.00253872
54 4131 0.00251713
54 4132 0.00228061
54 4136 0.00255443
54 4171 0.00510895
54 4315 0.00766341
54 4405 0.00156394
54 4421 7.85448e-05
54 4503 0.00142541
54 4531 0.00158479
54 4551 0.00255445
54 4595 0.00231292
54 4615 0.00255428
54 4668 0.00255434
55 5 0.340733
55 65 0.579868
55 228 0.00532027
55 484 0.0427564
55 698 0.00532029
55 888 0.000267013
55 2743 0.0053203
55 2893 1.04108e-06
55 2988 0.00531957
55 3419 1.17404e-07
55 3639 0.00531978
55 4129 0.0053202
55 4436 0.00445394
56 13 0.00166593
56 49 0.000829444
56 50 1.58447e-07
56 67 0.770171
56 89 0.00850239
56 94 0.00415513
56 95 0.00142845
56 96 0.000209112
56 199 0.0240245
56 229 0.000224557
56 230 0.00201027
56 232 0.0148739
56 245 0.0594933
56 249 1.27604e-06
56 250 1.32123e-05
56 254 0.00547408
56 256 1.20394e-07
56 258 0.00250465
56 265 0.00328373
56 276 1.76399e-05
56 343 3.1763e-07
56 375 9.84455e-07
56 378 0.00877066
56 636 1.23388e-07
56 652 0.00743989
56 674 0.000826265
56 888 0.00140087
56 896 0.00905314
56 899 0.000801621
56 1039 0.00596965
56 1043 0.000295842
56 1161 1.38085e-07
56 1188 0.00275171
56 1377 0.00421882
56 1379 5.52588e-07
56 1692 1.62039e-06
56 1908 3.50846e-07
56 1919 1.00947e-07
56 1925 0.000819155
56 1928 0.000930412
56 1929 0.00081686
56 1932 0.000733917
56 2038 2.63904e-07
56 2160 0.000707939
56 2217 0.00166274
56 2223 0.000160019
56 2225 8.00337e-07
56 2226 0.00165261
56 2581 2.94778e-07
56 2589 0.000825433
56 2590 0.00537744
56 2646 0.0124286
56 2659 0.00283159
56 2672 0.000826316
56 2700 2.94545e-07
56 2713 0.000826284
56 2751 0.000715143
56 2769 1.3076e-07
56 2902 3.60217e-05
56 2954 4.02588e-07
56 3053 0.000826281
56 3060 0.000826303
56 3180 0.0016778
56 3559 0.000826191
56 3571 3.916e-05
56 3620 1.49066e-07
56 3621 1.28466e-06
56 3659 0.00413153
56 3672 0.00238297
56 3686 0.00168884
56 3687 0.000826296
56 3709 0.000818408
56 3720 0.000826009
56 3726 5.08977e-06
56 3965 0.00165255
56 4022 0.00513593
56 4025 0.000825636
56 4050 0.000320651
56 4126 6.66997e-07
56 4308 0.000825879
56 4316 3.57447e-07
56 4412 4.68674e-06
56 4416 1.03738e-07
56 4435 0.000721568
56 4441 0.000826306
56 4524 0.000578312
56 4527 0.000808506
56 4537 0.00165255
57 68 0.992126
57 429 1.14114e-07
57 3657 0.00787394
58 42 0.0123681
58 69 0.813341
58 195 0.00726547
58 1342 1.36961e-07
58 2091 0.116192
58 2823 0.0435718
58 4179 0.00726197
59 70 0.88884
59 96 0.00220859
59 111 0.0832861
59 159 0.00355636
59 229 0.00221195
59 654 0.00221194
59 952 0.008837
59 4355 0.00442393
59 4565 0.00221195
59 4660 0.00221196
60 4 0.00289359
60 25 0.00218712
60 28 1.34316e-07
60 71 0.0588212
60 95 3.66471e-06
60 99 0.253046
60 187 3.59227e-06
60 312 0.048729
60 392 0.62508
60 788 0.00218074
60 789 3.95481e-07
60 794 0.00218038
60 1097 0.0005118
60 1550 0.00218143
60 2038 0.00218069
61 4 0.158733
61 72 0.819877
61 312 0.0118639
61 3991 0.00952635
62 4 0.110547
62 11 0.242936
62 15 0.0196641
62 73 0.157315
62 92 0.0393287
62 308 0.0589931
62 312 0.115598
62 313 3.43242e-07
62 380 0.0786381
62 702 0.0393287
62 1367 0.13765
63 4 0.000197544
63 6 1.58639e-07
63 74 0.094147
63 312 0.00874403
63 434 0.499448
63 517 0.266093
63 1186 0.0785811
63 1335 0.0266059
63 1874 0.00204599
63 2006 2.8372e-06
63 2008 0.0020469
63 2147 7.99661e-06
63 3853 0.0204685
63 4518 0.00161106
64 4 0.000508106
64 75 0.72561
64 81 0.0558054
64 165 0.0345532
64 312 0.18352
64 3437 2.50271e-06
65 11 0.409763
65 76 0.0440714
65 77 0.224901
65 78 0.00829294
65 118 2.91167e-07
65 132 0.0282714
65 195 0.162676
65 316 0.0855026
65 317 0.0159977
65 583 0.000146874
65 2796 0.00619412
65 2805 0.0141792
65 4097 3.51028e-06
66 4 1.80969e-05
66 11 0.116986
66 16 4.04194e-07
66 50 0.0609504
66 56 3.87439e-05
66 66 0.0182828
66 76 1.03015e-05
66 77 6.96004e-07
66 227 0.000125558
66 312 0.0316564
66 336 1.24783e-05
66 356 4.72547e-05
66 413 0.314044
66 473 0.013647
66 510 0.0122009
66 520 0.0610046
66 564 0.0610046
66 625 0.087846
66 701 0.0121822
66 1185 0.0427032
66 1206 0.0731943
66 1249 0.033042
66 1571 0.0122009
66 2043 0.0305023
66 4097 0.00609829
66 4176 0.00610044
66 4177 0.00610027
67 4 1.4588e-05
67 11 5.41435e-06
67 14 0.0344597
67 49 0.0943854
67 59 0.0919092
67 77 0.0524424
67 78 0.0602421
67 137 0.0122033
67 259 0.00620522
67 263 0.00612821
67 312 0.0419933
67 317 0.126914
67 356 0.110303
67 376 0.0367695
67 413 0.164999
67 497 4.44937e-05
67 510 0.0245129
67 697 0.00612824
67 1046 0.0061282
67 1190 0.024513
67 1203 0.0428978
67 1486 0.00612824
67 1571 0.0181854
67 2041 0.0183848
67 2538 0.00107079
67 2796 0.000776124
67 3746 0.00612824
67 4097 0.00612739
68 11 0.00453945
68 17 0.317066
68 72 0.331356
68 79 0.2531
68 165 0.0600181
68 183 0.0208743
68 1571 0.0052186
68 3290 0.00260928
68 4472 0.0052186
69 80 0.552075
69 100 0.000115735
69 102 0.0487126
69 194 0.0844351
69 221 0.00699745
69 246 0.0032466
69 274 0.00970933
69 275 0.0357179
69 280 0.00974248
69 464 0.00649496
69 655 0.00324737
69 668 0.00309906
69 669 0.00324746
69 691 0.00324742
69 796 0.00974202
69 891 0.00324742
69 899 0.00324748
69 1045 0.00632217
69 1156 0.00324742
69 1176 0.00649492
69 1220 0.01299
69 1295 0.025976
69 1303 0.00324516
69 1307 0.0324105
69 1599 0.00323513
69 2179 0.0029248
69 2204 5.21574e-07
69 2209 1.60311e-07
69 2214 0.0032475
69 2225 0.00323492
69 2228 0.00324735
69 2462 0.0162374
69 2509 0.00324733
69 2548 0.0155731
69 2568 0.00324746
69 2580 0.00263026
69 2606 0.00262997
69 2636 0.00324681
69 2725 2.66576e-07
69 2798 0.00649452
69 2903 0.00324742
69 3090 0.00324743
69 3164 0.00324744
69 3696 0.00324742
69 3713 0.00324742
69 3716 0.00324744
69 3717 0.00324744
69 3721 0.00324743
69 3722 0.000342248
69 3723 0.00324739
69 3802 0.00076174
69 3809 5.48512e-06
69 3840 0.00324745
69 4042 0.00025622
69 4052 0.00323001
69 4122 0.000844809
69 4128 8.14955e-06
69 4133 0.0005663
69 4134 0.00311663
69 4135 1.40942e-05
69 4319 0.00242109
69 4414 0.0032261
69 4419 2.89742e-05
69 4425 0.00324454
69 4443 1.86353e-06
69 4502 0.00324737
69 4615 1.90033e-07
70 4 0.0024611
70 82 0.166257
70 83 0.166257
70 84 0.166256
70 3029 0.498769
71 11 9.74793e-07
71 59 3.61095e-06
71 72 0.554015
71 312 0.0103729
71 1056 0.35571
71 1069 0.0138503
71 1251 0.0138504
71 2146 0.0106442
71 2721 0.0138535
71 2725 0.0138485
71 4094 0.0138504
72 17 0.000148419
72 85 0.947363
72 288 0.00101645
72 312 0.0368162
72 732 3.03421e-06
72 1706 0.000474781
72 2628 0.00998348
72 2853 1.23257e-06
72 2862 0.00419116
72 3734 2.04299e-06
73 4 0.00516615
73 47 0.0590823
73 86 0.354494
73 312 0.344928
73 2123 0.236329
74 4 1.67094e-05
74 87 0.827436
74 666 0.000164419
74 1149 0.10343
74 2404 0.0344765
74 4602 0.0344765
75 4 0.148377
75 90 0.0792818
75 95 0.138084
75 185 0.634257
76 50 2.08963e-07
76 89 0.581119
76 94 0.315054
76 95 0.0662717
76 312 0.00113024
76 392 0.00379672
76 788 2.91934e-07
76 789 0.000945745
76 1015 2.2985e-07
76 1104 0.00283774
76 1377 0.0220219
76 1770 0.000945937
76 3419 2.60459e-05
76 3800 0.000945838
76 3801 0.00094585
76 3802 0.000724007
76 3805 0.00126949
76 3808 0.00094582
76 3809 0.000944253
76 4118 1.35232e-07
76 4625 7.46983e-05
77 11 0.00252124
77 17 0.484538
77 64 0.00126626
77 91 0.404019
77 209 0.0455946
77 701 5.9596e-07
77 950 0.0164647
77 1133 0.0430616
77 3890 0.00126651
77 4333 0.00126652
78 8 0.219099
78 11 0.311551
78 28 4.89011e-07
78 92 0.187799
78 308 0.125199
78 312 0.0311527
78 510 0.0625996
78 873 0.0156499
78 1571 0.0156499
78 2538 0.0156499
78 3528 0.0156499
79 4 0.00256691
79 93 0.284981
79 1013 0.712452
80 4 0.00122705
80 5 1.14844e-06
80 42 2.07184e-05
80 70 0.0011847
80 95 6.02861e-06
80 96 0.594916
80 236 0.0439213
80 392 0.00219679
80 429 6.77913e-06
80 602 1.99074e-07
80 619 0.0851509
80 621 0.203809
80 1378 0.0663711
80 1957 2.62825e-06
80 3650 0.00118519
80 3994 2.09573e-07
81 4 0.186221
81 35 0.0388275
81 94 0.0926198
81 95 0.0972635
81 200 0.000250488
81 201 0.34945
81 224 0.0388815
81 312 0.00236665
81 349 0.0388277
81 399 0.0388278
81 429 0.0776364
81 4570 0.0388275
82 97 0.8
82 4623 0.0999999
82 4698 0.0999998
83 4 0.383345
83 74 0.000136167
83 101 0.554822
83 1335 5.05365e-05
83 3533 0.0616468
84 4 0.338526
84 50 0.0193883
84 53 0.00967429
84 95 0.070224
84 104 0.329771
84 146 0.00956911
84 1495 0.116083
84 2045 0.0386949
84 2667 0.0677161
84 3477 0.000352812
85 18 0.115165
85 24 8.68609e-07
85 94 0.120494
85 103 0.383884
85 104 0.303679
85 1499 0.0383877
85 4699 0.0383884
86 4 0.417804
86 11 0.00956971
86 105 0.401898
86 137 0.026793
86 138 0.0104987
86 312 0.0262634
86 1473 0.0267932
86 1678 0.0535864
86 2148 0.0267932
87 4 0.0639143
87 11 0.267353
87 106 0.267493
87 107 0.267493
87 225 0.0668733
87 1257 0.0668733
88 4 9.77899e-07
88 11 1.14558e-07
88 15 0.872407
88 82 0.0206393
88 108 0.104474
88 312 1.17335e-05
88 584 5.61934e-07
88 1487 1.4224e-06
88 2153 3.60137e-06
88 2473 0.00246111
89 108 5.19651e-05
89 109 0.669063
89 699 0.330885
90 28 0.440836
90 110 0.559164
91 15 0.00880215
91 68 0.00568311
91 113 0.950633
91 287 0.00880214
91 429 0.00873079
91 497 9.65284e-06
91 1029 0.00880215
91 3938 0.00853739
92 108 3.05277e-05
92 114 0.999969
93 28 0.315364
93 115 0.684636
94 4 0.0217964
94 65 0.000159273
94 94 0.0108305
94 95 0.170566
94 96 0.0158
94 117 0.630011
94 132 0.000184409
94 312 0.0452351
94 670 0.0314887
94 1377 0.0580121
94 3644 3.50568e-06
94 3661 0.0159127
95 95 0.0204405
95 116 0.0466147
95 132 0.000646969
95 1186 0.0466149
95 1436 0.18646
95 1597 0.279689
95 3406 0.18646
95 3853 0.233074
96 108 1.01222e-05
96 119 0.33333
96 1258 0.33333
96 1827 0.33333
97 6 7.63626e-05
97 11 2.27797e-06
97 17 0.158715
97 42 0.0210969
97 95 9.37028e-07
97 120 0.185137
97 312 0.0332754
97 329 0.0462843
97 841 0.32399
97 2292 0.0231422
97 2342 0.0462839
97 2515 0.161995
98 121 0.910592
98 429 0.000422595
98 497 0.0355536
98 2143 0.0178545
98 3621 0.0177234
98 4533 0.0178541
99 11 0.333149
99 122 0.333362
99 123 0.333489
100 122 0.334774
100 124 0.330581
100 222 0.334645
101 4 0.000133426
101 125 0.249967
101 312 0.249967
101 1327 0.499933
102 10 0.00197625
102 126 0.499012
102 312 0.499012
103 11 0.258676
103 127 0.217288
103 343 0.100168
103 604 0.100222
103 1727 0.215764
103 1901 0.107882
104 11 2.26748e-05
104 24 0.00361515
104 42 5.8867e-05
104 83 0.00121922
104 122 0.0935258
104 187 0.00359251
104 311 0.818172
104 312 0.0674569
104 510 0.00258213
104 795 0.00487731
104 893 0.00487733
105 108 0.331732
105 127 0.331755
105 128 0.336513
106 10 9.60136e-05
106 25 0.124988
106 129 0.749928
106 195 0.124988
107 50 1.32722e-05
107 56 0.00337668
107 64 3.84719e-07
107 80 0.00337677
107 130 0.11481
107 136 0.0405212
107 227 0.00327093
107 244 0.0101302
107 464 0.509892
107 673 0.00268397
107 685 0.0270141
107 690 0.00675346
107 981 2.22203e-05
107 1022 0.0101241
107 1159 0.0067535
107 1162 0.00337667
107 1182 0.0506462
107 1379 0.00384662
107 1924 0.00337674
107 1933 0.0101301
107 1936 0.013507
107 2159 0.00337665
107 2216 0.00337612
107 2224 0.00337663
107 2504 0.00337663
107 2622 0.00541821
107 2625 1.62547e-05
107 2626 0.0067535
107 2634 0.0337665
107 2636 6.87786e-07
107 2647 0.00675348
107 2648 0.00337644
107 2750 0.0067535
107 3046 0.00337674
107 3084 0.000301125
107 3106 0.0202606
107 3142 0.00675343
107 3156 0.00675348
107 3403 0.00294391
107 3543 0.00337665
107 3655 0.00337674
107 3706 0.00337666
107 3718 0.00337668
107 3725 0.00337669
107 3774 0.00337669
107 3804 0.00337653
107 3805 0.00222154
107 3810 0.00337656
107 3939 0.00337672
107 4036 0.00675347
107 4052 1.81165e-05
107 4121 0.00336536
107 4174 7.72467e-06
107 4317 0.00337673
107 4332 0.00337673
107 4433 0.00337428
107 4510 0.00337674
107 4511 2.19882e-06
107 4563 0.00337669
107 4668 1.40851e-07
108 4 0.183988
108 10 0.00643573
108 131 0.809576
109 18 0.120349
109 24 4.29942e-06
109 67 0.0390194
109 95 0.0387374
109 100 1.01547e-06
109 132 0.120349
109 141 0.0401162
109 224 0.0396783
109 3412 0.44128
109 3662 0.120349
109 4058 0.040116
110 4 0.222036
110 133 0.518629
110 399 0.259335
111 4 0.0908187
111 6 0.000183641
111 10 0.0015982
111 17 0.0898867
111 95 0.0462711
111 134 0.0908521
111 312 0.0444247
111 955 0.0908521
111 1891 0.0908521
111 2809 0.181704
111 3002 0.272556
112 10 0.0540497
112 42 0.00021905
112 135 0.945731
113 4 0.0671671
113 94 0.0856653
113 95 0.111346
113 117 0.339635
113 312 0.00011381
113 392 0.110385
113 447 0.0499545
113 1328 0.0899181
113 1377 0.016493
113 3660 0.0899182
113 3686 0.00944239
113 4373 0.00999085
113 4498 0.00999059
113 4529 0.00997997
114 4 0.298465
114 42 0.0233747
114 59 5.90397e-05
114 138 0.0047697
114 312 1.27519e-05
114 336 0.0144647
114 436 0.0078428
114 643 0.344522
114 1496 0.0313715
114 1733 1.60843e-06
114 1980 0.211758
114 1989 0.00783957
114 2147 0.0313404
114 2668 0.00065002
114 4141 0.0235286
115 11 0.334495
115 17 0.0261478
115 22 4.04634e-07
115 139 0.351336
115 387 0.0351334
115 598 0.0452422
115 619 0.0323439
115 1573 0.0351336
115 2048 0.0351318
115 3439 0.0702672
115 3440 0.0347683
116 4 0.299101
116 10 0.0313908
116 140 0.334754
116 1256 0.334754
117 5 0.5
117 142 0.5
118 4 0.047593
118 10 0.000529151
118 11 0.607225
118 818 0.344653
119 17 0.056597
119 143 0.0976175
119 195 0.0325392
119 312 0.129924
119 465 0.585705
119 1025 0.0650783
119 4218 0.0325392
120 4 0.0682016
120 95 0.065858
120 146 0.297545
120 147 0.148772
120 154 0.148772
120 325 0.148772
120 327 0.0476927
120 3986 0.0743861
121 4 0.492983
121 148 0.507017
122 4 0.400149
122 11 0.0278776
122 13 8.78772e-06
122 312 0.0584135
122 440 0.243252
122 445 3.02429e-06
122 828 1.55793e-05
122 977 0.243253
122 981 0.027028
123 6 1.96213e-06
123 10 0.000554233
123 28 0.206388
123 149 0.269471
123 150 0.0898238
123 195 0.164289
123 335 0.179648
123 3893 0.0898236
124 151 0.0285714
124 329 0.142857
124 1300 0.8
124 2107 0.0285714
125 10 0.000150238
125 152 0.99985
126 4 0.00297659
126 32 0.373884
126 153 0.498512
126 175 0.124628
127 39 0.407049
127 42 0.128026
127 248 3.04959e-07
127 274 0.00029629
127 526 3.01192e-05
127 528 0.0290747
127 636 0.0290678
127 1627 0.0872244
127 1628 0.0290748
127 2039 0.0290748
127 2459 0.0290749
127 2751 0.0284757
127 3406 0.087225
127 3705 0.05815
127 3853 6.35437e-06
127 3985 0.05815
128 4 0.615928
128 95 0.168245
128 155 0.0456961
128 1377 0.0765933
128 3608 0.0935378
129 4 0.000214062
129 65 0.0650651
129 155 0.423705
129 200 0.324932
129 1377 7.9824e-07
129 1379 0.0559681
129 3984 0.0650467
129 4571 0.0650685
130 4 0.18944
130 11 0.131957
130 156 0.339301
130 157 0.339301
131 4 0.414332
131 6 2.85774e-05
131 158 0.585479
131 1080 0.000160768
132 6 5.31853e-05
132 17 0.51346
132 79 3.142e-05
132 159 0.000116116
132 3510 0.48634
133 111 0.172322
133 159 0.824687
133 1188 0.00299103
134 6 0.000258249
134 11 0.362752
134 35 0.0303423
134 130 0.0604881
134 161 0.333765
134 195 0.121367
134 312 0.0303423
134 1273 0.0303422
134 2918 0.0303423
135 4 1.50987e-05
135 11 0.014239
135 162 0.0854785
135 195 0.00865862
135 312 0.00910962
135 326 0.350706
135 548 0.0897155
135 711 0.0815595
135 715 0.0261236
135 765 0.00815595
135 912 0.187587
135 990 0.0978714
135 1500 0.0326238
135 2013 0.00815595
136 32 0.0525612
136 42 0.158134
136 163 0.0526156
136 165 0.210484
136 434 0.0526205
136 813 0.420964
136 1724 0.0526205
137 6 4.97265e-06
137 11 0.13219
137 163 1.34892e-05
137 164 0.144627
137 1543 0.43388
137 1819 3.1783e-05
137 2802 0.144627
137 3322 0.144627
138 11 0.18724
138 19 0.0161055
138 47 0.0652483
138 79 0.167298
138 165 0.0209113
138 166 0.439229
138 313 0.103968
139 17 0.43023
139 61 0.336468
139 100 0.110931
139 165 4.87553e-06
139 167 0.112156
139 313 0.0102104
140 4 0.311148
140 11 6.15244e-07
140 47 9.10693e-07
140 50 0.000721155
140 166 0.0963187
140 168 0.0388233
140 197 0.0137296
140 288 0.233655
140 289 0.238673
140 313 0.0503126
140 473 7.14991e-05
140 2567 0.015098
140 2608 0.00143787
140 4049 9.95531e-06
141 4 0.0420151
141 17 0.017989
141 169 0.743412
141 312 0.0903824
141 1061 0.0424807
141 4095 0.063721
142 28 0.141593
142 108 7.99222e-05
142 170 0.858327
143 4 0.267738
143 6 0.000184542
143 171 0.644396
143 195 0.0498495
143 312 0.0378327
144 8 0.0541612
144 14 0.0541273
144 17 0.214183
144 47 0.186888
144 67 0.216645
144 167 0.108322
144 195 0.0541612
144 312 0.057351
144 2659 0.0541612
145 4 0.0513562
145 47 0.474302
145 172 0.474342
146 59 0.00829303
146 64 0.00848502
146 66 0.00847881
146 89 1.33012e-07
146 130 0.00848516
146 173 0.483656
146 186 0.135762
146 193 0.0509111
146 227 0.00841883
146 464 0.00848519
146 510 4.31406e-06
146 682 0.0084851
146 854 0.0169703
146 919 0.00848507
146 1052 0.00848514
146 1695 0.0254555
146 1921 0.00848509
146 1922 0.00848505
146 2205 0.00848505
146 2212 0.0339407
146 2227 0.00848514
146 2640 0.00848515
146 2924 0.00799431
146 3618 0.00832561
146 3643 1.11161e-06
146 3665 0.0169701
146 3702 0.0169703
146 3807 0.00848497
146 3905 0.00848514
146 4109 0.00848389
146 4415 0.0254554
146 4419 0.00840938
146 4421 0.00822267
146 4509 0.00848518
146 4552 0.00848509
147 176 1
148 18 0.304311
148 24 0.0870669
148 178 0.304311
148 179 0.304311
149 4 0.0499966
149 28 0.00041882
149 42 0.058562
149 180 0.118805
149 832 0.475219
149 1464 0.0593902
149 1944 0.178207
149 2234 0.0594023
150 4 0.176787
150 32 7.83703e-05
150 94 0.0580858
150 182 0.20865
150 312 0.0695499
150 425 0.0695499
150 426 0.0695498
150 430 0.0695498
150 518 0.0695499
150 2182 0.0695499
150 2717 0.0695497
150 3030 0.0695499
151 4 0.00424808
151 165 0.331551
151 181 0.664201
152 4 0.0425388
152 15 0.0380455
152 94 0.0743484
152 184 0.532649
152 312 0.166838
152 329 0.0380464
152 429 0.0377004
152 621 0.03174
152 2133 0.0380456
152 3082 4.74927e-05
153 11 0.31578
153 122 0.0555279
153 187 0.0555091
153 188 0.190343
153 680 0.133019
153 1412 0.249821
154 11 0.101578
154 187 0.0606468
154 189 0.0941994
154 224 0.105178
154 235 0.340123
154 312 0.050363
154 1145 0.0309203
154 1851 0.0618405
154 1852 0.0309203
154 2084 0.0314706
154 2965 0.0309202
154 2966 0.0309201
154 4365 0.03092
155 190 0.531794
155 430 0.213356
155 3535 0.121901
155 4059 0.132949
156 191 0.5
156 192 0.5
157 45 0.472212
157 195 0.433345
157 4703 0.0944426
158 195 0.00504004
158 196 0.663196
158 259 0.000166547
158 3449 0.331598
159 4 0.126388
159 17 0.10865
159 198 0.764962
160 28 0.000388342
160 202 0.583956
160 312 0.415656
161 4 0.497259
161 203 0.502741
162 4 2.67405e-06
162 6 7.48196e-07
162 17 0.0884481
162 25 0.0130525
162 95 5.21812e-07
162 204 0.430734
162 312 0.0500938
162 329 0.0130525
162 557 0.208841
162 568 0.130525
162 1049 0.0652496
163 4 7.08895e-06
163 6 0.000128789
163 11 0.427977
163 28 4.21702e-06
163 205 0.285914
163 312 5.41318e-05
163 349 0.0714786
163 405 0.0714786
163 946 0.0714786
163 2232 0.0714785
164 4 0.467488
164 187 0.0153775
164 206 0.517134
165 6 1.21259e-06
165 94 0.0014337
165 95 1.61519e-05
165 207 0.794724
165 312 0.168504
165 329 0.0176605
165 1174 0.0176605
166 28 0.372029
166 208 0.627971
167 28 2.5385e-06
167 82 0.499999
167 210 0.499999
168 4 0.000383717
168 11 0.151565
168 17 0.296461
168 19 0.0111415
168 80 0.0110136
168 92 0.0167123
168 211 0.0612784
168 380 0.0222831
168 702 0.367661
168 1034 0.00557017
168 1353 1.80129e-06
168 1681 0.0290196
168 2212 0.00557077
168 2818 0.00557077
168 2819 7.61929e-06
168 3177 7.46545e-06
168 3179 0.00515367
168 3180 0.00502461
168 4425 3.76242e-06
168 4564 0.00556989
169 4 0.422976
169 6 1.82217e-05
169 213 0.432754
169 494 0.144251
170 4 0.0141371
170 5 0.00104902
170 11 0.00144038
170 15 0.0789388
170 17 0.0136224
170 18 0.0211723
170 25 0.0524619
170 137 9.07663e-06
170 215 0.0512219
170 312 0.0843797
170 332 0.664173
170 356 0.0144096
170 1571 3.40108e-05
170 2538 0.00190675
170 4678 0.00104398
171 16 0.0192343
171 17 0.130291
171 18 0.28567
171 24 0.257044
171 216 0.15388
171 546 0.0769401
171 1941 0.03847
171 2149 0.019235
171 2697 0.019235
172 13 0.0483279
172 217 0.0966559
172 220 0.0483278
172 312 0.154261
172 418 0.459115
172 765 7.59519e-07
172 833 0.0724919
172 1471 0.0483279
172 2698 0.0724919
173 4 0.33632
173 5 0.00736199
173 195 0.0697025
173 218 0.524729
173 312 0.027869
173 765 0.00807993
173 2680 0.0166342
173 2801 0.00930291
174 10 0.0623847
174 18 0.00684191
174 222 0.917087
174 505 0.00684202
174 2223 1.23266e-07
174 2751 2.59114e-07
174 3585 0.00684366
175 5 0.0119931
175 223 0.226875
175 224 0.429484
175 250 0.00382347
175 272 9.16032e-07
175 273 6.55826e-06
175 444 0.0529922
175 1044 0.262698
175 1554 0.0119331
175 2223 0.000192851
175 2225 9.63284e-07
176 65 0.0138839
176 222 0.699587
176 224 0.0609094
176 312 0.00623348
176 444 0.0299492
176 981 0.165706
176 1043 0.00112109
176 1103 0.00756462
176 2208 0.00752292
176 2209 0.00752253
177 11 0.0335512
177 17 0.322037
177 49 3.36376e-06
177 79 0.268117
177 165 0.00470381
177 167 0.0211672
177 225 0.322211
177 510 0.00469014
177 1011 0.00235189
177 2543 0.00940756
177 2544 0.00940755
177 4328 0.00235182
178 224 0.297675
178 230 0.0433672
178 233 0.046703
178 234 0.423894
178 256 0.047063
178 2207 0.047099
178 2722 0.0470994
178 2727 0.0470994
179 236 0.450686
179 237 0.0371479
179 296 0.0858176
179 360 0.346424
179 444 0.00486283
179 473 1.10251e-06
179 946 0.0153295
179 981 0.00306113
179 1005 0.00306557
179 1062 1.02249e-06
179 1401 0.0280542
179 3797 0.00919771
179 3825 0.00306589
179 4286 0.00944059
179 4319 0.000780054
179 4593 0.00306551
180 50 0.049784
180 64 0.00261478
180 66 0.0105105
180 159 0.00152784
180 173 0.000103538
180 195 0.00362772
180 227 0.518936
180 237 0.248048
180 295 0.00481671
180 360 0.00102233
180 413 0.020474
180 427 6.85698e-05
180 444 0.00260182
180 497 0.0599844
180 644 4.09249e-07
180 658 0.00261351
180 1011 0.00261501
180 1062 0.00261421
180 1696 3.21858e-05
180 1908 0.00260443
180 1911 0.00261208
180 2206 0.000539715
180 2551 0.00248467
180 2563 0.00256102
180 2571 0.00252915
180 2580 0.000496426
180 2581 0.00261343
180 2595 0.00256413
180 2599 0.00248658
180 2606 0.00049646
180 2622 0.00103391
180 2639 0.0132664
180 2700 0.00261138
180 3403 0.00218842
180 3653 0.00261508
180 3841 0.00261509
180 3923 0.0103678
180 3940 1.2015e-06
180 4040 3.48129e-06
180 4323 0.00260629
180 4405 0.00101282
180 4408 0.00248656
180 4411 0.00261111
180 4412 0.00259695
181 4 0.0967679
181 11 0.382057
181 15 0.318826
181 238 0.0748193
181 1070 0.0637651
181 2230 0.0637651
182 238 0.445784
182 239 0.461795
182 240 6.26122e-05
182 2229 0.092359
183 6 1.48631e-05
183 10 0.000781654
183 42 0.0587029
183 240 0.293879
183 241 0.293919
183 1613 0.293919
183 2231 0.0587836
184 4 0.300591
184 11 0.228298
184 15 0.00400292
184 17 0.0102587
184 79 0.00476923
184 225 0.3687
184 251 0.00399321
184 312 0.00704496
184 1007 0.0200329
184 1011 0.00802368
184 2005 0.00400654
184 3004 0.0400659
184 3526 0.000213173
185 4 0.000480493
185 11 0.00599355
185 242 0.372572
185 243 0.372572
185 434 0.124191
185 2007 0.124191
186 5 0.5
186 82 0.25
186 255 0.25
187 11 0.0646927
187 15 0.0781345
187 224 0.232079
187 1957 0.0781368
187 1958 0.0781365
187 2701 0.468821
188 5 0.260714
188 10 0.101787
188 11 0.376785
188 4142 0.260714
189 262 0.302535
189 312 0.470566
189 1946 0.0756328
189 1947 0.0756334
189 4512 0.0756324
190 5 0.333333
190 264 0.333333
190 2576 0.166667
190 3934 0.166667
191 4 0.176309
191 82 0.20603
191 224 0.41163
191 906 0.206032
192 4 0.339709
192 6 8.02665e-07
192 11 0.259925
192 267 0.126637
192 312 0.00271299
192 1260 0.115079
192 2324 0.0138091
192 2332 0.000877581
192 2807 0.127441
192 4116 0.0138091
193 4 0.000142183
193 11 7.74679e-06
193 23 0.306544
193 195 0.00045556
193 267 0.153193
193 312 0.0489608
193 360 0.0308808
193 413 0.0306542
193 946 0.0306543
193 1527 0.337199
193 3973 0.0613088
194 4 0.00010934
194 11 0.332481
194 17 1.11249e-05
194 18 0.0233269
194 187 0.0195889
194 224 0.0688538
194 268 0.535223
194 1086 0.000549009
194 1112 1.63215e-06
194 2156 0.0132368
194 3527 0.00330901
194 4167 0.00330901
195 10 0.00955922
195 269 0.49522
195 4248 0.49522
196 51 0.334334
196 227 0.331795
196 271 0.333871
197 10 1.67386e-06
197 11 2.16164e-05
197 18 0.134697
197 24 2.08158e-06
197 224 3.0977e-05
197 268 0.29377
197 278 0.428607
197 3921 0.142869
198 10 0.259202
198 281 0.740798
199 224 0.212068
199 272 0.246108
199 279 0.0496041
199 282 0.24611
199 283 0.24611
200 10 0.31344
200 284 0.68656
201 17 9.61415e-07
201 96 0.365427
201 195 0.00832208
201 224 0.235421
201 444 0.341093
201 981 0.0243647
201 1378 0.024363
201 4127 0.000978886
201 4134 2.94064e-05
202 268 0.380864
202 285 0.0761591
202 999 4.78435e-06
202 1011 0.238131
202 1120 0.304636
202 4598 0.000205643
203 10 0.0336509
203 195 0.0607127
203 312 0.124303
203 1011 0.356422
203 1069 0.182057
203 1473 2.57647e-06
203 2162 0.121426
203 2506 0.0607129
203 2831 0.0607129
204 10 1.43245e-06
204 312 0.828038
204 999 0.14663
204 1060 0.0253311
205 6 0.000367496
205 11 0.0379435
205 17 0.371272
205 19 0.00543029
205 286 0.553834
205 288 0.00394282
205 385 0.0217744
205 1647 1.03876e-06
205 1934 1.20561e-06
205 2795 5.8313e-07
205 4146 5.8313e-07
205 4380 0.00543026
205 4391 1.20605e-06
206 4 1.39327e-05
206 17 0.0787056
206 287 0.767734
206 491 0.0767734
206 4218 0.0767734
207 6 0.000318149
207 17 0.0279451
207 25 0.0749188
207 94 0.14763
207 290 0.299675
207 2311 0.374594
207 3071 0.0749187
208 22 0.268381
208 24 0.330347
208 27 0.35328
208 28 4.34185e-05
208 305 0.0443253
208 1357 0.00120585
208 1795 0.00241695
209 6 0.0222177
209 11 0.125324
209 51 0.00334074
209 95 0.000285224
209 291 0.830084
209 312 0.0158998
209 392 0.00284677
209 1350 3.63847e-07
209 1539 1.15424e-06
210 4 0.46831
210 130 3.42352e-05
210 292 0.488425
210 429 0.000325146
210 461 0.00161222
210 876 0.0079837
210 1644 0.0222999
210 2981 0.00922771
210 4127 0.000750614
210 4134 3.39752e-05
210 4690 0.000997336
211 4 5.0515e-06
211 6 1.71407e-06
211 10 3.49288e-06
211 28 0.0111468
211 293 0.82404
211 2716 0.164803
212 4 0.31161
212 11 0.343838
212 294 0.344552
213 11 0.00119835
213 17 1.4916e-07
213 195 1.09734e-06
213 237 1.84511e-07
213 295 0.594387
213 296 0.0803292
213 312 2.52549e-07
213 360 0.286056
213 660 0.00267253
213 673 1.10017e-06
213 677 0.00258321
213 695 0.0213927
213 946 0.00534597
213 1695 0.000616357
213 3940 0.00267171
213 4527 5.61296e-05
213 4539 1.00723e-07
213 4542 1.4442e-05
213 4554 0.00267271
214 4 0.106234
214 11 0.293403
214 89 0.0526903
214 297 0.0781746
214 298 0.0781745
214 602 0.000450616
214 1789 0.0781746
214 3038 0.156349
214 3102 0.156349
215 3 0.255668
215 4 0.234431
215 5 0.032452
215 11 0.0988144
215 15 0.0958754
215 312 0.218842
215 1348 0.0319585
215 1882 0.0319585
216 4 0.251845
216 224 0.140692
216 312 0.191462
216 4383 0.208
216 4384 0.208
217 4 0.000197258
217 5 0.333206
217 299 0.333298
217 300 0.333299
218 4 0.126526
218 17 0.0358227
218 79 0.0391073
218 300 0.312672
218 301 0.0165849
218 1070 0.234644
218 2566 0.195536
218 3755 0.0391069
219 4 3.88274e-05
219 11 7.07948e-07
219 18 0.0617656
219 24 0.000137451
219 82 0.243938
219 187 0.00525813
219 195 0.00527165
219 210 0.241153
219 301 0.0187982
219 308 0.00525707
219 309 0.131421
219 312 0.131244
219 501 0.00525687
219 628 0.02981
219 777 0.00525689
219 1604 0.0577774
219 2102 0.00287979
219 2125 0.00742397
219 2424 0.0157706
219 3421 0.00525689
219 3429 0.00525687
219 3710 0.00525689
219 3738 0.0105138
219 3783 0.00525673
220 4 0.38863
220 187 0.055948
220 302 0.555359
220 312 6.32419e-05
221 11 0.00108331
221 18 0.0430533
221 42 0.190328
221 187 0.014583
221 303 0.306456
221 305 1.36265e-06
221 312 0.15197
221 1666 0.0557192
221 1668 0.236806
222 4 0.0128438
222 22 0.00802861
222 24 4.72645e-06
222 27 0.00777509
222 42 0.000264386
222 304 0.603647
222 305 0.0837316
222 312 0.253523
222 400 0.00754537
222 2058 0.0150912
222 2917 0.00754558
223 18 0.069022
223 24 0.068912
223 306 0.414131
223 312 0.378913
223 1625 0.0345107
223 1858 0.0345109
224 4 0.000179296
224 6 0.225382
224 83 0.0417366
224 307 0.180457
224 312 0.146433
224 702 0.000181929
224 1351 0.100254
224 1353 0.145011
224 1354 7.37533e-07
224 1359 0.0200508
224 1883 0.0200508
224 2819 0.0200434
224 3177 0.080169
224 3601 0.0200508
225 3 0.0457272
225 4 1.12066e-06
225 11 0.0205404
225 92 0.0457267
225 308 0.388676
225 309 0.0685966
225 312 0.408081
225 1464 0.0226506
226 6 1.12978e-05
226 22 0.00335958
226 310 0.0067198
226 312 1.30598e-07
226 339 0.339351
226 509 0.577904
226 510 0.0592154
226 2908 0.0100796
226 4639 0.00335961
227 4 1.27654e-05
227 14 0.00527982
227 17 6.78866e-05
227 67 0.0078848
227 94 0.0419407
227 162 0.404446
227 312 0.0121524
227 392 0.441488
227 429 0.0236332
227 715 0.0552097
227 3978 0.00788474
228 17 0.000468798
228 24 0.0111982
228 312 0.0150079
228 510 0.192611
228 524 0.660582
228 893 0.0260756
228 1264 0.0173837
228 1659 0.00869187
228 2764 0.0173837
228 2814 0.0332139
228 3813 0.00869186
228 4639 0.00869177
229 17 0.00517611
229 22 0.336978
229 24 0.314523
229 312 1.58215e-05
229 314 0.318785
229 1966 0.0183915
229 4682 0.00613046
230 4 0.0589351
230 11 0.0600468
230 47 0.362408
230 168 0.386958
230 187 0.0328939
230 312 4.55271e-05
230 313 0.032894
230 315 2.6291e-06
230 1700 0.032894
230 2614 2.88323e-05
230 4329 0.0328932
231 4 0.0148552
231 17 0.000849297
231 18 0.0184202
231 24 1.91329e-06
231 298 0.110657
231 312 0.505233
231 315 0.036839
231 371 0.0184202
231 609 0.147362
231 1817 0.0921012
231 1962 0.0368405
231 3428 0.0184202
232 77 0.495159
232 318 0.504841
233 4 4.99313e-05
233 11 0.00510111
233 14 0.0226909
233 67 0.0936015
233 77 6.20708e-07
233 199 0.0239605
233 312 0.0626349
233 319 0.263786
233 356 0.000135617
233 413 0.263226
233 497 0.0199578
233 1170 0.0850922
233 1177 0.0235861
233 1188 2.55556e-05
233 1192 0.0595645
233 1492 0.0085092
233 2590 4.39854e-06
233 2630 0.0255276
233 2964 0.0425461
234 18 0.0481556
234 77 8.20414e-07
234 305 1.62004e-05
234 312 0.00245405
234 320 0.535101
234 329 0.0172613
234 874 0.379749
234 1823 2.04083e-07
234 4455 0.0172613
235 4 0.237769
235 10 0.000869275
235 187 0.00010226
235 312 0.0853859
235 321 0.672931
235 1422 0.00294321
236 4 1.65459e-06
236 17 0.102728
236 322 0.502472
236 510 0.0358899
236 834 0.179454
236 2101 0.0717817
236 2530 0.107673
237 5 0.0348337
237 18 2.31778e-05
237 108 0.0284048
237 132 0.0280731
237 137 0.0284047
237 323 0.0568097
237 363 0.0852146
237 550 0.0284049
237 656 4.79008e-07
237 663 0.113619
237 667 0.142024
237 2590 1.41445e-05
237 2816 0.113619
237 3024 0.0284047
237 3025 0.0284046
237 3414 0.113619
237 3661 0.170125
238 147 0.6
238 324 0.4
239 4 0.00159975
239 6 0.00303435
239 52 2.15042e-07
239 95 0.000169065
239 132 1.26129e-07
239 327 0.00543599
239 441 0.116033
239 442 0.259599
239 550 0.543194
239 1549 0.0118177
239 2044 0.0354816
239 4161 0.0236355
240 328 1
241 4 9.95035e-06
241 6 7.81808e-06
241 47 0.0343362
241 312 0.141417
241 329 0.0686857
241 330 0.515143
241 1747 0.0343429
241 1861 0.206057
241 2608 4.95643e-07
242 5 0.030596
242 18 0.00642168
242 331 0.228757
242 337 0.0385312
242 404 0.642151
242 824 0.00642188
242 868 0.027855
242 1150 0.00642187
242 1225 0.00642187
242 4517 0.00642188
243 10 0.840894
243 28 0.141428
243 404 1.88088e-06
243 769 0.017676
244 5 0.0228487
244 17 0.174934
244 18 0.295844
244 24 0.232079
244 333 0.205721
244 814 0.0457157
244 1128 0.0228579
245 312 0.242393
245 325 0.522693
245 327 0.234914
246 4 0.0023906
246 6 0.00448236
246 56 0.0471624
246 241 0.0626251
246 312 0.0692127
246 334 0.751502
246 999 0.0626212
246 2175 4.01155e-06
247 19 0.333333
247 335 0.333333
247 336 0.333333
248 11 0.00055151
248 328 0.2221
248 985 0.0555249
248 1011 0.33315
248 1120 0.333149
248 2254 0.0555249
249 10 0.000133213
249 337 0.499933
249 338 0.499933
250 11 0.0834293
250 312 0.210916
250 314 0.0906002
250 340 0.0219662
250 580 0.0439324
250 1221 0.0439324
250 1227 0.087865
250 1513 0.0658987
250 1573 0.0439325
250 1844 0.131797
250 2014 0.0658986
250 2911 0.0439324
250 3610 0.0658987
251 4 0.41791
251 195 0.00873997
251 312 0.00032339
251 329 0.00955064
251 341 0.506174
251 1490 0.00954898
251 1904 0.0477532
252 24 0.465239
252 28 1.69509e-05
252 314 0.51892
252 1966 0.0158246
253 4 5.23409e-06
253 17 0.0956113
253 312 0.0251218
253 329 0.0502435
253 342 0.552679
253 547 0.175852
253 1504 0.0251218
253 2000 0.0753653
254 11 0.0436921
254 28 3.25345e-05
254 343 0.339608
254 344 0.348551
254 387 0.0625604
254 548 0.134058
254 549 0.0714976
255 4 0.0373545
255 11 0.24297
255 195 0.0856118
255 312 0.205914
255 345 0.342483
255 396 5.1498e-05
255 538 0.0856158
256 4 0.255922
256 18 0.0484746
256 24 0.0654471
256 42 0.0484617
256 306 0.0484741
256 346 0.290847
256 750 0.145424
256 3783 0.0484744
256 4521 0.0484746
257 312 0.199175
257 347 0.500516
257 1834 0.300309
258 4 0.324667
258 11 0.134082
258 312 0.0602371
258 348 0.15174
258 916 0.02529
258 972 0.10116
258 1647 0.0252863
258 2100 0.17703
258 2780 0.000507191
259 11 0.139962
259 137 0.0488706
259 187 0.0560113
259 312 0.413062
259 349 0.0488706
259 350 0.146612
259 1755 0.146612
260 6 0.000776289
260 351 0.599534
260 1125 0.399689
261 4 0.263381
261 11 0.219474
261 224 0.147755
261 352 0.0738778
261 1396 0.295511
262 4 0.000994361
262 197 2.08739e-05
262 353 0.998985
263 4 0.13307
263 28 3.61868e-05
263 42 0.037204
263 187 0.0803702
263 312 0.0743846
263 354 0.674935
264 4 0.00153704
264 355 0.99841
264 1989 5.25762e-05
265 11 0.022685
265 19 0.161829
265 108 0.0226236
265 195 0.035318
265 312 0.00403029
265 357 0.229366
265 649 0.0212492
265 993 0.489029
265 1060 0.0138644
265 2639 4.79212e-06
266 4 0.100299
266 22 0.138836
266 357 8.99079e-06
266 358 0.507293
266 359 0.253563
267 22 0.34147
267 24 0.31543
267 28 2.74344e-06
267 359 0.291632
267 2142 0.0514645
268 17 0.170033
268 18 0.282685
268 24 0.258407
268 312 6.10375e-07
268 362 0.278161
268 1104 0.00534924
268 1357 0.00534918
268 4519 1.51262e-05
269 17 0.0822386
269 18 0.168683
269 24 0.0730893
269 187 0.168997
269 262 0.0844987
269 363 0.168997
269 364 0.0844986
269 2145 0.0844986
269 3795 0.0844986
270 11 0.149772
270 17 0.0918807
270 18 0.1809
270 24 0.0463343
270 25 0.0619363
270 91 0.0106632
270 187 0.0106623
270 224 0.0746422
270 365 0.106632
270 366 0.0533158
270 392 0.0319877
270 480 0.0106631
270 481 0.0639789
270 492 0.0106632
270 680 0.0533159
270 1915 0.0106631
270 3648 0.0106632
270 4011 0.0106632
270 4573 0.0106632
271 17 0.123927
271 18 0.25059
271 24 0.186879
271 76 0.0515722
271 367 0.103143
271 634 0.0257856
271 912 0.0257856
271 1501 0.0773574
271 1502 0.103388
271 4520 0.0257858
271 4522 0.0257858
272 17 0.184638
272 18 0.296516
272 24 0.220662
272 368 0.298185
273 10 4.17675e-05
273 18 0.337397
273 24 0.319622
273 369 0.342939
274 17 0.161646
274 18 0.237624
274 24 0.152224
274 64 0.0475628
274 332 0.115576
274 371 0.0713442
274 553 0.0237721
274 747 0.0713443
274 2679 0.0237814
274 3519 0.0237814
274 3952 0.0237814
274 4152 0.023781
274 4561 0.0237814
275 11 0.00193518
275 17 0.208549
275 18 0.272145
275 24 0.243556
275 372 0.273815
276 4 0.117705
276 17 0.142219
276 18 0.221128
276 24 0.11841
276 38 0.187481
276 312 1.06302e-05
276 373 0.127828
276 1197 0.0511312
276 1467 0.0340875
277 4 0.000702462
277 5 0.0135144
277 11 0.000108346
277 17 0.116427
277 18 0.242354
277 24 0.175611
277 312 0.0994965
277 374 0.351787
278 17 0.321859
278 95 0.0133723
278 165 0.332384
278 376 0.332385
279 4 0.191972
279 11 0.0986163
279 24 0.0154387
279 124 0.00322383
279 312 0.0805037
279 377 0.0159763
279 591 0.0159762
279 881 0.351494
279 945 0.0319526
279 1750 0.0159762
279 1792 0.0159763
279 1845 0.0159751
279 2025 0.0192384
279 2063 0.0159761
279 2122 0.111703
279 3469 1.40101e-06
280 11 0.0678775
280 15 0.00028078
280 17 1.53141e-06
280 18 0.300999
280 24 0.0777492
280 312 0.0962304
280 332 0.13791
280 362 0.283513
280 1104 0.0177192
280 1368 0.0177194
281 11 0.129336
281 17 0.00450879
281 18 0.242
281 24 0.126108
281 312 0.117471
281 332 0.00394996
281 374 0.242116
281 1369 0.0269017
281 2540 0.107607
282 18 1.74745e-05
282 379 0.60981
282 510 0.341387
282 2407 0.0487848
283 10 1.62968e-05
283 11 0.191992
283 187 0.0911586
283 189 0.0441627
283 195 0.00481157
283 312 0.226232
283 381 0.0883254
283 382 0.0883254
283 1275 0.132488
283 4072 0.0441626
283 4259 0.0441627
283 4311 0.0441627
284 6 0.000117838
284 383 0.999882
285 4 0.136993
285 6 5.50551e-05
285 11 0.158669
285 17 2.46596e-06
285 312 0.143632
285 378 0.00145401
285 384 0.291508
285 1018 0.00266349
285 1397 0.13252
285 1629 0.0265007
285 2169 0.0530014
285 2899 0.0265006
285 3134 0.0265005
286 5 3.13895e-06
286 11 0.182505
286 312 0.0188564
286 344 0.223673
286 386 0.149115
286 387 0.0931969
286 548 0.0755802
286 1080 0.25707
287 4 0.349707
287 312 0.207028
287 388 0.418639
287 3803 0.0246256
288 4 0.416151
288 20 8.35025e-06
288 24 4.20984e-07
288 195 0.0347316
288 389 0.504664
288 409 0.000441781
288 429 2.94001e-05
288 493 0.0092084
288 555 4.52052e-06
288 1181 0.0347605
289 11 0.0461124
289 22 0.147941
289 83 0.380994
289 108 0.0203611
289 137 0.0304793
289 218 0.0156987
289 312 0.00106333
289 390 0.0830383
289 494 0.0914283
289 495 0.152398
289 1369 0.0152396
289 1635 6.67957e-06
289 1868 0.0152393
290 22 0.19166
290 24 0.185625
290 85 0.023669
290 312 0.168652
290 390 0.0595767
290 391 0.0788968
290 494 0.102571
290 1635 0.110452
290 3541 0.0315587
290 3741 0.0315586
290 4493 0.00788911
290 4494 0.00788968
291 4 0.119938
291 11 0.224338
291 312 0.130735
291 393 0.238631
291 946 0.119316
291 1053 0.0477262
291 3050 0.119316
292 4 0.370766
292 392 0.629234
293 4 0.484189
293 206 0.503919
293 312 0.0118923
294 11 1.77628e-05
294 19 0.0629072
294 312 0.62255
294 357 0.125815
294 394 0.0628952
294 395 0.125815
295 11 0.00991429
295 24 0.401019
295 27 2.65746e-06
295 28 0.000234887
295 359 9.82671e-05
295 762 0.147183
295 1573 0.294365
295 1574 0.147183
296 6 1.15265e-05
296 396 0.333196
296 397 0.666793
297 133 0.000156465
297 398 0.999844
298 4 0.00550172
298 11 0.314928
298 312 0.0660606
298 400 0.582617
298 905 0.0125294
298 1422 0.0120992
298 1457 0.0062649
299 15 0.279853
299 312 0.420305
299 401 0.299842
300 4 6.77231e-05
300 11 0.0943797
300 12 0.00946834
300 187 0.00943862
300 312 0.0768998
300 393 0.253212
300 477 0.00943926
300 819 0.0064024
300 946 0.0566361
300 1053 1.30671e-06
300 3050 0.106259
300 3493 0.000319552
300 4296 0.320938
300 4298 0.0471967
300 4307 0.00934108
301 6 0.000135615
301 11 0.294637
301 42 0.00347822
301 312 0.252991
301 393 1.16272e-05
301 1464 0.149576
301 2383 0.149585
301 2895 0.149586
302 4 0.233715
302 42 0.216896
302 122 0.00156232
302 402 0.273914
302 403 0.273913
303 10 1
304 4 3.04503e-06
304 6 1.61452e-05
304 11 0.418937
304 17 0.0429516
304 344 0.105852
304 405 0.0351591
304 434 0.000171572
304 647 0.0646883
304 1647 0.120511
304 3033 0.158782
304 3852 0.0470466
304 4318 0.00588061
304 4360 1.20796e-06
305 17 0.375488
305 405 0.248209
305 406 0.376303
306 4 0.000122495
306 6 1.53798e-07
306 11 0.00242252
306 28 0.230813
306 42 5.46721e-05
306 108 0.0102302
306 187 0.0876536
306 312 0.000445231
306 343 0.0630197
306 407 0.215798
306 604 0.00102153
306 1215 0.028773
306 1632 0.0143865
306 1652 0.0719326
306 1665 0.0287555
306 1985 0.244571
307 10 0.109074
307 408 0.890926
308 4 0.00393812
308 22 0.0458177
308 24 0.0128288
308 187 0.110628
308 312 0.31766
308 409 0.0108063
308 410 0.442519
308 4204 0.0558015
309 28 3.39811e-07
309 195 0.0019163
309 312 0.0331673
309 343 0.0216358
309 411 0.828974
309 449 0.0683937
309 527 0.00166485
309 1069 0.00332058
309 1551 0.0166484
309 2059 0.0209486
309 2332 1.39731e-07
309 2954 3.84685e-07
309 3750 0.00166484
309 4445 0.00166485
310 11 0.0731902
310 14 0.014225
310 412 0.14226
310 413 0.369554
310 464 0.042678
310 473 0.0163232
310 497 0.00034558
310 510 0.014226
310 982 0.184938
310 1182 0.0142259
310 1329 0.0853561
310 1571 0.014226
310 2057 0.0142259
310 3774 0.0142259
311 312 0.0135122
311 414 0.0810812
311 521 0.905407
312 329 0.0909091
312 415 0.772727
312 2514 0.0454545
312 2660 0.0454545
312 2661 0.0454545
313 10 0.111481
313 28 2.20011e-06
313 187 0.0131144
313 312 0.00684487
313 331 0.0156873
313 337 0.00522911
313 404 0.104527
313 416 0.381725
313 460 0.00538073
313 478 0.162019
313 776 0.0790232
313 777 3.65496e-07
313 1150 0.0627493
313 1225 0.00522907
313 1346 0.0052285
313 1412 0.00530708
313 1616 0.0155354
313 2461 0.0209165
314 11 5.15593e-06
314 17 0.20099
314 18 0.23273
314 24 0.182518
314 417 0.0411169
314 1204 0.0685281
314 1207 0.0274112
314 1325 0.0411169
314 1326 0.0959394
314 2094 0.0685281
314 2127 0.0137056
314 4637 0.0137056
314 4652 0.0137056
315 4 0.079874
315 10 1.01745e-05
315 108 0.0656428
315 187 0.234456
315 407 0.620017
316 195 0.5
316 419 0.5
317 6 0.000815917
317 420 0.499592
317 1124 0.499592
318 6 5.4613e-05
318 42 0.0674627
318 421 0.932483
319 17 0.295795
319 18 0.300046
319 24 0.104112
319 422 0.300047
320 5 0.00728755
320 11 0.0774125
320 19 0.0080522
320 49 0.0127164
320 76 0.00805224
320 98 0.00698176
320 100 0.000514315
320 144 0.0123946
320 173 1.53097e-07
320 193 5.19757e-05
320 199 5.02091e-05
320 245 2.03842e-05
320 259 2.21109e-06
320 337 0.0322089
320 412 0.0241567
320 413 0.305656
320 423 0.0080522
320 424 0.241567
320 497 0.0301206
320 520 0.00805224
320 552 0.00805223
320 564 0.00805224
320 780 8.65443e-07
320 811 7.27392e-05
320 958 0.00805223
320 961 0.00805223
320 1079 0.00805224
320 1170 0.0080522
320 1185 0.00805224
320 1188 0.00710569
320 1203 0.00805224
320 1249 0.00805207
320 1291 0.00818397
320 2102 0.00803242
320 2843 0.0966268
320 3015 0.00805209
320 4186 0.00805222
320 4636 0.00805224
321 427 0.325448
321 428 0.337279
321 429 0.337273
322 195 0.417502
322 430 0.164996
322 431 0.417502
323 6 0.000100118
323 169 0.9999
324 11 0.284606
324 25 0.286158
324 35 0.143079
324 357 0.143079
324 1782 0.143079
325 4 0.345837
325 6 2.60295e-05
325 432 0.654137
326 5 0.0266699
326 312 0.143737
326 433 0.722549
326 2471 0.107044
327 18 0.219807
327 24 0.120773
327 108 0.219807
327 437 0.219807
327 438 0.219807
328 4 0.492244
328 439 0.507756
329 4 0.00799112
329 6 1.20683e-05
329 146 0.0499522
329 224 0.0215644
329 312 0.0215668
329 336 0.0214745
329 443 0.301936
329 444 0.0431327
329 445 0.0215644
329 572 0.0188556
329 2664 0.0431336
329 2665 0.150968
329 2666 0.0174793
329 2675 0.0215669
329 2676 0.0215665
329 3480 0.0431338
329 3481 0.0862674
329 3482 0.0215669
329 3484 0.0215669
329 4618 0.0647006
330 4 0.000250511
330 59 0.0287076
330 89 0.0260526
330 95 0.0774909
330 96 0.0287416
330 117 0.114675
330 195 0.090813
330 446 0.488649
330 666 0.028722
330 1377 0.000860989
330 3480 0.0574882
330 3666 7.54528e-07
330 3685 0.0288031
330 4534 0.028744
331 4 0.128165
331 42 0.0867268
331 94 0.0832571
331 95 0.0056797
331 312 6.15477e-05
331 448 0.695863
331 1364 1.35446e-05
331 3526 0.000232473
332 42 0.0245179
332 137 0.00215577
332 195 0.00420528
332 236 0.100107
332 390 0.150726
332 419 5.99877e-06
332 450 0.209132
332 529 0.305467
332 956 0.00836922
332 1168 0.0599941
332 1248 0.0334768
332 1309 6.52952e-05
332 1357 0.0041846
332 1460 0.0711383
332 1469 0.00418461
332 2844 0.00553032
332 3700 0.0041844
332 3708 4.32209e-07
332 4339 0.00418461
332 4467 0.00418461
332 4619 0.00418461
333 95 0.00975856
333 312 0.000304336
333 441 0.0449971
333 451 0.179989
333 452 0.449971
333 550 0.0449972
333 1499 0.269983
334 6 0.00257512
334 453 0.997425
335 4 0.462098
335 454 0.537902
336 4 0.0506166
336 6 0.00579814
336 455 0.629057
336 2030 0.314528
337 17 0.0677896
337 18 0.452443
337 456 0.29633
337 606 0.183438
338 11 0.46346
338 17 0.00750082
338 19 0.0233392
338 311 0.497885
338 533 2.71755e-05
338 1966 1.11351e-07
338 2814 8.68101e-06
338 3512 0.00777974
339 11 0.272277
339 18 0.00937317
339 19 0.332967
339 312 0.17255
339 333 0.0115008
339 458 0.174514
339 726 0.0230085
339 4145 0.00380932
340 11 0.00206123
340 457 0.4041
340 458 0.426466
340 726 0.0367289
340 1586 0.0612272
340 2978 0.0489818
340 4145 0.00818949
340 4382 0.0122453
341 6 3.06722e-05
341 10 4.38682e-05
341 11 0.262338
341 17 9.97654e-07
341 42 0.0170418
341 276 5.93932e-07
341 344 0.0750574
341 459 0.0750576
341 820 0.105081
341 845 0.135104
341 1675 0.255187
341 2166 0.0750576
342 292 0.177783
342 460 0.177774
342 461 0.0222228
342 876 0.0888913
342 879 0.322213
342 2981 0.211117
343 4 0.0355566
343 6 3.67226e-06
343 11 0.0520127
343 17 0.0525635
343 312 0.0383296
343 329 0.026513
343 462 0.583286
343 1141 0.185589
343 4049 0.0261458
344 4 0.000326458
344 17 0.10202
344 94 0.203085
344 463 0.694568
345 10 4.32589e-05
345 17 0.0376758
345 312 0.156091
345 329 0.0403095
345 414 0.120928
345 521 0.604642
345 3369 0.0403095
346 4 0.00139362
346 6 7.41372e-06
346 17 0.141384
346 312 0.0330231
346 466 0.0222755
346 735 0.200479
346 863 0.534611
346 866 0.0222749
346 1481 0.0222753
346 4655 0.0222755
347 312 0.090581
347 467 0.77301
347 739 0.045467
347 2958 0.0454712
347 4381 0.0454712
348 17 0.03617
348 312 0.174838
348 329 0.051456
348 468 0.668929
348 522 0.0171515
348 770 0.017152
348 1166 0.034304
349 10 4.85928e-05
349 17 0.138203
349 94 0.0661638
349 95 0.0647782
349 312 0.0669914
349 469 0.331908
349 587 0.0663816
349 847 0.265526
350 4 5.19153e-06
350 17 0.132004
350 28 5.87184e-06
350 312 0.108498
350 470 0.108498
350 897 0.433993
350 1822 0.108498
350 3752 0.108497
351 10 0.000130455
351 17 0.000785978
351 471 0.999084
352 11 0.239819
352 15 0.114466
352 195 3.70449e-05
352 224 0.111975
352 473 0.0114466
352 474 0.263285
352 475 0.247524
352 3929 0.0114472
353 4 0.122851
353 10 0.00103029
353 187 0.125003
353 476 0.125188
353 687 0.375564
353 776 0.125175
353 4224 0.125188
354 11 6.11153e-06
354 18 0.0118755
354 24 0.0122297
354 187 0.132634
354 224 0.0390972
354 312 0.0507605
354 473 0.0117896
354 477 0.718065
354 803 0.0117711
354 3554 0.0117713
355 4 0.148982
355 6 5.00887e-06
355 288 0.0438595
355 312 0.159341
355 478 0.0539844
355 479 0.593829
356 4 2.28903e-05
356 11 0.466972
356 19 0.0519134
356 312 0.0382128
356 482 0.255495
356 727 0.170296
356 1874 7.56675e-06
356 2477 0.0170296
356 4353 4.95459e-05
356 4647 1.21929e-06
357 4 0.295871
357 305 0.0252458
357 312 0.204345
357 483 0.355915
357 870 0.0474553
357 3008 5.62966e-05
357 4353 0.0236585
357 4647 0.0474536
358 22 4.08829e-07
358 24 0.519244
358 27 0.458126
358 28 0.000190284
358 312 0.00210176
358 1795 0.010169
358 4168 0.010169
359 25 0.199959
359 42 0.199952
359 336 0.199959
359 413 0.00021086
359 485 0.199959
359 486 0.199959
360 488 0.46351
360 692 0.0695264
360 693 1.00756e-05
360 987 0.462682
360 1023 0.00426073
360 3906 1.12879e-05
361 11 0.000907451
361 187 0.31236
361 487 0.571461
361 693 0.0285469
361 987 0.00101997
361 2022 0.028573
361 3906 0.0571321
362 4 0.148211
362 473 0.0446607
362 477 0.0446615
362 489 0.0893229
362 590 0.312632
362 643 0.0478803
362 1930 0.0893234
362 2717 0.0446615
362 2718 0.178647
363 4 0.154432
363 288 0.0299252
363 329 0.0543762
363 478 0.0543762
363 490 0.598138
363 4231 0.054376
363 4232 0.0543761
364 6 5.91669e-06
364 491 0.687496
364 871 0.187499
364 1920 0.0624996
364 3977 0.0624996
365 195 0.0625007
365 312 0.0624893
365 496 0.687508
365 761 0.0625007
365 1935 0.0625007
365 2514 0.0625007
366 11 1.90294e-05
366 67 0.0668701
366 187 0.0145655
366 195 0.306804
366 199 0.0297168
366 245 0.237755
366 356 0.0336449
366 497 0.295769
366 658 0.00742964
366 2964 0.00742558
367 4 0.168735
367 94 0.0483705
367 95 0.0529898
367 146 0.695683
367 195 0.021142
367 312 0.000118423
367 2041 0.00591374
367 2653 0.00704736
368 11 0.330655
368 15 0.334673
368 498 0.334673
369 4 0.0621471
369 11 0.392335
369 25 0.0454557
369 188 0.500057
369 312 5.12822e-06
370 5 0.199995
370 11 0.000128566
370 195 3.39719e-06
370 357 0.199885
370 499 0.199995
370 500 0.199995
370 712 0.199995
370 3554 3.41672e-06
371 11 0.012717
371 25 0.0563115
371 212 0.0797975
371 357 0.0531983
371 501 0.691579
371 1479 0.0265992
371 1520 0.0265989
371 3573 0.0265992
371 3586 0.0265991
372 130 0.0612597
372 195 0.271007
372 356 0.058965
372 444 0.0612597
372 464 0.245039
372 497 0.24121
372 2634 0.0612597
373 10 0.0266124
373 263 1.14824e-06
373 312 0.438575
373 502 0.106962
373 503 0.106962
373 999 0.106962
373 1847 0.106962
373 3607 0.106962
374 15 0.00812433
374 49 0.0493161
374 59 0.139551
374 195 0.320776
374 227 0.0503578
374 259 0.148248
374 356 0.0552107
374 497 0.191393
374 510 0.00872048
374 652 0.00868773
374 1611 0.00116624
374 2041 0.00099696
374 2538 1.07108e-05
374 2539 0.00872059
374 2749 0.00872059
375 11 0.261877
375 25 0.269218
375 181 0.269225
375 312 0.19968
376 504 0.999585
376 505 0.000415152
377 501 0.80287
377 1069 0.19713
378 4 0.302304
378 42 0.00744898
378 70 3.5717e-06
378 146 9.29893e-05
378 312 0.000248111
378 452 0.681279
378 1945 0.00862378
379 11 0.236787
379 187 0.222337
379 312 0.0415534
379 506 0.28909
379 653 0.0963377
379 1412 0.0246533
379 2424 0.0222378
379 3450 0.0225279
379 3673 0.0444755
380 4 6.27619e-05
380 11 0.0743742
380 18 0.170397
380 24 0.0174268
380 122 0.169807
380 195 0.11363
380 507 0.056799
380 711 0.113597
380 912 0.0567121
380 1609 0.0567972
380 4371 0.056799
380 4516 0.113598
381 17 0.133962
381 18 0.282543
381 24 0.231049
381 312 0.0668759
381 508 0.142785
381 4305 0.142785
382 6 0.000946039
382 11 0.129622
382 195 8.24399e-05
382 312 0.10727
382 474 5.99712e-05
382 511 0.0420864
382 628 0.0420865
382 727 0.000250972
382 894 0.202649
382 1030 0.294605
382 1511 0.0302578
382 1738 0.0420865
382 3113 0.0659104
382 3499 0.0420865
383 512 1
384 404 0.000963195
384 513 0.999037
385 4 0.161006
385 5 0.00958371
385 17 0.132923
385 18 0.181769
385 19 0.00958372
385 24 0.160117
385 377 0.00958381
385 514 0.00958381
385 515 0.153341
385 1209 0.0287514
385 1587 0.00958381
385 1973 0.00958381
385 2840 0.0958382
385 3606 0.00958381
385 3933 0.00958381
385 3975 0.00958381
386 4 2.16693e-06
386 195 0.00164232
386 236 0.000157275
386 343 0.0168939
386 519 0.428309
386 1130 0.397716
386 1186 0.0266554
386 1224 0.018982
386 1796 0.0611066
386 2036 0.0299933
386 2138 0.0152834
386 2942 1.51974e-06
386 4518 0.00325705
387 17 0.211668
387 18 0.268646
387 24 0.223241
387 298 0.0134747
387 523 0.0269495
387 626 0.0134748
387 1184 0.121273
387 1194 0.0538993
387 2097 0.0404245
387 2108 0.0134748
387 2865 0.0134748
388 24 0.000853476
388 27 0.0959244
388 312 0.163221
388 525 0.738101
388 2814 0.00189969
389 14 0.000877856
389 42 0.0195268
389 312 0.0219306
389 518 0.316283
389 527 0.367261
389 1152 0.163243
389 1186 0.00884741
389 1596 0.102027
389 1611 2.50945e-06
389 2036 6.47578e-07
390 4 0.19462
390 5 0.201345
390 530 0.201345
390 531 0.201345
390 3595 0.201345
391 210 1.79301e-05
391 532 0.999982
392 10 0.000216178
392 22 0.0167755
392 28 0.000229994
392 82 0.371682
392 210 0.452976
392 301 0.0152007
392 305 0.00838886
392 312 3.47562e-07
392 337 0.00838885
392 510 0.00869825
392 617 0.109055
392 2165 0.00838884
393 4 0.136863
393 17 0.0666333
393 18 0.206667
393 24 0.172203
393 332 0.0352928
393 339 0.139033
393 373 0.104275
393 734 0.0347584
393 1197 0.0695167
393 2908 0.0347584
394 6 3.93227e-06
394 534 0.9734
394 2343 0.0212765
394 4362 0.00531913
395 4 0.978078
395 195 0.0109208
395 706 0.0110015
396 11 0.876396
396 964 0.123604
397 79 0.0571429
397 108 0.0571429
397 535 0.441559
397 536 0.0181818
397 965 0.381818
397 1229 0.0415583
397 2448 0.00259733
398 11 0.00212912
398 56 3.5289e-05
398 329 0.0767721
398 537 0.153544
398 538 0.153544
398 1663 0.230317
398 3449 0.153544
398 3496 0.153544
398 4400 0.0765697
399 4 2.57875e-05
399 11 0.273847
399 15 0.0562413
399 25 0.163872
399 224 0.186901
399 227 0.0100133
399 539 0.038498
399 2041 0.0179766
399 2495 0.252624
400 4 6.15393e-05
400 11 0.00322586
400 25 0.357263
400 354 0.57105
400 539 3.20922e-05
400 993 0.0683674
401 25 0.322413
401 377 0.350481
401 1812 0.327106
402 10 0.0569131
402 540 0.943087
403 355 1
404 195 0.114601
404 312 0.0831901
404 541 0.573006
404 1561 0.114601
404 2619 0.114601
405 28 3.91249e-05
405 542 0.999961
406 66 3.77488e-06
406 236 0.184284
406 411 0.181026
406 449 0.362052
406 1551 0.181026
406 2084 0.0916074
407 108 0.499993
407 543 0.499993
407 2084 1.3508e-05
408 6 0.00137087
408 305 0.0142661
408 338 0.0427971
408 544 0.9273
408 883 0.0142661
409 28 0.169528
409 545 0.830472
410 4 0.0592874
410 6 5.33359e-07
410 11 0.0247354
410 61 0.0221718
410 100 0.0414797
410 227 1.11883e-05
410 279 0.0105406
410 312 0.027903
410 356 0.00107763
410 413 0.263069
410 473 0.010612
410 497 0.012154
410 510 0.0105406
410 551 0.305605
410 958 0.0737843
410 960 0.0843249
410 1018 0.0210812
410 1034 0.0105405
410 1571 0.0105406
410 3753 0.0105405
411 4 0.0308732
411 11 0.107973
411 14 0.0136458
411 64 0.0410952
411 80 0.0136887
411 227 0.00031065
411 228 0.041095
411 312 1.41433e-05
411 356 0.0406598
411 413 0.301067
411 497 0.0123238
411 553 0.150683
411 625 0.0136984
411 974 0.0821904
411 1032 0.0136982
411 1291 0.109587
411 4523 0.0136982
411 4556 0.0136984
412 11 0.00321379
412 80 0.0597222
412 227 0.000355017
412 312 7.1475e-05
412 356 0.00176123
412 413 0.437609
412 497 3.63532e-05
412 554 0.238889
412 811 0.099537
412 1045 0.0194531
412 1255 0.119444
412 4562 0.0199073
413 10 0.000290244
413 28 0.0330468
413 462 0.966663
414 4 0.00174714
414 24 0.0987536
414 224 0.102873
414 312 0.0176824
414 327 0.0586833
414 555 0.102823
414 556 0.617237
414 963 3.70115e-06
414 1462 0.000197691
415 28 0.012609
415 510 0.30768
415 558 0.339856
415 559 0.335834
415 775 0.00402195
416 560 1
417 4 0.163993
417 11 0.202849
417 82 0.0215856
417 195 0.203474
417 561 0.204049
417 2152 0.204049
418 28 0.329681
418 562 0.670319
419 4 0.16644
419 11 0.403982
419 312 0.0263014
419 400 0.383113
419 1967 0.0201638
420 4 0.0923417
420 468 0.821612
420 2473 0.0860462
421 4 0.00201438
421 24 0.000193715
421 195 0.17117
421 312 0.00095788
421 357 0.00340004
421 358 0.822264
422 11 0.327398
422 473 0.336114
422 563 0.336488
423 11 0.326795
423 566 0.336603
423 567 0.336602
424 11 0.165468
424 18 0.0848961
424 24 0.0833171
424 35 0.168953
424 108 0.0424445
424 117 0.0441537
424 137 0.0424445
424 312 0.0209174
424 474 0.0423841
424 629 0.0424445
424 653 3.60674e-05
424 894 0.00784931
424 1080 0.0848887
424 1412 0.127359
424 1762 0.0424445
425 4 0.311319
425 17 0.105814
425 195 0.0529879
425 569 0.105976
425 665 0.0529879
425 1672 0.317928
425 4030 0.0529879
426 146 0.333432
426 442 0.333048
426 550 8.93337e-05
426 571 0.333431
427 195 0.481592
427 434 0.123764
427 572 0.0158726
427 573 0.126257
427 3739 0.126257
427 3834 0.126257
428 4 0.212039
428 11 0.0709479
428 15 0.0719844
428 574 0.430051
428 1080 0.0716271
428 1477 0.14335
429 473 0.5
429 575 0.5
430 4 2.92383e-05
430 11 0.335927
430 224 0.663943
430 3646 0.000100604
431 4 0.21826
431 11 0.261075
431 576 0.260332
431 577 0.260332
432 6 1.96947e-06
432 17 0.195355
432 312 0.075846
432 578 0.596288
432 2521 0.132509
433 579 0.5
433 580 0.5
434 4 1.04243e-06
434 17 0.0294738
434 47 0.0277544
434 195 0.0271737
434 312 0.166181
434 581 0.693904
434 2249 0.0277561
434 3390 0.0277561
435 17 0.0859138
435 50 0.00251362
435 224 0.00539396
435 268 0.153113
435 312 0.00324701
435 582 0.133198
435 584 0.160086
435 727 0.0268521
435 1015 0.00246142
435 1026 0.103963
435 1033 0.110853
435 1112 0.0122665
435 1135 0.0763723
435 2699 1.10423e-05
435 4007 0.00246335
435 4212 0.0812999
435 4213 0.0374243
435 4432 0.000161582
435 4433 1.19455e-06
435 4438 0.00221248
435 4440 0.000193223
436 4 0.0703163
436 118 0.0343713
436 195 0.0344002
436 268 5.97442e-05
436 582 9.2645e-07
436 583 0.0680873
436 727 0.00116294
436 1030 0.550405
436 1031 0.1032
436 1037 0.0688002
436 2202 0.0343832
436 2203 0.000423536
436 2796 0.0343886
437 224 0.215907
437 268 0.204439
437 444 0.113651
437 584 0.147901
437 1026 0.159124
437 1033 0.0909288
437 2203 0.0680499
438 17 0.22784
438 79 0.195442
438 177 3.8964e-06
438 225 0.221646
438 226 0.0179096
438 497 0.000743906
438 510 0.0221827
438 585 0.0221827
438 1018 0.000328421
438 1177 0.00335206
438 2200 0.155279
438 2204 0.0221776
438 2749 0.0665482
438 4377 0.0221827
438 4378 0.0221814
439 18 0.0971837
439 19 0.116536
439 24 0.0870672
439 312 0.233071
439 314 0.233071
439 580 0.116536
439 984 0.116536
440 312 0.237488
440 579 0.254171
440 580 0.25417
440 2911 0.254171
441 4 0.014864
441 28 3.3091e-06
441 195 0.382904
441 312 2.7072e-05
441 341 0.574306
441 621 0.00397402
441 2653 0.0119597
441 2657 0.0119621
442 42 0.433812
442 195 4.74731e-06
442 312 0.0241889
442 341 0.0214192
442 588 0.520575
443 11 0.0470368
443 24 0.428992
443 28 1.5131e-05
443 195 0.0276338
443 314 0.358347
443 588 1.63433e-06
443 769 0.0275948
443 983 0.0551896
443 984 0.0551894
444 4 0.632744
444 589 0.367009
444 1867 0.000246757
445 4 0.00152724
445 589 0.00142723
445 590 0.997046
446 11 0.335652
446 15 0.168003
446 312 0.32733
446 591 0.168003
446 2153 0.00101314
447 592 1
448 5 0.0393662
448 17 0.112443
448 195 0.0393663
448 312 0.21833
448 329 0.0393663
448 593 0.0393663
448 661 0.511761
449 4 0.000305499
449 594 0.999695
450 4 1.90772e-05
450 6 0.00100261
450 28 5.6812e-05
450 312 0.162652
450 596 0.104534
450 618 0.731736
451 4 0.332191
451 11 0.333715
451 597 0.334094
452 11 0.0373395
452 289 0.00202251
452 312 0.142007
452 598 0.595368
452 1001 0.074421
452 4404 0.074421
452 4574 0.074421
453 4 2.30273e-05
453 11 0.20043
453 312 3.33187e-05
453 344 0.243018
453 386 0.00736416
453 387 0.0795375
453 411 0.00736675
453 548 0.152932
453 666 4.00118e-07
453 1080 0.309295
454 4 0.221482
454 11 0.111251
454 35 0.111401
454 312 0.111401
454 387 0.111376
454 434 0.111401
454 548 0.110287
454 599 0.111401
455 6 9.30926e-05
455 42 0.00293133
455 312 0.498078
455 600 0.498898
456 4 0.142158
456 6 0.000201092
456 601 0.224743
456 1023 0.183411
456 1024 0.224743
456 1807 0.224743
457 4 0.000872019
457 5 0.0116355
457 6 2.00967e-05
457 11 1.30517e-06
457 312 0.372457
457 313 5.14288e-06
457 473 0.0112646
457 602 0.159457
457 1473 0.0337935
457 1588 5.47013e-07
457 1678 0.0112646
457 1726 0.0112646
457 1821 0.214029
457 1954 0.0613146
457 1957 0.0112392
457 2804 0.0112647
457 3144 0.0112646
457 3150 0.0112646
457 3495 0.0112646
457 3787 0.011264
457 3792 0.0450586
458 4 0.199862
458 6 4.71898e-05
458 11 0.197564
458 603 0.602527
459 4 0.278478
459 11 0.116181
459 42 0.0676275
459 312 0.0370794
459 604 0.083196
459 1212 0.0665568
459 1651 0.21631
459 1665 0.0347367
459 1903 0.0998352
460 224 0.033176
460 605 0.878931
460 2929 0.0878931
461 11 0.0837895
461 15 0.0948558
461 22 0.240848
461 24 0.00678786
461 312 0.188386
461 314 0.240822
461 458 1.38427e-06
461 3008 0.0481697
461 4369 0.0481697
461 4389 0.0481697
462 4 0.401925
462 11 0.28784
462 385 0.0173281
462 607 0.292907
463 4 0.190124
463 187 0.1013
463 312 0.303375
463 608 0.1013
463 1138 0.303901
464 6 3.36483e-05
464 312 0.669322
464 601 0.165322
464 1807 0.165322
465 42 0.359133
465 600 0.640867
466 4 0.000578142
466 11 0.337524
466 312 0.206324
466 610 0.455574
467 4 0.26927
467 6 4.75301e-06
467 242 0.234767
467 312 0.0264234
467 434 0.234767
467 611 0.234767
468 11 0.0204024
468 18 0.0104172
468 19 0.370125
468 24 0.000395075
468 195 0.0205436
468 312 1.27797e-07
468 612 0.226187
468 826 0.205625
468 1207 0.0205625
468 1262 0.0102812
468 1489 0.0102688
468 1761 0.0102812
468 2021 0.0205625
468 2089 0.0308437
468 2146 0.0126612
468 2466 0.0102812
468 3555 0.0205625
469 22 0.326473
469 24 0.282688
469 312 0.0575638
469 613 0.31287
469 1491 0.0068015
469 1966 0.00680152
469 2109 0.00680152
469 4370 1.03457e-07
470 24 0.000371959
470 61 0.0264097
470 220 0.0264096
470 312 0.1502
470 614 0.554605
470 765 0.0482069
470 1181 0.0313723
470 1461 0.0264098
470 1806 0.0264098
470 1824 0.0792293
470 3405 0.030376
471 47 0.0288213
471 312 0.568458
471 615 0.402721
472 4 0.14745
472 6 9.83856e-05
472 145 0.230206
472 312 9.94423e-06
472 441 0.0986596
472 616 0.32883
472 813 0.131983
472 2784 0.0328865
472 3620 0.0298775
473 6 0.0726146
473 312 0.394589
473 2364 0.532797
474 11 0.0197168
474 18 0.346235
474 24 0.247925
474 25 0.000138411
474 312 0.0321047
474 332 0.00668985
474 1006 0.34719
475 6 2.50617e-05
475 137 0.00906995
475 236 0.0726219
475 619 0.0572756
475 620 0.761339
475 621 1.41606e-05
475 1341 3.49256e-06
475 1377 0.00903216
475 1484 0.00906275
475 1485 0.00906197
475 2002 0.0271906
475 2006 0.00905072
475 2010 0.0181271
475 4628 0.0181259
476 295 0.461859
476 619 0.236932
476 621 0.240966
476 1144 0.0602425
477 6 6.43478e-06
477 10 0.226997
477 622 0.0909776
477 1187 0.545866
477 1310 0.0906645
477 2915 0.0454888
478 11 0.332583
478 187 0.333707
478 623 0.333709
479 4 0.102175
479 329 0.0997583
479 624 0.199517
479 1183 0.399033
479 2778 0.199517
480 4 0.488576
480 630 0.511424
481 10 8.14116e-05
481 631 0.999919
482 4 0.168482
482 632 0.207879
482 633 0.623638
483 4 0.0575032
483 6 0.00365678
483 17 0.0635224
483 95 0.00416867
483 312 0.108889
483 574 0.326683
483 635 0.435577
484 4 0.160959
484 137 0.0228006
484 636 9.0108e-07
484 637 0.570018
484 1886 0.0912028
484 1987 0.0182142
484 1991 0.114004
484 3727 0.0228007
485 638 1
486 4 0.000144339
486 17 0.0432469
486 94 4.57778e-06
486 312 0.0591955
486 329 0.031488
486 639 0.739969
486 1488 0.015744
486 1739 0.0787201
486 2085 0.0157439
486 4225 0.015744
487 17 0.204012
487 18 0.223663
487 24 0.197638
487 640 0.00936716
487 1169 0.056203
487 1326 0.13114
487 1494 0.149875
487 2127 0.0187343
487 3968 0.00936716
488 24 5.01395e-05
488 42 0.0710709
488 305 0.330845
488 641 0.391022
488 1437 0.207012
489 5 0.812145
489 10 0.187855
490 10 0.0353083
490 645 0.964692
491 4 0.346165
491 5 0.104036
491 11 0.00508736
491 28 0.000282586
491 94 3.92671e-06
491 312 0.00013682
491 1082 0.544288
492 6 0.318709
492 619 0.324897
492 2748 0.356393
493 5 0.427
493 646 0.573
494 312 0.498578
494 648 0.501422
495 4 0.156694
495 11 4.495e-07
495 17 0.158319
495 18 0.187205
495 24 0.140743
495 312 3.88188e-07
495 373 0.142815
495 515 0.169593
495 1197 0.0357038
495 3933 0.00892594
496 49 0.0509373
496 59 0.170117
496 89 0.0337556
496 94 0.0247798
496 95 0.133866
496 224 0.139453
496 259 0.0690707
496 296 0.00867323
496 434 0.00871306
496 444 0.293538
496 822 0.0156058
496 1644 0.0264543
496 1692 0.00510564
496 3526 0.00417587
496 4126 0.00862647
496 4133 0.00712752
497 4 0.0909091
497 6 0.0909091
497 59 0.0909091
497 88 0.0909091
497 89 0.0909091
497 95 0.0909091
497 165 0.0909091
497 444 0.0909091
497 649 0.0909091
497 650 0.0909091
497 651 0.0909091
498 88 4.28341e-05
498 165 0.333319
498 650 0.333319
498 651 0.333319
499 11 0.0062675
499 17 0.315907
499 71 0.0187238
499 79 0.258389
499 165 0.00748953
499 167 0.0187238
499 183 0.00748924
499 392 0.322048
499 3180 2.82862e-06
499 3652 0.00374474
499 4025 3.12033e-06
499 4112 0.0411924
499 4123 1.88896e-05
500 11 0.0808816
500 15 0.459539
500 354 0.417799
500 4549 0.04178
501 25 0.297233
501 42 0.134977
501 108 0.108424
501 321 0.297237
501 2629 0.162129
502 75 0.000166504
502 108 0.499106
502 653 0.500727
503 4 0.108879
503 11 0.112247
503 28 6.35165e-06
503 296 0.111776
503 312 0.19067
503 657 0.113067
503 1642 0.0241545
503 1643 0.113067
503 1879 0.113067
503 3904 0.113067
504 6 0.00127707
504 10 0.0239985
504 204 0.974724
505 28 0.155592
505 659 0.844408
506 4 0.00018828
506 11 0.232957
506 28 1.13697e-05
506 661 0.511229
506 1057 0.127807
506 2005 0.127807
507 95 0.144872
507 117 0.12216
507 664 0.366484
507 3462 0.285043
507 3765 0.0407204
507 4648 0.0407202
508 4 0.000112521
508 52 0.0665897
508 94 0.173168
508 95 0.107141
508 108 0.053644
508 117 0.133193
508 132 0.133184
508 663 0.0665935
508 667 0.266374
509 4 0.0393893
509 11 0.0357645
509 71 0.100155
509 94 0.023072
509 108 0.0500773
509 113 0.000445476
509 187 0.0500771
509 212 0.100155
509 392 0.300412
509 444 0.200309
509 1733 0.100144
510 4 0.00128527
510 18 0.389535
510 24 0.0210528
510 122 0.0675125
510 146 0.0649225
510 195 0.0649225
510 671 0.259689
510 1607 0.129845
510 1864 0.000340966
510 1865 0.000893264
510 1866 9.65387e-07
511 4 0.0346276
511 11 0.318655
511 312 0.121095
511 548 0.0328514
511 672 0.45992
511 2414 0.0328511
512 4 0.307763
512 11 4.52462e-05
512 539 0.311634
512 577 0.31592
512 673 0.0646378
513 4 0.39159
513 10 0.000883405
513 225 1.80461e-05
513 377 0.607509
514 4 0.00493628
514 312 0.0106907
514 329 0.0894884
514 675 0.894885
515 4 1.9741e-05
515 10 2.94813e-06
515 11 0.237455
515 371 0.0508345
515 644 3.48198e-06
515 676 0.406677
515 1710 0.101669
515 2341 0.101669
515 2489 0.0508344
515 2884 0.0508346
516 4 0.109327
516 15 0.239075
516 25 3.60887e-06
516 82 0.0740185
516 302 0.370045
516 4484 0.20753
517 25 0.500012
517 678 0.499988
518 4 0.000186813
518 679 0.499914
518 680 0.499899
519 11 0.333942
519 188 0.498862
519 195 0.166097
519 1412 0.00109848
520 25 0.485192
520 42 0.514808
521 366 0.5
521 683 0.5
522 4 9.2023e-05
522 684 0.499954
522 4626 0.499954
523 25 0.317269
523 227 0.0849177
523 302 0.373688
523 1197 0.0747068
523 1580 1.10456e-05
523 2627 0.0747004
523 3008 0.0747067
524 6 1
525 6 0.369906
525 11 0.349156
525 94 0.280938
526 28 0.00965514
526 689 0.990345
527 693 0.000479335
527 694 0.999521
528 15 0.499995
528 25 9.05661e-06
528 36 0.499995
529 4 0.120784
529 11 0.250888
529 25 0.25133
529 696 0.125666
529 3500 0.125666
529 3501 0.125666
530 5 0.147378
530 65 0.147417
530 137 0.0737136
530 195 0.213325
530 263 0.0658627
530 296 3.67856e-06
530 413 0.0581156
530 429 0.0731325
530 497 0.147338
530 697 0.0737136
531 11 0.269445
531 12 0.439864
531 25 0.231409
531 3493 0.0509471
531 4504 0.00833528
532 11 0.00219836
532 12 1.64906e-05
532 25 0.3909
532 699 0.30698
532 1580 0.0523245
532 2627 0.204532
532 4504 0.0430495
533 11 0.298451
533 12 0.338848
533 15 0.300288
533 187 0.00234786
533 3937 0.0600651
534 15 7.83817e-05
534 42 0.239012
534 700 0.326104
534 1015 0.326104
534 2571 0.02174
534 3548 0.086961
535 6 5.2519e-06
535 195 1.23656e-06
535 704 0.68378
535 1193 0.00255142
535 1550 0.28831
535 1742 0.0229628
535 2332 0.00238906
536 4 0.327924
536 11 0.040257
536 357 0.301931
536 706 0.329888
537 4 0.0765746
537 10 0.0399548
537 195 0.176694
537 707 0.353389
537 877 0.176694
537 3302 0.176694
538 4 0.196063
538 11 0.200625
538 195 0.201104
538 386 0.201104
538 708 0.201104
539 4 0.332763
539 187 5.60212e-06
539 709 0.333616
539 710 0.333615
540 11 0.150854
540 18 0.215675
540 24 0.155968
540 25 0.019606
540 434 0.0657606
540 517 0.156855
540 606 0.215675
540 2470 0.0196068
541 4 0.178975
541 11 9.19518e-06
541 195 0.121201
541 224 0.0261784
541 711 0.336238
541 912 0.00115818
541 1800 0.0420297
541 2879 2.35995e-06
541 2919 0.294208
542 4 0.0934949
542 11 0.181055
542 413 0.0907378
542 712 0.181476
542 713 0.181476
542 2877 0.0907379
542 2943 0.0907379
542 4337 0.090285
543 10 0.37828
543 714 0.62172
544 6 0.00667278
544 411 0.248332
544 704 0.248332
544 716 0.248332
544 717 0.248332
545 4 0.183214
545 718 0.816786
546 10 0.0313941
546 42 0.000728636
546 719 0.967877
547 6 1
548 94 0.0368796
548 720 0.770496
548 2259 0.096312
548 3992 0.096312
549 4 1.52405e-07
549 6 2.2966e-06
549 10 0.0249795
549 11 0.0767278
549 22 0.258377
549 286 0.00662502
549 598 0.17697
549 721 0.245126
549 1558 0.0132501
549 1706 0.165626
549 2048 1.1638e-05
549 2100 0.00662502
549 2464 0.01325
549 3440 0.000449028
549 3737 0.00535596
549 3794 0.00662502
550 10 0.0670583
550 11 0.093331
550 82 0.000938855
550 722 0.559115
550 3471 0.279557
551 4 0.00961618
551 6 0.00923867
551 11 0.209267
551 28 0.00075823
551 187 0.005815
551 723 0.597894
551 1683 0.0478315
551 1746 0.0239158
551 2740 0.0956631
552 4 0.31935
552 187 0.0392641
552 724 0.641386
553 17 0.192561
553 18 0.269597
553 24 0.242666
553 725 0.0614934
553 1240 0.196787
553 1334 0.0245971
553 3486 0.0122987
554 4 0.000145595
554 28 4.01473e-06
554 312 0.398875
554 728 0.40065
554 2796 0.0500813
554 3592 0.150244
555 4 1.08751e-06
555 11 0.363814
555 312 0.173385
555 729 0.05785
555 1667 0.2314
555 1678 0.17355
556 3 0.0386739
556 11 0.000608731
556 25 0.118692
556 92 0.169293
556 187 1.05957e-05
556 305 0.0791183
556 473 0.276682
556 730 0.118681
556 2145 0.198239
557 11 0.165127
557 25 0.166933
557 187 0.166955
557 308 0.167001
557 730 0.166983
557 731 0.167
558 4 0.0346462
558 6 2.10328e-06
558 17 0.0678711
558 429 0.0191767
558 461 0.00460162
558 736 0.0776701
558 865 0.757284
558 2699 0.0387482
559 737 1
560 4 0.0271399
560 6 7.59197e-06
560 11 1.04494e-05
560 17 0.0718322
560 288 0.0227489
560 312 0.196487
560 510 0.0454516
560 738 0.636322
561 17 0.331889
561 737 0.668111
562 740 0.92298
562 741 0.0770198
563 6 0.00570816
563 11 0.251368
563 473 0.254723
563 741 0.233472
563 1957 0.254729
564 666 0.666259
564 742 0.333741
565 4 0.556543
565 6 0.0292633
565 666 0.000758114
565 1856 0.206718
565 2982 0.206718
566 312 0.081248
566 743 0.0835327
566 744 0.167065
566 775 0.0835326
566 1053 0.0835327
566 1968 0.334131
566 4225 0.0835326
566 4286 0.0834254
567 11 0.353439
567 187 0.263411
567 745 0.258024
567 4388 0.125125
568 312 0.00142257
568 745 0.102095
568 746 0.108858
568 781 0.217716
568 782 0.108858
568 3823 0.134478
568 3824 0.108858
568 4356 0.108858
568 4483 0.108858
569 11 0.0736393
569 50 0.402914
569 76 0.0787676
569 312 0.199676
569 332 0.144275
569 510 0.100728
570 11 0.00144861
570 98 0.0552041
570 337 0.055766
570 413 0.38594
570 424 0.111532
570 520 0.055766
570 1188 0.0555138
570 1291 0.0557658
570 2843 0.223064
571 24 0.481039
571 28 0.000948202
571 748 0.518013
572 4 0.0555552
572 11 1.86245e-05
572 17 0.0299841
572 749 0.914442
573 19 0.332234
573 28 0.00329757
573 548 0.332234
573 751 0.332234
574 6 4.31577e-05
574 10 2.1646e-05
574 17 0.160648
574 752 0.507221
574 772 0.000169784
574 1470 0.331896
575 753 1
576 4 0.17414
576 66 0.000844531
576 72 0.495062
576 195 0.329954
577 11 0.324772
577 754 0.675228
578 28 0.381194
578 755 0.618806
579 6 7.09818e-05
579 460 2.10955e-05
579 756 0.999908
580 460 0.499995
580 757 0.500005
581 18 0.5
581 758 0.5
582 24 0.138475
582 329 0.143587
582 759 0.143587
582 760 0.143587
582 761 0.143587
582 762 0.143587
582 2325 0.143587
583 17 0.157004
583 195 0.168599
583 763 0.505798
583 4429 0.168599
584 17 0.499899
584 764 0.500101
585 765 0.988804
585 766 0.0111958
586 28 0.00444892
586 766 0.494941
586 767 0.50061
587 228 0.14083
587 312 0.0141893
587 336 0.14083
587 768 0.14083
587 1472 0.28166
587 1949 0.28166
588 25 0.256564
588 752 0.227573
588 769 0.0032522
588 770 0.256565
588 772 0.256041
588 773 4.25518e-06
589 11 0.486576
589 22 0.000479404
589 771 0.512945
590 22 0.334543
590 189 0.334856
590 769 0.330601
591 773 0.499996
591 774 0.500004
592 5 0.000632304
592 10 3.56102e-05
592 11 0.0391451
592 24 0.000158601
592 79 0.467685
592 312 0.141575
592 799 0.116925
592 1781 0.116921
592 2062 0.116921
593 10 0.196426
593 312 0.401786
593 3347 0.401788
594 11 0.00248544
594 775 0.332505
594 776 0.332505
594 777 0.332505
595 4 0.195742
595 11 0.200457
595 187 0.201267
595 778 0.201267
595 779 0.201267
596 312 0.694052
596 780 0.110664
596 3823 0.0846191
596 4482 0.110664
597 18 2.92395e-05
597 312 0.260767
597 783 0.649603
597 1148 0.0896005
598 6 0.0267288
598 308 0.973271
599 4 0.241327
599 10 9.30077e-05
599 312 0.12643
599 784 0.63215
600 4 0.0339128
600 15 0.0222555
600 312 0.29829
600 401 0.645541
601 6 0.0487526
601 785 0.475624
601 1230 0.475624
602 18 0.208629
602 24 0.190824
602 312 0.391815
602 786 0.208732
603 94 1.01249e-06
603 429 0.178245
603 797 0.821754
604 11 0.580956
604 94 0.419044
605 83 0.41296
605 94 0.00612176
605 95 0.167958
605 798 0.41296
606 17 0.321315
606 240 0.339345
606 799 0.33934
607 95 0.00675736
607 108 0.0551801
607 800 0.662162
607 2037 0.0551799
607 4091 0.220721
608 312 0.055725
608 473 0.236069
608 802 0.118034
608 803 0.236069
608 1115 0.354103
609 6 0.000457933
609 804 0.999542
610 460 0.2
610 559 0.2
610 805 0.2
610 2363 0.4
611 4 0.171817
611 17 0.127279
611 18 0.173419
611 24 0.0633679
611 312 0.0304784
611 372 0.173458
611 373 0.173458
611 780 0.0433593
611 1255 0.0433643
612 17 0.295444
612 91 0.0469519
612 212 0.011738
612 248 0.00764556
612 312 0.0630592
612 806 0.17607
612 807 0.129118
612 1133 0.0704279
612 3703 0.187808
612 4137 0.011738
613 25 0.282662
613 312 0.434676
613 808 0.262472
613 4130 0.0201902
614 11 0.000530573
614 809 0.999469
615 4 0.160716
615 17 0.15108
615 18 0.19893
615 24 0.116066
615 332 0.00501364
615 373 0.169171
615 706 0.164195
615 810 0.0199024
615 3580 0.00995122
615 3628 0.00497561
616 11 0.0952392
616 15 0.0453184
616 17 0.0437674
616 319 0.0453183
616 413 0.181218
616 424 0.317229
616 553 0.0453184
616 780 0.0453182
616 811 0.0453183
616 961 0.0453183
616 2799 0.0453184
616 4033 0.0453184
617 24 2.30023e-05
617 42 0.092635
617 195 0.308234
617 305 0.0821055
617 312 0.000131815
617 812 0.319967
617 1241 0.0246129
617 1960 0.147677
617 2088 0.0246129
618 79 0.306331
618 100 0.149607
618 199 0.153165
618 312 0.0845654
618 356 0.306331
619 4 0.274793
619 11 0.166753
619 89 0.00928956
619 94 0.00461835
619 195 0.0908645
619 813 0.317517
619 1520 0.105906
619 1724 0.0151294
619 1746 0.0151292
620 5 0.999845
620 312 0.000154815
621 24 0.0101513
621 28 0.000420109
621 312 0.326814
621 815 0.662614
622 11 0.359878
622 15 0.32426
622 312 0.194428
622 474 0.0217602
622 816 0.0561529
622 1877 0.0217602
622 1973 0.0217602
623 4 0.298997
623 11 0.081117
623 816 0.309622
623 817 0.310264
624 4 0.245074
624 10 1.37154e-05
624 11 1.12531e-05
624 639 0.503383
624 816 0.251518
625 5 0.0351922
625 6 4.05937e-05
625 71 4.62344e-05
625 108 0.00140475
625 195 0.175887
625 365 0.0351832
625 727 0.00211056
625 818 0.140733
625 819 0.0113193
625 1016 0.175916
625 2614 0.0703355
625 3061 0.175916
625 3162 0.0703664
625 3634 0.10555
626 4 0.144365
626 11 7.98806e-05
626 267 0.0490502
626 312 0.122853
626 434 0.196246
626 461 0.0459248
626 821 0.0490504
626 866 0.0981008
626 869 0.147151
626 1675 0.0490788
626 1676 0.0490504
626 2650 0.04905
627 4 0.161795
627 11 0.0674671
627 224 9.23567e-06
627 312 0.00228029
627 344 0.143842
627 405 0.0765365
627 434 0.335255
627 822 0.0881505
627 860 0.0671265
627 861 0.00958935
627 866 1.52543e-07
627 892 0.00958949
627 1647 0.0191789
627 2315 0.00958948
627 2319 0.0095895
628 329 0.5
628 823 0.5
629 4 0.159047
629 6 3.00631e-05
629 816 0.168046
629 825 0.168219
629 1146 0.504658
630 18 0.107138
630 24 4.10087e-05
630 71 0.00178185
630 268 6.3535e-05
630 499 0.111655
630 539 0.0535657
630 712 0.502446
630 1779 0.0558274
630 3635 0.111655
630 4548 0.0558274
631 15 0.5
631 827 0.5
632 4 0.00729837
632 5 0.124196
632 11 0.31806
632 25 0.209691
632 312 0.0276804
632 429 0.00558928
632 828 0.138354
632 1354 0.00140373
632 3080 0.0419383
632 3525 0.0419129
632 3819 0.0419385
632 3831 0.0419384
633 4 0.162842
633 11 0.333364
633 15 0.167935
633 828 0.167924
633 829 0.167935
634 4 0.0144485
634 383 0.657034
634 830 0.328517
635 4 0.233394
635 47 0.0306265
635 329 0.0306589
635 559 0.214612
635 775 0.0919675
635 831 0.367908
635 1939 0.0308322
636 4 0.137999
636 6 0.000676623
636 94 9.83659e-05
636 162 0.314662
636 312 0.149649
636 392 0.0822525
636 1590 0.0786655
636 1748 0.0786655
636 1798 0.157331
637 10 0.187854
637 835 0.812146
638 6 1.74307e-05
638 10 1.06353e-05
638 11 0.00296469
638 17 0.231697
638 206 0.0850345
638 836 0.595242
638 2738 0.0850344
639 6 0.000962751
639 17 0.128886
639 837 0.870152
640 17 0.494228
640 838 0.505772
641 17 0.499195
641 840 0.500805
642 11 0.370243
642 24 0.0116849
642 78 0.494458
642 336 0.123614
643 10 0.00052392
643 715 0.499738
643 843 0.499738
644 17 0.249702
644 94 0.250061
644 844 0.500237
645 17 0.332998
645 94 0.333386
645 846 0.333616
646 17 0.332766
646 94 0.333422
646 848 0.333811
647 4 2.93611e-05
647 6 5.89384e-06
647 17 0.162652
647 94 0.03563
647 312 0.0638827
647 621 0.00370017
647 849 0.693317
647 1048 0.0407833
648 850 0.285714
648 996 0.571429
648 3864 0.142857
649 10 6.53577e-05
649 759 0.333312
649 852 0.499967
649 853 0.166656
650 4 9.28099e-05
650 11 0.325908
650 71 0.1348
650 344 0.1348
650 405 0.0673998
650 548 0.0673999
650 816 0.1348
650 855 0.1348
651 4 0.126787
651 25 0.0610189
651 312 0.202001
651 856 0.427136
651 2715 0.183058
652 17 0.0694763
652 858 0.858945
652 4358 0.0715787
653 11 0.321691
653 17 0.33889
653 95 9.65814e-05
653 862 0.339323
654 4 5.46675e-05
654 10 0.000112815
654 864 0.999833
655 4 1.04986e-05
655 6 9.65493e-05
655 11 0.000721866
655 17 5.33859e-05
655 867 0.999118
656 50 0.0666632
656 61 1.58087e-05
656 312 3.62269e-05
656 868 0.599969
656 2688 0.0666632
656 2825 0.266653
657 4 0.273895
657 475 0.167426
657 586 0.558679
658 6 0.0216559
658 872 0.489172
658 4490 0.489172
659 185 0.5
659 195 0.5
660 10 0.516617
660 404 0.00204364
660 873 0.481339
661 17 0.332749
661 95 0.333359
661 875 0.333454
661 876 0.000438245
662 17 0.499818
662 95 1.83459e-05
662 878 0.500164
663 17 0.33543
663 95 0.327983
663 880 0.336588
664 4 2.50931e-05
664 6 0.0131309
664 429 0.140943
664 882 0.140984
664 1560 0.563934
664 3047 0.140984
665 17 0.366198
665 883 0.299559
665 3260 0.0346837
665 3677 0.299559
666 17 0.200308
666 95 0.197785
666 884 0.601906
667 11 0.166567
667 17 0.1649
667 18 0.167097
667 24 0.000142297
667 224 0.167098
667 365 0.167098
667 366 0.167098
668 885 0.500129
668 887 0.499871
669 4 0.00250813
669 5 0.00640941
669 10 2.44234e-05
669 11 0.000743308
669 189 0.011841
669 195 0.00644276
669 312 0.0363136
669 765 0.0192281
669 886 0.839574
669 887 3.12125e-06
669 1278 0.0705032
669 1435 0.00640938
670 17 0.199791
670 312 0.100091
670 890 0.400493
670 4181 0.100123
670 4213 0.0993796
670 4218 0.100123
671 42 0.0268497
671 94 0.0594193
671 95 0.0940629
671 117 0.0274589
671 312 0.0748786
671 941 0.659018
671 1377 0.0583023
671 1925 1.06716e-05
672 895 1
673 4 0.489364
673 11 0.000609341
673 206 0.510027
674 4 0.00884668
674 5 0.329963
674 312 0.001264
674 898 0.659926
675 5 0.0353674
675 94 0.0325777
675 95 0.151031
675 312 0.0523088
675 900 0.705166
675 1377 0.0235497
676 4 1.13647e-05
676 901 0.999989
677 4 0.0014776
677 10 0.024834
677 94 0.00975182
677 312 0.453604
677 902 0.510333
678 17 0.169593
678 94 0.16593
678 903 0.664477
679 4 0.332794
679 28 0.00407095
679 904 0.331568
679 2839 0.331567
680 5 0.166688
680 11 3.47105e-06
680 312 2.54254e-06
680 553 0.166688
680 905 0.333376
680 1526 0.166688
680 4694 0.166553
681 4 0.143799
681 6 0.00175867
681 10 6.39556e-06
681 17 0.0395084
681 28 0.000290426
681 907 0.670877
681 2262 0.0479198
681 3786 0.0479198
681 4218 0.0479198
682 647 0.000114679
682 908 0.999885
683 312 0.478151
683 909 0.372749
683 1807 0.0745499
683 4086 0.0745499
684 17 0.000166135
684 94 0.0852648
684 95 8.99508e-06
684 312 0.173576
684 991 0.0435873
684 1002 0.610222
684 2704 0.0435873
684 2774 0.0435873
685 4 0.226555
685 11 0.0788067
685 24 0.0986733
685 312 0.0993278
685 910 0.0993277
685 911 0.297983
685 2699 0.0993264
686 4 0.245701
686 187 0.125579
686 776 0.125735
686 913 0.251493
686 1316 0.125747
686 4258 0.125747
687 79 0.5
687 799 0.25
687 914 0.25
688 6 0.0401471
688 11 0.342561
688 916 0.374443
688 2267 0.154182
688 2410 0.0220261
688 2442 0.0666405
689 11 0.24531
689 917 0.75469
690 918 1
691 6 0.0041165
691 108 0.192773
691 235 0.401544
691 312 2.21741e-05
691 419 0.200772
691 920 0.200772
692 4 0.00353858
692 921 0.896815
692 2783 0.0996461
693 17 0.250837
693 922 0.374582
693 938 0.374581
694 11 0.330551
694 923 0.334725
694 924 0.334724
695 4 0.147953
695 312 0.121529
695 566 0.146104
695 993 0.146104
695 1768 0.146104
695 3852 0.146104
695 3993 0.146104
696 925 0.333333
696 3089 0.666667
697 11 0.280936
697 926 0.719064
698 927 0.333333
698 2218 0.666667
699 928 1
700 15 0.331682
700 28 0.00495337
700 929 0.331682
700 930 0.331682
701 17 0.498583
701 95 0.000401447
701 931 0.501016
702 11 0.185834
702 17 0.158728
702 236 0.327719
702 932 0.327719
703 4 0.0272909
703 11 0.129194
703 17 4.94349e-06
703 312 0.346647
703 933 0.0857698
703 1588 0.342578
703 3097 0.0685161
704 4 0.177269
704 17 0.193822
704 360 2.56276e-05
704 934 0.314442
704 2805 0.157221
704 3104 0.157221
705 4 0.193997
705 8 0.201559
705 38 0.201559
705 873 0.201558
705 933 0.201326
706 4 0.00215655
706 17 0.265945
706 935 0.182973
706 1321 0.548925
707 11 0.284616
707 17 0.120347
707 345 0.29299
707 881 0.146495
707 2122 0.00905671
707 3101 0.146495
708 11 0.245295
708 17 0.256293
708 95 0.240254
708 936 0.258158
709 11 0.49215
709 17 3.27631e-05
709 604 0.126892
709 937 0.126892
709 1677 0.253784
709 2511 2.91761e-05
709 3041 0.000220401
710 10 0.000104257
710 17 0.495828
710 939 0.504068
711 4 0.283068
711 940 0.56103
711 1954 0.155902
712 6 0.0218879
712 17 0.241296
712 942 0.61388
712 2482 0.122776
712 4678 0.000159456
713 4 0.181049
713 312 0.181989
713 943 0.0909946
713 1799 0.454973
713 1800 0.0909943
714 4 2.78238e-05
714 10 0.00660063
714 17 0.329953
714 95 0.000371033
714 944 0.663048
715 11 4.22725e-05
715 17 6.49589e-05
715 312 0.230812
715 429 0.0854535
715 945 0.0854534
715 946 0.0854533
715 1749 0.427267
715 2067 0.0854535
716 11 0.329976
716 15 0.334785
716 947 0.335239
717 95 0.000173892
717 948 0.999826
718 4 0.000254268
718 11 0.000918437
718 17 0.110584
718 312 0.11103
718 949 0.777213
719 11 1.88277e-05
719 17 0.0999771
719 50 0.0999981
719 61 0.199996
719 89 0.0999949
719 94 0.0994233
719 95 0.000599099
719 96 0.099998
719 468 0.0999981
719 950 0.0999981
719 951 0.0999981
720 4 0.223572
720 70 0.013773
720 952 0.508523
720 1373 0.0412323
720 2659 0.0216227
720 2668 0.0400929
720 2673 0.013744
720 3474 0.137441
721 10 0.446801
721 953 0.553199
722 5 0.498753
722 10 5.48489e-06
722 954 0.501242
723 10 0.398425
723 957 0.601575
724 18 0.00752087
724 312 0.674374
724 433 0.318106
725 11 0.055458
725 17 0.170143
725 18 0.172627
725 24 0.0838914
725 187 0.115084
725 363 0.0575424
725 364 0.0575424
725 962 0.0575424
725 2677 0.0575424
725 2815 0.0575424
725 2816 0.0575424
725 2817 0.0575424
726 10 0.00134526
726 17 0.198507
726 195 0.200037
726 966 0.600111
727 195 0.5
727 967 0.5
728 195 0.5
728 968 0.5
729 195 0.5
729 969 0.5
730 10 0.00133462
730 104 0.499333
730 3455 0.499333
731 6 0.000109323
731 94 0.154461
731 195 0.0402945
731 312 0.0798345
731 970 0.322356
731 1801 0.282061
731 4294 0.120884
732 10 5.5167e-06
732 195 0.499997
732 971 0.499997
733 5 0.00138517
733 10 0.16078
733 195 0.837835
734 5 0.142834
734 195 0.857166
735 5 0.215185
735 8 0.258213
735 10 0.268389
735 972 0.258213
736 10 5.5167e-06
736 195 0.499997
736 973 0.499997
737 10 0.000342508
737 195 0.499829
737 975 0.499829
738 195 0.5
738 976 0.5
739 17 0.0709365
739 18 0.166688
739 187 0.190594
