1 1 100 1 1
1 2 100 1 1
1 3 100 1 1
1 4 100 1 1
1 5 100 1 1
1 6 100 1 1
1 7 100 1 1
1 8 100 1 1
1 9 100 1 1
1 10 100 1 1
1 12 100 1 1
1 13 100 1 1
1 0 100 2 0.00195805
2 0 100 2 0.998042
1 1 100 2 0.901362
2 1 100 2 0.0986384
1 2 100 2 0.174048
2 2 100 2 0.825952
1 3 100 2 0.473916
2 3 100 2 0.526084
1 4 100 2 0.48495
2 4 100 2 0.51505
1 5 100 2 0.775586
2 5 100 2 0.224414
1 6 100 2 0.301388
2 6 100 2 0.698611
1 0 100 3 0.000631618
2 0 100 3 0.0154289
3 0 100 3 0.98394
1 1 100 3 0.662063
2 1 100 3 0.325123
3 1 100 3 0.0128139
1 2 100 3 0.235781
2 2 100 3 0.663379
3 2 100 3 0.100839
1 3 100 3 0.292297
2 3 100 3 0.487601
3 3 100 3 0.220103
1 4 100 3 0.140053
2 4 100 3 0.72175
3 4 100 3 0.138197
1 5 100 3 0.176585
2 5 100 3 0.768139
3 5 100 3 0.0552763
1 6 100 3 0.450832
2 6 100 3 0.545816
3 6 100 3 0.00335195
1 0 100 4 0.00433775
2 0 100 4 0.0753742
3 0 100 4 0.0137434
4 0 100 4 0.906545
1 1 100 4 0.618162
2 1 100 4 0.262747
3 1 100 4 0.116191
4 1 100 4 0.00290013
1 2 100 4 0.0618468
2 2 100 4 0.350272
3 2 100 4 0.542175
4 2 100 4 0.0457064
1 3 100 4 0.0623921
2 3 100 4 0.332533
3 3 100 4 0.501339
4 3 100 4 0.103735
1 4 100 4 0.0694369
2 4 100 4 0.366275
3 4 100 4 0.331431
4 4 100 4 0.232857
1 5 100 4 0.0219174
2 5 100 4 0.403241
3 5 100 4 0.31747
4 5 100 4 0.257371
1 6 100 4 0.198797
2 6 100 4 0.171156
3 6 100 4 0.45104
4 6 100 4 0.179007
1 7 100 4 0.0616227
3 7 100 4 0.934624
4 7 100 4 0.0037529
1 8 100 4 0.0491012
2 8 100 4 0.300927
3 8 100 4 0.64782
4 8 100 4 0.0021522
1 0 100 5 0.00431297
2 0 100 5 0.0895788
3 0 100 5 0.120317
4 0 100 5 0.058839
5 0 100 5 0.726952
1 1 100 5 0.618502
2 1 100 5 0.228123
3 1 100 5 0.12826
4 1 100 5 0.023448
5 1 100 5 0.00166739
1 2 100 5 0.0489767
2 2 100 5 0.335219
3 2 100 5 0.258888
4 2 100 5 0.314326
5 2 100 5 0.0425901
1 3 100 5 0.0246399
2 3 100 5 0.109432
3 3 100 5 0.404988
4 3 100 5 0.416721
5 3 100 5 0.0442185
1 4 100 5 0.014331
2 4 100 5 0.0950817
3 4 100 5 0.117108
4 4 100 5 0.491118
5 4 100 5 0.282361
1 5 100 5 0.0120765
2 5 100 5 0.149233
3 5 100 5 0.263043
4 5 100 5 0.510145
5 5 100 5 0.0655032
1 6 100 5 0.0437498
2 6 100 5 0.0915657
3 6 100 5 0.389921
4 6 100 5 0.4297
5 6 100 5 0.0450639
1 7 100 5 0.175426
2 7 100 5 0.00188316
3 7 100 5 0.347982
4 7 100 5 0.473901
5 7 100 5 0.000807094
1 0 100 6 0.00456128
2 0 100 6 0.0780948
3 0 100 6 0.131787
4 0 100 6 0.071984
5 0 100 6 0.138896
6 0 100 6 0.574676
1 1 100 6 0.595172
2 1 100 6 0.218598
3 1 100 6 0.141969
4 1 100 6 0.0305335
5 1 100 6 0.0121399
6 1 100 6 0.00158749
1 2 100 6 0.0456477
2 2 100 6 0.26472
3 2 100 6 0.261116
4 2 100 6 0.238937
5 2 100 6 0.115995
6 2 100 6 0.0735847
1 3 100 6 0.0157304
2 3 100 6 0.0838333
3 3 100 6 0.130869
4 3 100 6 0.302779
5 3 100 6 0.446178
6 3 100 6 0.0206102
1 4 100 6 0.00895736
2 4 100 6 0.0687224
3 4 100 6 0.110239
4 4 100 6 0.370762
5 4 100 6 0.389742
6 4 100 6 0.0515773
1 5 100 6 0.00725012
2 5 100 6 0.110674
3 5 100 6 0.113032
4 5 100 6 0.327146
5 5 100 6 0.371751
6 5 100 6 0.0701469
1 6 100 6 0.0577462
2 6 100 6 0.15037
3 6 100 6 0.0472697
4 6 100 6 0.262678
5 6 100 6 0.388633
6 6 100 6 0.0933034
1 7 100 6 0.0600768
2 7 100 6 0.188468
3 7 100 6 7.28163e-07
4 7 100 6 0.306446
5 7 100 6 0.306804
6 7 100 6 0.138204
1 8 100 6 0.0152511
2 8 100 6 0.0881667
3 8 100 6 0.000602374
4 8 100 6 0.309317
5 8 100 6 0.585446
6 8 100 6 0.00121762
2 9 100 6 3.98037e-06
4 9 100 6 0.906051
5 9 100 6 0.0911665
6 9 100 6 0.00277896
2 10 100 6 2.68875e-06
3 10 100 6 2.23655e-06
4 10 100 6 0.127368
5 10 100 6 0.423597
6 10 100 6 0.44903
1 0 100 7 0.00783166
2 0 100 7 0.0766054
3 0 100 7 0.126564
4 0 100 7 0.111501
5 0 100 7 0.0683755
6 0 100 7 0.0945822
7 0 100 7 0.514539
1 1 100 7 0.637825
2 1 100 7 0.227148
3 1 100 7 0.108013
4 1 100 7 0.0189292
5 1 100 7 0.00431845
6 1 100 7 0.00331106
7 1 100 7 0.000454644
1 2 100 7 0.0581268
2 2 100 7 0.269052
3 2 100 7 0.262477
4 2 100 7 0.185112
5 2 100 7 0.127701
6 2 100 7 0.0561677
7 2 100 7 0.0413628
1 3 100 7 0.0115299
2 3 100 7 0.072326
3 3 100 7 0.136806
4 3 100 7 0.256872
5 3 100 7 0.264028
6 3 100 7 0.234029
7 3 100 7 0.0244091
1 4 100 7 0.0131022
2 4 100 7 0.0310963
3 4 100 7 0.0592329
4 4 100 7 0.14718
5 4 100 7 0.316757
6 4 100 7 0.369746
7 4 100 7 0.0628849
1 5 100 7 0.00533111
2 5 100 7 0.0562078
3 5 100 7 0.0331336
4 5 100 7 0.180372
5 5 100 7 0.232979
6 5 100 7 0.429151
7 5 100 7 0.0628251
1 6 100 7 0.0183128
2 6 100 7 0.0620089
3 6 100 7 0.0240111
4 6 100 7 0.150715
5 6 100 7 0.322936
6 6 100 7 0.343058
7 6 100 7 0.0789587
1 7 100 7 1.5755e-05
2 7 100 7 1.79714e-05
3 7 100 7 0.120583
4 7 100 7 0.0412568
5 7 100 7 0.297834
6 7 100 7 0.451718
7 7 100 7 0.0885746
3 8 100 7 7.37386e-06
4 8 100 7 1.69234e-06
5 8 100 7 0.305298
6 8 100 7 0.591284
7 8 100 7 0.103409
3 9 100 7 0.0295243
4 9 100 7 0.00246902
5 9 100 7 0.145768
6 9 100 7 0.38179
7 9 100 7 0.440449
2 10 100 7 1.03181e-06
3 10 100 7 4.18115e-05
4 10 100 7 0.00012681
7 10 100 7 0.99983
2 11 100 7 0.0494169
3 11 100 7 2.22267e-05
7 11 100 7 0.950561
1 0 100 8 0.00673178
2 0 100 8 0.0560265
3 0 100 8 0.090375
4 0 100 8 0.0915683
5 0 100 8 0.116863
6 0 100 8 0.0471503
7 0 100 8 0.172586
8 0 100 8 0.418699
1 1 100 8 0.537632
2 1 100 8 0.249249
3 1 100 8 0.196538
4 1 100 8 0.00911396
5 1 100 8 0.00460495
6 1 100 8 0.000676403
7 1 100 8 0.00218568
8 1 100 8 1.5018e-07
1 2 100 8 0.0440639
2 2 100 8 0.218446
3 2 100 8 0.2085
4 2 100 8 0.270819
5 2 100 8 0.117585
6 2 100 8 0.0826115
7 2 100 8 0.0221057
8 2 100 8 0.0358691
1 3 100 8 0.0103561
2 3 100 8 0.0423427
3 3 100 8 0.0738612
4 3 100 8 0.141074
5 3 100 8 0.254909
6 3 100 8 0.273143
7 3 100 8 0.106549
8 3 100 8 0.0977649
1 4 100 8 0.0102857
2 4 100 8 0.0427419
3 4 100 8 0.0619885
4 4 100 8 0.117456
5 4 100 8 0.17435
6 4 100 8 0.270593
7 4 100 8 0.29333
8 4 100 8 0.029255
1 5 100 8 0.00970536
2 5 100 8 0.0358078
3 5 100 8 0.0228592
4 5 100 8 0.100546
5 5 100 8 0.154958
6 5 100 8 0.255414
7 5 100 8 0.374996
8 5 100 8 0.045713
1 6 100 8 7.96731e-05
2 6 100 8 0.0547484
3 6 100 8 0.0249226
4 6 100 8 0.1153
5 6 100 8 0.114577
6 6 100 8 0.255531
7 6 100 8 0.386345
8 6 100 8 0.0484962
1 7 100 8 0.0261338
2 7 100 8 0.0540867
3 7 100 8 0.0090784
4 7 100 8 0.107767
5 7 100 8 0.0746065
6 7 100 8 0.213243
7 7 100 8 0.437642
8 7 100 8 0.0774423
1 8 100 8 4.49077e-06
2 8 100 8 0.0979358
3 8 100 8 0.0656023
4 8 100 8 0.20694
5 8 100 8 0.0663471
6 8 100 8 0.22716
7 8 100 8 0.278571
8 8 100 8 0.0574387
3 9 100 8 1.3699e-05
4 9 100 8 0.204868
6 9 100 8 0.274102
7 9 100 8 0.483492
8 9 100 8 0.0375241
1 10 100 8 0.200358
3 10 100 8 0.142677
4 10 100 8 3.62896e-06
5 10 100 8 3.39233e-05
6 10 100 8 0.326723
7 10 100 8 0.00297946
8 10 100 8 0.327225
1 0 100 9 0.00864278
2 0 100 9 0.0412579
3 0 100 9 0.116535
4 0 100 9 0.0869301
5 0 100 9 0.116409
6 0 100 9 0.0913238
7 0 100 9 0.04439
8 0 100 9 0.0955665
9 0 100 9 0.398945
1 1 100 9 0.581851
2 1 100 9 0.232475
3 1 100 9 0.152827
4 1 100 9 0.0213255
5 1 100 9 0.00522509
6 1 100 9 0.00314956
7 1 100 9 0.00102581
8 1 100 9 0.00110248
9 1 100 9 0.00101784
1 2 100 9 0.0445565
2 2 100 9 0.273859
3 2 100 9 0.223818
4 2 100 9 0.250066
5 2 100 9 0.0933264
6 2 100 9 0.0522101
7 2 100 9 0.0365801
8 2 100 9 0.0201101
9 2 100 9 0.00547364
1 3 100 9 0.0148696
2 3 100 9 0.0664429
3 3 100 9 0.09472
4 3 100 9 0.194717
5 3 100 9 0.243537
6 3 100 9 0.178446
7 3 100 9 0.139953
8 3 100 9 0.0549901
9 3 100 9 0.0123238
1 4 100 9 0.00787655
2 4 100 9 0.0266247
3 4 100 9 0.0357921
4 4 100 9 0.0773237
5 4 100 9 0.147154
6 4 100 9 0.233855
7 4 100 9 0.223352
8 4 100 9 0.180445
9 4 100 9 0.0675768
1 5 100 9 0.0120194
2 5 100 9 0.037055
3 5 100 9 0.0344791
4 5 100 9 0.0498118
5 5 100 9 0.0924684
6 5 100 9 0.156695
7 5 100 9 0.297379
8 5 100 9 0.283353
9 5 100 9 0.0367393
1 6 100 9 0.0159928
2 6 100 9 0.0158374
3 6 100 9 0.0182717
4 6 100 9 0.0771824
5 6 100 9 0.090981
6 6 100 9 0.150655
7 6 100 9 0.242742
8 6 100 9 0.350715
9 6 100 9 0.0376234
1 7 100 9 0.000516528
2 7 100 9 0.0445369
3 7 100 9 0.0059474
4 7 100 9 0.0553372
5 7 100 9 0.100985
6 7 100 9 0.140096
7 7 100 9 0.23237
8 7 100 9 0.338175
9 7 100 9 0.0820359
1 8 100 9 0.00283399
2 8 100 9 0.0340275
3 8 100 9 0.0775542
4 8 100 9 0.0556837
5 8 100 9 0.0883373
6 8 100 9 0.04234
7 8 100 9 0.226476
8 8 100 9 0.382434
9 8 100 9 0.0903128
2 9 100 9 0.0379725
3 9 100 9 0.000127668
4 9 100 9 0.0790022
5 9 100 9 1.96757e-05
6 9 100 9 0.161157
7 9 100 9 0.243997
8 9 100 9 0.430025
9 9 100 9 0.0476998
2 10 100 9 1.27671e-05
3 10 100 9 6.66605e-06
6 10 100 9 0.00170349
7 10 100 9 0.276826
8 10 100 9 0.583812
9 10 100 9 0.137638
3 11 100 9 3.54414e-06
5 11 100 9 0.000112443
6 11 100 9 0.0167908
8 11 100 9 0.974531
9 11 100 9 0.00856183
1 0 100 10 0.00601856
2 0 100 10 0.0382534
3 0 100 10 0.0967932
4 0 100 10 0.0636779
5 0 100 10 0.11689
6 0 100 10 0.0969485
7 0 100 10 0.0488633
8 0 100 10 0.0479503
9 0 100 10 0.112733
10 0 100 10 0.371872
1 1 100 10 0.531741
2 1 100 10 0.242108
3 1 100 10 0.183617
4 1 100 10 0.0127141
5 1 100 10 0.0166205
6 1 100 10 0.00370422
7 1 100 10 0.00830212
8 1 100 10 0.00119274
9 1 100 10 4.82464e-07
1 2 100 10 0.0542538
2 2 100 10 0.258937
3 2 100 10 0.20651
4 2 100 10 0.258315
5 2 100 10 0.0845038
6 2 100 10 0.0533193
7 2 100 10 0.0312195
8 2 100 10 0.028983
9 2 100 10 0.0221171
10 2 100 10 0.0018416
1 3 100 10 0.0167454
2 3 100 10 0.056987
3 3 100 10 0.116069
4 3 100 10 0.211244
5 3 100 10 0.245601
6 3 100 10 0.174131
7 3 100 10 0.0920527
8 3 100 10 0.0512656
9 3 100 10 0.0230348
10 3 100 10 0.0128704
1 4 100 10 0.00437291
2 4 100 10 0.0226864
3 4 100 10 0.0235662
4 4 100 10 0.0711854
5 4 100 10 0.100332
6 4 100 10 0.208489
7 4 100 10 0.217313
8 4 100 10 0.184289
9 4 100 10 0.098208
10 4 100 10 0.069558
1 5 100 10 0.00708491
2 5 100 10 0.00734284
3 5 100 10 0.00904523
4 5 100 10 0.0259009
5 5 100 10 0.0891354
6 5 100 10 0.10949
7 5 100 10 0.256803
8 5 100 10 0.265073
9 5 100 10 0.178498
10 5 100 10 0.0516266
1 6 100 10 0.00646433
2 6 100 10 0.0161968
3 6 100 10 0.003803
4 6 100 10 0.0407247
5 6 100 10 0.067301
6 6 100 10 0.0803629
7 6 100 10 0.184032
8 6 100 10 0.262922
9 6 100 10 0.318819
10 6 100 10 0.0193737
2 7 100 10 0.0552927
3 7 100 10 0.0417585
4 7 100 10 0.105907
5 7 100 10 0.050204
6 7 100 10 0.084367
7 7 100 10 0.10118
8 7 100 10 0.209925
9 7 100 10 0.3428
10 7 100 10 0.00856474
1 8 100 10 6.00666e-07
2 8 100 10 0.12047
4 8 100 10 0.11727
5 8 100 10 0.0120947
6 8 100 10 0.0531411
7 8 100 10 0.0616647
8 8 100 10 0.17022
9 8 100 10 0.380436
10 8 100 10 0.0847032
2 9 100 10 0.0973641
3 9 100 10 0.000117593
4 9 100 10 0.253718
6 9 100 10 0.0960012
7 9 100 10 0.0324762
8 9 100 10 0.167615
9 9 100 10 0.230858
10 9 100 10 0.12185
2 10 100 10 4.31328e-06
6 10 100 10 0.11919
7 10 100 10 0.000371621
8 10 100 10 0.119193
9 10 100 10 0.731681
10 10 100 10 0.0295596
1 0 100 11 0.00541577
2 0 100 11 0.0214403
3 0 100 11 0.102578
4 0 100 11 0.032871
5 0 100 11 0.0925399
6 0 100 11 0.117292
7 0 100 11 0.0590449
8 0 100 11 0.0560844
9 0 100 11 0.031827
10 0 100 11 0.165409
11 0 100 11 0.315497
1 1 100 11 0.47936
2 1 100 11 0.278598
3 1 100 11 0.210534
4 1 100 11 0.0235184
5 1 100 11 0.00647176
6 1 100 11 0.00150696
7 1 100 11 8.85375e-06
8 1 100 11 1.09532e-06
9 1 100 11 5.37283e-07
10 1 100 11 1.38105e-07
1 2 100 11 0.0545037
2 2 100 11 0.170311
3 2 100 11 0.160741
4 2 100 11 0.314517
5 2 100 11 0.233076
6 2 100 11 0.037287
7 2 100 11 0.00861117
8 2 100 11 0.0132128
9 2 100 11 0.00384361
10 2 100 11 0.00384523
11 2 100 11 5.07315e-05
1 3 100 11 0.00824379
2 3 100 11 0.0524729
3 3 100 11 0.0685952
4 3 100 11 0.150471
5 3 100 11 0.165439
6 3 100 11 0.206025
7 3 100 11 0.2484
8 3 100 11 0.0490442
9 3 100 11 0.0260985
10 3 100 11 0.0194678
11 3 100 11 0.00574348
1 4 100 11 0.00639711
2 4 100 11 0.016362
3 4 100 11 0.0245329
4 4 100 11 0.0629128
5 4 100 11 0.0560287
6 4 100 11 0.113862
7 4 100 11 0.113265
8 4 100 11 0.211573
9 4 100 11 0.219413
10 4 100 11 0.0497359
11 4 100 11 0.125918
1 5 100 11 1.94062e-06
2 5 100 11 0.0207835
3 5 100 11 0.0117418
4 5 100 11 0.0297823
5 5 100 11 0.0633409
6 5 100 11 0.101233
7 5 100 11 0.179204
8 5 100 11 0.211228
9 5 100 11 0.189628
10 5 100 11 0.145494
11 5 100 11 0.0475631
1 6 100 11 1.28327e-05
2 6 100 11 0.0155095
3 6 100 11 0.00409526
4 6 100 11 0.0284194
5 6 100 11 0.0331304
6 6 100 11 0.0494933
7 6 100 11 0.102256
8 6 100 11 0.206322
9 6 100 11 0.276748
10 6 100 11 0.241011
11 6 100 11 0.0430021
1 7 100 11 0.00678149
2 7 100 11 0.0508361
3 7 100 11 4.43346e-05
4 7 100 11 0.037922
5 7 100 11 0.0460133
6 7 100 11 0.115638
7 7 100 11 0.123651
8 7 100 11 0.119132
9 7 100 11 0.186273
10 7 100 11 0.293259
11 7 100 11 0.02045
1 8 100 11 0.0154417
2 8 100 11 0.0630264
3 8 100 11 0.0381543
4 8 100 11 0.0877845
5 8 100 11 0.0500735
6 8 100 11 0.0928465
7 8 100 11 0.0477479
8 8 100 11 0.110921
9 8 100 11 0.223877
10 8 100 11 0.257305
11 8 100 11 0.0128226
1 9 100 11 0.0262001
2 9 100 11 0.156808
4 9 100 11 0.0748416
5 9 100 11 0.0912652
6 9 100 11 0.00811132
7 9 100 11 0.107206
8 9 100 11 0.0839628
9 9 100 11 0.128464
10 9 100 11 0.296951
11 9 100 11 0.02619
2 10 100 11 0.275189
4 10 100 11 0.289321
6 10 100 11 0.0363033
7 10 100 11 0.0536242
8 10 100 11 0.0752294
9 10 100 11 0.0540549
10 10 100 11 0.108542
11 10 100 11 0.107736
4 11 100 11 0.184721
6 11 100 11 0.106841
8 11 100 11 0.0929737
9 11 100 11 0.150723
10 11 100 11 0.37176
11 11 100 11 0.0929823
10 12 100 11 1
1 0 100 12 0.0133427
2 0 100 12 0.0397348
3 0 100 12 0.0814173
4 0 100 12 0.0429335
5 0 100 12 0.0952763
6 0 100 12 0.0657994
7 0 100 12 0.0635111
8 0 100 12 0.116905
9 0 100 12 0.0410373
10 0 100 12 0.0276264
11 0 100 12 0.146996
12 0 100 12 0.26542
1 1 100 12 0.458716
2 1 100 12 0.280616
3 1 100 12 0.223367
4 1 100 12 0.0224943
5 1 100 12 0.0105477
6 1 100 12 3.38761e-05
7 1 100 12 5.32638e-07
8 1 100 12 2.3188e-06
10 1 100 12 0.00211115
11 1 100 12 0.00211106
1 2 100 12 0.0448252
2 2 100 12 0.176631
3 2 100 12 0.178251
4 2 100 12 0.353137
5 2 100 12 0.128336
6 2 100 12 0.0632359
7 2 100 12 0.0276971
8 2 100 12 0.0106237
9 2 100 12 0.00565196
10 2 100 12 0.00580593
11 2 100 12 0.00580342
12 2 100 12 1.74377e-06
1 3 100 12 4.62778e-07
2 3 100 12 0.0231784
3 3 100 12 0.0538969
4 3 100 12 0.138006
5 3 100 12 0.215769
6 3 100 12 0.272794
7 3 100 12 0.183402
8 3 100 12 0.0749735
9 3 100 12 0.0195244
10 3 100 12 0.0139437
11 3 100 12 0.00114816
12 3 100 12 0.00336295
1 4 100 12 0.00885517
2 4 100 12 0.0154401
3 4 100 12 0.0119449
4 4 100 12 0.0533228
5 4 100 12 0.0869961
6 4 100 12 0.121487
7 4 100 12 0.191019
8 4 100 12 0.179389
9 4 100 12 0.179502
10 4 100 12 0.0916066
11 4 100 12 0.028215
12 4 100 12 0.0322234
1 5 100 12 2.27124e-06
2 5 100 12 0.0056336
3 5 100 12 5.74054e-06
4 5 100 12 0.00846984
5 5 100 12 0.0312784
6 5 100 12 0.0534251
7 5 100 12 0.095848
8 5 100 12 0.116202
9 5 100 12 0.212487
10 5 100 12 0.248145
11 5 100 12 0.0655145
12 5 100 12 0.162989
2 6 100 12 0.0066006
3 6 100 12 0.00659697
4 6 100 12 0.0194864
5 6 100 12 0.0307344
6 6 100 12 0.05289
7 6 100 12 0.0824233
8 6 100 12 0.113308
9 6 100 12 0.230945
10 6 100 12 0.229327
11 6 100 12 0.193912
12 6 100 12 0.0337765
2 7 100 12 0.0209072
3 7 100 12 5.51688e-06
4 7 100 12 0.00714834
5 7 100 12 0.033858
6 7 100 12 0.0285182
7 7 100 12 0.0519271
8 7 100 12 0.103313
9 7 100 12 0.169522
10 7 100 12 0.260286
11 7 100 12 0.3036
12 7 100 12 0.0209147
1 8 100 12 1.46034e-07
2 8 100 12 0.0402869
3 8 100 12 0.0126386
4 8 100 12 0.0120851
5 8 100 12 0.0792029
6 8 100 12 0.0270804
7 8 100 12 0.0761725
8 8 100 12 0.0504828
9 8 100 12 0.131475
10 8 100 12 0.226372
11 8 100 12 0.331555
12 8 100 12 0.0126483
2 9 100 12 0.0486236
3 9 100 12 0.00254069
4 9 100 12 0.119293
5 9 100 12 0.0206601
6 9 100 12 0.115643
7 9 100 12 0.0242071
8 9 100 12 0.0466846
9 9 100 12 0.0484668
10 9 100 12 0.196994
11 9 100 12 0.352645
12 9 100 12 0.0242414
2 10 100 12 0.0499312
3 10 100 12 0.0499897
4 10 100 12 0.227338
5 10 100 12 0.044897
6 10 100 12 0.142825
7 10 100 12 0.14735
8 10 100 12 0.0117658
9 10 100 12 0.0750055
10 10 100 12 0.0999909
11 10 100 12 0.150907
8 11 100 12 1.45192e-05
11 11 100 12 0.999985
6 12 100 12 0.615167
8 12 100 12 0.384833
1 0 100 13 0.00461774
2 0 100 13 0.0231916
3 0 100 13 0.0851797
4 0 100 13 0.0326888
5 0 100 13 0.108895
6 0 100 13 0.0693979
7 0 100 13 0.0520198
8 0 100 13 0.0870194
9 0 100 13 0.0802336
10 0 100 13 0.0364514
11 0 100 13 0.0262744
12 0 100 13 0.148465
13 0 100 13 0.245567
1 1 100 13 0.464398
2 1 100 13 0.271422
3 1 100 13 0.202269
4 1 100 13 0.028713
5 1 100 13 0.0160745
6 1 100 13 0.0038468
7 1 100 13 0.00692655
8 1 100 13 0.00632402
9 1 100 13 8.75969e-06
10 1 100 13 7.27499e-06
11 1 100 13 1.03191e-05
1 2 100 13 0.0387046
2 2 100 13 0.163543
3 2 100 13 0.18472
4 2 100 13 0.33259
5 2 100 13 0.147336
6 2 100 13 0.0503251
7 2 100 13 0.0216779
8 2 100 13 0.00874563
9 2 100 13 0.0210469
10 2 100 13 0.00789459
11 2 100 13 0.0156112
12 2 100 13 0.00780147
13 2 100 13 4.63002e-06
1 3 100 13 0.00446473
2 3 100 13 0.0410087
3 3 100 13 0.0331347
4 3 100 13 0.111789
5 3 100 13 0.162474
6 3 100 13 0.266276
7 3 100 13 0.203905
8 3 100 13 0.0673945
9 3 100 13 0.036838
10 3 100 13 0.0284983
11 3 100 13 0.0243679
12 3 100 13 0.0198397
13 3 100 13 9.63047e-06
1 4 100 13 0.0117792
2 4 100 13 0.0171504
3 4 100 13 0.00785784
4 4 100 13 0.0312374
5 4 100 13 0.0641848
6 4 100 13 0.107723
7 4 100 13 0.169738
8 4 100 13 0.228773
9 4 100 13 0.178612
10 4 100 13 0.0790021
11 4 100 13 0.054188
12 4 100 13 0.0392659
13 4 100 13 0.010488
1 5 100 13 0.00393937
2 5 100 13 0.0197377
3 5 100 13 0.018026
4 5 100 13 0.031108
5 5 100 13 0.0235357
6 5 100 13 0.0371132
7 5 100 13 0.0630246
8 5 100 13 0.0777115
9 5 100 13 0.0998509
10 5 100 13 0.232618
11 5 100 13 0.199361
12 5 100 13 0.0535888
13 5 100 13 0.140385
2 6 100 13 0.0229731
3 6 100 13 3.25311e-07
4 6 100 13 0.0221892
5 6 100 13 0.0368423
6 6 100 13 0.0587751
7 6 100 13 0.0760532
8 6 100 13 0.0848312
9 6 100 13 0.140434
10 6 100 13 0.180724
11 6 100 13 0.211766
12 6 100 13 0.111096
13 6 100 13 0.0543146
1 7 100 13 0.0201526
2 7 100 13 6.64962e-07
3 7 100 13 0.0101723
4 7 100 13 0.0302265
5 7 100 13 0.0101783
6 7 100 13 0.0499753
7 7 100 13 0.0717383
8 7 100 13 0.101007
9 7 100 13 0.126329
10 7 100 13 0.15787
11 7 100 13 0.202974
12 7 100 13 0.210182
13 7 100 13 0.00919476
1 8 100 13 1.60845e-06
2 8 100 13 0.050471
4 8 100 13 0.0248993
5 8 100 13 0.0358271
6 8 100 13 0.0284924
7 8 100 13 0.0751278
8 8 100 13 0.0619118
9 8 100 13 0.106892
10 8 100 13 0.175063
11 8 100 13 0.230769
12 8 100 13 0.138281
13 8 100 13 0.0722642
1 9 100 13 0.0214449
2 9 100 13 0.033777
3 9 100 13 0.0214456
4 9 100 13 0.0663273
5 9 100 13 0.0415882
6 9 100 13 0.0203423
7 9 100 13 0.0154318
8 9 100 13 0.0244117
9 9 100 13 0.0635923
10 9 100 13 0.123289
11 9 100 13 0.170715
12 9 100 13 0.339609
13 9 100 13 0.058026
4 10 100 13 0.0909891
6 10 100 13 0.088161
9 10 100 13 0.0909938
10 10 100 13 1.20487e-06
11 10 100 13 0.276986
12 10 100 13 0.363986
13 10 100 13 0.0888828
1 11 100 13 1.81336e-05
4 11 100 13 0.324055
6 11 100 13 0.307877
8 11 100 13 0.0438443
9 11 100 13 5.96929e-06
12 11 100 13 0.3242
5 12 100 13 0.31386
7 12 100 13 0.30771
9 12 100 13 0.0644956
10 12 100 13 0.313935
11 13 100 13 1
12 14 100 13 1
1 0 100 14 0.00391629
2 0 100 14 0.023546
3 0 100 14 0.0557702
4 0 100 14 0.0406132
5 0 100 14 0.111981
6 0 100 14 0.0566248
7 0 100 14 0.0415735
8 0 100 14 0.0704691
9 0 100 14 0.0520741
10 0 100 14 0.0816881
11 0 100 14 0.0239214
12 0 100 14 0.0342403
13 0 100 14 0.155898
14 0 100 14 0.247684
1 1 100 14 0.464028
2 1 100 14 0.303865
3 1 100 14 0.206036
4 1 100 14 0.0148804
5 1 100 14 0.0110074
6 1 100 14 0.000108866
7 1 100 14 6.26351e-07
8 1 100 14 7.04156e-05
11 1 100 14 2.69507e-07
13 1 100 14 2.38299e-06
1 2 100 14 0.0514971
2 2 100 14 0.162129
3 2 100 14 0.249836
4 2 100 14 0.38702
5 2 100 14 0.118012
6 2 100 14 0.0314922
9 2 100 14 4.06513e-07
10 2 100 14 8.22716e-06
11 2 100 14 1.01391e-06
12 2 100 14 2.62766e-07
13 2 100 14 1.70039e-07
14 2 100 14 3.90068e-06
1 3 100 14 0.019858
2 3 100 14 0.0327261
3 3 100 14 0.0361166
4 3 100 14 0.126679
5 3 100 14 0.17712
6 3 100 14 0.259997
7 3 100 14 0.224425
8 3 100 14 0.0680208
9 3 100 14 0.0275754
10 3 100 14 0.0208431
11 3 100 14 0.00655635
12 3 100 14 3.23352e-06
13 3 100 14 3.06345e-05
14 3 100 14 4.9218e-05
1 4 100 14 0.0131435
2 4 100 14 0.0131784
3 4 100 14 0.0399899
4 4 100 14 0.0262912
5 4 100 14 0.0933404
6 4 100 14 0.156448
7 4 100 14 0.159909
8 4 100 14 0.21269
9 4 100 14 0.154707
10 4 100 14 0.0399969
11 4 100 14 0.0446787
12 4 100 14 0.0330983
13 4 100 14 0.00657349
14 4 100 14 0.00595602
1 5 100 14 2.35176e-06
2 5 100 14 0.000146627
3 5 100 14 0.00156875
4 5 100 14 0.0337743
5 5 100 14 0.0332862
6 5 100 14 0.0381405
7 5 100 14 0.0868483
8 5 100 14 0.125631
9 5 100 14 0.106048
10 5 100 14 0.166266
11 5 100 14 0.166819
12 5 100 14 0.141754
13 5 100 14 0.0208471
14 5 100 14 0.0788677
1 6 100 14 0.0102588
2 6 100 14 0.0302742
3 6 100 14 0.0156143
4 6 100 14 0.0267209
5 6 100 14 0.0454241
6 6 100 14 0.0710626
7 6 100 14 0.0709148
8 6 100 14 0.0508692
9 6 100 14 0.123403
10 6 100 14 0.151548
11 6 100 14 0.121756
12 6 100 14 0.147729
13 6 100 14 0.100297
14 6 100 14 0.0341277
1 7 100 14 0.0103147
2 7 100 14 0.033229
4 7 100 14 0.0331554
5 7 100 14 0.0246388
6 7 100 14 0.029756
7 7 100 14 0.064856
8 7 100 14 0.0709805
9 7 100 14 0.148991
10 7 100 14 0.0886303
11 7 100 14 0.208423
12 7 100 14 0.12231
13 7 100 14 0.143297
14 7 100 14 0.0214184
2 8 100 14 0.0133865
3 8 100 14 0.0128841
4 8 100 14 0.013612
5 8 100 14 8.84014e-07
6 8 100 14 0.0129259
7 8 100 14 0.0275841
8 8 100 14 0.0528449
9 8 100 14 0.157467
10 8 100 14 0.166245
11 8 100 14 0.163099
12 8 100 14 0.188655
13 8 100 14 0.12622
14 8 100 14 0.0650757
2 9 100 14 0.0348734
3 9 100 14 2.07952e-07
4 9 100 14 0.0327489
5 9 100 14 0.0110456
6 9 100 14 0.0171939
7 9 100 14 0.0226938
8 9 100 14 0.0522836
9 9 100 14 0.0575061
10 9 100 14 0.104566
11 9 100 14 0.168161
12 9 100 14 0.242643
13 9 100 14 0.139778
14 9 100 14 0.116507
2 10 100 14 0.0403267
3 10 100 14 0.040353
4 10 100 14 0.0379454
6 10 100 14 0.00512477
7 10 100 14 0.0403532
8 10 100 14 0.0403531
10 10 100 14 0.0404053
11 10 100 14 0.282456
12 10 100 14 0.230543
13 10 100 14 0.201786
14 10 100 14 0.0403532
4 11 100 14 4.77702e-05
6 11 100 14 0.0784298
7 11 100 14 0.0783054
8 11 100 14 0.000666827
9 11 100 14 0.0473778
12 11 100 14 0.294064
13 11 100 14 0.344189
14 11 100 14 0.15692
13 12 100 14 1
7 13 100 14 0.000399211
13 13 100 14 0.999601
2 0 100 15 0.0244208
3 0 100 15 0.0757593
4 0 100 15 0.0134666
5 0 100 15 0.131246
6 0 100 15 0.0646643
7 0 100 15 0.0304573
8 0 100 15 0.0992148
9 0 100 15 0.0526682
10 0 100 15 0.0976986
11 0 100 15 0.0280342
12 0 100 15 0.021338
13 0 100 15 0.036379
14 0 100 15 0.103565
15 0 100 15 0.221088
1 1 100 15 0.552927
2 1 100 15 0.293388
3 1 100 15 0.152587
4 1 100 15 1.754e-06
6 1 100 15 0.000398851
7 1 100 15 0.000471802
8 1 100 15 4.14219e-07
9 1 100 15 0.00013151
10 1 100 15 5.83409e-05
11 1 100 15 9.20722e-06
12 1 100 15 2.24272e-05
14 1 100 15 4.03513e-06
1 2 100 15 0.0587587
2 2 100 15 0.214581
3 2 100 15 0.171034
4 2 100 15 0.348522
5 2 100 15 0.135329
6 2 100 15 0.0307184
7 2 100 15 0.0102478
9 2 100 15 0.0103037
10 2 100 15 0.0102577
11 2 100 15 0.0102471
12 2 100 15 4.98639e-07
1 3 100 15 0.0105034
2 3 100 15 0.0524989
3 3 100 15 0.140091
4 3 100 15 0.170806
5 3 100 15 0.143378
6 3 100 15 0.211768
7 3 100 15 0.189045
8 3 100 15 0.0294219
9 3 100 15 0.0107626
10 3 100 15 1.00045e-05
11 3 100 15 5.76469e-07
12 3 100 15 0.021006
13 3 100 15 0.0105171
14 3 100 15 0.010191
1 4 100 15 5.04617e-06
2 4 100 15 0.0354264
3 4 100 15 0.0353872
4 4 100 15 0.0586273
5 4 100 15 0.0649156
6 4 100 15 0.213002
7 4 100 15 0.141214
8 4 100 15 0.196205
9 4 100 15 0.196107
10 4 100 15 0.0590394
11 4 100 15 3.74388e-06
12 4 100 15 1.27618e-05
13 4 100 15 5.29167e-05
14 4 100 15 1.29085e-06
1 5 100 15 1.11665e-06
2 5 100 15 0.00862502
3 5 100 15 0.00821672
4 5 100 15 0.0327255
5 5 100 15 0.0398319
6 5 100 15 0.053129
7 5 100 15 0.167812
8 5 100 15 0.105087
9 5 100 15 0.0818554
10 5 100 15 0.17015
11 5 100 15 0.143344
12 5 100 15 0.0970697
13 5 100 15 0.0492985
14 5 100 15 0.0164295
15 5 100 15 0.0264249
1 6 100 15 0.0104507
2 6 100 15 5.04853e-05
3 6 100 15 0.0104856
4 6 100 15 5.2202e-07
5 6 100 15 8.26059e-05
6 6 100 15 0.0083951
7 6 100 15 0.0557066
8 6 100 15 0.0838557
9 6 100 15 0.182568
10 6 100 15 0.0694852
11 6 100 15 0.137499
12 6 100 15 0.194917
13 6 100 15 0.136009
14 6 100 15 0.0209143
15 6 100 15 0.0895795
4 7 100 15 0.0112311
5 7 100 15 0.0112236
6 7 100 15 0.0337791
7 7 100 15 0.0261474
8 7 100 15 0.0462491
9 7 100 15 0.0678595
10 7 100 15 0.120399
11 7 100 15 0.234248
12 7 100 15 0.0761204
13 7 100 15 0.191793
14 7 100 15 0.0865155
15 7 100 15 0.0944342
2 8 100 15 2.16647e-06
3 8 100 15 0.0180827
4 8 100 15 0.015539
5 8 100 15 0.0183785
6 8 100 15 0.0285032
7 8 100 15 0.00615626
8 8 100 15 0.0359567
9 8 100 15 0.0366868
10 8 100 15 0.0524207
11 8 100 15 0.146588
12 8 100 15 0.288178
13 8 100 15 0.118829
14 8 100 15 0.234678
15 8 100 15 2.63362e-07
3 9 100 15 1.09086e-06
5 9 100 15 6.96861e-06
7 9 100 15 0.0315324
8 9 100 15 0.0315445
9 9 100 15 0.062829
11 9 100 15 0.0662252
12 9 100 15 0.220735
13 9 100 15 0.366063
14 9 100 15 0.221063
1 10 100 15 0.0375147
4 10 100 15 0.073469
5 10 100 15 0.0375218
6 10 100 15 6.3068e-06
7 10 100 15 0.101556
8 10 100 15 0.00027454
9 10 100 15 0.0745131
10 10 100 15 0.0375868
11 10 100 15 0.0375147
12 10 100 15 0.037976
13 10 100 15 0.187388
14 10 100 15 0.374679
2 11 100 15 0.150766
4 11 100 15 0.220927
5 11 100 15 0.0159149
6 11 100 15 0.105966
8 11 100 15 0.0144589
11 11 100 15 3.5918e-05
12 11 100 15 0.149993
13 11 100 15 0.114657
14 11 100 15 0.227281
4 12 100 15 0.327785
6 12 100 15 0.306552
7 12 100 15 4.98432e-06
8 12 100 15 0.0375525
14 12 100 15 0.328105
1 0 100 16 0.00405212
2 0 100 16 0.0331495
3 0 100 16 0.0606837
4 0 100 16 0.0449493
5 0 100 16 0.102207
6 0 100 16 0.0466574
7 0 100 16 0.0351498
8 0 100 16 0.0766682
9 0 100 16 0.0911139
10 0 100 16 0.0526979
11 0 100 16 0.044343
12 0 100 16 0.0559696
13 0 100 16 0.013042
14 0 100 16 0.0102159
15 0 100 16 0.11309
16 0 100 16 0.21601
1 1 100 16 0.470866
2 1 100 16 0.263766
3 1 100 16 0.213635
4 1 100 16 0.0366851
5 1 100 16 0.0149533
6 1 100 16 6.20363e-05
8 1 100 16 1.73626e-06
9 1 100 16 3.44335e-07
12 1 100 16 1.332e-06
13 1 100 16 2.268e-07
14 1 100 16 2.74318e-05
15 1 100 16 9.03599e-07
1 2 100 16 0.0430626
2 2 100 16 0.156278
3 2 100 16 0.177375
4 2 100 16 0.335007
5 2 100 16 0.119959
6 2 100 16 0.0794454
7 2 100 16 0.0177052
8 2 100 16 0.00889431
9 2 100 16 0.0176595
10 2 100 16 0.0177051
11 2 100 16 0.00894023
12 2 100 16 0.00911631
13 2 100 16 0.00885254
16 2 100 16 2.68037e-07
1 3 100 16 0.000121307
2 3 100 16 0.0550963
3 3 100 16 0.0991351
4 3 100 16 0.0894045
5 3 100 16 0.191934
6 3 100 16 0.314971
7 3 100 16 0.157894
8 3 100 16 0.0608593
9 3 100 16 0.0216134
11 3 100 16 1.34379e-05
12 3 100 16 0.0089521
13 3 100 16 6.65908e-07
14 3 100 16 4.27879e-07
15 3 100 16 4.04547e-06
2 4 100 16 0.0432228
3 4 100 16 7.11688e-05
4 4 100 16 0.0599229
5 4 100 16 0.095162
6 4 100 16 0.0945211
7 4 100 16 0.253194
8 4 100 16 0.246525
9 4 100 16 0.105512
10 4 100 16 0.0519469
11 4 100 16 0.0181038
12 4 100 16 3.21815e-05
13 4 100 16 0.0173261
14 4 100 16 0.0144595
15 4 100 16 1.12057e-06
1 5 100 16 1.36241e-07
2 5 100 16 1.64179e-05
3 5 100 16 1.02341e-07
4 5 100 16 0.01955
5 5 100 16 0.0171785
6 5 100 16 0.0888219
7 5 100 16 0.0789338
8 5 100 16 0.0789304
9 5 100 16 0.165448
10 5 100 16 0.254537
11 5 100 16 0.164146
12 5 100 16 0.0895168
13 5 100 16 0.0201698
14 5 100 16 0.00329054
15 5 100 16 0.00988321
16 5 100 16 0.00957754
1 6 100 16 0.00844334
2 6 100 16 0.0252316
3 6 100 16 0.0154692
4 6 100 16 0.000546507
5 6 100 16 0.00853256
6 6 100 16 0.000648884
7 6 100 16 0.067787
8 6 100 16 0.059071
9 6 100 16 0.0632158
10 6 100 16 0.100555
11 6 100 16 0.185843
12 6 100 16 0.17859
13 6 100 16 0.149889
14 6 100 16 0.0844359
15 6 100 16 0.0325184
16 6 100 16 0.0192234
1 7 100 16 0.00958068
3 7 100 16 2.22476e-07
4 7 100 16 0.00975929
5 7 100 16 0.00975642
6 7 100 16 0.00978131
7 7 100 16 0.00958679
8 7 100 16 0.0189464
9 7 100 16 0.078063
10 7 100 16 0.0777103
11 7 100 16 0.106169
12 7 100 16 0.118979
13 7 100 16 0.23897
14 7 100 16 0.194028
15 7 100 16 0.0586201
16 7 100 16 0.0600498
1 8 100 16 0.0145029
2 8 100 16 0.00336267
4 8 100 16 9.59792e-06
5 8 100 16 0.0141735
6 8 100 16 0.0145312
7 8 100 16 0.0145038
8 8 100 16 0.0166385
9 8 100 16 0.0145189
10 8 100 16 0.0815428
11 8 100 16 0.0435046
12 8 100 16 0.144009
13 8 100 16 0.105481
14 8 100 16 0.250066
15 8 100 16 0.118192
16 8 100 16 0.164964
1 9 100 16 0.0447885
2 9 100 16 1.29008e-06
5 9 100 16 5.55929e-05
7 9 100 16 0.0222144
8 9 100 16 0.000614651
9 9 100 16 0.0450674
10 9 100 16 0.0456908
11 9 100 16 0.136433
12 9 100 16 0.112007
13 9 100 16 0.207866
14 9 100 16 0.211222
15 9 100 16 0.157605
16 9 100 16 0.0164343
2 10 100 16 1.34489e-05
4 10 100 16 0.0328529
5 10 100 16 2.61334e-05
6 10 100 16 0.0328555
7 10 100 16 2.82239e-06
8 10 100 16 0.0322496
10 10 100 16 0.00299849
11 10 100 16 0.0779509
12 10 100 16 0.0328506
13 10 100 16 0.23001
14 10 100 16 0.1633
15 10 100 16 0.394131
16 10 100 16 0.000758488
4 11 100 16 0.0941802
6 11 100 16 0.139972
7 11 100 16 0.0416633
8 11 100 16 0.0952878
9 11 100 16 0.0473957
10 11 100 16 0.00780475
12 11 100 16 0.0478596
14 11 100 16 0.382254
15 11 100 16 0.143582
16 11 100 16 5.97261e-07
5 12 100 16 0.123706
7 12 100 16 0.115441
9 12 100 16 0.0134243
12 12 100 16 7.37825e-06
13 12 100 16 0.12457
15 12 100 16 0.622851
5 13 100 16 0.00112295
14 13 100 16 0.499441
15 13 100 16 0.499436
10 14 100 16 0.969032
11 14 100 16 4.6366e-05
14 14 100 16 0.0309218
12 15 100 16 1
1 0 100 17 0.0196234
2 0 100 17 0.0291806
3 0 100 17 0.052889
4 0 100 17 0.0178429
5 0 100 17 0.123534
6 0 100 17 0.0631336
7 0 100 17 0.0422792
8 0 100 17 0.0589682
9 0 100 17 0.0892311
10 0 100 17 0.0760125
11 0 100 17 0.0385065
12 0 100 17 0.034024
13 0 100 17 0.0248456
14 0 100 17 0.0230361
15 0 100 17 0.0234365
16 0 100 17 0.12321
17 0 100 17 0.160247
1 1 100 17 0.459656
2 1 100 17 0.292768
3 1 100 17 0.229917
4 1 100 17 0.017629
5 1 100 17 2.99183e-05
1 2 100 17 4.86411e-07
2 2 100 17 0.185847
3 2 100 17 0.17701
4 2 100 17 0.493233
5 2 100 17 0.104168
6 2 100 17 0.0134122
7 2 100 17 2.70107e-06
8 2 100 17 0.013351
9 2 100 17 0.0112009
10 2 100 17 0.000155917
11 2 100 17 0.00160977
12 2 100 17 8.11362e-07
13 2 100 17 5.80169e-06
14 2 100 17 6.45442e-07
16 2 100 17 1.30346e-06
2 3 100 17 7.53402e-07
3 3 100 17 0.036416
4 3 100 17 0.0940041
5 3 100 17 0.21459
6 3 100 17 0.396297
7 3 100 17 0.166116
8 3 100 17 0.0278113
9 3 100 17 0.0193296
10 3 100 17 0.0144491
11 3 100 17 0.0167217
12 3 100 17 1.5932e-06
13 3 100 17 0.0142621
14 3 100 17 5.45293e-07
15 3 100 17 1.57739e-07
2 4 100 17 0.0123816
3 4 100 17 0.0374033
4 4 100 17 0.0123415
5 4 100 17 0.0606887
6 4 100 17 0.0633138
7 4 100 17 0.282308
8 4 100 17 0.335833
9 4 100 17 0.14661
10 4 100 17 0.0250587
11 4 100 17 9.55252e-06
12 4 100 17 0.012382
13 4 100 17 0.0115529
14 4 100 17 3.09482e-06
15 4 100 17 0.000114162
2 5 100 17 0.0225165
3 5 100 17 0.0112292
4 5 100 17 0.0337772
5 5 100 17 0.0225736
6 5 100 17 0.0611662
7 5 100 17 0.0450661
8 5 100 17 0.107165
9 5 100 17 0.157615
10 5 100 17 0.224813
11 5 100 17 0.178865
12 5 100 17 0.0680607
13 5 100 17 0.0225852
14 5 100 17 0.0225367
15 5 100 17 0.022032
2 6 100 17 0.0102285
3 6 100 17 0.00362607
4 6 100 17 0.000131704
5 6 100 17 0.0102254
6 6 100 17 0.0102272
7 6 100 17 0.040903
8 6 100 17 0.0113838
9 6 100 17 0.0509981
10 6 100 17 0.102237
11 6 100 17 0.205596
12 6 100 17 0.24418
13 6 100 17 0.118675
14 6 100 17 0.0913727
15 6 100 17 0.0511305
16 6 100 17 0.0306775
17 6 100 17 0.0184082
2 7 100 17 7.78802e-06
4 7 100 17 1.12534e-06
7 7 100 17 0.0120912
8 7 100 17 0.0241787
9 7 100 17 0.0120867
10 7 100 17 0.0241778
11 7 100 17 0.0606954
12 7 100 17 0.121534
13 7 100 17 0.274449
14 7 100 17 0.222431
15 7 100 17 0.105876
16 7 100 17 0.0846146
17 7 100 17 0.0578565
2 8 100 17 3.0914e-06
4 8 100 17 0.0137708
8 8 100 17 0.0337372
10 8 100 17 0.0672203
11 8 100 17 0.0339762
12 8 100 17 0.067472
13 8 100 17 0.101354
14 8 100 17 0.184749
15 8 100 17 0.246633
16 8 100 17 0.0674956
17 8 100 17 0.183589
3 9 100 17 3.81556e-06
9 9 100 17 0.0321319
10 9 100 17 0.000160475
11 9 100 17 0.0964482
12 9 100 17 0.0642748
13 9 100 17 0.149854
14 9 100 17 0.0964014
15 9 100 17 0.316987
16 9 100 17 0.0582315
17 9 100 17 0.185507
1 10 100 17 0.0554981
6 10 100 17 2.36727e-06
7 10 100 17 8.67914e-07
9 10 100 17 7.70658e-06
10 10 100 17 0.0552206
11 10 100 17 6.88857e-06
12 10 100 17 0.110994
13 10 100 17 0.110996
14 10 100 17 0.167415
15 10 100 17 0.16687
16 10 100 17 0.277491
17 10 100 17 0.055498
5 11 100 17 0.0376553
6 11 100 17 1.61131e-06
7 11 100 17 0.147573
8 11 100 17 1.96952e-06
9 11 100 17 0.0759168
10 11 100 17 0.0556491
11 11 100 17 0.040799
12 11 100 17 0.0403386
13 11 100 17 0.0376777
14 11 100 17 0.187764
15 11 100 17 0.150557
16 11 100 17 0.226066
4 12 100 17 0.137976
6 12 100 17 0.194906
7 12 100 17 0.0690287
8 12 100 17 0.0134385
9 12 100 17 0.119688
11 12 100 17 0.0507151
14 12 100 17 0.0690346
15 12 100 17 0.276175
16 12 100 17 0.0690389
4 13 100 17 0.142714
6 13 100 17 0.136362
8 13 100 17 0.0076343
15 13 100 17 0.142219
16 13 100 17 0.571071
2 0 100 18 0.0114431
3 0 100 18 0.0510152
4 0 100 18 0.0179776
5 0 100 18 0.0985528
6 0 100 18 0.0753317
7 0 100 18 0.0383926
8 0 100 18 0.0637313
9 0 100 18 0.081796
10 0 100 18 0.068252
11 0 100 18 0.0381107
12 0 100 18 0.0664762
13 0 100 18 0.04689
14 0 100 18 0.0358925
15 0 100 18 0.0225708
16 0 100 18 0.0110956
17 0 100 18 0.0985701
18 0 100 18 0.173902
1 1 100 18 0.546154
2 1 100 18 0.27812
3 1 100 18 0.175716
10 1 100 18 7.9748e-06
11 1 100 18 2.25598e-06
1 2 100 18 0.0601296
2 2 100 18 0.209893
3 2 100 18 0.226159
4 2 100 18 0.41204
5 2 100 18 0.0321033
6 2 100 18 0.0296716
9 2 100 18 0.0299843
11 2 100 18 2.65062e-06
12 2 100 18 2.05591e-06
15 2 100 18 7.56724e-06
16 2 100 18 6.92538e-06
2 3 100 18 0.0559153
3 3 100 18 0.161591
4 3 100 18 0.140267
5 3 100 18 0.25717
6 3 100 18 0.27313
7 3 100 18 0.111831
9 3 100 18 5.40159e-06
11 3 100 18 4.92606e-07
12 3 100 18 1.97002e-06
13 3 100 18 3.78883e-06
14 3 100 18 8.22567e-05
18 3 100 18 1.31336e-06
2 4 100 18 0.042735
3 4 100 18 0.0213636
4 4 100 18 0.106816
5 4 100 18 0.0433303
6 4 100 18 0.085502
7 4 100 18 0.273883
8 4 100 18 0.255554
9 4 100 18 0.106347
10 4 100 18 0.0213882
11 4 100 18 0.0213535
12 4 100 18 1.96041e-06
13 4 100 18 2.03107e-06
14 4 100 18 0.0212684
15 4 100 18 2.75967e-05
16 4 100 18 2.02512e-05
17 4 100 18 0.000406667
2 5 100 18 0.0409407
4 5 100 18 0.00528566
5 5 100 18 0.0926975
6 5 100 18 0.0614784
7 5 100 18 0.0807049
8 5 100 18 0.0819275
9 5 100 18 0.102288
10 5 100 18 0.152978
11 5 100 18 0.183581
12 5 100 18 0.0752636
13 5 100 18 0.040966
14 5 100 18 0.0204534
15 5 100 18 0.0409537
16 5 100 18 0.0204802
17 5 100 18 8.52803e-07
18 5 100 18 1.25012e-06
2 6 100 18 1.08634e-05
5 6 100 18 0.00650207
6 6 100 18 0.0201979
7 6 100 18 0.0446955
8 6 100 18 0.0893633
9 6 100 18 0.022346
10 6 100 18 0.0670382
11 6 100 18 0.107988
12 6 100 18 0.200915
13 6 100 18 0.219517
14 6 100 18 0.0809635
15 6 100 18 0.0537438
16 6 100 18 0.0427118
17 6 100 18 0.0223461
18 6 100 18 0.0216615
2 7 100 18 4.9427e-06
3 7 100 18 6.98335e-06
5 7 100 18 0.000202726
6 7 100 18 0.000150586
9 7 100 18 0.140069
10 7 100 18 0.0537017
11 7 100 18 0.0536636
12 7 100 18 0.0805064
13 7 100 18 0.107355
14 7 100 18 0.18582
15 7 100 18 0.214687
16 7 100 18 0.0830925
17 7 100 18 0.0281335
18 7 100 18 0.0526059
1 8 100 18 0.0253278
2 8 100 18 0.0257731
3 8 100 18 4.5417e-06
4 8 100 18 0.0515108
6 8 100 18 0.0261222
7 8 100 18 0.0257704
8 8 100 18 0.0257704
9 8 100 18 0.020097
10 8 100 18 0.128722
11 8 100 18 0.103094
12 8 100 18 0.0257618
13 8 100 18 0.0515471
14 8 100 18 0.0536904
15 8 100 18 0.106469
16 8 100 18 0.177719
17 8 100 18 0.0289297
18 8 100 18 0.123691
8 9 100 18 0.000214073
9 9 100 18 0.0436537
10 9 100 18 0.0436494
11 9 100 18 0.0871553
12 9 100 18 0.130883
13 9 100 18 0.130888
14 9 100 18 0.0871665
15 9 100 18 0.0858005
16 9 100 18 0.257119
17 9 100 18 0.086427
18 9 100 18 0.0470439
4 10 100 18 1.75197e-06
5 10 100 18 0.000115726
6 10 100 18 5.72973e-06
7 10 100 18 0.000160628
8 10 100 18 2.47649e-05
11 10 100 18 0.0716463
12 10 100 18 3.16396e-05
13 10 100 18 0.071645
14 10 100 18 0.286588
15 10 100 18 0.143473
16 10 100 18 0.143204
17 10 100 18 0.283067
18 10 100 18 3.66071e-05
4 11 100 18 7.25471e-06
13 11 100 18 0.0908163
14 11 100 18 0.273031
15 11 100 18 0.363365
16 11 100 18 0.0911512
17 11 100 18 0.181629
5 12 100 18 7.89462e-06
6 12 100 18 3.64473e-06
10 12 100 18 0.0807944
12 12 100 18 0.0805659
14 12 100 18 0.032764
15 12 100 18 0.0807971
16 12 100 18 0.321087
17 12 100 18 0.40398
6 13 100 18 0.000233362
16 13 100 18 0.999767
17 14 100 18 1
2 0 100 19 0.00157154
3 0 100 19 0.0419362
4 0 100 19 0.0208923
5 0 100 19 0.0240898
6 0 100 19 0.0618001
7 0 100 19 0.0857718
8 0 100 19 0.0206812
9 0 100 19 0.065382
10 0 100 19 0.0824234
11 0 100 19 0.0857164
12 0 100 19 0.043587
13 0 100 19 0.0876183
14 0 100 19 0.0221267
15 0 100 19 0.0435852
16 0 100 19 0.0217935
17 0 100 19 0.0146063
18 0 100 19 0.0871715
19 0 100 19 0.189247
1 1 100 19 0.494872
2 1 100 19 0.309761
3 1 100 19 0.195355
4 1 100 19 5.79706e-06
11 1 100 19 8.12512e-07
18 1 100 19 5.42835e-06
1 2 100 19 0.019422
2 2 100 19 0.0582927
3 2 100 19 0.257005
4 2 100 19 0.34965
5 2 100 19 0.291422
6 2 100 19 0.017964
7 2 100 19 0.00613261
11 2 100 19 2.05154e-05
13 2 100 19 9.11506e-05
1 3 100 19 2.21425e-05
3 3 100 19 0.107012
4 3 100 19 0.0669816
5 3 100 19 0.192698
6 3 100 19 0.311844
7 3 100 19 0.128789
8 3 100 19 0.064218
9 3 100 19 0.0642134
10 3 100 19 0.064218
11 3 100 19 1.18175e-06
15 3 100 19 2.0197e-06
2 4 100 19 0.0864965
3 4 100 19 4.6222e-06
4 4 100 19 0.0864997
5 4 100 19 0.129748
6 4 100 19 0.086499
7 4 100 19 0.214466
8 4 100 19 0.258178
9 4 100 19 0.086499
10 4 100 19 0.00833917
12 4 100 19 0.0432507
13 4 100 19 6.5164e-06
14 4 100 19 5.61218e-06
15 4 100 19 2.79803e-06
18 4 100 19 3.42684e-06
19 4 100 19 1.18597e-06
2 5 100 19 0.0335042
4 5 100 19 0.100508
5 5 100 19 0.029973
6 5 100 19 0.100515
7 5 100 19 0.033505
8 5 100 19 0.103247
9 5 100 19 0.20103
10 5 100 19 0.134005
11 5 100 19 0.0961942
12 5 100 19 0.0670106
13 5 100 19 0.100509
18 5 100 19 3.97151e-07
2 6 100 19 0.052628
7 6 100 19 0.052341
8 6 100 19 0.105309
10 6 100 19 0.105308
11 6 100 19 0.105309
12 6 100 19 0.105309
13 6 100 19 0.0526312
14 6 100 19 0.15792
15 6 100 19 0.157963
16 6 100 19 0.0526543
17 6 100 19 0.0526282
9 7 100 19 0.0621229
10 7 100 19 0.0621229
11 7 100 19 0.198638
12 7 100 19 0.124246
13 7 100 19 1.75107e-06
14 7 100 19 0.0620452
15 7 100 19 0.124246
16 7 100 19 0.124245
17 7 100 19 0.124277
18 7 100 19 2.11489e-06
19 7 100 19 0.118053
10 8 100 19 0.0737544
11 8 100 19 2.32777e-05
12 8 100 19 0.0719291
13 8 100 19 0.285198
14 8 100 19 0.143774
15 8 100 19 0.0719236
16 8 100 19 0.0719291
17 8 100 19 0.143859
18 8 100 19 7.74492e-05
19 8 100 19 0.137532
7 9 100 19 5.3717e-05
11 9 100 19 0.0687964
12 9 100 19 0.137921
13 9 100 19 0.0689614
14 9 100 19 0.137922
15 9 100 19 0.137898
16 9 100 19 0.137923
17 9 100 19 0.137921
18 9 100 19 0.137848
19 9 100 19 0.0347545
10 10 100 19 1.66706e-05
12 10 100 19 0.071489
14 10 100 19 0.285093
15 10 100 19 0.071491
16 10 100 19 0.214473
17 10 100 19 0.142965
18 10 100 19 0.214472
3 11 100 19 2.89396e-05
4 11 100 19 2.68499e-05
6 11 100 19 1.50197e-05
15 11 100 19 0.333482
17 11 100 19 0.333056
18 11 100 19 0.333391
13 12 100 19 0.00447952
16 12 100 19 0.995106
17 12 100 19 0.000414845
5 13 100 19 1.13463e-05
17 13 100 19 0.399553
18 13 100 19 0.600435
2 0 100 20 0.00069084
3 0 100 20 0.0161605
4 0 100 20 0.130605
5 0 100 20 0.0303864
6 0 100 20 0.021767
7 0 100 20 0.0362998
8 0 100 20 0.119903
9 0 100 20 0.0330712
10 0 100 20 0.0544438
11 0 100 20 0.0218449
12 0 100 20 0.144069
13 0 100 20 1.76328e-05
14 0 100 20 0.000706233
15 0 100 20 0.0226115
16 0 100 20 0.11974
17 0 100 20 0.00448947
19 0 100 20 0.0326496
20 0 100 20 0.210545
1 1 100 20 0.605227
2 1 100 20 0.211582
3 1 100 20 0.0924127
4 1 100 20 0.0605165
5 1 100 20 0.0302613
16 1 100 20 3.49618e-07
17 1 100 20 3.04974e-07
2 2 100 20 0.469858
3 2 100 20 0.197349
4 2 100 20 0.252995
5 2 100 20 0.00750729
6 2 100 20 0.0722861
8 2 100 20 3.37678e-06
15 2 100 20 1.02768e-06
3 3 100 20 0.440757
4 3 100 20 7.49955e-06
5 3 100 20 0.240421
6 3 100 20 0.238418
7 3 100 20 0.0401891
8 3 100 20 0.0402018
10 3 100 20 4.74265e-07
11 3 100 20 1.07134e-06
12 3 100 20 3.00245e-06
16 3 100 20 1.74309e-06
5 4 100 20 0.414104
6 4 100 20 3.9371e-05
7 4 100 20 0.211314
8 4 100 20 0.150346
9 4 100 20 0.14912
10 4 100 20 0.0748583
11 4 100 20 1.03285e-05
12 4 100 20 1.58421e-05
13 4 100 20 5.25927e-06
14 4 100 20 2.74174e-06
15 4 100 20 0.000108547
17 4 100 20 9.61577e-06
19 4 100 20 6.6489e-05
5 5 100 20 4.25187e-06
6 5 100 20 0.441618
7 5 100 20 5.9365e-06
8 5 100 20 0.159328
9 5 100 20 0.0799439
10 5 100 20 0.0803036
11 5 100 20 0.124812
12 5 100 20 0.0739544
13 5 100 20 0.0399949
14 5 100 20 1.60797e-05
16 5 100 20 1.71623e-05
19 5 100 20 1.81895e-06
6 6 100 20 2.52217e-05
7 6 100 20 0.382924
9 6 100 20 3.80786e-07
10 6 100 20 0.0348168
11 6 100 20 0.136122
12 6 100 20 0.100359
13 6 100 20 0.10439
14 6 100 20 0.171768
15 6 100 20 0.0695217
16 6 100 20 5.35376e-05
17 6 100 20 1.28352e-05
19 6 100 20 6.74473e-06
2 7 100 20 4.34637e-07
8 7 100 20 0.0278244
9 7 100 20 0.333862
11 7 100 20 0.0267037
12 7 100 20 0.0556665
13 7 100 20 0.139079
14 7 100 20 0.0556436
15 7 100 20 0.109146
16 7 100 20 0.144911
17 7 100 20 0.0515197
18 7 100 20 0.0556434
1 8 100 20 0.0347297
2 8 100 20 0.0328088
3 8 100 20 2.37802e-05
7 8 100 20 3.69246e-06
10 8 100 20 0.381994
11 8 100 20 0.0347451
12 8 100 20 0.0355646
13 8 100 20 0.0347304
14 8 100 20 0.104191
15 8 100 20 0.0373563
16 8 100 20 0.103282
17 8 100 20 0.106175
18 8 100 20 0.0694587
19 8 100 20 3.18141e-06
20 8 100 20 0.0249331
3 9 100 20 1.69116e-05
7 9 100 20 1.34887e-05
9 9 100 20 1.00509e-05
10 9 100 20 4.56711e-05
11 9 100 20 0.404399
12 9 100 20 1.71987e-06
13 9 100 20 0.0404416
14 9 100 20 1.37339e-05
15 9 100 20 0.0333544
16 9 100 20 0.0435995
17 9 100 20 0.157207
18 9 100 20 0.0808832
19 9 100 20 0.202127
20 9 100 20 0.0378859
5 10 100 20 1.34026e-06
7 10 100 20 0.00270496
12 10 100 20 0.00024036
13 10 100 20 0.565668
14 10 100 20 0.0565668
15 10 100 20 0.00559835
16 10 100 20 0.0416096
17 10 100 20 0.0447277
18 10 100 20 0.226267
19 10 100 20 0.0566164
14 11 100 20 0.83339
15 11 100 20 0.0833391
18 11 100 20 4.49082e-06
19 11 100 20 0.083266
15 12 100 20 0.909091
17 12 100 20 0.0909091
17 13 100 20 0.909091
18 13 100 20 0.0909091
18 14 100 20 0.909091
19 14 100 20 0.0909091
19 15 100 20 1
2 0 100 21 0.0305634
3 0 100 21 4.52648e-06
4 0 100 21 0.0975916
6 0 100 21 0.0308127
7 0 100 21 0.0381929
8 0 100 21 0.0609899
9 0 100 21 0.0914712
10 0 100 21 0.12175
11 0 100 21 0.061247
12 0 100 21 0.0313672
13 0 100 21 0.00356904
14 0 100 21 0.0316542
15 0 100 21 0.0241733
16 0 100 21 0.0613713
17 0 100 21 0.0304106
18 0 100 21 0.0362942
19 0 100 21 0.0350714
20 0 100 21 1.23057e-06
21 0 100 21 0.213465
1 1 100 21 0.545748
2 1 100 21 0.454217
4 1 100 21 2.3777e-05
13 1 100 21 6.83714e-06
18 1 100 21 4.26508e-06
2 2 100 21 0.000598942
3 2 100 21 0.669628
4 2 100 21 0.218772
6 2 100 21 0.110979
9 2 100 21 1.47212e-06
13 2 100 21 3.83373e-06
17 2 100 21 1.81819e-06
18 2 100 21 2.43241e-06
20 2 100 21 1.20968e-05
1 3 100 21 0.000497716
3 3 100 21 4.25124e-06
4 3 100 21 0.208085
5 3 100 21 0.678866
6 3 100 21 0.112282
7 3 100 21 6.50121e-05
10 3 100 21 3.07163e-05
13 3 100 21 2.03561e-06
14 3 100 21 0.000165751
18 3 100 21 1.18371e-06
3 4 100 21 6.71142e-06
6 4 100 21 0.233819
7 4 100 21 0.298875
8 4 100 21 0.155758
9 4 100 21 0.233612
10 4 100 21 0.0777919
11 4 100 21 5.8612e-06
12 4 100 21 1.60709e-06
14 4 100 21 2.19965e-05
15 4 100 21 5.27107e-05
16 4 100 21 1.00709e-06
17 4 100 21 5.41094e-05
3 5 100 21 0.112404
4 5 100 21 1.65703e-05
6 5 100 21 0.00145327
7 5 100 21 0.102165
8 5 100 21 0.224814
9 5 100 21 0.112427
10 5 100 21 0.000834
11 5 100 21 0.22104
12 5 100 21 0.112407
13 5 100 21 0.112387
14 5 100 21 6.84619e-06
15 5 100 21 4.81641e-06
16 5 100 21 2.89747e-06
17 5 100 21 3.84541e-06
18 5 100 21 3.28089e-05
20 5 100 21 1.34948e-06
5 6 100 21 0.068779
6 6 100 21 0.0679237
7 6 100 21 3.05556e-05
9 6 100 21 8.72227e-06
10 6 100 21 0.0687957
11 6 100 21 0.208057
12 6 100 21 0.135565
13 6 100 21 0.0687797
14 6 100 21 0.200232
15 6 100 21 0.137442
16 6 100 21 7.44052e-06
17 6 100 21 0.0443264
20 6 100 21 5.38743e-05
4 7 100 21 1.13763e-05
7 7 100 21 0.158178
8 7 100 21 0.158261
9 7 100 21 3.22758e-05
10 7 100 21 3.72901e-05
12 7 100 21 0.158809
13 7 100 21 0.317867
14 7 100 21 0.00726654
15 7 100 21 5.36257e-06
16 7 100 21 0.199491
18 7 100 21 4.22978e-05
2 8 100 21 0.000523095
7 8 100 21 2.82211e-06
10 8 100 21 0.128186
12 8 100 21 0.127725
13 8 100 21 0.128143
14 8 100 21 0.128616
15 8 100 21 0.000135285
16 8 100 21 0.0934773
17 8 100 21 0.150314
18 8 100 21 0.114758
20 8 100 21 0.128121
1 9 100 21 0.0900847
2 9 100 21 0.0899887
3 9 100 21 1.09732e-06
7 9 100 21 4.30225e-05
9 9 100 21 7.38412e-06
10 9 100 21 1.1454e-06
11 9 100 21 3.77253e-06
12 9 100 21 0.000188109
13 9 100 21 0.169596
14 9 100 21 0.0905258
15 9 100 21 0.180967
17 9 100 21 0.0166572
18 9 100 21 0.0904871
19 9 100 21 0.0904828
20 9 100 21 0.180966
2 10 100 21 5.62944e-06
6 10 100 21 2.06451e-06
11 10 100 21 3.73303e-06
12 10 100 21 0.0981366
14 10 100 21 0.0981969
15 10 100 21 0.0983288
16 10 100 21 0.21527
17 10 100 21 0.293374
18 10 100 21 0.0983411
19 10 100 21 0.098341
9 11 100 21 2.2942e-05
15 11 100 21 0.0298992
16 11 100 21 0.116589
17 11 100 21 0.144256
18 11 100 21 0.28855
19 11 100 21 0.276427
20 11 100 21 0.144256
7 12 100 21 2.76195e-06
14 12 100 21 3.38025e-05
15 12 100 21 0.170557
17 12 100 21 0.00290292
18 12 100 21 0.155751
19 12 100 21 0.159248
20 12 100 21 0.511505
19 13 100 21 1
2 0 100 22 0.0305581
3 0 100 22 0.0304613
4 0 100 22 0.0302681
5 0 100 22 0.091346
6 0 100 22 0.0609226
7 0 100 22 0.060757
9 0 100 22 0.060988
10 0 100 22 0.0609226
11 0 100 22 0.0608237
12 0 100 22 0.0931054
13 0 100 22 0.0304616
14 0 100 22 0.0896878
15 0 100 22 0.0304627
16 0 100 22 4.84485e-05
17 0 100 22 0.0532894
19 0 100 22 0.00110531
20 0 100 22 0.00470661
22 0 100 22 0.210085
1 1 100 22 0.555739
2 1 100 22 0.333105
4 1 100 22 4.84834e-06
11 1 100 22 0.111149
15 1 100 22 2.7019e-06
1 2 100 22 0.125004
2 2 100 22 0.125001
3 2 100 22 0.250001
4 2 100 22 0.187503
5 2 100 22 0.0625003
8 2 100 22 0.0625005
9 2 100 22 0.0624845
10 2 100 22 0.0625005
12 2 100 22 0.0625004
14 2 100 22 4.50919e-06
3 3 100 22 0.124744
4 3 100 22 0.125503
5 3 100 22 0.249488
6 3 100 22 0.249258
7 3 100 22 0.124744
11 3 100 22 3.44995e-05
14 3 100 22 0.0014465
15 3 100 22 0.124744
16 3 100 22 3.68969e-05
3 4 100 22 0.12423
5 4 100 22 0.124236
6 4 100 22 0.124252
7 4 100 22 0.124806
8 4 100 22 0.248379
9 4 100 22 2.1524e-06
11 4 100 22 2.8737e-05
12 4 100 22 1.77246e-06
13 4 100 22 0.12423
14 4 100 22 0.00559703
16 4 100 22 5.24244e-06
17 4 100 22 0.124231
21 4 100 22 1.85519e-06
4 5 100 22 9.95602e-06
5 5 100 22 0.000150036
6 5 100 22 0.25145
7 5 100 22 9.57167e-05
8 5 100 22 0.125966
9 5 100 22 0.250997
10 5 100 22 7.43522e-05
11 5 100 22 0.245698
13 5 100 22 1.96103e-06
16 5 100 22 0.125556
17 5 100 22 1.69407e-06
2 6 100 22 0.0858308
4 6 100 22 0.0858405
7 6 100 22 0.217193
8 6 100 22 0.0858356
9 6 100 22 0.0858427
10 6 100 22 0.17163
11 6 100 22 0.00367103
12 6 100 22 0.080971
13 6 100 22 0.171615
14 6 100 22 7.50497e-06
16 6 100 22 0.0109763
17 6 100 22 0.000580843
18 6 100 22 4.2262e-06
20 6 100 22 9.10928e-07
8 7 100 22 0.0999861
11 7 100 22 0.100333
12 7 100 22 0.099986
13 7 100 22 0.300032
14 7 100 22 0.299674
15 7 100 22 0.0999861
19 7 100 22 3.24362e-06
7 8 100 22 0.10506
10 8 100 22 0.223624
11 8 100 22 2.14625e-05
12 8 100 22 3.56652e-05
14 8 100 22 0.000355143
15 8 100 22 0.447233
16 8 100 22 0.223623
17 8 100 22 4.78081e-05
8 9 100 22 2.8213e-06
11 9 100 22 0.141178
16 9 100 22 0.302504
17 9 100 22 0.273963
18 9 100 22 0.282351
11 10 100 22 4.4889e-05
12 10 100 22 0.102656
16 10 100 22 0.177389
17 10 100 22 0.110009
18 10 100 22 0.205311
19 10 100 22 0.205256
20 10 100 22 0.0966786
21 10 100 22 0.102655
4 11 100 22 1.2382e-05
7 11 100 22 2.43437e-06
11 11 100 22 1.26356e-05
12 11 100 22 2.43647e-06
14 11 100 22 0.123464
17 11 100 22 0.152032
18 11 100 22 0.123464
19 11 100 22 0.242509
20 11 100 22 0.235039
21 11 100 22 0.123463
4 12 100 22 0.0714387
8 12 100 22 0.0712912
9 12 100 22 0.0714387
10 12 100 22 0.0714387
14 12 100 22 8.78087e-06
15 12 100 22 0.142877
18 12 100 22 0.071438
19 12 100 22 0.142877
20 12 100 22 0.142877
21 12 100 22 0.214315
16 13 100 22 0.5
20 13 100 22 0.5
18 14 100 22 0.5
21 14 100 22 0.5
19 15 100 22 0.999112
20 15 100 22 0.000888329
20 16 100 22 0.475244
21 16 100 22 0.475667
22 16 100 22 0.0490888
3 0 100 23 0.176736
6 0 100 23 0.00859713
8 0 100 23 0.0313456
10 0 100 23 0.176736
11 0 100 23 0.176735
12 0 100 23 3.80248e-05
16 0 100 23 0.0280661
17 0 100 23 0.0252306
20 0 100 23 0.000658706
22 0 100 23 0.176736
23 0 100 23 0.199121
1 1 100 23 0.666667
2 1 100 23 0.333333
2 2 100 23 0.125014
3 2 100 23 0.125014
4 2 100 23 0.125014
6 2 100 23 0.124919
8 2 100 23 0.124996
9 2 100 23 0.125014
13 2 100 23 0.125013
14 2 100 23 0.125014
4 3 100 23 0.333249
5 3 100 23 0.666497
6 3 100 23 0.00025472
6 4 100 23 0.308884
7 4 100 23 0.649357
8 4 100 23 0.041759
8 5 100 23 0.409739
9 5 100 23 0.590261
10 6 100 23 0.250013
11 6 100 23 0.250013
12 6 100 23 0.24996
13 6 100 23 0.250013
12 7 100 23 0.333334
14 7 100 23 0.333334
15 7 100 23 0.333333
16 8 100 23 1
15 9 100 23 0.17073
16 9 100 23 0.17073
17 9 100 23 0.317081
18 9 100 23 0.34146
17 10 100 23 3.65624e-06
19 10 100 23 0.410395
20 10 100 23 0.205197
21 10 100 23 0.205197
23 10 100 23 0.179207
20 11 100 23 1
21 12 100 23 1
20 13 100 23 0.00195044
22 13 100 23 0.99805
2 0 100 24 0.0322987
9 0 100 24 6.23067e-05
12 0 100 24 0.451582
18 0 100 24 0.0628304
21 0 100 24 0.00164396
24 0 100 24 0.451583
1 1 100 24 0.341473
2 1 100 24 0.31705
3 1 100 24 0.341473
18 1 100 24 4.57608e-06
4 2 100 24 0.142874
5 2 100 24 0.142875
7 2 100 24 0.142775
9 2 100 24 0.142854
10 2 100 24 0.142875
14 2 100 24 0.142873
15 2 100 24 0.142875
6 3 100 24 0.999301
7 3 100 24 0.000698516
8 4 100 24 1
12 5 100 24 1
11 6 100 24 1
13 7 100 24 1
12 8 100 24 1
16 9 100 24 0.259011
17 9 100 24 0.259011
18 9 100 24 0.222966
19 9 100 24 0.259011
18 10 100 24 1.56602e-05
20 10 100 24 0.999984
21 11 100 24 1
22 12 100 24 1
21 13 100 24 0.00174722
23 13 100 24 0.998253
2 0 100 25 0.000814036
3 0 100 25 0.0155045
5 0 100 25 0.152093
6 0 100 25 0.0304142
8 0 100 25 0.121497
10 0 100 25 0.121675
13 0 100 25 0.0304993
14 0 100 25 0.0304186
15 0 100 25 0.121675
17 0 100 25 5.47703e-05
18 0 100 25 0.0363905
20 0 100 25 0.152093
23 0 100 25 0.00482162
24 0 100 25 0.0299561
25 0 100 25 0.152093
1 1 100 25 1
2 2 100 25 0.722813
3 2 100 25 0.131144
4 2 100 25 0.145341
13 2 100 25 3.85092e-05
24 2 100 25 0.000663691
3 3 100 25 0.374598
4 3 100 25 0.417617
6 3 100 25 1.55079e-05
7 3 100 25 0.104404
8 3 100 25 0.103362
16 3 100 25 2.09834e-06
6 4 100 25 0.570758
8 4 100 25 0.00117391
9 4 100 25 0.142689
10 4 100 25 0.142689
11 4 100 25 0.142689
7 5 100 25 0.997095
8 5 100 25 0.00166843
13 5 100 25 0.00123671
8 6 100 25 0.000143883
9 6 100 25 0.799885
12 6 100 25 0.199971
11 7 100 25 0.8
15 7 100 25 0.2
12 8 100 25 0.666875
16 8 100 25 0.166715
17 8 100 25 0.16641
13 9 100 25 0.362993
14 9 100 25 0.363709
17 9 100 25 4.77098e-06
18 9 100 25 0.0914383
19 9 100 25 0.0909265
20 9 100 25 1.50309e-06
21 9 100 25 0.0909271
16 10 100 25 0.79849
22 10 100 25 0.199622
24 10 100 25 0.00188841
17 11 100 25 0.799812
23 11 100 25 0.199952
24 11 100 25 0.00023588
18 12 100 25 0.411588
19 12 100 25 0.588412
21 13 100 25 1
22 14 100 25 1
8 15 100 25 2.2803e-05
18 15 100 25 6.76741e-06
23 15 100 25 0.489877
24 15 100 25 0.510093
2 0 100 26 4.08882e-06
3 0 100 26 0.0090935
5 0 100 26 0.142405
8 0 100 26 0.142104
10 0 100 26 0.106804
13 0 100 26 0.0356012
14 0 100 26 0.106804
15 0 100 26 0.0356012
17 0 100 26 0.0264654
19 0 100 26 0.106804
22 0 100 26 0.00350408
24 0 100 26 0.106802
25 0 100 26 0.0356045
26 0 100 26 0.142405
1 1 100 26 0.66668
2 1 100 26 0.166651
3 1 100 26 0.16667
2 2 100 26 0.999718
3 2 100 26 0.000282432
3 3 100 26 0.477683
4 3 100 26 0.522301
8 3 100 26 1.5158e-05
6 4 100 26 1
7 5 100 26 0.8536
8 5 100 26 0.00214847
17 5 100 26 0.144251
8 6 100 26 0.00027093
9 6 100 26 0.999729
11 7 100 26 0.858854
17 7 100 26 0.141146
12 8 100 26 0.75003
18 8 100 26 0.24997
4 9 100 26 0.0833309
6 9 100 26 0.0833309
7 9 100 26 0.0833309
9 9 100 26 0.0833309
10 9 100 26 0.0833309
11 9 100 26 0.0833307
12 9 100 26 0.0833483
13 9 100 26 0.249993
14 9 100 26 0.0833309
16 9 100 26 0.0833305
17 9 100 26 1.2432e-05
15 10 100 26 0.749957
18 10 100 26 5.75307e-05
19 10 100 26 0.249986
16 11 100 26 0.75
20 11 100 26 0.25
17 12 100 26 0.243769
18 12 100 26 0.324099
21 12 100 26 0.108033
22 12 100 26 0.108033
23 12 100 26 0.108033
24 12 100 26 0.108033
20 13 100 26 1
21 14 100 26 1
22 15 100 26 0.488634
23 15 100 26 0.505223
25 15 100 26 0.00614202
22 16 100 26 1.17304e-05
24 16 100 26 1.1e-05
25 16 100 26 0.999977
3 0 100 27 0.0124818
5 0 100 27 0.135213
8 0 100 27 0.134878
10 0 100 27 0.135213
13 0 100 27 0.000225437
15 0 100 27 0.135213
18 0 100 27 0.0363251
20 0 100 27 0.135213
23 0 100 27 0.00480974
25 0 100 27 0.135213
27 0 100 27 0.135213
1 1 100 27 1
2 2 100 27 0.999727
3 2 100 27 0.0002727
3 3 100 27 0.475724
4 3 100 27 0.524263
8 3 100 27 1.29461e-05
6 4 100 27 1
7 5 100 27 0.997791
8 5 100 27 0.00220891
8 6 100 27 0.000238112
9 6 100 27 0.999762
11 7 100 27 1
12 8 100 27 1
13 9 100 27 0.499231
14 9 100 27 0.500064
18 9 100 27 0.000704842
16 10 100 27 1
17 11 100 27 1
18 12 100 27 0.421942
19 12 100 27 0.578058
21 13 100 27 1
22 14 100 27 1
23 15 100 27 0.490967
24 15 100 27 0.509032
24 16 100 27 9.28317e-05
26 16 100 27 0.999907
3 0 100 28 0.174064
5 0 100 28 0.00513204
7 0 100 28 3.14037e-05
8 0 100 28 0.0841252
11 0 100 28 0.0870324
12 0 100 28 6.26338e-05
14 0 100 28 0.0867467
15 0 100 28 0.087032
16 0 100 28 0.0870324
17 0 100 28 0.00455608
18 0 100 28 1.11116e-06
19 0 100 28 0.0876189
23 0 100 28 0.000752509
24 0 100 28 4.36532e-05
25 0 100 28 0.121776
28 0 100 28 0.173993
1 1 100 28 0.999988
2 1 100 28 1.17169e-05
2 2 100 28 1
2 3 100 28 0.937901
25 3 100 28 0.0620986
1 4 100 28 0.0146167
2 4 100 28 0.985369
5 4 100 28 1.483e-05
2 5 100 28 5.19393e-06
4 5 100 28 0.24986
5 5 100 28 0.250406
6 5 100 28 0.24986
7 5 100 28 0.24986
8 5 100 28 4.63491e-06
17 5 100 28 3.69753e-06
2 6 100 28 0.910499
8 6 100 28 0.0895011
4 7 100 28 0.149665
5 7 100 28 0.100703
6 7 100 28 0.000505372
8 7 100 28 9.0041e-05
9 7 100 28 0.149802
10 7 100 28 0.149802
11 7 100 28 0.149802
12 7 100 28 0.149802
13 7 100 28 0.149802
17 7 100 28 2.27782e-05
23 7 100 28 3.84251e-06
7 8 100 28 1.33574e-05
14 8 100 28 0.965101
19 8 100 28 0.000318127
22 8 100 28 0.034233
25 8 100 28 0.000318127
26 8 100 28 1.67145e-05
7 9 100 28 0.00498227
14 9 100 28 0.11994
19 9 100 28 0.11994
24 9 100 28 0.635198
25 9 100 28 0.11994
8 10 100 28 0.00234918
16 10 100 28 0.337278
17 10 100 28 0.337278
21 10 100 28 4.12758e-06
22 10 100 28 0.322959
23 10 100 28 0.000123834
25 10 100 28 7.79498e-06
18 11 100 28 0.250803
19 11 100 28 0.248605
23 11 100 28 0.248534
24 11 100 28 0.250808
25 11 100 28 0.0012491
20 12 100 28 0.199992
21 12 100 28 0.199989
22 12 100 28 0.199992
26 12 100 28 0.199992
27 12 100 28 0.199869
28 12 100 28 0.000165527
12 13 100 28 0.253007
13 13 100 28 0.253187
14 13 100 28 0.000320787
17 13 100 28 0.239852
18 13 100 28 0.253189
19 13 100 28 5.93988e-06
25 13 100 28 0.000323316
26 13 100 28 0.000114906
1 14 100 28 0.142858
9 14 100 28 0.142858
10 14 100 28 0.142858
15 14 100 28 0.142857
20 14 100 28 0.142858
21 14 100 28 0.142855
23 14 100 28 0.142858
5 15 100 28 0.0288004
8 15 100 28 5.11499e-05
17 15 100 28 4.1594e-05
24 15 100 28 0.920308
25 15 100 28 0.0507988
4 16 100 28 0.000328499
5 16 100 28 0.084775
6 16 100 28 0.358855
8 16 100 28 0.00255214
17 16 100 28 3.33784e-05
23 16 100 28 4.51794e-06
25 16 100 28 0.193552
26 16 100 28 0.3599
7 17 100 28 0.499533
8 17 100 28 0.000634222
14 17 100 28 2.13887e-05
19 17 100 28 2.13709e-05
24 17 100 28 3.13409e-05
25 17 100 28 2.13708e-05
27 17 100 28 0.499738
8 18 100 28 0.99245
17 18 100 28 2.88218e-05
22 18 100 28 0.00752108
14 19 100 28 0.334789
19 19 100 28 0.332605
25 19 100 28 0.332605
21 20 100 28 0.0190382
27 20 100 28 0.980962
2 0 100 29 6.54392e-05
4 0 100 29 0.0860872
6 0 100 29 0.0860324
7 0 100 29 0.0136795
9 0 100 29 0.0121864
10 0 100 29 0.0860975
11 0 100 29 0.0860975
14 0 100 29 0.000204965
17 0 100 29 0.0860975
19 0 100 29 0.172054
20 0 100 29 0.0860974
21 0 100 29 0.0860975
23 0 100 29 0.000204965
28 0 100 29 0.0268032
29 0 100 29 0.172195
1 1 100 29 0.666832
2 1 100 29 0.333168
3 2 100 29 1
2 3 100 29 0.187335
4 3 100 29 0.187338
5 3 100 29 0.374677
6 3 100 29 0.18732
7 3 100 29 0.0633191
13 3 100 29 1.07276e-05
6 4 100 29 2.72362e-05
7 4 100 29 0.429069
8 4 100 29 0.285452
9 4 100 29 0.285452
8 5 100 29 0.999759
9 5 100 29 0.00024093
4 6 100 29 6.34985e-05
6 6 100 29 0.000368233
9 6 100 29 0.46117
10 6 100 29 0.537358
19 6 100 29 1.53828e-05
24 6 100 29 0.000710441
28 6 100 29 0.000315083
12 7 100 29 1
11 8 100 29 0.143012
13 8 100 29 0.286016
14 8 100 29 0.284947
15 8 100 29 0.143012
16 8 100 29 0.143012
14 9 100 29 0.00102966
15 9 100 29 0.199794
16 9 100 29 0.199794
17 9 100 29 0.199794
18 9 100 29 0.199794
20 9 100 29 0.199794
19 10 100 29 1
18 11 100 29 1
21 12 100 29 0.5
23 12 100 29 0.5
22 13 100 29 0.334318
23 13 100 29 0.331802
24 13 100 29 0.333879
22 14 100 29 0.12492
23 14 100 29 0.000643789
24 14 100 29 0.12492
25 14 100 29 0.249839
26 14 100 29 0.249838
27 14 100 29 0.12492
28 14 100 29 0.12492
6 15 100 29 0.000102191
19 15 100 29 0.000117082
28 15 100 29 0.999781
27 16 100 29 0.999699
28 16 100 29 0.000301244
2 0 100 31 0.000148512
3 0 100 31 0.0881254
6 0 100 31 0.0145025
7 0 100 31 0.0874404
9 0 100 31 0.0880176
10 0 100 31 0.0858194
11 0 100 31 0.0881262
13 0 100 31 0.0155782
15 0 100 31 0.0881262
17 0 100 31 0.0881262
19 0 100 31 0.00149367
23 0 100 31 0.17625
24 0 100 31 1.08105e-05
25 0 100 31 2.03975e-05
28 0 100 31 0.00196195
31 0 100 31 0.176252
1 1 100 31 0.498562
2 1 100 31 0.498127
4 1 100 31 0.00331063
3 2 100 31 0.17101
4 2 100 31 0.339749
5 2 100 31 0.17101
6 2 100 31 0.142856
7 2 100 31 0.171007
10 2 100 31 0.00418343
13 2 100 31 0.000185006
5 3 100 31 0.33307
6 3 100 31 0.33307
7 3 100 31 0.00078879
8 3 100 31 0.33307
7 4 100 31 0.00520913
9 4 100 31 0.00123639
10 4 100 31 0.992617
13 4 100 31 0.000562823
14 4 100 31 0.000252725
19 4 100 31 9.7832e-05
28 4 100 31 2.38357e-05
7 5 100 31 3.12354e-05
10 5 100 31 0.00601251
11 5 100 31 0.496958
12 5 100 31 0.496958
13 5 100 31 2.98719e-05
23 5 100 31 9.62903e-06
10 6 100 31 1.62224e-05
13 6 100 31 0.476672
14 6 100 31 0.523312
6 7 100 31 6.9442e-06
8 7 100 31 0.166663
9 7 100 31 0.166663
10 7 100 31 1.99139e-05
12 7 100 31 0.166661
15 7 100 31 0.166663
16 7 100 31 0.166663
18 7 100 31 0.16666
7 8 100 31 3.73954e-06
18 8 100 31 4.02162e-06
19 8 100 31 0.330384
20 8 100 31 0.669608
21 9 100 31 0.285938
22 9 100 31 0.142969
24 9 100 31 0.142969
25 9 100 31 0.142184
26 9 100 31 0.142969
27 9 100 31 0.142969
2 10 100 31 6.81488e-06
7 10 100 31 1.29322e-05
16 10 100 31 0.111011
17 10 100 31 0.111011
18 10 100 31 0.111011
19 10 100 31 0.110584
22 10 100 31 0.111011
25 10 100 31 0.111594
26 10 100 31 0.111011
27 10 100 31 0.111011
28 10 100 31 0.111737
7 11 100 31 1.44197e-05
24 11 100 31 0.344765
28 11 100 31 0.310391
29 11 100 31 0.34483
6 12 100 31 1.2508e-05
10 12 100 31 3.5191e-05
24 12 100 31 3.27887e-05
28 12 100 31 0.0342977
30 12 100 31 0.965622
29 13 100 31 1
2 0 100 36 1.22247e-05
5 0 100 36 0.0696825
7 0 100 36 0.012076
8 0 100 36 0.0696825
10 0 100 36 0.0707595
12 0 100 36 0.0696825
14 0 100 36 8.92079e-05
17 0 100 36 0.0696825
18 0 100 36 0.0696825
19 0 100 36 0.00456137
21 0 100 36 0.00662643
23 0 100 36 0.0696825
25 0 100 36 0.139365
27 0 100 36 0.0696825
28 0 100 36 1.18819e-06
29 0 100 36 0.0696845
35 0 100 36 0.0696825
36 0 100 36 0.139365
1 1 100 36 0.500019
2 1 100 36 0.249971
3 1 100 36 0.25001
3 2 100 36 0.525038
21 2 100 36 0.474962
2 3 100 36 0.187528
4 3 100 36 0.187531
5 3 100 36 0.187532
6 3 100 36 0.187514
7 3 100 36 0.249885
13 3 100 36 7.8076e-06
34 3 100 36 2.16772e-06
6 4 100 36 0.286207
7 4 100 36 0.141432
8 4 100 36 0.28618
9 4 100 36 0.28618
9 5 100 36 0.999801
18 5 100 36 0.000199155
10 6 100 36 0.496106
11 6 100 36 0.503894
13 7 100 36 1
12 8 100 36 0.50032
14 8 100 36 0.49968
11 9 100 36 0.166668
13 9 100 36 0.166661
14 9 100 36 0.166668
15 9 100 36 0.333335
16 9 100 36 0.166665
19 9 100 36 1.83656e-06
16 10 100 36 0.500051
18 10 100 36 0.499949
20 11 100 36 0.5
22 11 100 36 0.5
19 12 100 36 0.166686
21 12 100 36 0.166686
22 12 100 36 0.166572
23 12 100 36 0.166686
24 12 100 36 0.333369
26 13 100 36 0.621087
27 13 100 36 0.0683741
28 13 100 36 0.310538
27 14 100 36 1
4 15 100 36 0.5
17 15 100 36 0.5
19 16 100 36 0.31843
20 16 100 36 0.340738
21 16 100 36 9.47461e-05
30 16 100 36 0.340738
28 17 100 36 0.333337
29 17 100 36 0.333327
31 17 100 36 0.333337
16 18 100 36 3.83803e-06
22 18 100 36 0.000136515
24 18 100 36 3.94119e-06
30 18 100 36 0.199972
32 18 100 36 0.199972
33 18 100 36 0.199971
34 18 100 36 0.19997
35 18 100 36 0.199971
31 19 100 36 0.25
32 19 100 36 0.25
33 19 100 36 0.25
34 19 100 36 0.25
