1 0 100 1 1
1 1 100 1 1
1 2 100 1 1
1 3 100 1 1
1 4 100 1 1
1 5 100 1 1
1 6 100 1 1
1 0 100 2 0.484114
2 0 100 2 0.515886
1 1 100 2 0.76731
2 1 100 2 0.23269
1 2 100 2 0.323629
2 2 100 2 0.676371
1 3 100 2 0.141495
2 3 100 2 0.858505
1 4 100 2 0.0348588
2 4 100 2 0.965141
1 5 100 2 0.0400838
2 5 100 2 0.959916
1 6 100 2 0.0179869
2 6 100 2 0.982013
1 7 100 2 0.0139797
2 7 100 2 0.98602
1 8 100 2 0.0769267
2 8 100 2 0.923073
1 9 100 2 0.275832
2 9 100 2 0.724168
1 10 100 2 0.999193
2 10 100 2 0.000807079
1 11 100 2 1
1 0 100 3 0.148936
2 0 100 3 0.604205
3 0 100 3 0.246858
1 1 100 3 0.641121
2 1 100 3 0.196659
3 1 100 3 0.16222
1 2 100 3 0.207678
2 2 100 3 0.570473
3 2 100 3 0.221849
1 3 100 3 0.112915
2 3 100 3 0.553482
3 3 100 3 0.333604
1 4 100 3 0.0172751
2 4 100 3 0.538886
3 4 100 3 0.443839
1 5 100 3 0.0024307
2 5 100 3 0.196276
3 5 100 3 0.801293
1 6 100 3 0.00729418
2 6 100 3 0.0738253
3 6 100 3 0.918881
1 7 100 3 0.0107452
2 7 100 3 0.0795177
3 7 100 3 0.909737
1 8 100 3 0.0413347
2 8 100 3 0.0959215
3 8 100 3 0.862744
1 9 100 3 1.16243e-05
2 9 100 3 0.310858
3 9 100 3 0.689131
1 10 100 3 0.000325185
2 10 100 3 0.139655
3 10 100 3 0.86002
1 11 100 3 1.5014e-05
2 11 100 3 0.00483873
3 11 100 3 0.995146
1 12 100 3 1.4371e-06
2 12 100 3 0.0533484
3 12 100 3 0.94665
1 0 100 4 0.129825
2 0 100 4 0.0683609
3 0 100 4 0.611363
4 0 100 4 0.190451
1 1 100 4 0.67916
2 1 100 4 0.153842
3 1 100 4 0.0873034
4 1 100 4 0.0796946
1 2 100 4 0.107481
2 2 100 4 0.609469
3 2 100 4 0.153879
4 2 100 4 0.129171
1 3 100 4 0.0716914
2 3 100 4 0.550337
3 3 100 4 0.267002
4 3 100 4 0.11097
1 4 100 4 0.00560118
2 4 100 4 0.230598
3 4 100 4 0.37613
4 4 100 4 0.387671
1 5 100 4 0.00124746
2 5 100 4 0.150826
3 5 100 4 0.570918
4 5 100 4 0.277008
1 6 100 4 0.00204668
2 6 100 4 0.0702565
3 6 100 4 0.364425
4 6 100 4 0.563271
1 7 100 4 0.00073122
2 7 100 4 0.0166075
3 7 100 4 0.376717
4 7 100 4 0.605944
1 8 100 4 0.000264129
2 8 100 4 0.0095448
3 8 100 4 0.16402
4 8 100 4 0.826171
1 9 100 4 2.14565e-05
2 9 100 4 0.00208973
3 9 100 4 0.074487
4 9 100 4 0.923402
1 10 100 4 9.73903e-05
2 10 100 4 0.0300707
3 10 100 4 0.0760598
4 10 100 4 0.893772
1 11 100 4 3.82743e-06
2 11 100 4 0.000161256
3 11 100 4 0.156387
4 11 100 4 0.843448
1 12 100 4 1.12066e-05
2 12 100 4 0.166273
3 12 100 4 0.157158
4 12 100 4 0.676558
2 13 100 4 1
1 0 100 5 0.0404635
2 0 100 5 0.0998127
3 0 100 5 0.364301
4 0 100 5 0.384638
5 0 100 5 0.110785
1 1 100 5 0.597591
2 1 100 5 0.176711
3 1 100 5 0.0859325
4 1 100 5 0.0681117
5 1 100 5 0.0716537
1 2 100 5 0.111076
2 2 100 5 0.502619
3 2 100 5 0.207339
4 2 100 5 0.0827462
5 2 100 5 0.0962208
1 3 100 5 0.0866139
2 3 100 5 0.379261
3 3 100 5 0.315979
4 3 100 5 0.130082
5 3 100 5 0.0880648
1 4 100 5 0.00302274
2 4 100 5 0.309535
3 4 100 5 0.387181
4 4 100 5 0.182117
5 4 100 5 0.118145
1 5 100 5 0.00341296
2 5 100 5 0.100265
3 5 100 5 0.289311
4 5 100 5 0.40427
5 5 100 5 0.202741
1 6 100 5 0.00351336
2 6 100 5 0.0418691
3 6 100 5 0.24021
4 6 100 5 0.380638
5 6 100 5 0.33377
1 7 100 5 0.000862872
2 7 100 5 0.0468757
3 7 100 5 0.217201
4 7 100 5 0.33595
5 7 100 5 0.39911
1 8 100 5 3.28669e-05
2 8 100 5 0.00859912
3 8 100 5 0.0831021
4 8 100 5 0.357831
5 8 100 5 0.550435
1 9 100 5 1.10176e-05
2 9 100 5 0.00972786
3 9 100 5 0.0498058
4 9 100 5 0.457141
5 9 100 5 0.483315
1 10 100 5 5.9148e-05
2 10 100 5 0.000563852
3 10 100 5 0.0511214
4 10 100 5 0.188218
5 10 100 5 0.760037
1 11 100 5 0.000843139
2 11 100 5 4.07136e-05
3 11 100 5 0.0170887
4 11 100 5 0.10423
5 11 100 5 0.877798
2 12 100 5 1.88678e-05
3 12 100 5 0.0141792
4 12 100 5 0.22359
5 12 100 5 0.762212
1 13 100 5 1.54676e-05
2 13 100 5 0.115305
3 13 100 5 0.0341191
4 13 100 5 0.452446
5 13 100 5 0.398115
2 14 100 5 2.02897e-05
3 14 100 5 0.253872
4 14 100 5 0.233979
5 14 100 5 0.512129
2 15 100 5 1
1 0 100 6 0.0490123
2 0 100 6 0.0896414
3 0 100 6 0.127244
4 0 100 6 0.269817
5 0 100 6 0.344486
6 0 100 6 0.119799
1 1 100 6 0.564919
2 1 100 6 0.183525
3 1 100 6 0.11843
4 1 100 6 0.050724
5 1 100 6 0.0372732
6 1 100 6 0.0451285
1 2 100 6 0.0866646
2 2 100 6 0.440327
3 2 100 6 0.147615
4 2 100 6 0.122674
5 2 100 6 0.101425
6 2 100 6 0.101294
1 3 100 6 0.0578342
2 3 100 6 0.391684
3 3 100 6 0.29881
4 3 100 6 0.156906
5 3 100 6 0.0261666
6 3 100 6 0.0685987
1 4 100 6 1.28773e-05
2 4 100 6 0.181026
3 4 100 6 0.381018
4 4 100 6 0.219607
5 4 100 6 0.14308
6 4 100 6 0.0752564
1 5 100 6 0.000764284
2 5 100 6 0.0768443
3 5 100 6 0.257681
4 5 100 6 0.276364
5 5 100 6 0.218829
6 5 100 6 0.169518
2 6 100 6 0.00532863
3 6 100 6 0.130139
4 6 100 6 0.415745
5 6 100 6 0.252191
6 6 100 6 0.196596
1 7 100 6 1.61439e-06
2 7 100 6 3.95507e-05
3 7 100 6 0.0950876
4 7 100 6 0.204305
5 7 100 6 0.427224
6 7 100 6 0.273342
1 8 100 6 8.27281e-06
2 8 100 6 0.00445037
3 8 100 6 0.040496
4 8 100 6 0.17996
5 8 100 6 0.401248
6 8 100 6 0.373837
1 9 100 6 0.000114357
2 9 100 6 0.00242281
3 9 100 6 0.00857732
4 9 100 6 0.135575
5 9 100 6 0.235668
6 9 100 6 0.617642
1 10 100 6 6.54571e-06
2 10 100 6 0.00036261
3 10 100 6 0.0329514
4 10 100 6 0.0900176
5 10 100 6 0.300783
6 10 100 6 0.575878
1 11 100 6 1.3197e-07
2 11 100 6 0.00380632
3 11 100 6 0.000215114
4 11 100 6 0.0835854
5 11 100 6 0.381507
6 11 100 6 0.530886
2 12 100 6 0.0285981
3 12 100 6 0.0321124
4 12 100 6 0.0425097
5 12 100 6 0.211484
6 12 100 6 0.685296
2 13 100 6 0.000234979
3 13 100 6 8.76701e-05
4 13 100 6 0.00218957
5 13 100 6 0.262369
6 13 100 6 0.735119
1 14 100 6 2.41956e-06
2 14 100 6 1.0997e-05
3 14 100 6 0.134728
4 14 100 6 0.0132064
5 14 100 6 0.440152
6 14 100 6 0.4119
1 15 100 6 5.9603e-07
2 15 100 6 0.00639342
3 15 100 6 0.00281884
4 15 100 6 0.0170542
5 15 100 6 0.041767
6 15 100 6 0.931966
3 16 100 6 0.000223307
4 16 100 6 0.181165
5 16 100 6 0.191483
6 16 100 6 0.627129
6 17 100 6 1
1 0 100 7 0.0413371
2 0 100 7 0.119889
3 0 100 7 0.105106
4 0 100 7 0.199799
5 0 100 7 0.196927
6 0 100 7 0.146204
7 0 100 7 0.190737
1 1 100 7 0.592956
2 1 100 7 0.203094
3 1 100 7 0.0868473
4 1 100 7 0.042734
5 1 100 7 0.0292373
6 1 100 7 0.0207639
7 1 100 7 0.0243672
1 2 100 7 0.137453
2 2 100 7 0.422489
3 2 100 7 0.20395
4 2 100 7 0.103343
5 2 100 7 0.0339457
6 2 100 7 0.033049
7 2 100 7 0.0657699
1 3 100 7 0.0453863
2 3 100 7 0.357365
3 3 100 7 0.29747
4 3 100 7 0.17971
5 3 100 7 0.0615257
6 3 100 7 0.0292804
7 3 100 7 0.029263
1 4 100 7 0.00642997
2 4 100 7 0.242638
3 4 100 7 0.238301
4 4 100 7 0.244815
5 4 100 7 0.166717
6 4 100 7 0.043979
7 4 100 7 0.0571206
2 5 100 7 0.0363133
3 5 100 7 0.349669
4 5 100 7 0.178472
5 5 100 7 0.216837
6 5 100 7 0.128147
7 5 100 7 0.0905619
2 6 100 7 0.0124062
3 6 100 7 0.153497
4 6 100 7 0.344261
5 6 100 7 0.190305
6 6 100 7 0.147694
7 6 100 7 0.151837
1 7 100 7 2.13668e-05
2 7 100 7 3.18493e-06
3 7 100 7 0.113576
4 7 100 7 0.132553
5 7 100 7 0.289904
6 7 100 7 0.264232
7 7 100 7 0.19971
1 8 100 7 2.67992e-05
2 8 100 7 1.41123e-07
3 8 100 7 0.0154366
4 8 100 7 0.207601
5 8 100 7 0.227526
6 8 100 7 0.32005
7 8 100 7 0.229359
1 9 100 7 2.74283e-06
2 9 100 7 0.000613993
3 9 100 7 0.000665688
4 9 100 7 0.0966902
5 9 100 7 0.208852
6 9 100 7 0.34783
7 9 100 7 0.345346
1 10 100 7 3.36214e-06
2 10 100 7 0.000720125
3 10 100 7 0.000133381
4 10 100 7 0.0628463
5 10 100 7 0.236671
6 10 100 7 0.343652
7 10 100 7 0.355974
1 11 100 7 4.69941e-07
2 11 100 7 4.4245e-05
3 11 100 7 0.000713827
4 11 100 7 0.0601819
5 11 100 7 0.15981
6 11 100 7 0.332897
7 11 100 7 0.446352
2 12 100 7 8.57733e-05
3 12 100 7 0.00195639
4 12 100 7 0.0445494
5 12 100 7 0.280784
6 12 100 7 0.270021
7 12 100 7 0.402603
1 13 100 7 0.000362573
2 13 100 7 0.00847472
3 13 100 7 0.000130773
4 13 100 7 0.00118604
5 13 100 7 0.131913
6 13 100 7 0.354156
7 13 100 7 0.503776
1 14 100 7 1.0732e-07
2 14 100 7 0.000123074
3 14 100 7 1.7334e-05
4 14 100 7 0.000119505
5 14 100 7 0.000869368
6 14 100 7 0.533616
7 14 100 7 0.465255
2 15 100 7 0.000139049
3 15 100 7 0.000379389
4 15 100 7 0.000515519
5 15 100 7 0.000470753
6 15 100 7 0.344244
7 15 100 7 0.654251
2 16 100 7 1.14955e-05
3 16 100 7 0.00154447
4 16 100 7 6.06852e-06
5 16 100 7 0.0163616
6 16 100 7 0.0163536
7 16 100 7 0.965723
3 17 100 7 0.000438565
4 17 100 7 1.71275e-05
5 17 100 7 0.000126572
6 17 100 7 0.00597442
7 17 100 7 0.993443
2 18 100 7 0.00122979
3 18 100 7 0.998704
6 18 100 7 6.60504e-05
3 19 100 7 1
1 0 100 8 0.0535213
2 0 100 8 0.0428508
3 0 100 8 0.0436316
4 0 100 8 0.333738
5 0 100 8 0.191713
6 0 100 8 0.107217
7 0 100 8 0.0394048
8 0 100 8 0.187924
1 1 100 8 0.514208
2 1 100 8 0.180645
3 1 100 8 0.101175
4 1 100 8 0.0377956
5 1 100 8 0.0387721
6 1 100 8 0.0403078
7 1 100 8 0.0447206
8 1 100 8 0.0423756
1 2 100 8 0.192234
2 2 100 8 0.265512
3 2 100 8 0.185489
4 2 100 8 0.162001
5 2 100 8 0.069301
6 2 100 8 0.0326125
7 2 100 8 0.00256736
8 2 100 8 0.0902829
1 3 100 8 0.0606724
2 3 100 8 0.369236
3 3 100 8 0.267815
4 3 100 8 0.179976
5 3 100 8 0.0721411
6 3 100 8 0.0167599
7 3 100 8 0.00555551
8 3 100 8 0.0278437
1 4 100 8 0.019471
2 4 100 8 0.387205
3 4 100 8 0.223401
4 4 100 8 0.108452
5 4 100 8 0.131841
6 4 100 8 0.0689096
7 4 100 8 0.0242716
8 4 100 8 0.0364487
1 5 100 8 2.12493e-06
2 5 100 8 0.0519713
3 5 100 8 0.266737
4 5 100 8 0.253278
5 5 100 8 0.162466
6 5 100 8 0.118433
7 5 100 8 0.0751202
8 5 100 8 0.0719923
1 6 100 8 2.69021e-07
2 6 100 8 0.0274565
3 6 100 8 0.288525
4 6 100 8 0.224575
5 6 100 8 0.183955
6 6 100 8 0.115476
7 6 100 8 0.109525
8 6 100 8 0.0504876
2 7 100 8 0.0049329
3 7 100 8 0.0713103
4 7 100 8 0.186766
5 7 100 8 0.248622
6 7 100 8 0.235765
7 7 100 8 0.159236
8 7 100 8 0.093368
3 8 100 8 0.0227771
4 8 100 8 0.234644
5 8 100 8 0.211034
6 8 100 8 0.198685
7 8 100 8 0.149715
8 8 100 8 0.183144
2 9 100 8 1.91297e-07
4 9 100 8 0.0844757
5 9 100 8 0.171913
6 9 100 8 0.273848
7 9 100 8 0.254238
8 9 100 8 0.215525
1 10 100 8 0.000173276
2 10 100 8 0.00148517
3 10 100 8 0.00884593
4 10 100 8 0.046667
5 10 100 8 0.180703
6 10 100 8 0.212722
7 10 100 8 0.327527
8 10 100 8 0.221877
1 11 100 8 2.69998e-07
2 11 100 8 2.67924e-05
3 11 100 8 3.86571e-05
4 11 100 8 0.000412883
5 11 100 8 0.141071
6 11 100 8 0.234565
7 11 100 8 0.356261
8 11 100 8 0.267623
2 12 100 8 0.00403162
3 12 100 8 4.46832e-05
4 12 100 8 0.0315488
5 12 100 8 0.119552
6 12 100 8 0.315171
7 12 100 8 0.203403
8 12 100 8 0.326249
2 13 100 8 5.31887e-05
3 13 100 8 0.0111427
4 13 100 8 0.000551511
5 13 100 8 0.050169
6 13 100 8 0.229928
7 13 100 8 0.369952
8 13 100 8 0.338204
1 14 100 8 1.47293e-07
2 14 100 8 1.70232e-05
3 14 100 8 7.81757e-06
4 14 100 8 0.0104897
5 14 100 8 4.43975e-06
6 14 100 8 0.0515634
7 14 100 8 0.376483
8 14 100 8 0.561434
2 15 100 8 3.71249e-07
3 15 100 8 1.70112e-05
4 15 100 8 6.16154e-06
5 15 100 8 2.12402e-05
6 15 100 8 0.136978
7 15 100 8 0.394438
8 15 100 8 0.468538
2 16 100 8 6.00981e-06
3 16 100 8 0.00042954
4 16 100 8 8.52448e-05
5 16 100 8 1.10369e-07
6 16 100 8 1.76834e-05
7 16 100 8 0.404151
8 16 100 8 0.595311
2 17 100 8 4.65674e-07
3 17 100 8 1.42633e-05
4 17 100 8 8.05619e-07
6 17 100 8 4.40658e-05
7 17 100 8 0.630529
8 17 100 8 0.369411
2 18 100 8 3.00569e-06
4 18 100 8 1.13933e-05
5 18 100 8 2.89009e-06
7 18 100 8 0.000309029
8 18 100 8 0.999674
5 19 100 8 0.027009
6 19 100 8 0.00234031
8 19 100 8 0.970651
1 0 100 9 0.00888957
2 0 100 9 0.0999933
3 0 100 9 0.07444
4 0 100 9 0.0772238
5 0 100 9 0.197362
6 0 100 9 0.14218
7 0 100 9 0.045679
8 0 100 9 0.0777908
9 0 100 9 0.276442
1 1 100 9 0.627976
2 1 100 9 0.164688
3 1 100 9 0.0681943
4 1 100 9 0.0350685
5 1 100 9 0.00753327
6 1 100 9 0.0213445
7 1 100 9 0.0220465
8 1 100 9 0.0268313
9 1 100 9 0.0263179
1 2 100 9 0.0868026
2 2 100 9 0.436846
3 2 100 9 0.145837
4 2 100 9 0.0924706
5 2 100 9 0.0925841
6 2 100 9 0.0132363
7 2 100 9 0.0163181
8 2 100 9 0.0185024
9 2 100 9 0.0974036
1 3 100 9 0.0279655
2 3 100 9 0.461793
3 3 100 9 0.297932
4 3 100 9 0.14073
5 3 100 9 0.0458292
6 3 100 9 0.0163333
7 3 100 9 3.29661e-07
8 3 100 9 5.24329e-05
9 3 100 9 0.00936415
2 4 100 9 0.227367
3 4 100 9 0.349607
4 4 100 9 0.126662
5 4 100 9 0.0894609
6 4 100 9 0.0786641
7 4 100 9 0.00984842
8 4 100 9 8.21652e-05
9 4 100 9 0.118308
1 5 100 9 0.0096768
2 5 100 9 0.0274407
3 5 100 9 0.362269
4 5 100 9 0.281531
5 5 100 9 0.154693
6 5 100 9 0.0872518
7 5 100 9 0.0580166
8 5 100 9 0.0104305
9 5 100 9 0.00869018
2 6 100 9 0.0189571
3 6 100 9 0.12918
4 6 100 9 0.37592
5 6 100 9 0.211023
6 6 100 9 0.123153
7 6 100 9 0.0945583
8 6 100 9 0.0285021
9 6 100 9 0.0187073
3 7 100 9 0.0286942
4 7 100 9 0.223066
5 7 100 9 0.239283
6 7 100 9 0.205006
7 7 100 9 0.125091
8 7 100 9 0.0954689
9 7 100 9 0.0833903
1 8 100 9 3.51941e-07
3 8 100 9 8.63218e-07
4 8 100 9 0.109165
5 8 100 9 0.182524
6 8 100 9 0.232906
7 8 100 9 0.210542
8 8 100 9 0.122259
9 8 100 9 0.142604
2 9 100 9 3.84701e-07
3 9 100 9 0.00951636
4 9 100 9 0.0190343
5 9 100 9 0.1789
6 9 100 9 0.282096
7 9 100 9 0.219445
8 9 100 9 0.230201
9 9 100 9 0.0608065
4 10 100 9 0.0124445
5 10 100 9 0.162055
6 10 100 9 0.113796
7 10 100 9 0.311354
8 10 100 9 0.285965
9 10 100 9 0.114386
1 11 100 9 2.55088e-07
2 11 100 9 2.09094e-05
3 11 100 9 0.00322511
4 11 100 9 0.00712113
5 11 100 9 0.0294377
6 11 100 9 0.130873
7 11 100 9 0.269894
8 11 100 9 0.384091
9 11 100 9 0.175337
2 12 100 9 1.53869e-05
3 12 100 9 0.000110878
4 12 100 9 0.000106512
5 12 100 9 0.080591
6 12 100 9 0.0974198
7 12 100 9 0.135575
8 12 100 9 0.211223
9 12 100 9 0.474958
2 13 100 9 1.12503e-05
3 13 100 9 0.000157269
4 13 100 9 4.73037e-05
5 13 100 9 0.00151337
6 13 100 9 0.289387
7 13 100 9 0.250652
8 13 100 9 0.141006
9 13 100 9 0.317226
2 14 100 9 5.19343e-05
3 14 100 9 8.71346e-06
4 14 100 9 6.28023e-05
5 14 100 9 0.000152046
6 14 100 9 0.00116226
7 14 100 9 0.299725
8 14 100 9 0.372822
9 14 100 9 0.326014
2 15 100 9 1.52237e-05
3 15 100 9 6.42435e-06
4 15 100 9 2.6294e-05
5 15 100 9 1.05317e-05
6 15 100 9 0.0818162
7 15 100 9 0.0703204
8 15 100 9 0.405311
9 15 100 9 0.442493
2 16 100 9 0.000146896
3 16 100 9 0.0097229
4 16 100 9 0.000638552
5 16 100 9 0.156088
6 16 100 9 2.38449e-05
7 16 100 9 0.27769
8 16 100 9 0.297796
9 16 100 9 0.257894
3 17 100 9 0.000160262
4 17 100 9 0.0125398
5 17 100 9 0.000465815
7 17 100 9 8.36148e-06
8 17 100 9 0.716749
9 17 100 9 0.270076
1 18 100 9 6.48882e-06
2 18 100 9 0.000648906
3 18 100 9 6.31202e-06
4 18 100 9 4.87329e-05
5 18 100 9 3.64625e-05
6 18 100 9 4.03199e-05
7 18 100 9 0.00259213
8 18 100 9 0.213678
9 18 100 9 0.782942
2 19 100 9 0.000752089
3 19 100 9 4.41397e-05
5 19 100 9 8.18663e-05
7 19 100 9 0.00582771
8 19 100 9 0.0344533
9 19 100 9 0.958841
1 20 100 9 0.00122813
2 20 100 9 0.316472
3 20 100 9 0.0995368
4 20 100 9 0.0618382
5 20 100 9 0.184225
6 20 100 9 0.0679329
7 20 100 9 0.000151174
8 20 100 9 0.238762
9 20 100 9 0.0298533
1 0 100 10 0.00393672
2 0 100 10 0.0969567
3 0 100 10 0.148901
4 0 100 10 0.00635258
5 0 100 10 0.0766766
6 0 100 10 0.158286
7 0 100 10 0.0824803
8 0 100 10 0.0411471
9 0 100 10 0.00452602
10 0 100 10 0.380737
1 1 100 10 0.661144
2 1 100 10 0.191676
3 1 100 10 0.103158
4 1 100 10 0.0438967
5 1 100 10 9.97727e-06
8 1 100 10 0.0001049
9 1 100 10 1.05163e-05
1 2 100 10 0.118131
2 2 100 10 0.374758
3 2 100 10 0.16323
4 2 100 10 0.0689925
5 2 100 10 0.119054
6 2 100 10 0.0229713
8 2 100 10 0.0116817
9 2 100 10 0.0201131
10 2 100 10 0.101067
1 3 100 10 5.63914e-06
2 3 100 10 0.324361
3 3 100 10 0.43641
4 3 100 10 0.139867
5 3 100 10 0.0560482
6 3 100 10 0.0353151
10 3 100 10 0.00799374
1 4 100 10 8.15049e-07
2 4 100 10 0.309797
3 4 100 10 0.182962
4 4 100 10 0.239238
5 4 100 10 0.10993
6 4 100 10 0.0548201
7 4 100 10 0.0186274
8 4 100 10 0.000291558
9 4 100 10 3.07077e-06
10 4 100 10 0.0843308
2 5 100 10 0.0652246
3 5 100 10 0.257545
4 5 100 10 0.242342
5 5 100 10 0.190615
6 5 100 10 0.127267
7 5 100 10 0.0632731
8 5 100 10 0.0252425
9 5 100 10 0.0127548
10 5 100 10 0.0157354
2 6 100 10 0.0187838
3 6 100 10 0.0378958
4 6 100 10 0.265349
5 6 100 10 0.245401
6 6 100 10 0.189296
7 6 100 10 0.189323
8 6 100 10 0.0202114
10 6 100 10 0.0337399
3 7 100 10 0.0308681
4 7 100 10 0.185157
5 7 100 10 0.170055
6 7 100 10 0.185191
7 7 100 10 0.0925373
8 7 100 10 0.153683
9 7 100 10 0.109441
10 7 100 10 0.0730686
2 8 100 10 0.000154234
3 8 100 10 0.0159195
4 8 100 10 0.0909372
5 8 100 10 0.234895
6 8 100 10 0.149488
7 8 100 10 0.143229
8 8 100 10 0.143207
9 8 100 10 0.110958
10 8 100 10 0.111213
4 9 100 10 0.0173501
5 9 100 10 0.158511
6 9 100 10 0.146608
7 9 100 10 0.24188
8 9 100 10 0.190177
9 9 100 10 0.138087
10 9 100 10 0.107388
3 10 100 10 1.46561e-06
5 10 100 10 0.0676155
6 10 100 10 0.234411
7 10 100 10 0.173981
8 10 100 10 0.22512
9 10 100 10 0.248119
10 10 100 10 0.0507512
6 11 100 10 0.121604
7 11 100 10 0.260258
8 11 100 10 0.188049
9 11 100 10 0.260877
10 11 100 10 0.169212
2 12 100 10 1.72359e-05
3 12 100 10 0.000739635
4 12 100 10 1.82416e-05
5 12 100 10 2.48953e-05
6 12 100 10 0.110016
7 12 100 10 0.173048
8 12 100 10 0.225492
9 12 100 10 0.264812
10 12 100 10 0.225832
2 13 100 10 4.62279e-05
3 13 100 10 5.84613e-06
4 13 100 10 0.000348588
5 13 100 10 4.92571e-05
6 13 100 10 0.0808634
7 13 100 10 0.239717
8 13 100 10 0.317931
9 13 100 10 0.254739
10 13 100 10 0.106299
2 14 100 10 2.45235e-05
3 14 100 10 1.34356e-05
4 14 100 10 0.0552578
5 14 100 10 0.00506515
6 14 100 10 0.0331839
7 14 100 10 0.254225
8 14 100 10 0.261682
9 14 100 10 0.20347
10 14 100 10 0.187078
2 15 100 10 1.69366e-05
3 15 100 10 1.62193e-05
4 15 100 10 0.00501244
5 15 100 10 0.000110743
6 15 100 10 0.00655569
7 15 100 10 0.0119996
8 15 100 10 0.352514
9 15 100 10 0.169548
10 15 100 10 0.454227
2 16 100 10 4.40361e-06
3 16 100 10 1.5053e-05
4 16 100 10 0.00017923
5 16 100 10 8.68163e-05
6 16 100 10 3.16907e-05
7 16 100 10 0.000245442
8 16 100 10 0.132675
9 16 100 10 0.708688
10 16 100 10 0.158075
2 17 100 10 2.3698e-05
3 17 100 10 5.47184e-06
4 17 100 10 4.7584e-05
5 17 100 10 0.000714107
6 17 100 10 1.20919e-05
7 17 100 10 8.67432e-06
8 17 100 10 0.134816
9 17 100 10 0.273558
10 17 100 10 0.590815
2 18 100 10 1.47863e-05
4 18 100 10 0.000259247
5 18 100 10 8.903e-06
6 18 100 10 0.00057774
7 18 100 10 8.02711e-05
8 18 100 10 0.02533
9 18 100 10 0.151573
10 18 100 10 0.822156
2 19 100 10 6.53198e-06
3 19 100 10 3.73235e-06
4 19 100 10 0.00321952
6 19 100 10 0.000695952
8 19 100 10 0.0906244
9 19 100 10 0.681799
10 19 100 10 0.223651
4 20 100 10 0.883655
6 20 100 10 0.0162109
8 20 100 10 4.47012e-05
9 20 100 10 0.100089
9 21 100 10 0.176782
10 21 100 10 0.823218
6 23 100 10 0.00039972
7 23 100 10 0.00138366
8 23 100 10 0.998217
1 0 100 11 0.00280499
2 0 100 11 0.0334624
3 0 100 11 0.0394485
4 0 100 11 0.00244933
5 0 100 11 0.000495148
6 0 100 11 0.00105804
7 0 100 11 0.00140505
8 0 100 11 0.0054932
9 0 100 11 0.00207226
10 0 100 11 0.0135627
11 0 100 11 0.897748
1 1 100 11 0.735724
2 1 100 11 0.122625
3 1 100 11 0.100253
4 1 100 11 0.0407043
5 1 100 11 0.000687489
9 1 100 11 6.40739e-06
1 2 100 11 0.23864
2 2 100 11 0.388862
3 2 100 11 0.110186
4 2 100 11 0.0795501
5 2 100 11 0.0397652
6 2 100 11 0.0397751
8 2 100 11 0.0376696
10 2 100 11 0.0365186
11 2 100 11 0.0290334
1 3 100 11 0.075132
2 3 100 11 0.499477
3 3 100 11 0.175336
4 3 100 11 0.175308
5 3 100 11 0.0747461
7 3 100 11 1.28871e-06
1 4 100 11 1.52781e-06
2 4 100 11 0.214048
3 4 100 11 0.356436
4 4 100 11 0.0722708
5 4 100 11 0.177522
6 4 100 11 0.0712861
8 4 100 11 0.000108177
10 4 100 11 7.58538e-05
11 4 100 11 0.108252
2 5 100 11 0.0624276
3 5 100 11 0.343398
4 5 100 11 0.278139
5 5 100 11 0.124822
6 5 100 11 0.155866
7 5 100 11 0.031212
8 5 100 11 1.57832e-06
11 5 100 11 0.00413351
2 6 100 11 0.0326762
3 6 100 11 0.195976
4 6 100 11 0.196006
5 6 100 11 0.0980009
6 6 100 11 0.0653094
7 6 100 11 0.261384
8 6 100 11 0.0982687
9 6 100 11 0.0326294
11 6 100 11 0.0197485
2 7 100 11 8.65627e-07
3 7 100 11 0.0722337
4 7 100 11 0.216707
5 7 100 11 0.215317
6 7 100 11 0.216688
7 7 100 11 0.0498803
8 7 100 11 0.0722187
9 7 100 11 0.0481564
10 7 100 11 0.0481524
11 7 100 11 0.0606459
3 8 100 11 1.27558e-06
4 8 100 11 0.191307
5 8 100 11 0.193534
6 8 100 11 0.15307
7 8 100 11 0.112485
8 8 100 11 0.114788
9 8 100 11 0.153013
10 8 100 11 0.0382688
11 8 100 11 0.0435324
4 9 100 11 0.0620841
5 9 100 11 0.279377
6 9 100 11 0.124164
7 9 100 11 0.309927
8 9 100 11 0.093127
9 9 100 11 0.0931216
10 9 100 11 0.0310399
11 9 100 11 0.00715998
3 10 100 11 4.13394e-07
4 10 100 11 0.027241
5 10 100 11 0.134438
6 10 100 11 0.201743
7 10 100 11 0.134473
8 10 100 11 0.206885
9 10 100 11 0.100877
10 10 100 11 0.0917549
11 10 100 11 0.102588
4 11 100 11 0.00600954
5 11 100 11 0.0634667
6 11 100 11 0.222135
7 11 100 11 0.15867
8 11 100 11 0.25475
9 11 100 11 0.127174
10 11 100 11 0.13551
11 11 100 11 0.0322842
3 12 100 11 3.37584e-06
5 12 100 11 2.28009e-05
6 12 100 11 0.130105
7 12 100 11 0.173371
8 12 100 11 0.17349
9 12 100 11 0.216474
10 12 100 11 0.260044
11 12 100 11 0.0464902
2 13 100 11 9.72076e-06
3 13 100 11 5.7163e-06
4 13 100 11 8.86664e-06
5 13 100 11 2.36456e-06
6 13 100 11 0.029792
7 13 100 11 0.178444
8 13 100 11 0.204585
9 13 100 11 0.280786
10 13 100 11 0.144346
11 13 100 11 0.16202
2 14 100 11 8.20888e-06
3 14 100 11 5.6795e-06
4 14 100 11 2.40409e-05
5 14 100 11 1.03045e-06
6 14 100 11 0.000120779
7 14 100 11 0.0435707
8 14 100 11 0.245025
9 14 100 11 0.207633
10 14 100 11 0.18775
11 14 100 11 0.315862
2 15 100 11 3.3682e-06
3 15 100 11 7.74524e-06
4 15 100 11 0.00138675
5 15 100 11 8.86261e-06
6 15 100 11 0.000584067
7 15 100 11 0.0615034
8 15 100 11 0.000942852
9 15 100 11 0.289123
10 15 100 11 0.484368
11 15 100 11 0.162072
2 16 100 11 6.52704e-05
3 16 100 11 0.000207822
4 16 100 11 2.36472e-05
5 16 100 11 5.62804e-06
6 16 100 11 1.09924e-05
7 16 100 11 5.05701e-06
8 16 100 11 0.0924221
9 16 100 11 0.147792
10 16 100 11 0.608377
11 16 100 11 0.15109
2 17 100 11 3.64778e-06
3 17 100 11 0.000174225
4 17 100 11 1.78254e-05
5 17 100 11 3.43912e-05
6 17 100 11 2.28848e-05
8 17 100 11 3.68192e-05
9 17 100 11 8.65017e-05
10 17 100 11 0.27101
11 17 100 11 0.728613
2 18 100 11 2.98162e-05
3 18 100 11 1.13237e-05
4 18 100 11 0.000104371
5 18 100 11 2.20337e-06
6 18 100 11 4.61948e-07
7 18 100 11 1.48155e-06
8 18 100 11 5.49991e-06
9 18 100 11 0.301147
10 18 100 11 0.151168
11 18 100 11 0.54753
2 19 100 11 0.000115829
4 19 100 11 0.000455692
6 19 100 11 1.2679e-05
8 19 100 11 1.75136e-06
9 19 100 11 0.170631
10 19 100 11 0.00833573
11 19 100 11 0.820447
6 20 100 11 0.987486
8 20 100 11 0.0125137
10 21 100 11 0.499996
11 21 100 11 0.500004
5 22 100 11 0.999746
6 22 100 11 0.00020403
10 22 100 11 5.0034e-05
11 23 100 11 1
6 24 100 11 6.34755e-05
11 24 100 11 0.999937
6 25 100 11 1
1 0 100 12 0.000604852
2 0 100 12 0.00149928
3 0 100 12 0.000575277
4 0 100 12 0.000494573
5 0 100 12 0.000712144
6 0 100 12 0.201666
7 0 100 12 0.000767894
8 0 100 12 0.0615816
9 0 100 12 0.000788309
10 0 100 12 0.00122853
11 0 100 12 0.00377828
12 0 100 12 0.726303
1 1 100 12 0.771462
2 1 100 12 0.195722
3 1 100 12 2.72998e-06
5 1 100 12 0.0328135
1 2 100 12 0.127124
2 2 100 12 0.51165
3 2 100 12 0.254084
4 2 100 12 0.084696
6 2 100 12 2.71162e-06
8 2 100 12 0.0224409
12 2 100 12 2.01475e-06
1 3 100 12 0.0992576
2 3 100 12 0.450181
3 3 100 12 0.400472
5 3 100 12 0.0500737
6 3 100 12 1.62117e-05
1 4 100 12 0.000169752
2 4 100 12 0.205357
3 4 100 12 0.205356
4 4 100 12 0.307922
5 4 100 12 0.205356
6 4 100 12 0.0513452
8 4 100 12 0.015108
12 4 100 12 0.00938558
2 5 100 12 0.110808
3 5 100 12 0.258938
4 5 100 12 0.36986
5 5 100 12 0.110844
6 5 100 12 0.0368918
7 5 100 12 0.0369808
8 5 100 12 0.0370422
10 5 100 12 5.59378e-07
12 5 100 12 0.0386348
3 6 100 12 0.190121
4 6 100 12 0.190177
5 6 100 12 0.380369
6 6 100 12 0.0121406
7 6 100 12 0.0633223
8 6 100 12 0.0090096
11 6 100 12 0.0614732
12 6 100 12 0.0933879
2 7 100 12 2.64744e-05
3 7 100 12 0.0409013
4 7 100 12 0.228051
5 7 100 12 0.0999574
6 7 100 12 0.413617
7 7 100 12 0.0999426
8 7 100 12 0.0990222
12 7 100 12 0.0184816
4 8 100 12 0.0953988
5 8 100 12 0.265516
6 8 100 12 0.238659
7 8 100 12 0.0663722
8 8 100 12 0.132707
9 8 100 12 0.132707
10 8 100 12 0.0663414
11 8 100 12 0.000784574
12 8 100 12 0.00151364
5 9 100 12 0.222034
6 9 100 12 0.107506
7 9 100 12 0.443997
8 9 100 12 0.111011
9 9 100 12 0.0555017
11 9 100 12 0.0555084
12 9 100 12 0.00444224
3 10 100 12 0.00991582
5 10 100 12 7.47496e-06
6 10 100 12 0.33
7 10 100 12 0.164992
8 10 100 12 0.16508
9 10 100 12 0.165003
10 10 100 12 0.110001
12 10 100 12 0.0550005
1 11 100 12 0.0457333
5 11 100 12 0.0891388
6 11 100 12 0.0914617
7 11 100 12 0.182933
8 11 100 12 0.26173
9 11 100 12 0.137198
10 11 100 12 0.137119
11 11 100 12 0.0457331
12 11 100 12 0.00895346
4 12 100 12 0.0663933
5 12 100 12 0.00337176
6 12 100 12 9.38108e-07
7 12 100 12 0.265573
8 12 100 12 0.199917
9 12 100 12 0.265564
11 12 100 12 0.19918
6 13 100 12 0.0493432
7 13 100 12 0.0493444
8 13 100 12 0.210717
9 13 100 12 0.295938
10 13 100 12 0.295966
11 13 100 12 2.02285e-06
12 13 100 12 0.0986898
2 14 100 12 4.18934e-06
3 14 100 12 1.88113e-06
4 14 100 12 1.25391e-06
5 14 100 12 0.00640265
6 14 100 12 0.109674
7 14 100 12 0.00031574
8 14 100 12 0.0394851
9 14 100 12 0.112819
10 14 100 12 0.337723
11 14 100 12 0.333311
12 14 100 12 0.0602618
2 15 100 12 6.99305e-06
3 15 100 12 0.0542553
4 15 100 12 6.59716e-05
5 15 100 12 5.89839e-06
6 15 100 12 5.93779e-07
7 15 100 12 0.0550578
8 15 100 12 0.00092802
9 15 100 12 0.162224
10 15 100 12 0.162162
11 15 100 12 0.281404
12 15 100 12 0.28389
2 16 100 12 1.20264e-05
3 16 100 12 9.26545e-07
4 16 100 12 4.78966e-06
5 16 100 12 0.111115
6 16 100 12 0.0140982
7 16 100 12 0.125119
8 16 100 12 0.134174
9 16 100 12 2.04828e-06
10 16 100 12 0.125022
11 16 100 12 0.361866
12 16 100 12 0.128585
2 17 100 12 2.21148e-06
3 17 100 12 4.08569e-06
4 17 100 12 0.103042
5 17 100 12 2.11359e-05
6 17 100 12 3.84233e-06
7 17 100 12 0.0682721
8 17 100 12 1.38932e-06
9 17 100 12 0.102183
10 17 100 12 0.207483
11 17 100 12 0.103747
12 17 100 12 0.41524
2 18 100 12 4.79896e-07
3 18 100 12 1.46542e-05
4 18 100 12 1.80834e-05
5 18 100 12 1.54929e-06
6 18 100 12 7.51391e-05
8 18 100 12 0.208287
9 18 100 12 0.19228
10 18 100 12 0.192433
11 18 100 12 0.378172
12 18 100 12 0.0287177
6 19 100 12 7.28684e-05
8 19 100 12 0.000214676
9 19 100 12 3.52424e-06
10 19 100 12 0.33484
11 19 100 12 0.664869
4 20 100 12 2.20264e-05
6 20 100 12 0.000597487
7 20 100 12 1.21217e-06
8 20 100 12 0.175737
9 20 100 12 0.0145927
10 20 100 12 1.08135e-06
11 20 100 12 0.178944
12 20 100 12 0.630104
6 21 100 12 7.8264e-05
7 21 100 12 6.53657e-06
8 21 100 12 0.000232553
10 21 100 12 0.397636
11 21 100 12 0.204052
12 21 100 12 0.397995
2 22 100 12 4.34282e-06
3 22 100 12 3.65555e-06
5 22 100 12 7.41451e-05
6 22 100 12 8.68764e-06
9 22 100 12 0.993086
10 22 100 12 0.00680351
11 22 100 12 1.95028e-05
11 23 100 12 1
10 24 100 12 1.51605e-06
11 24 100 12 0.015176
12 24 100 12 0.984823
3 25 100 12 0.0259709
8 25 100 12 0.974029
3 26 100 12 1
9 27 100 12 0.00368198
10 27 100 12 0.905459
11 27 100 12 0.0908595
11 29 100 12 1
12 30 100 12 1
1 0 100 13 0.00530065
2 0 100 13 0.00645342
3 0 100 13 0.0286238
4 0 100 13 0.000362825
5 0 100 13 0.000533547
6 0 100 13 0.00346985
7 0 100 13 0.00191138
8 0 100 13 0.000741472
9 0 100 13 2.67874e-05
10 0 100 13 0.00299689
11 0 100 13 0.0661568
12 0 100 13 0.000881288
13 0 100 13 0.882541
1 1 100 13 0.600958
2 1 100 13 0.200067
3 1 100 13 0.198975
6 1 100 13 5.02022e-07
1 2 100 13 0.0666861
2 2 100 13 0.200109
3 2 100 13 0.0666827
4 2 100 13 0.266712
5 2 100 13 0.200012
6 2 100 13 0.199799
1 3 100 13 0.111136
2 3 100 13 0.333291
3 3 100 13 0.3333
4 3 100 13 0.222273
2 4 100 13 0.28399
3 4 100 13 0.426801
4 4 100 13 0.142191
5 4 100 13 0.142191
13 4 100 13 0.00482605
2 5 100 13 0.230161
3 5 100 13 0.378527
4 5 100 13 0.390777
6 5 100 13 0.000376986
8 5 100 13 2.39449e-05
9 5 100 13 3.20198e-06
10 5 100 13 0.00012561
12 5 100 13 5.56075e-06
2 6 100 13 0.0896731
3 6 100 13 0.113719
4 6 100 13 0.113719
5 6 100 13 0.454871
6 6 100 13 0.113715
7 6 100 13 0.113719
13 6 100 13 0.000584751
4 7 100 13 0.124994
5 7 100 13 0.250001
6 7 100 13 0.250003
7 7 100 13 0.250002
8 7 100 13 0.125
4 8 100 13 0.328561
6 8 100 13 0.223722
7 8 100 13 0.223726
8 8 100 13 0.223725
11 8 100 13 1.0503e-05
13 8 100 13 0.00025635
5 9 100 13 0.374997
6 9 100 13 0.249998
7 9 100 13 0.249994
9 9 100 13 0.124999
11 9 100 13 1.17365e-05
4 10 100 13 8.50193e-05
5 10 100 13 0.08719
6 10 100 13 0.127509
7 10 100 13 0.174405
8 10 100 13 0.349059
9 10 100 13 0.174379
10 10 100 13 0.0871908
12 10 100 13 0.000181516
6 11 100 13 0.111381
7 11 100 13 0.22197
8 11 100 13 0.11113
9 11 100 13 0.33331
10 11 100 13 0.222208
7 12 100 13 0.124994
8 12 100 13 0.249978
9 12 100 13 0.250013
10 12 100 13 0.250012
11 12 100 13 0.125002
7 13 100 13 0.0994335
9 13 100 13 0.198885
10 13 100 13 0.19878
11 13 100 13 0.206901
12 13 100 13 0.198797
13 13 100 13 0.0972033
6 14 100 13 0.0365162
8 14 100 13 0.136504
9 14 100 13 0.0672146
10 14 100 13 0.272832
11 14 100 13 0.348733
12 14 100 13 0.0696402
13 14 100 13 0.0685605
2 15 100 13 1.76025e-05
4 15 100 13 6.72782e-06
5 15 100 13 0.000924201
6 15 100 13 0.00094829
7 15 100 13 0.108198
8 15 100 13 0.105184
9 15 100 13 0.00275664
10 15 100 13 1.93133e-05
11 15 100 13 0.219664
12 15 100 13 0.53433
13 15 100 13 0.0279511
3 16 100 13 4.96886e-06
4 16 100 13 5.6897e-06
5 16 100 13 5.55047e-06
6 16 100 13 2.49463e-06
8 16 100 13 4.20181e-06
9 16 100 13 0.113354
10 16 100 13 0.000169756
11 16 100 13 0.0951224
12 16 100 13 0.339046
13 16 100 13 0.452284
2 17 100 13 5.61403e-05
3 17 100 13 3.72132e-05
5 17 100 13 3.01392e-06
6 17 100 13 4.53804e-06
7 17 100 13 1.85628e-05
8 17 100 13 4.12441e-06
9 17 100 13 0.496955
10 17 100 13 0.000955312
11 17 100 13 0.00042832
12 17 100 13 0.00212773
13 17 100 13 0.49941
2 18 100 13 3.05571e-06
4 18 100 13 2.95855e-06
6 18 100 13 5.03269e-05
7 18 100 13 1.13005e-06
8 18 100 13 0.000143434
9 18 100 13 2.9184e-05
10 18 100 13 9.71444e-06
11 18 100 13 0.00342831
12 18 100 13 0.00775188
13 18 100 13 0.98858
3 19 100 13 1.7159e-05
4 19 100 13 3.49879e-06
6 19 100 13 9.47177e-06
8 19 100 13 0.000426285
10 19 100 13 0.499602
12 19 100 13 1.03787e-06
13 19 100 13 0.49994
2 20 100 13 9.44965e-05
4 20 100 13 0.000216602
6 20 100 13 0.121489
8 20 100 13 0.176159
9 20 100 13 0.0950828
10 20 100 13 0.327319
11 20 100 13 0.239653
12 20 100 13 0.0399852
3 21 100 13 6.47669e-05
6 21 100 13 9.80083e-07
7 21 100 13 5.81205e-05
8 21 100 13 1.08942e-06
9 21 100 13 0.394103
11 21 100 13 0.203291
12 21 100 13 0.402481
3 22 100 13 7.78217e-05
11 22 100 13 5.32114e-06
12 22 100 13 0.499941
13 22 100 13 0.499976
11 23 100 13 0.000802313
13 23 100 13 0.999198
4 24 100 13 0.0375783
6 24 100 13 0.815564
7 24 100 13 0.0392755
8 24 100 13 0.00386201
9 24 100 13 0.0552851
10 24 100 13 0.0452675
11 24 100 13 0.00243847
12 24 100 13 0.000729173
10 25 100 13 1
4 26 100 13 7.57689e-05
6 26 100 13 0.000125016
8 26 100 13 0.000178413
9 26 100 13 4.83661e-06
10 26 100 13 9.10183e-06
11 26 100 13 0.914515
12 26 100 13 0.0850915
4 28 100 13 0.00272796
6 28 100 13 0.00482685
8 28 100 13 0.00523424
10 28 100 13 0.00181894
12 28 100 13 0.985392
12 29 100 13 8.10432e-05
13 29 100 13 0.999919
4 30 100 13 0.000336403
6 30 100 13 0.00277211
8 30 100 13 0.000560022
12 30 100 13 0.996332
1 0 100 14 0.504094
2 0 100 14 0.0147705
3 0 100 14 0.178567
4 0 100 14 0.00181538
5 0 100 14 0.132681
7 0 100 14 0.0292281
8 0 100 14 0.0650001
9 0 100 14 0.00542944
11 0 100 14 0.028558
12 0 100 14 0.037827
14 0 100 14 0.0020296
1 1 100 14 0.713923
2 1 100 14 0.143202
3 1 100 14 0.142728
5 1 100 14 0.000146869
2 2 100 14 0.501485
4 2 100 14 0.498506
6 2 100 14 8.85326e-06
2 3 100 14 0.499463
3 3 100 14 0.500537
2 4 100 14 0.323919
3 4 100 14 0.0293341
4 4 100 14 0.324093
5 4 100 14 0.322467
14 4 100 14 0.000186593
4 5 100 14 0.333333
5 5 100 14 0.333334
6 5 100 14 0.333334
3 6 100 14 0.312594
5 6 100 14 0.343703
7 6 100 14 0.343703
2 7 100 14 0.00012979
3 7 100 14 0.249968
6 7 100 14 0.499935
8 7 100 14 0.249967
4 8 100 14 0.665862
7 8 100 14 0.00120535
9 8 100 14 0.332933
5 9 100 14 0.200258
7 9 100 14 0.399615
8 9 100 14 0.199869
10 9 100 14 0.200258
5 10 100 14 0.200027
6 10 100 14 0.200027
9 10 100 14 0.200024
10 10 100 14 1.16536e-05
11 10 100 14 0.199858
12 10 100 14 0.200027
13 10 100 14 2.47663e-05
8 11 100 14 0.333332
9 11 100 14 4.69522e-06
10 11 100 14 0.333332
13 11 100 14 0.333332
6 12 100 14 0.415819
7 12 100 14 0.168354
14 12 100 14 0.415827
7 13 100 14 0.442221
8 13 100 14 0.00336221
9 13 100 14 0.277186
11 13 100 14 0.277231
8 14 100 14 0.000162168
10 14 100 14 0.999838
8 15 100 14 0.498456
10 15 100 14 3.56585e-06
11 15 100 14 0.250771
12 15 100 14 0.25077
4 16 100 14 1.84326e-05
7 16 100 14 5.73749e-07
9 16 100 14 0.500496
10 16 100 14 1.37223e-06
12 16 100 14 0.000197574
13 16 100 14 0.499286
2 17 100 14 2.53991e-06
10 17 100 14 0.334011
12 17 100 14 0.33208
13 17 100 14 4.63952e-06
14 17 100 14 0.333902
2 18 100 14 6.92309e-06
3 18 100 14 9.26811e-07
7 18 100 14 7.4538e-06
8 18 100 14 6.80441e-05
9 18 100 14 0.250647
10 18 100 14 0.248568
11 18 100 14 0.250445
13 18 100 14 0.250256
2 19 100 14 8.18402e-06
11 19 100 14 5.30472e-06
12 19 100 14 0.499752
13 19 100 14 4.65424e-05
14 19 100 14 0.500188
4 20 100 14 2.60777e-06
9 20 100 14 2.59815e-06
10 20 100 14 0.00227875
11 20 100 14 0.498784
12 20 100 14 0.000145999
13 20 100 14 0.498786
2 21 100 14 1.63532e-05
14 21 100 14 0.999984
2 22 100 14 0.994028
8 22 100 14 0.00224892
12 22 100 14 0.00372303
12 23 100 14 1
6 24 100 14 0.000127578
13 24 100 14 0.999872
3 25 100 14 0.000244692
7 25 100 14 0.0003335
8 25 100 14 0.000583433
14 25 100 14 0.998838
3 27 100 14 0.00915398
6 27 100 14 2.97598e-05
8 27 100 14 0.00785935
13 27 100 14 6.84417e-06
14 27 100 14 0.98295
2 29 100 14 1
1 0 100 15 0.00093048
4 0 100 15 5.29976e-05
7 0 100 15 0.00460269
10 0 100 15 0.00247034
13 0 100 15 0.991924
14 0 100 15 1.97224e-05
1 1 100 15 1
2 2 100 15 1
3 3 100 15 1
3 4 100 15 0.999978
4 4 100 15 2.22389e-05
4 5 100 15 1
4 6 100 15 0.266666
5 6 100 15 0.733334
5 7 100 15 0.266667
6 7 100 15 0.733333
7 8 100 15 1
6 9 100 15 0.266728
7 9 100 15 0.733272
8 10 100 15 1
7 11 100 15 0.266604
9 11 100 15 0.733396
8 12 100 15 1
10 13 100 15 1
9 14 100 15 0.26667
11 14 100 15 0.733328
14 14 100 15 2.33515e-06
11 15 100 15 1.75687e-05
12 15 100 15 0.846143
14 15 100 15 0.0769173
15 15 100 15 0.0769222
10 16 100 15 0.999939
13 16 100 15 6.13283e-05
4 17 100 15 2.1157e-05
7 17 100 15 1.02844e-05
8 17 100 15 1.07646e-05
10 17 100 15 7.64011e-06
11 17 100 15 0.286558
13 17 100 15 0.713383
14 17 100 15 9.05538e-06
8 18 100 15 8.37578e-05
11 18 100 15 0.000144688
12 18 100 15 2.56118e-05
13 18 100 15 9.62688e-06
14 18 100 15 0.999736
11 19 100 15 7.60246e-07
12 19 100 15 0.28509
14 19 100 15 6.50373e-05
15 19 100 15 0.714844
4 20 100 15 0.0177735
7 20 100 15 0.00436991
10 20 100 15 0.014242
13 20 100 15 0.959065
14 20 100 15 0.00454987
13 21 100 15 1
8 22 100 15 2.6846e-05
11 22 100 15 4.59995e-05
14 22 100 15 0.999927
13 23 100 15 0.701472
14 23 100 15 0.298528
14 24 100 15 0.000175277
15 24 100 15 0.999825
4 25 100 15 0.0498984
10 25 100 15 0.024597
13 25 100 15 0.925505
1 0 100 16 0.0186849
2 0 100 16 0.000896793
4 0 100 16 0.00196203
5 0 100 16 0.00729018
7 0 100 16 0.10432
10 0 100 16 0.0563339
11 0 100 16 0.0800384
13 0 100 16 0.38723
16 0 100 16 0.343243
1 1 100 16 1
2 2 100 16 1
2 3 100 16 0.499951
4 3 100 16 0.500049
3 4 100 16 1
3 5 100 16 0.999929
4 5 100 16 5.33007e-05
5 5 100 16 1.77939e-05
4 6 100 16 0.833349
5 6 100 16 0.166651
4 7 100 16 0.142857
5 7 100 16 0.714286
6 7 100 16 0.142857
5 8 100 16 0.499997
7 8 100 16 0.500003
6 9 100 16 1
6 10 100 16 0.5
8 10 100 16 0.5
7 11 100 16 0.833288
9 11 100 16 0.166712
7 12 100 16 0.142853
8 12 100 16 0.714287
9 12 100 16 2.0303e-06
10 12 100 16 0.142857
8 13 100 16 0.249999
9 13 100 16 0.749997
11 13 100 16 4.44873e-06
9 14 100 16 0.666959
11 14 100 16 0.333041
10 15 100 16 0.799977
12 15 100 16 0.200023
9 16 100 16 0.0953677
10 16 100 16 0.258435
11 16 100 16 0.38772
13 16 100 16 0.129242
16 16 100 16 0.129235
9 17 100 16 0.115663
11 17 100 16 0.883396
12 17 100 16 0.000597168
14 17 100 16 0.000343667
3 18 100 16 7.26217e-06
11 18 100 16 0.19906
12 18 100 16 0.60069
13 18 100 16 9.32894e-06
14 18 100 16 0.200233
15 18 100 16 7.28685e-07
2 19 100 16 5.4832e-07
4 19 100 16 8.27158e-06
9 19 100 16 1.71543e-05
10 19 100 16 1.0455e-05
11 19 100 16 0.000219277
12 19 100 16 0.811396
13 19 100 16 0.000359452
15 19 100 16 0.187989
2 20 100 16 1.03738e-05
3 20 100 16 2.85193e-06
4 20 100 16 3.60927e-05
7 20 100 16 3.69606e-06
10 20 100 16 6.68875e-06
11 20 100 16 0.000657077
13 20 100 16 0.999279
16 20 100 16 4.35271e-06
8 21 100 16 1.81275e-05
11 21 100 16 2.13002e-05
12 21 100 16 0.167001
13 21 100 16 0.331963
14 21 100 16 0.500988
16 21 100 16 8.98988e-06
8 22 100 16 2.35161e-05
9 22 100 16 9.88438e-07
11 22 100 16 2.70737e-05
13 22 100 16 0.333224
14 22 100 16 0.666724
11 23 100 16 4.73524e-07
13 23 100 16 1.83048e-06
14 23 100 16 5.47066e-05
15 23 100 16 0.999943
4 24 100 16 7.61881e-06
9 24 100 16 1.46201e-05
10 24 100 16 2.71856e-06
13 24 100 16 4.41997e-05
14 24 100 16 0.0623909
15 24 100 16 0.937515
16 24 100 16 2.47513e-05
4 25 100 16 1.63515e-06
9 25 100 16 0.00052053
10 25 100 16 2.59291e-06
13 25 100 16 2.7052e-05
14 25 100 16 0.13251
15 25 100 16 6.23153e-06
16 25 100 16 0.866932
4 26 100 16 4.8831e-06
6 26 100 16 1.19377e-06
9 26 100 16 0.00379501
13 26 100 16 1.01575e-05
14 26 100 16 0.142345
16 26 100 16 0.853844
13 27 100 16 1.52019e-05
16 27 100 16 0.999985
2 28 100 16 0.161924
11 28 100 16 0.838076
2 29 100 16 0.312194
3 29 100 16 0.0446754
7 29 100 16 0.293866
11 29 100 16 0.349264
1 0 100 17 0.138841
3 0 100 17 0.31156
11 0 100 17 0.524423
15 0 100 17 0.0251767
1 1 100 17 1
2 2 100 17 0.333373
3 2 100 17 0.333254
4 2 100 17 0.333373
1 3 100 17 1
5 4 100 17 1
6 7 100 17 1
15 8 100 17 1
7 10 100 17 1
8 11 100 17 1
8 12 100 17 1
3 13 100 17 1
8 14 100 17 1
15 15 100 17 1
10 17 100 17 1
8 18 100 17 1
3 19 100 17 0.631411
15 19 100 17 0.368589
8 20 100 17 5.38071e-05
9 20 100 17 0.476653
10 20 100 17 0.0493614
11 20 100 17 0.47381
12 20 100 17 0.000119832
13 20 100 17 2.49834e-06
8 22 100 17 0.000761389
9 22 100 17 2.55803e-05
10 22 100 17 0.000132511
11 22 100 17 0.00166009
12 22 100 17 0.634869
13 22 100 17 0.36255
16 22 100 17 1.39598e-06
3 23 100 17 1.28816e-06
8 23 100 17 0.000126816
13 23 100 17 0.012768
14 23 100 17 0.98588
15 23 100 17 0.00122346
3 24 100 17 0.000133165
14 24 100 17 0.000603879
15 24 100 17 0.999263
3 25 100 17 7.05855e-05
15 25 100 17 0.999929
8 26 100 17 0.00152241
9 26 100 17 2.73799e-05
13 26 100 17 0.00125771
15 26 100 17 1.99647e-06
16 26 100 17 0.99719
17 27 100 17 1
5 0 100 18 0.999952
10 0 100 18 4.79484e-05
1 1 100 18 1
3 2 100 18 1
2 3 100 18 1
3 4 100 18 1
3 6 100 18 1
5 7 100 18 1
4 8 100 18 1
6 9 100 18 1
5 10 100 18 1
11 11 100 18 1
7 12 100 18 1
8 13 100 18 0.988878
9 13 100 18 0.0111224
9 15 100 18 1
5 17 100 18 1
5 18 100 18 4.76272e-05
10 18 100 18 0.999938
11 18 100 18 1.42851e-05
11 19 100 18 1
11 20 100 18 1
3 21 100 18 8.16543e-05
8 21 100 18 3.5034e-05
9 21 100 18 0.000261656
12 21 100 18 0.999622
12 22 100 18 1
3 23 100 18 0.00012283
5 23 100 18 6.67017e-06
7 23 100 18 2.86772e-06
9 23 100 18 0.000230548
12 23 100 18 0.999559
13 23 100 18 7.60558e-05
18 23 100 18 1.53067e-06
5 25 100 18 0.996356
10 25 100 18 0.00273158
11 25 100 18 0.000911938
12 26 100 18 0.000408122
13 26 100 18 0.501043
14 26 100 18 0.498549
2 27 100 18 0.00311197
5 27 100 18 0.977451
10 27 100 18 0.00269755
11 27 100 18 0.0167394
14 28 100 18 0.0037496
15 28 100 18 0.99625
2 29 100 18 0.0030624
5 29 100 18 0.979022
10 29 100 18 0.00211654
11 29 100 18 0.0157994
16 30 100 18 1
7 31 100 18 6.61698e-05
17 31 100 18 0.999934
3 32 100 18 5.88669e-05
8 32 100 18 1.39714e-05
9 32 100 18 0.000137876
12 32 100 18 0.00116055
18 32 100 18 0.998629
3 34 100 18 0.00162724
5 34 100 18 4.06682e-05
7 34 100 18 5.97098e-06
9 34 100 18 0.00274276
12 34 100 18 0.0141587
17 34 100 18 7.05093e-06
18 34 100 18 0.981418
5 36 100 18 0.997983
10 36 100 18 0.00183931
11 36 100 18 0.000177534
7 0 100 19 0.659557
9 0 100 19 0.12301
14 0 100 19 0.217433
1 1 100 19 1
14 2 100 19 1
1 3 100 19 1
2 4 100 19 1
14 5 100 19 1
4 6 100 19 1
3 7 100 19 1
14 8 100 19 1
5 9 100 19 1
5 10 100 19 1
6 11 100 19 1
14 12 100 19 1
7 13 100 19 1
7 14 100 19 1
8 15 100 19 1
10 16 100 19 1
9 17 100 19 1
14 18 100 19 1
8 19 100 19 1
10 20 100 19 1
5 21 100 19 1
11 22 100 19 1
14 23 100 19 1
12 24 100 19 0.999969
13 24 100 19 3.09243e-05
14 25 100 19 1
12 26 100 19 1.51173e-05
13 26 100 19 0.999985
14 27 100 19 1
15 28 100 19 1
3 30 100 19 0.00176257
14 30 100 19 0.984789
15 30 100 19 0.0134482
14 31 100 19 6.00232e-06
15 31 100 19 0.000522016
16 31 100 19 0.387911
17 31 100 19 0.387583
18 31 100 19 0.223978
15 32 100 19 0.990543
16 32 100 19 4.88867e-05
17 32 100 19 0.00088748
18 32 100 19 3.26124e-05
19 32 100 19 0.00848795
18 33 100 19 1
17 34 100 19 2.1962e-06
18 34 100 19 0.0138851
19 34 100 19 0.986113
2 0 100 20 0.000432866
3 0 100 20 0.00113331
5 0 100 20 5.35594e-05
10 0 100 20 0.499793
15 0 100 20 4.36045e-05
18 0 100 20 0.498544
1 1 100 20 0.333725
2 1 100 20 0.333306
3 1 100 20 0.332969
4 2 100 20 0.333343
5 2 100 20 0.33331
6 2 100 20 0.333346
2 3 100 20 1
2 4 100 20 1
10 5 100 20 0.0453167
18 5 100 20 0.954683
7 6 100 20 1
8 7 100 20 1
10 8 100 20 0.122035
18 8 100 20 0.877965
9 9 100 20 1
8 10 100 20 1
2 11 100 20 1
10 12 100 20 1
11 13 100 20 1
8 14 100 20 1
12 15 100 20 1
2 16 100 20 1
10 17 100 20 0.0324852
18 17 100 20 0.967515
13 18 100 20 1
8 19 100 20 1
14 20 100 20 1
15 21 100 20 1
5 22 100 20 5.45836e-05
10 22 100 20 0.00124605
15 22 100 20 0.996901
18 22 100 20 0.00179817
5 23 100 20 0.00257063
10 23 100 20 0.0936258
15 23 100 20 0.389495
18 23 100 20 0.514308
7 24 100 20 0.00183924
8 24 100 20 2.14542e-06
11 24 100 20 5.0427e-06
13 24 100 20 7.85287e-06
16 24 100 20 0.998146
8 25 100 20 1
5 26 100 20 1.22241e-06
10 26 100 20 7.1542e-06
15 26 100 20 1.03801e-06
17 26 100 20 0.332333
18 26 100 20 0.00299094
19 26 100 20 0.332333
20 26 100 20 0.332333
2 27 100 20 0.99951
10 27 100 20 0.000245065
18 27 100 20 0.000245065
2 28 100 20 0.0132644
5 28 100 20 0.000522838
10 28 100 20 0.00354685
15 28 100 20 0.000670392
18 28 100 20 0.981995
