0 5 0.033482
0 6 6.51863e-06
0 9 0.0768969
0 11 0.00145091
0 13 0.00813329
0 15 0.00764496
0 16 0.0319025
0 17 1.75397e-06
0 18 5.81227e-05
0 19 4.19272e-07
0 21 1.79877e-06
0 26 7.71221e-05
0 30 2.97662e-05
0 39 0.289781
0 40 2.70795e-05
0 43 0.00110247
0 44 0.00666902
0 49 0.0771938
0 50 0.0130607
0 52 0.0197967
0 54 1.67932e-07
0 56 0.0170981
0 59 6.24005e-06
0 60 0.0182923
0 63 0.00851234
0 65 4.85251e-05
0 71 1.73207e-05
0 76 0.126157
0 80 0.00309035
0 86 1.4063e-06
0 88 2.35092e-05
0 94 5.49685e-07
0 104 0.0207918
0 107 1.59401e-05
0 112 1.16654e-07
0 114 1.94279e-05
0 123 3.21056e-07
0 132 0.0100206
0 153 4.66203e-06
0 172 3.33726e-07
0 173 4.57942e-05
0 175 5.90413e-07
0 176 1.07426e-07
0 179 3.68005e-06
0 184 0.000140922
0 189 0.00541077
0 192 2.68843e-05
0 193 1.36082e-05
0 203 7.36582e-06
0 210 8.01149e-07
0 213 9.57609e-05
0 214 1.66306e-07
0 218 0.000643399
0 220 6.35236e-05
0 222 3.09008e-05
0 229 1.97702e-07
0 234 0.000130211
0 236 2.83503e-05
0 242 3.65808e-06
0 250 1.47833e-05
0 251 0.0358121
0 252 1.14808e-06
0 265 1.26956e-06
0 266 0.00779055
0 267 2.82366e-07
0 279 1.21435e-06
0 288 0.0395641
0 289 0.0264264
0 293 0.041987
0 294 3.03214e-06
0 295 0.000374056
0 306 0.0175745
0 308 0.000645761
0 309 0.000235622
0 320 5.87323e-07
0 326 7.00022e-07
0 332 6.16639e-07
0 333 4.64764e-06
0 337 7.73404e-06
0 338 0.000389348
0 339 0.00400104
0 340 0.00421417
0 341 3.15935e-06
0 354 0.00206269
0 356 1.10796e-05
0 357 0.0155391
0 371 2.43462e-05
0 378 9.7036e-05
0 382 2.10888e-06
0 386 3.90299e-05
0 388 2.75543e-05
0 396 0.00164888
0 410 2.58115e-05
0 414 0.000147884
0 421 9.76124e-06
0 441 0.000203276
0 442 1.20277e-05
0 443 1.18259e-06
0 461 2.29133e-07
0 475 1.70659e-05
0 488 0.000538586
0 510 7.83112e-07
0 535 0.00077913
0 569 6.30192e-05
0 588 4.33199e-05
0 616 8.28104e-07
0 620 9.10982e-05
0 621 2.12642e-05
0 632 0.00015874
0 636 1.49712e-07
0 675 3.6246e-06
0 691 5.38194e-07
0 715 4.3938e-06
0 741 8.00139e-06
0 748 5.05706e-06
0 811 1.94729e-07
0 819 5.21227e-06
0 820 3.05111e-07
0 821 9.82791e-05
0 865 1.39745e-07
0 866 1.70977e-07
0 908 2.4657e-06
0 917 8.90857e-07
0 924 2.0482e-07
0 970 2.54358e-06
0 984 1.75967e-07
0 990 4.98716e-06
0 1107 8.86982e-05
0 1108 0.00246663
0 1116 1.78708e-07
0 1134 1.01802e-07
0 1173 9.9632e-05
0 1211 6.96826e-07
0 1215 0.00271809
0 1226 0.00223182
0 1251 3.69357e-07
0 1308 2.77353e-06
0 1309 6.30561e-05
0 1321 4.64752e-07
0 1327 0.00277815
0 1349 1.14063e-07
0 1351 1.38782e-07
0 1356 6.59672e-07
0 1369 4.69163e-07
0 1378 9.63321e-07
0 1387 2.33165e-06
0 1407 1.36835e-06
0 1421 6.23215e-06
0 1442 2.43112e-06
0 1494 1.00539e-06
0 1527 7.77662e-07
0 1567 3.67358e-07
0 1982 4.21885e-05
0 2257 1.90319e-06
0 2627 4.65165e-07
0 2674 5.53526e-05
0 2839 1.05866e-07
0 2847 8.41148e-06
0 2858 1.61566e-07
0 2892 2.14513e-05
0 2907 1.879e-07
0 2915 1.15642e-06
0 3016 6.21672e-06
0 3017 3.43397e-07
0 3029 1.53412e-05
0 3033 0.00385602
0 3041 1.57798e-05
0 3088 2.01624e-06
0 3130 0.00163688
0 3131 3.91708e-07
0 3138 4.50301e-06
0 3139 1.72976e-07
0 3178 1.036e-07
0 3181 6.13134e-07
0 3203 1.20982e-06
0 3204 3.7186e-06
0 3205 9.41994e-05
0 3225 1.34951e-05
0 3250 2.1253e-07
0 3290 1.79169e-07
0 3292 1.92939e-06
0 3293 1.83576e-06
0 3382 7.36014e-05
0 3388 1.94152e-06
0 3396 8.76085e-06
0 3399 1.53412e-05
0 3415 0.00272873
0 3477 1.27525e-06
0 3503 1.67104e-07
0 3599 3.15565e-06
0 3603 1.19823e-07
0 3621 7.2221e-07
0 3629 0.00201256
0 3637 1.8828e-05
0 3642 1.57361e-06
0 3643 5.17886e-05
2 2 1
3 3 0.820772
3 4 0.013688
3 6 0.013688
3 7 0.013688
3 8 0.013688
3 215 0.109503
3 1323 0.000420073
3 1337 0.0136879
3 1415 0.0008654
4 11 0.232214
4 24 0.129079
4 63 0.0312343
4 66 0.0266955
4 76 0.17798
4 88 0.13693
4 136 0.129079
4 277 1.47485e-05
4 378 0.136773
5 5 6.09865e-07
5 6 6.52566e-05
5 9 0.850394
5 11 0.0012761
5 13 0.00171893
5 15 0.000274912
5 22 0.00123404
5 25 0.00231629
5 30 0.000769678
5 39 0.00178809
5 44 1.34469e-05
5 45 0.000754194
5 49 3.03406e-06
5 50 0.000131993
5 55 0.0442378
5 56 7.0495e-06
5 60 0.00211465
5 63 0.00324245
5 80 0.00156553
5 88 0.00682625
5 94 0.000757752
5 104 1.33727e-06
5 114 0.00296091
5 138 0.000755752
5 184 0.00224686
5 189 0.000552912
5 192 0.00078379
5 215 5.36543e-05
5 218 0.000742511
5 242 0.00378322
5 244 1.93241e-05
5 245 0.000755754
5 277 0.000755669
5 288 8.58091e-07
5 309 0.000751237
5 354 0.000452513
5 378 0.000760082
5 435 0.000757292
5 475 0.000753746
5 489 0.000755755
5 491 0.00151165
5 492 0.000755755
5 524 0.000743199
5 525 0.000755749
5 530 0.000477012
5 547 0.000755586
5 592 1.32315e-06
5 620 0.00377545
5 632 0.00224579
5 675 0.000754966
5 733 3.10975e-06
5 749 0.000755755
5 776 0.000755749
5 791 4.33837e-05
5 824 3.08587e-07
5 832 0.000755755
5 922 3.20697e-07
5 924 0.00151151
5 932 0.00075574
5 990 0.00151012
5 1109 1.36229e-07
5 1110 0.000755755
5 1198 0.000755767
5 1201 0.000755755
5 1202 0.000755755
5 1206 0.000755755
5 1215 0.0013653
5 1217 0.00299898
5 1223 0.000755754
5 1226 0.000755748
5 1269 0.000755752
5 1275 0.000752684
5 1291 0.000755755
5 1323 0.000732839
5 1328 0.000755756
5 1338 0.000779307
5 1415 0.000707974
5 1423 2.75735e-06
5 1436 0.000755754
5 1472 0.000755152
5 1473 0.000755754
5 1474 0.000736763
5 1513 0.000755756
5 1515 0.000136336
5 1520 0.000755752
5 1602 0.000755705
5 1730 0.00151151
5 1983 0.000755752
5 2004 0.000747652
5 2021 0.000755752
5 2038 0.000755755
5 2162 0.000755794
5 2180 0.000755755
5 2215 0.000755746
5 2306 0.000755755
5 2618 1.10938e-05
5 2658 0.00301048
5 2659 0.00302301
5 2667 0.000784595
5 2738 0.00151151
5 2807 0.00226726
5 2817 0.000453281
5 2820 0.000755626
5 2846 0.000755752
5 2892 3.47805e-05
5 2961 1.00097e-07
5 2970 0.000755253
5 3070 0.000755749
5 3243 0.000755755
5 3511 0.000755755
5 3596 1.13742e-07
5 3667 2.09164e-07
5 3673 0.000755752
5 3692 0.000755754
6 9 0.311163
6 39 0.0138678
6 44 0.318526
6 45 0.000233605
6 49 0.117042
6 56 5.13436e-06
6 63 0.00330192
6 524 0.00188237
6 680 0.113329
6 932 1.83601e-06
6 1275 0.000460047
6 1338 0.00198291
6 1405 0.113387
6 1472 8.99251e-05
6 1474 0.00284745
6 2658 0.00187971
7 9 1
8 10 0.848504
8 569 2.74242e-06
8 1441 0.151493
9 10 1
10 9 0.669842
10 39 0.0229106
10 76 2.06504e-05
10 733 0.204676
10 3708 0.102551
11 5 4.93734e-07
11 11 0.0389685
11 13 0.00659219
11 88 4.88322e-05
11 192 0.00808227
11 395 0.946308
12 12 0.743094
12 531 0.000618428
12 533 0.00131405
12 1327 0.239984
12 3464 0.0149896
13 14 0.0125515
13 39 3.07321e-07
13 49 0.00192295
13 52 0.96996
13 56 0.00206966
13 754 0.0134884
13 1134 6.6833e-06
14 13 0.981931
14 310 0.00781853
14 1318 0.01025
15 9 0.00249116
15 11 0.0274494
15 25 2.53755e-07
15 88 0.963047
15 215 0.00465432
15 3244 6.70202e-07
15 3667 0.00235719
16 13 0.996877
16 170 0.00105177
16 410 0.00105092
16 3074 0.00102006
17 39 0.610138
17 49 0.21653
17 56 0.132101
17 855 0.0412312
18 13 0.820999
18 15 0.000826174
18 228 3.46771e-05
18 337 0.00937179
18 338 0.168732
18 2892 3.64964e-05
19 15 0.642471
19 337 0.238212
19 356 0.119311
19 468 6.11121e-06
20 15 1
21 16 0.911765
21 1357 0.0588325
21 1377 0.0294027
22 173 6.79021e-05
22 326 0.554017
22 978 0.445877
22 1378 3.77123e-05
23 17 0.0185111
23 41 0.758956
23 193 0.185111
23 1261 0.000399803
23 1353 0.0185111
23 1358 0.0185111
24 244 0.065241
24 288 7.49639e-05
24 338 0.264792
24 356 0.137083
24 357 0.133736
24 358 0.201519
24 388 0.0670267
24 1993 0.06679
24 2892 0.0637376
25 25 0.121692
25 88 2.34279e-05
25 523 1.05915e-05
25 531 0.408092
25 532 1.767e-06
25 788 0.469666
25 1171 0.00051397
26 18 0.966667
26 1425 0.0333333
27 13 0.00262062
27 19 0.0316857
27 208 0.77366
27 358 0.142552
27 1065 5.56775e-07
27 1316 0.0290452
27 1435 0.00247407
27 1522 0.0105619
27 1534 0.00264048
27 2731 0.00263419
27 3606 0.00212581
28 4 0.00899371
28 9 0.892626
28 42 0.00908444
28 123 0.0179877
28 338 4.80414e-06
28 592 0.00897831
28 632 1.47535e-07
28 635 0.00899713
28 819 0.00833747
28 990 1.64267e-05
28 1268 0.00899383
28 1860 0.00899384
28 1993 6.68693e-06
28 3202 0.00899384
28 3260 0.00899378
28 3596 0.00899244
29 20 0.875
29 32 0.075
29 1251 0.025
29 1385 0.025
30 21 0.833336
30 29 0.166664
31 22 1
32 23 0.99894
32 56 0.000134235
32 126 0.00092614
33 23 1
34 24 1
35 25 0.974607
35 219 0.000106027
35 424 0.00917148
35 806 1.3551e-06
35 1241 0.0080568
35 1269 0.00805692
36 26 0.838711
36 528 0.0161274
36 1493 0.129033
36 2599 0.016129
37 27 1
38 28 0.120357
38 276 0.294224
38 394 0.0133738
38 705 0.0133738
38 780 0.0936167
38 919 0.0133738
38 962 0.387841
38 2184 0.0133729
38 2758 0.0401215
38 3578 0.0103461
39 31 0.5
39 127 0.411765
39 2088 0.0294118
39 2228 0.0588235
40 30 1
41 33 0.6
41 2227 0.3
41 3530 0.1
42 5 0.98834
42 1242 0.00389139
42 1422 0.00389142
42 1423 0.00387722
43 34 1
44 35 0.500003
44 36 0.499997
45 37 0.0332464
45 71 0.304326
45 157 0.428198
45 1247 7.42133e-06
45 1476 0.116301
45 1878 0.0016202
45 3462 0.116301
46 37 0.392128
46 1247 0.180334
46 1878 0.179084
46 2835 0.068605
46 2836 0.0901698
46 3105 0.000231038
46 3594 0.0894481
47 39 0.0157715
47 40 0.245733
47 49 0.112766
47 144 0.111911
47 230 0.342285
47 471 0.0571194
47 1211 0.000177846
47 2075 0.0285597
47 2306 0.0856776
48 38 0.0220627
48 76 0.000394373
48 283 0.0220628
48 2350 0.95548
49 39 0.523135
49 40 2.96274e-05
49 42 0.00535533
49 49 0.365582
49 56 0.00331275
49 67 0.0617061
49 170 0.0408729
49 374 5.69511e-06
50 39 0.988327
50 49 0.00413248
50 54 0.000480613
50 66 0.00385035
50 180 0.000115083
50 569 0.00192237
50 922 0.000480418
50 1441 0.00069121
51 42 0.999931
51 995 6.8888e-05
52 43 0.967135
52 1257 0.0108839
52 3375 0.0219806
53 44 0.985545
53 59 0.014455
54 45 1
55 9 0.00191171
55 46 0.998088
56 39 0.963807
56 56 0.00231501
56 66 0.0338776
57 47 1
58 48 1
59 39 0.00367935
59 40 0.000580901
59 49 0.978483
59 50 0.000939137
59 56 2.03408e-05
59 67 0.0132446
59 374 0.00283841
59 1318 0.000213843
60 45 1
61 50 0.977453
61 139 0.00207847
61 410 0.00383741
61 779 0.0166281
61 1667 3.45878e-06
62 51 1
63 3 0.333862
63 53 0.666138
64 39 0.0050278
64 54 0.958125
64 411 0.0122824
64 753 0.0204728
64 3506 0.00409159
65 9 0.0972041
65 39 0.0300712
65 50 4.03278e-06
65 52 0.00307885
65 55 0.831623
65 80 1.01424e-07
65 530 0.00760379
65 775 0.0304148
66 9 2.92765e-07
66 39 0.98715
66 49 0.00177028
66 66 0.010732
66 569 0.000346389
66 2639 1.27442e-06
67 39 2.60855e-06
67 56 0.987096
67 233 0.0115145
67 366 0.000327483
67 2296 0.00105881
67 2563 1.12096e-07
68 57 0.893186
68 91 0.00708878
68 132 0.0233144
68 772 0.0211924
68 2640 0.0552184
69 58 0.949153
69 2543 0.0508474
70 59 0.948102
70 80 5.13749e-07
70 1061 0.0518974
71 60 0.933251
71 168 0.0331363
71 215 0.0327308
71 509 0.000881664
72 61 0.343761
72 68 0.432949
72 71 0.18382
72 132 0.0247209
72 576 0.0147326
72 2639 1.13561e-05
72 2640 4.844e-07
72 3383 4.35635e-06
73 62 0.666667
73 1394 0.0833333
73 1905 0.166667
73 2782 0.0833333
74 63 0.958296
74 123 0.0208569
74 2970 1.38252e-05
74 3110 0.0208332
75 64 0.617921
75 1118 0.0882743
75 1224 0.234955
75 2542 0.0588496
76 39 1.84985e-05
76 66 0.545619
76 271 0.236116
76 569 0.218246
77 65 1
78 65 0.0870966
78 67 0.473248
78 239 0.0774617
78 642 0.17209
78 878 0.0610366
78 1164 0.129068
79 68 0.114557
79 177 0.536666
79 499 0.32242
79 618 0.0105561
79 2197 0.00518881
79 2562 0.00530704
79 3383 0.0053062
80 58 0.00561217
80 59 0.00560285
80 69 0.954126
80 107 0.00561214
80 412 0.0168365
80 758 0.0122099
81 70 0.249954
81 1327 0.249934
81 2598 0.499907
81 2900 0.000204893
82 88 0.927229
82 392 0.0727669
82 1963 4.21036e-06
83 13 0.517795
83 289 0.0499941
83 1082 1.18936e-05
83 1230 0.326565
83 1231 3.0274e-05
83 1683 0.105603
84 44 0.499877
84 592 0.500123
85 72 1
86 73 0.666667
86 1519 0.333333
87 74 0.96
87 3261 0.04
88 39 0.962694
88 58 0.0186528
88 68 0.0186528
89 76 0.999998
89 2562 1.54995e-06
90 60 0.441373
90 75 0.558627
91 9 0.00312137
91 77 0.993389
91 854 0.00312387
91 3381 0.000365587
92 78 0.305902
92 168 0.0764755
92 225 0.0509835
92 371 0.07625
92 556 0.0181689
92 854 0.366595
92 855 0.0823646
92 2276 0.00100093
92 2309 0.022259
93 79 1
94 50 0.0284784
94 60 0.000405487
94 76 0.970588
94 140 0.000528417
95 50 0.000317981
95 76 0.999682
96 80 0.917811
96 201 0.0809355
96 378 0.00125366
97 81 0.5
97 82 0.5
97 1526 8.53534e-07
98 39 0.498938
98 49 0.501062
99 60 1
100 39 0.503282
100 50 0.456962
100 69 0.00993435
100 410 0.0298216
101 83 1
102 49 0.500102
102 69 0.499898
103 85 1
104 84 0.976744
104 730 0.0232558
105 86 0.882353
105 1300 0.117647
106 87 1
107 87 0.00395155
107 88 0.996048
108 88 0.96804
108 406 0.000113028
108 787 0.0318468
109 89 1
110 90 1
111 59 0.799789
111 133 0.0450041
111 1061 0.042755
111 2020 0.0431647
111 2640 0.0261223
111 3078 0.0215823
111 3577 0.0215823
112 49 1
113 42 0.00869585
113 91 0.939152
113 2639 0.0521527
114 92 0.333333
114 1708 0.333333
114 2943 0.333333
115 93 1
116 95 1
117 76 0.0529738
117 94 0.472329
117 113 0.38899
117 671 0.011525
117 757 0.0230501
117 787 0.0165223
117 788 0.0115251
117 1120 0.0230501
117 2341 3.43576e-05
118 49 0.499938
118 50 0.500062
119 96 1
120 97 1
121 98 0.927273
121 852 0.0727273
122 13 0.000193423
122 99 5.83171e-05
122 100 1.02137e-05
122 104 0.987959
122 192 3.16598e-06
122 688 1.19696e-07
122 1526 0.011769
122 1846 5.78216e-06
122 2939 5.79788e-07
123 99 0.498759
123 100 0.501241
124 7 0.9375
124 2019 0.0625
125 101 1
126 102 1
127 103 0.801861
127 2942 0.198139
128 105 1
129 106 0.75
129 1664 0.25
130 39 0.458
130 44 0.0391628
130 49 0.0444451
130 107 0.445295
130 372 0.0130969
131 108 1
132 65 0.499999
132 109 0.250001
132 508 0.166666
132 2390 0.0833337
133 100 0.000143843
133 110 0.666605
133 297 0.333251
134 100 0.499675
134 111 0.500325
135 112 1
136 44 0.0382267
136 49 0.497079
136 56 0.00476068
136 107 0.459934
137 5 1.35322e-05
137 29 0.333354
137 60 0.170618
137 919 0.166677
137 3055 0.329337
138 113 0.500002
138 114 0.499998
139 115 1
140 116 1
141 84 1
142 117 0.500003
142 118 0.499997
143 119 1
144 39 0.530487
144 52 0.454357
144 69 0.00522554
144 754 0.00992182
144 1490 9.21659e-06
145 4 0.999452
145 472 0.00054779
146 367 0.996759
146 378 0.00324119
147 120 0.4
147 238 0.6
148 121 1
149 123 1
150 122 1
151 124 1
152 125 1
153 126 1
154 120 1
155 128 0.5
155 129 0.5
156 130 1
157 13 0.657677
157 88 0.276342
157 1977 0.0190014
157 3518 0.0469797
158 131 1
159 39 5.88471e-05
159 59 0.0672426
159 132 0.490477
159 133 0.442222
160 4 1
161 134 0.5
161 913 0.409091
161 1580 0.0909091
162 135 0.0947187
162 227 0.80013
162 636 0.0603872
162 1224 0.000227121
162 1226 0.0146627
162 2081 0.0147773
162 3579 0.0150968
163 136 1
164 137 1
165 68 0.292033
165 499 0.032484
165 816 0.0337422
165 851 0.203985
165 996 0.0032019
165 997 0.0255769
165 1068 0.00841567
165 2081 0.0331968
165 3096 0.025888
165 3162 0.000358809
165 3531 0.341117
166 138 0.123947
166 140 0.856886
166 1211 0.0120392
166 2568 0.00712816
167 5 0.408738
167 39 0.0141871
167 50 7.29479e-05
167 139 0.0528375
167 144 0.004307
167 499 0.255704
167 2687 0.105675
167 2688 0.158479
168 230 1
169 141 0.945946
169 323 0.0540541
170 142 1
171 143 0.947374
171 1439 0.0526261
172 145 1
173 39 0.42164
173 44 0.221379
173 146 0.350825
173 995 8.31834e-07
173 1542 0.00615482
174 44 1
175 9 1
176 132 0.499378
176 147 0.500077
176 770 0.000545107
177 50 0.543953
177 52 0.424756
177 754 0.000932555
177 1132 0.0303578
178 148 1
179 148 1
180 149 1
181 150 0.33077
181 151 0.339493
181 375 0.329737
182 150 1
183 68 0.797092
183 499 0.202908
184 152 0.933333
184 3497 0.0666667
185 75 0.8
185 659 0.1
185 3562 0.1
186 39 0.443456
186 44 0.108589
186 49 0.100063
186 146 0.347892
187 11 1
187 194 1.18035e-07
188 153 0.343838
188 154 0.0384778
188 369 0.424658
188 519 0.115816
188 1382 0.0386053
188 3022 0.0386049
189 154 0.210498
189 283 0.0526341
189 669 0.105268
189 857 0.421073
189 1083 0.157902
189 1109 0.0526246
190 155 1
191 46 0.5
191 2614 0.5
192 156 0.5
192 2615 0.5
193 44 0.200067
193 49 0.29994
193 56 0.199863
193 146 0.300131
194 39 0.499589
194 69 0.464667
194 1136 0.0357436
195 5 0.467129
195 9 0.0233299
195 13 0.00011517
195 180 0.0839199
195 366 0.125315
195 372 9.33532e-07
195 374 0.300123
195 754 5.91618e-05
195 779 7.56088e-06
196 157 0.00034612
196 158 0.999654
197 138 0.27204
197 140 0.16926
197 625 0.5587
198 159 0.7
198 1974 0.1
198 3069 0.2
199 39 0.507944
199 56 0.44086
199 144 0.0118332
199 233 0.0391965
199 366 0.000166506
200 129 0.825619
200 1198 0.00925705
200 3710 0.165124
201 81 1
202 160 1
203 161 1
204 162 0.916667
204 504 0.0833333
205 163 1
206 164 0.807795
206 293 0.176818
206 673 0.0115399
206 1832 0.00384664
207 165 0.978261
207 3279 0.0217391
208 166 1
209 77 0.976098
209 3381 0.0239023
210 167 0.159781
210 219 0.386836
210 392 0.453306
210 3037 7.75863e-05
211 168 1
212 3 0.850976
212 13 0.0818294
212 215 0.000844953
212 371 0.000194983
212 509 0.0440584
212 2309 1.37112e-05
212 3102 0.0220824
213 169 1
214 37 0.975112
214 1878 0.0248877
215 170 1
216 171 1
217 172 1
218 13 0.0129979
218 173 0.971815
218 286 0.0151871
219 41 0.973684
219 1353 0.0131579
219 1527 0.0131579
220 173 1
221 49 0.599387
221 69 0.30046
221 763 0.100153
222 100 0.00438567
222 174 0.587719
222 176 0.403509
222 2059 0.00438597
223 53 0.199934
223 175 0.760093
223 204 0.039973
224 9 2.41924e-05
224 11 0.792941
224 39 0.0478049
224 53 0.000324588
224 60 0.158787
224 180 5.21996e-06
224 204 0.000113172
225 5 0.413967
225 87 0.00418866
225 177 0.150585
225 184 0.431259
226 39 0.0173479
226 49 0.48806
226 50 0.494592
227 5 0.513027
227 179 0.162187
227 180 0.263211
227 213 0.0615744
228 39 0.490044
228 54 0.460925
228 55 0.00980692
228 56 0.0098028
228 411 0.0294207
229 39 0.00253785
229 49 0.0965388
229 50 0.390647
229 56 0.314949
229 69 0.0977257
229 213 0.0976018
230 39 0.498201
230 56 0.501799
231 39 0.501029
231 50 0.498971
232 56 1
233 39 0.249889
233 50 0.250019
233 52 0.500091
234 178 1
235 154 0.846154
235 691 0.153846
236 49 2.98213e-06
236 179 0.969563
236 332 1.73534e-07
236 406 0.0138681
236 1576 0.000589557
236 2134 0.0136086
236 2197 0.00236761
237 5 0.000430096
237 179 0.0225785
237 180 0.966578
237 184 0.0102746
237 754 1.00767e-06
237 779 0.000133463
237 1259 4.4395e-06
238 181 1
239 182 1
240 182 0.000142413
240 183 0.429233
240 592 0.570625
241 5 0.266765
241 183 0.733235
242 66 0.0548802
242 467 0.531633
242 773 0.118141
242 1165 0.177205
242 1409 0.0590703
242 1871 0.0590703
243 185 0.600048
243 192 0.199936
243 2335 0.200016
244 49 0.332883
244 50 0.333548
244 107 0.333569
245 56 0.697658
245 366 0.302342
246 39 0.326897
246 49 0.336415
246 69 0.336688
247 49 0.666035
247 52 0.333965
248 49 0.331247
248 50 0.334427
248 52 0.334326
249 39 0.665594
249 56 0.334406
250 39 0.114163
250 52 0.442455
250 56 0.443382
251 39 0.568713
251 52 0.431287
252 39 0.284859
252 54 0.429616
252 56 0.285525
253 39 0.325213
253 54 0.337418
253 56 0.337369
254 52 0.0838426
254 54 0.0838661
254 56 0.586986
254 140 0.0773138
254 184 0.0841255
254 1666 0.0838662
255 186 0.249999
255 187 0.500003
255 194 0.249998
256 39 0.500494
256 52 0.249584
256 56 0.249922
257 52 0.500068
257 56 0.499932
258 39 0.362305
258 54 0.0911166
258 56 0.545628
258 772 0.000950378
259 9 1.51682e-07
259 40 0.0174421
259 49 0.846462
259 67 0.0159237
259 374 0.120172
260 39 0.499766
260 52 0.500234
261 50 1
262 188 0.0602701
262 189 0.240879
262 556 0.120538
262 855 0.397503
262 3542 0.060267
262 3619 0.120543
263 49 0.888892
263 50 0.0550241
263 67 0.0560838
264 190 0.5
264 191 0.5
265 54 0.333258
265 56 0.666742
266 54 0.500051
266 56 0.499949
267 192 0.878849
267 626 0.0411739
267 1261 0.0402784
267 1977 0.039698
267 2339 5.69336e-07
268 194 0.942964
268 202 0.0333149
268 1301 0.00594531
268 2301 0.0118303
268 2783 0.00594533
269 195 1
270 39 0.500094
270 49 0.248921
270 52 0.250985
271 49 0.856811
271 196 0.14319
272 39 0.581384
272 49 0.418616
273 39 0.247799
273 49 0.250518
273 52 0.501683
274 39 0.662545
274 69 0.337455
275 39 0.46463
275 69 0.46581
275 2197 0.0695602
276 39 0.34314
276 52 0.310219
276 56 0.346641
277 14 0.0498612
277 52 0.94704
277 55 0.00309854
278 197 1
279 50 0.967822
279 410 0.0321776
280 56 0.351321
280 69 0.527431
280 233 0.121248
281 198 1
282 199 1
283 50 1
284 200 0.5
284 2003 0.5
285 202 0.333333
285 203 0.333333
285 204 0.333333
286 205 0.985507
286 1909 0.0144932
287 76 0.0833327
287 206 0.833334
287 992 0.0833334
288 11 0.00306038
288 72 0.00906723
288 140 0.987872
288 205 1.60881e-07
289 140 0.892478
289 1211 0.107522
290 207 0.8
290 2594 0.2
291 9 0.0117934
291 209 0.988207
292 210 0.999951
292 1281 4.85112e-05
293 211 0.454545
293 1484 0.181818
293 1570 0.272727
293 2750 0.0909091
294 212 0.25
294 1615 0.5
294 2299 0.25
295 213 0.982813
295 366 4.48446e-06
295 476 0.012186
295 866 9.65627e-06
295 870 8.53657e-05
295 1576 0.00312281
295 1581 1.72807e-06
295 2134 0.000619141
295 2688 1.47214e-05
295 3544 0.00114331
296 5 4.40431e-07
296 44 0.000833213
296 179 0.378862
296 180 6.33424e-06
296 192 0.00803038
296 850 0.000476164
296 1300 0.0258429
296 1490 6.94256e-05
296 1666 0.193154
296 1667 0.260911
296 2092 0.105
296 2224 0.026814
297 214 1
298 230 6.99732e-06
298 382 0.333331
298 789 0.333331
298 1453 0.333331
299 215 0.333367
299 216 0.333372
299 217 0.333261
300 100 2.64103e-06
300 203 0.0384751
300 217 1.27876e-05
300 218 0.307424
300 1886 0.654086
301 219 0.666105
301 392 0.333895
302 220 0.671799
302 516 0.0799765
302 523 0.0728165
302 532 0.0154555
302 900 0.127962
302 984 0.0159948
302 3689 0.0159953
303 221 1
304 222 1
305 13 2.3438e-05
305 908 0.930219
305 3112 0.069758
306 223 1
307 224 1
308 62 0.103387
308 78 0.244521
308 225 0.585861
308 556 0.0317686
308 598 0.0344624
309 219 0.862084
309 225 0.10345
309 1405 0.0344657
310 226 1
311 9 0.00404429
311 104 0.904319
311 338 0.0873001
311 1281 0.00131703
311 1317 0.00150432
311 1459 0.00134298
311 1526 0.000172136
312 3 0.0122189
312 4 0.00117107
312 5 0.0268213
312 7 0.00200757
312 9 0.0236575
312 10 0.0538698
312 11 0.0127048
312 12 0.00200757
312 13 0.0759594
312 14 0.00150567
312 15 0.0121916
312 16 0.00141801
312 17 0.000669084
312 18 0.00133487
312 19 0.00100376
312 20 0.000669189
312 21 0.00167287
312 22 0.00719379
312 24 0.000669189
312 25 0.0249273
312 26 0.0025048
312 27 0.000167297
312 29 0.000334595
312 30 0.00100257
312 31 0.00485162
312 32 0.00736109
312 33 0.00217487
312 34 0.000334593
312 37 0.00117108
312 38 0.000167297
312 39 0.0156242
312 40 0.00100292
312 41 0.0063573
312 43 0.000102075
312 44 0.00116006
312 45 0.000167297
312 47 0.000167297
312 49 0.00122541
312 50 0.00155457
312 52 5.62175e-05
312 53 0.000167297
312 54 0.00016729
312 56 0.00242559
312 59 0.000167203
312 60 0.00819017
312 61 0.000167295
312 62 0.00133838
312 63 0.00694621
312 64 0.00184027
312 65 0.00200521
312 66 0.00301135
312 67 0.00351324
312 69 0.000167296
312 71 0.000835496
312 72 0.00769568
312 73 0.00100378
312 74 0.000167297
312 76 0.00220237
312 77 0.000669189
312 78 0.000334594
312 80 0.00132188
312 81 0.000167296
312 86 0.000836402
312 88 0.00367972
312 94 0.00117105
312 97 0.000334595
312 101 0.000167297
312 102 0.000167297
312 104 0.0136378
312 107 0.000501218
312 111 0.000167297
312 112 0.00016729
312 113 0.000167297
312 114 0.000166872
312 119 0.000669189
312 122 0.000669188
312 123 0.000167281
312 128 0.000167294
312 132 1.90782e-05
312 134 0.000167297
312 135 0.00184027
312 136 0.000334589
312 137 0.000167294
312 139 0.000334592
312 140 0.0122127
312 141 0.000836486
312 143 0.000501889
312 144 0.000334593
312 146 0.000334594
312 150 0.000334594
312 152 0.00100378
312 153 0.000167016
312 154 0.000501888
312 159 0.000167297
312 160 0.000501892
312 162 0.000669189
312 163 0.000167294
312 164 0.000334593
312 165 0.00217486
312 168 0.00100378
312 170 0.0276041
312 171 0.000167297
312 172 0.00117106
312 173 0.00568536
312 175 0.000501856
312 176 0.000167291
312 179 0.000167105
312 180 0.000334592
312 183 0.000167294
312 184 0.00735861
312 189 0.00172652
312 192 0.00635641
312 193 0.000835664
312 194 0.00217487
312 203 0.00066875
312 204 0.00719378
312 205 0.00468433
312 206 0.000167297
312 208 0.015726
312 209 0.00234216
312 210 0.0108742
312 213 0.00216957
312 214 0.000501882
312 215 0.00200757
312 216 0.000167294
312 218 0.00013375
312 219 0.0065246
312 220 0.00183647
312 221 0.00284403
312 222 0.00602084
312 223 0.00284405
312 224 0.00368054
312 225 0.00301135
312 226 0.00953595
312 227 0.00418243
312 228 0.0043497
312 229 0.004517
312 230 0.00200757
312 231 0.00485162
312 233 0.00217486
312 234 0.00333838
312 235 0.00100378
312 236 0.000332881
312 241 0.000836486
312 242 0.00250926
312 244 0.000167297
312 245 0.000167297
312 246 0.00050189
312 248 0.000669189
312 250 0.00217398
312 251 1.11803e-05
312 252 0.00234209
312 253 0.000167297
312 254 0.00100378
312 255 0.00133838
312 256 0.000167297
312 257 0.000334594
312 258 0.000836481
312 259 0.00167297
312 263 0.000334594
312 265 0.001171
312 266 0.000198449
312 267 0.00133836
312 268 0.00184027
312 276 0.000334594
312 277 0.00150568
312 279 0.00250938
312 280 0.00100378
312 281 0.00117108
312 282 0.00284406
312 283 0.00117108
312 285 0.00133838
312 286 0.000334594
312 287 0.00184027
312 288 0.0026279
312 289 0.00275548
312 290 0.00368054
312 291 0.00133838
312 293 0.00215226
312 294 0.00167279
312 295 0.000311988
312 298 0.00317865
312 299 0.00368054
312 300 0.00518622
312 301 0.000334595
312 304 0.00167297
312 306 0.000945892
312 308 0.00280503
312 309 0.00685063
312 310 0.000334593
312 311 0.000167295
312 313 0.00117107
312 320 0.000334559
312 326 0.00150563
312 329 0.000167297
312 331 0.000836483
312 332 0.000334557
312 333 0.000334314
312 337 0.0085317
312 338 0.00233022
312 339 0.00512609
312 340 0.00342661
312 341 0.000836296
312 343 0.000501892
312 345 0.000669189
312 346 0.00100378
312 347 0.000334594
312 348 0.00184027
312 349 0.000334594
312 350 0.000167297
312 354 0.00161617
312 355 0.000836485
312 356 0.00351262
312 357 0.00123681
312 358 0.00284406
312 362 0.000167297
312 364 0.000167294
312 365 0.000167297
312 367 0.000501892
312 369 0.000836485
312 371 0.000333126
312 373 0.00117108
312 375 0.000167297
312 378 0.00317456
312 379 0.000334593
312 381 0.000167297
312 382 0.00184017
312 385 0.000167297
312 386 0.000332846
312 387 0.000334594
312 388 0.00300969
312 389 0.00200757
312 392 0.000836485
312 394 0.000167297
312 395 0.000167296
312 396 6.77221e-05
312 404 0.000167297
312 408 0.000334592
312 410 0.00150438
312 411 0.000501889
312 412 0.000167297
312 414 0.000158368
312 419 0.00100378
312 421 0.0006686
312 424 0.00150567
312 425 0.000836484
312 432 0.000334594
312 434 0.00117108
312 435 0.000836486
312 439 0.000334595
312 440 0.000167297
312 441 0.00149339
312 442 0.00117035
312 443 0.000167226
312 446 0.000334594
312 448 0.00100378
312 450 0.00033459
312 452 0.000334594
312 453 0.00301135
312 454 0.000167297
312 455 0.000501892
312 457 0.00819757
312 459 0.00250946
312 461 0.00100377
312 463 0.000501891
312 464 0.000836482
312 466 0.00033459
312 467 0.000334594
312 468 0.00317864
312 469 0.00334594
312 470 0.00100378
312 471 0.00702649
312 472 0.000167297
312 473 0.000501892
312 474 0.000167297
312 475 0.000334055
312 483 0.000334594
312 486 0.00100378
312 487 0.000334594
312 488 0.000636673
312 491 0.000501892
312 494 0.000167297
312 495 0.000334594
312 503 0.000501892
312 510 0.00016725
312 511 0.000836487
312 514 0.000167297
312 534 0.000167294
312 535 0.000628133
312 549 0.000167297
312 551 0.000836485
312 553 0.000167297
312 554 0.00150568
312 555 0.000501892
312 556 0.000669187
312 558 0.000669189
312 560 0.00150568
312 565 0.000167297
312 566 0.000167297
312 568 0.00133838
312 569 0.00166931
312 587 0.00184027
312 588 0.000164682
312 592 0.000501891
312 596 0.00133838
312 597 0.00200757
312 599 0.000167297
312 600 0.00267676
312 602 0.000334594
312 603 0.000167297
312 608 0.000167297
312 611 0.000334594
312 612 0.00184027
312 613 0.00368054
312 615 0.000167297
312 616 0.000167247
312 617 0.000669188
312 618 0.000501892
312 619 0.00100378
312 620 0.000664416
312 621 0.000500617
312 622 0.00217486
312 625 0.000167297
312 626 0.000669188
312 627 0.000836485
312 632 0.000661997
312 635 0.000167297
312 636 0.00100377
312 647 0.000334594
312 651 0.000836486
312 656 0.000167297
312 669 0.00133838
312 670 0.000167297
312 671 0.000501892
312 674 0.000167297
312 675 0.00033455
312 677 0.000167294
312 680 0.000167297
312 683 0.00133838
312 684 0.000669188
312 685 0.000167297
312 688 0.000167297
312 691 0.000167265
312 695 0.00050189
312 703 0.00552081
312 713 0.000334594
312 715 0.000836221
312 718 0.000167297
312 724 0.00250945
312 731 0.000334595
312 740 0.000167297
312 741 0.0010033
312 748 0.000501587
312 749 0.000669187
312 750 0.000334594
312 752 0.000167297
312 766 0.000167297
312 773 0.000167297
312 778 0.000167297
312 780 0.000501892
312 783 0.000167293
312 785 0.000167294
312 787 0.000167294
312 792 0.000167296
312 795 0.000167297
312 796 0.000167297
312 802 0.000334595
312 809 0.000167297
312 811 0.000334583
312 816 0.000167296
312 818 0.000334594
312 819 0.00168488
312 820 0.000501874
312 821 0.00300542
312 826 0.000167297
312 828 0.00100378
312 841 0.000501891
312 847 0.000669189
312 854 0.000334594
312 855 0.000167294
312 856 0.00100378
312 857 0.000167297
312 859 0.00184027
312 860 0.000167294
312 865 0.00167296
312 866 0.000836474
312 868 0.000334593
312 872 0.000167297
312 874 0.000334594
312 876 0.000167297
312 880 0.000167297
312 890 0.000167297
312 900 0.000334589
312 908 0.000669041
312 917 0.000334541
312 919 0.000167297
312 924 0.00050188
312 925 0.000167297
312 931 0.000669189
312 932 0.000167294
312 942 0.000167297
312 947 0.000334595
312 951 0.000167297
312 952 0.000669189
312 957 0.000167297
312 962 0.00150568
312 964 0.00117108
312 969 0.00133838
312 970 0.000167144
312 971 0.000167294
312 973 0.000167296
312 975 0.000334594
312 984 0.000501883
312 990 0.00100348
312 991 0.000167294
312 1007 0.00100378
312 1014 0.000669189
312 1037 0.000167297
312 1049 0.000167297
312 1063 0.000167297
312 1065 0.000334589
312 1069 0.000669188
312 1072 0.000167297
312 1075 0.00133838
312 1076 0.00133838
312 1079 0.000167294
312 1085 0.000167297
312 1088 0.000167297
312 1093 0.000501892
312 1096 0.00050189
312 1107 0.000161939
312 1108 0.00068792
312 1112 0.00167297
312 1113 0.000167297
312 1114 0.000669187
312 1115 0.000501892
312 1116 0.000334584
312 1119 0.000836487
312 1121 0.000501892
312 1122 0.000167297
312 1123 0.00117108
312 1124 0.000167294
312 1125 0.000167297
312 1127 0.00050189
312 1129 0.000334594
312 1134 0.000334592
312 1165 0.00167297
312 1166 0.000501892
312 1167 0.000334595
312 1170 0.000167297
312 1173 0.00183425
312 1174 0.000334594
312 1177 0.000167297
312 1181 0.000167296
312 1185 0.000167297
312 1186 0.000334595
312 1188 0.000167297
312 1190 0.000167294
312 1199 0.00100378
312 1207 0.00200757
312 1208 0.000836486
312 1209 0.00284405
312 1210 0.000167297
312 1211 0.000167255
312 1212 0.000501892
312 1213 0.00117108
312 1214 0.000501892
312 1215 3.56793e-05
312 1216 0.00117108
312 1218 0.000669189
312 1224 0.00167297
312 1226 3.72233e-05
312 1227 0.000334594
312 1230 0.00100377
312 1232 0.000167297
312 1234 0.000669188
312 1237 0.000836487
312 1238 0.000501891
312 1239 0.000167294
312 1240 0.000167297
312 1243 0.000334595
312 1245 0.000334593
312 1249 0.00100378
312 1250 0.000836486
312 1251 0.00100376
312 1252 0.000167297
312 1253 0.00167297
312 1254 0.000334594
312 1271 0.000669189
312 1278 0.000167297
312 1281 0.000167297
312 1283 0.000167297
312 1285 0.000334594
312 1288 0.00117108
312 1292 0.000501892
312 1295 0.000334594
312 1296 0.000167297
312 1300 0.000669185
312 1301 0.000334595
312 1302 0.000334594
312 1303 0.000669189
312 1304 0.000167294
312 1306 0.000167294
312 1308 0.00016713
312 1309 0.000163506
312 1312 0.000334595
312 1316 0.00284405
312 1317 0.000334592
312 1321 0.000501864
312 1322 0.00150568
312 1324 0.000167297
312 1327 2.43809e-07
312 1328 0.000334593
312 1330 0.000167297
312 1331 0.000334594
312 1333 0.000334593
312 1334 0.000334593
312 1335 0.000334592
312 1336 0.000836485
312 1338 0.000334592
312 1345 0.000334594
312 1348 0.000167297
312 1349 0.000334588
312 1350 0.000167297
312 1351 0.000167289
312 1352 0.000167297
312 1356 0.00133834
312 1361 0.000167297
312 1362 0.000334595
312 1365 0.000167294
312 1366 0.000501891
312 1367 0.000836486
312 1369 0.000334566
312 1377 0.000167294
312 1378 0.00133832
312 1383 0.000334594
312 1385 0.000167297
312 1386 0.000167297
312 1387 0.000167156
312 1392 0.00133838
312 1395 0.000334594
312 1396 0.000334593
312 1397 0.000501892
312 1403 0.000334593
312 1405 0.000167297
312 1407 0.000167215
312 1408 0.000167294
312 1415 0.000334592
312 1416 0.000836486
312 1418 0.000167297
312 1419 0.000836484
312 1421 0.000166921
312 1424 0.000669189
312 1426 0.000334594
312 1427 0.000167297
312 1428 0.000167297
312 1433 0.000501891
312 1438 0.000167294
312 1442 0.00083634
312 1443 0.00100378
312 1445 0.000167294
312 1446 0.000334594
312 1447 0.000167297
312 1449 0.000167297
312 1454 0.000167297
312 1462 0.000334595
312 1488 0.000501892
312 1489 0.000167297
312 1494 0.000167237
312 1495 0.000167297
312 1496 0.000669189
312 1498 0.000501892
312 1501 0.000167296
312 1502 0.000334594
312 1508 0.000167297
312 1509 0.000167297
312 1510 0.000167297
312 1511 0.00133838
312 1512 0.000167297
312 1513 0.000669187
312 1514 0.000836486
312 1518 0.000167297
312 1526 0.000669187
312 1527 0.00117103
312 1535 0.000167297
312 1536 0.000167297
312 1542 0.000334594
312 1546 0.000167297
312 1552 0.000167297
312 1567 0.000167275
312 1584 0.000334595
312 1593 0.000167297
312 1595 0.000167297
312 1598 0.000167297
312 1612 0.000167297
312 1626 0.000167297
312 1659 0.000167297
312 1671 0.000167294
312 1672 0.000167297
312 1676 0.000334594
312 1680 0.000167297
312 1681 0.000167297
312 1696 0.000501892
312 1702 0.000167297
312 1705 0.000167292
312 1706 0.000167297
312 1718 0.000334594
312 1720 0.000167297
312 1721 0.000167297
312 1729 0.000167294
312 1731 0.000334594
312 1738 0.000167297
312 1782 0.000167297
312 1786 0.000167296
312 1840 0.000669189
312 1846 0.000167294
312 1872 0.000669189
312 1905 0.000167297
312 1911 0.000167297
312 1932 0.000167295
312 1953 0.000334594
312 1979 0.000167297
312 1982 0.00016475
312 2019 0.000334593
312 2020 0.000167297
312 2031 0.000167297
312 2034 0.000167297
312 2044 0.000167297
312 2071 0.000501891
312 2078 0.000167297
312 2088 0.000167294
312 2102 0.000167297
312 2134 0.000334592
312 2144 0.000167297
312 2190 0.000167297
312 2196 0.000501892
312 2210 0.000167297
312 2230 0.000167297
312 2237 0.000334594
312 2239 0.000167297
312 2240 0.000334594
312 2257 0.000167182
312 2273 0.000167297
312 2275 0.000669188
312 2279 0.000167297
312 2285 0.000334594
312 2293 0.000334594
312 2295 0.000167297
312 2297 0.000836486
312 2298 0.000334594
312 2302 0.000167297
312 2314 0.000167297
312 2320 0.000167294
312 2323 0.00150568
312 2325 0.000501892
312 2332 0.000167297
312 2340 0.000334595
312 2525 0.000167297
312 2531 0.000167297
312 2546 0.000167297
312 2553 0.000167297
312 2556 0.000167295
312 2566 0.000167294
312 2573 0.000167297
312 2599 0.000167297
312 2606 0.000334594
312 2610 0.000167297
312 2613 0.000167297
312 2627 0.000167269
312 2631 0.000167297
312 2637 0.000167297
312 2641 0.000167294
312 2649 0.000167297
312 2654 0.000167293
312 2655 0.000167297
312 2674 0.000163952
312 2696 0.000167297
312 2698 0.000167297
312 2700 0.000167297
312 2701 0.000167297
312 2715 0.000167294
312 2736 0.000167297
312 2740 0.000167297
312 2783 0.000167297
312 2787 0.000167297
312 2788 0.000167297
312 2796 0.000167294
312 2818 0.000167294
312 2825 0.000167297
312 2839 0.000334588
312 2840 0.000669189
312 2841 0.000167297
312 2842 0.000334594
312 2843 0.000167297
312 2846 0.000167297
312 2847 0.000166789
312 2848 0.000167297
312 2849 0.000167297
312 2851 0.000167297
312 2852 0.000167294
312 2853 0.000167294
312 2857 0.000167297
312 2858 0.000167288
312 2859 0.000334595
312 2860 0.000836485
312 2866 0.000167297
312 2867 0.000167297
312 2868 0.000167297
312 2869 0.000167297
312 2870 0.000167297
312 2871 0.000167297
312 2872 0.000334595
312 2873 0.000501888
312 2874 0.000167297
312 2875 0.000167297
312 2876 0.000167297
312 2877 0.000167297
312 2878 0.000167297
312 2879 0.000167294
312 2880 0.000836487
312 2881 0.000167297
312 2882 0.000167294
312 2883 0.000501892
312 2884 0.000167297
312 2885 0.000167297
312 2886 0.000334593
312 2887 0.000167297
312 2888 0.000167294
312 2889 0.00100378
312 2890 0.000501892
312 2891 0.000167297
312 2892 0.000166028
312 2893 0.000167297
312 2894 0.000167297
312 2895 0.000167297
312 2896 0.000167297
312 2897 0.000167297
312 2898 0.000167297
312 2904 0.000334593
312 2905 0.000167297
312 2906 0.00117108
312 2907 0.000167286
312 2908 0.000167297
312 2911 0.000167297
312 2915 0.000167227
312 2916 0.000167297
312 2917 0.000167297
312 2918 0.000167297
312 2920 0.000167294
312 2923 0.000167297
312 2924 0.000167297
312 2934 0.000167297
312 3010 0.000167297
312 3016 0.000166922
312 3017 0.000167277
312 3018 0.000167297
312 3028 0.000167297
312 3029 0.00016637
312 3030 0.000167297
312 3031 0.000167297
312 3032 0.000501892
312 3033 0.000101545
312 3034 0.000334595
312 3035 0.000334594
312 3039 0.000167297
312 3041 0.000166344
312 3042 0.000167297
312 3060 0.000167297
312 3061 0.000669188
312 3062 0.000167297
312 3063 0.000334593
312 3075 0.000501891
312 3076 0.000167297
312 3087 0.000334594
312 3088 0.000167176
312 3089 0.000167294
312 3090 0.000167297
312 3125 0.000167297
312 3126 0.000167297
312 3127 0.000334592
312 3128 0.000167297
312 3129 0.000167297
312 3130 6.83676e-05
312 3131 0.000167274
312 3132 0.000167294
312 3133 0.000167297
312 3134 0.000167297
312 3135 0.000167294
312 3136 0.000501891
312 3137 0.000167297
312 3138 0.000167025
312 3139 0.000167287
312 3140 0.000334594
312 3168 0.000167297
312 3174 0.00033459
312 3175 0.00033459
312 3176 0.000167297
312 3177 0.000167296
312 3178 0.000334588
312 3179 0.000167294
312 3180 0.000167297
312 3181 0.00016726
312 3186 0.000167297
312 3191 0.000167294
312 3192 0.000167297
312 3193 0.000167294
312 3194 0.000167297
312 3195 0.000167294
312 3203 0.000501819
312 3204 0.000668965
312 3205 0.000161604
312 3206 0.000167294
312 3207 0.000167297
312 3215 0.000167297
312 3216 0.000167297
312 3225 0.000166482
312 3226 0.000167297
312 3227 0.000167294
312 3228 0.000167297
312 3229 0.000167297
312 3230 0.000167297
312 3231 0.000167297
312 3232 0.000167297
312 3238 0.000167297
312 3239 0.000167297
312 3240 0.000167297
312 3241 0.000334594
312 3248 0.000167297
312 3249 0.000167297
312 3250 0.000167285
312 3251 0.000167297
312 3252 0.000167297
312 3253 0.000167297
312 3254 0.000167297
312 3255 0.000167297
312 3256 0.000167297
312 3257 0.000167297
312 3289 0.000167297
312 3290 0.000167287
312 3291 0.000167297
312 3292 0.000167181
312 3293 0.000167186
312 3294 0.000167294
312 3295 0.000334592
312 3296 0.000501892
312 3355 0.000167297
312 3356 0.000167297
312 3357 0.000167297
312 3358 0.000167297
312 3382 0.000162849
312 3386 0.000167297
312 3387 0.000167294
312 3388 0.00016718
312 3389 0.000167297
312 3390 0.000167297
312 3391 0.000167294
312 3392 0.000167297
312 3393 0.000334593
312 3394 0.000167297
312 3395 0.000167294
312 3396 0.000166768
312 3397 0.000167297
312 3398 0.000167294
312 3399 0.00016637
312 3400 0.000167297
312 3401 0.000167294
312 3402 0.000167297
312 3403 0.000167294
312 3404 0.000167297
312 3405 0.000167297
312 3406 0.000167297
312 3407 0.000167297
312 3408 0.000167297
312 3409 0.000167297
312 3410 0.000167296
312 3411 0.000167297
312 3414 0.000167297
312 3415 2.37847e-06
312 3416 0.000167294
312 3417 0.000167297
312 3418 0.000167294
312 3419 0.000501892
312 3420 0.000167297
312 3433 0.000167297
312 3434 0.000167297
312 3435 0.000167294
312 3436 0.000167294
312 3437 0.000167297
312 3438 0.000167297
312 3464 0.000167297
312 3469 0.000167297
312 3472 0.000334595
312 3473 0.000167297
312 3474 0.000167297
312 3475 0.000167297
312 3476 0.000167297
312 3477 0.00016722
312 3478 0.000167292
312 3479 0.000334594
312 3480 0.000167294
312 3481 0.000167294
312 3499 0.000167297
312 3502 0.000167297
312 3503 0.000167287
312 3504 0.000167297
312 3505 0.000167297
312 3564 0.000167297
312 3565 0.000167297
312 3566 0.000167297
312 3567 0.000167297
312 3568 0.000167297
312 3569 0.000167297
312 3570 0.000167297
312 3571 0.000167294
312 3580 0.000167297
312 3581 0.000167294
312 3582 0.000167294
312 3583 0.000167297
312 3584 0.000167297
312 3585 0.000167297
312 3586 0.000167297
312 3597 0.000167297
312 3598 0.000167297
312 3599 0.000167107
312 3600 0.000167294
312 3601 0.000167294
312 3602 0.000334595
312 3603 0.00016729
312 3607 0.000167294
312 3608 0.000167297
312 3621 0.000167254
312 3622 0.000167297
312 3623 0.000167297
312 3624 0.000167297
312 3625 0.000167294
312 3626 0.000167297
312 3627 0.000167297
312 3628 0.000167297
312 3629 4.56625e-05
312 3630 0.000167294
312 3635 0.000167297
312 3636 0.000167294
312 3637 0.000166159
312 3638 0.000167297
312 3639 0.000167297
312 3640 0.000167295
312 3641 0.000167297
312 3642 0.000167202
312 3643 0.000164167
312 3644 0.000167296
312 3645 0.000167297
312 3646 0.000167297
312 3647 0.000167294
312 3648 0.000167294
312 3653 0.000167297
312 3654 0.000167296
312 3655 0.000167294
312 3656 0.000167294
312 3657 0.000167294
312 3658 0.000167294
312 3661 0.000167297
312 3662 0.000167297
312 3663 0.000167297
313 40 0.180478
313 60 0.0930221
313 139 0.0804911
313 230 0.0913348
313 457 0.000401379
313 1211 0.000118141
313 1217 0.00292782
313 1235 0.09149
313 1252 0.0914903
313 1445 0.0914904
313 2568 0.00228617
313 2609 0.0914903
313 2610 0.09149
313 3064 0.09149
314 229 0.502393
314 250 0.00808285
314 252 0.328488
314 461 0.039668
314 740 0.0192837
314 786 0.0441143
314 1351 2.48575e-06
314 1369 0.0096614
314 1378 0.0483063
315 230 0.000871424
315 231 0.999129
316 65 0.0297448
316 337 0.93527
316 3603 0.0349847
317 49 0.0289826
317 67 0.713866
317 239 0.167102
317 978 0.0586744
317 3603 0.0313757
318 232 1
319 233 0.787397
319 535 0.0504768
319 616 8.2753e-06
319 978 0.162118
320 234 0.96875
320 1413 0.03125
321 235 0.596579
321 501 0.262495
321 976 0.0216101
321 1682 0.0238632
321 1788 0.0238632
321 1824 0.0238632
321 3199 0.0477263
322 236 1
323 237 1
324 85 1
325 120 0.5
325 245 0.5
326 53 0.355667
326 135 0.614686
326 329 0.0148272
326 3612 0.0148196
327 15 7.95463e-05
327 239 0.99992
328 240 0.333333
328 248 0.666667
329 242 0.0411369
329 2347 0.958863
330 241 1
331 242 0.480448
331 243 0.418176
331 313 0.038016
331 660 0.012672
331 2695 0.050688
332 170 0.987813
332 569 0.0015241
332 1103 0.00914528
332 1171 0.00151754
333 229 0.0913885
333 244 0.822378
333 339 0.0862334
334 246 0.749997
334 392 3.67893e-06
334 1981 0.249999
335 123 0.333333
335 247 0.166667
335 1465 0.5
336 39 0.816283
336 66 0.0913614
336 137 0.0459301
336 836 0.00044853
336 1169 5.11166e-07
336 1969 0.0459765
337 49 0.000223739
337 50 0.231517
337 54 0.000657683
337 242 0.536107
337 569 0.231495
338 249 0.25
338 408 0.75
339 226 0.96224
339 393 0.0377596
340 250 1
341 9 5.17782e-05
341 251 0.507255
341 441 0.468268
341 1683 0.00491271
341 1685 0.0195112
341 1721 9.08657e-07
342 253 0.88
342 1962 0.0799998
342 2573 0.04
343 80 0.00926632
343 254 0.990733
343 306 6.10806e-07
344 9 0.00703729
344 254 2.49156e-05
344 304 0.342225
344 453 0.0567596
344 627 0.555188
344 1265 4.25589e-07
344 2641 0.0387645
345 255 0.714286
345 707 0.285714
346 256 1
347 257 0.833333
347 2862 0.166667
348 258 0.6
348 1551 0.4
349 47 0.583519
349 163 0.0833598
349 184 0.0830414
349 2584 0.0833598
349 2777 0.0833599
349 2837 0.0833599
350 259 0.75
350 1424 0.25
351 260 0.75
351 1634 0.25
352 261 1
353 262 0.666667
353 1592 0.333333
354 263 0.486487
354 400 0.216216
354 500 0.27027
354 1530 0.027027
355 264 0.615385
355 403 0.307692
355 1892 0.0769231
356 67 0.107918
356 144 0.00147728
356 170 0.719908
356 366 0.0314196
356 374 0.104403
356 411 4.90896e-06
356 618 0.000193921
356 754 4.33288e-07
356 779 0.0190125
356 1172 0.0156632
357 265 0.907065
357 289 0.046415
357 324 0.0232581
357 2820 3.95846e-06
357 3453 0.0232582
358 266 0.121185
358 421 0.878815
359 267 0.894738
359 295 0.105262
360 5 0.00159841
360 170 6.68801e-06
360 179 0.366893
360 180 0.536232
360 184 0.086978
360 366 7.65694e-07
360 1290 1.38962e-05
360 2092 1.39382e-07
360 2197 0.000830139
360 2688 8.71417e-07
360 3506 7.29349e-06
360 3544 0.00743959
361 42 0.654262
361 184 0.345737
362 268 0.626506
362 280 0.192771
362 1076 0.144578
362 1096 0.0240964
362 2095 0.0120482
363 237 0.578201
363 269 0.263613
363 725 0.000563095
363 2748 0.157624
364 269 4.481e-05
364 725 0.0514272
364 739 0.766158
364 2748 0.18237
365 60 0.0713649
365 270 0.000152071
365 1383 0.571046
365 2035 0.357437
366 270 0.714229
366 667 0.285771
367 271 1
368 272 0.785714
368 1944 0.142857
368 3277 0.0714286
369 273 0.0666667
369 1027 0.0666667
369 1096 0.733333
369 2290 0.133333
370 39 0.496765
370 54 0.464525
370 411 0.0387104
371 25 0.172908
371 231 0.197033
371 274 0.433027
371 2108 0.197032
372 275 0.722222
372 611 0.222222
372 1912 0.0555556
373 393 1.51527e-06
373 615 0.99066
373 890 8.97857e-06
373 3578 0.00932934
374 277 0.590909
374 281 0.204545
374 2240 0.0909091
374 2291 0.0227273
374 2745 0.0454545
374 3372 0.0454545
375 39 0.315087
375 49 0.336784
375 56 0.348129
376 39 0.360004
376 49 0.000394093
376 56 0.058226
376 67 0.348829
376 132 0.116271
376 278 0.116276
377 7 0.0454472
377 279 0.0454472
377 401 0.000257041
377 513 0.0454471
377 1115 0.0908944
377 1288 0.636166
377 1366 0.0454472
377 1389 0.0454472
377 1444 0.0454467
378 39 0.499661
378 56 0.500339
379 282 1
380 62 0.5
380 168 0.5
381 80 1
382 283 1
383 284 0.333333
383 634 0.666667
384 285 0.647059
384 760 0.117647
384 1022 0.0588235
384 1761 0.117647
384 2651 0.0588235
385 205 1
386 25 0.467608
386 30 0.0802874
386 286 0.371816
386 1251 0.0802882
387 286 0.303863
387 453 0.430685
387 454 0.088482
387 549 0.0884853
387 3284 0.0884852
388 287 0.894737
388 2295 0.052631
388 3365 0.0526316
389 288 0.999998
389 2547 2.0857e-06
390 137 2.56026e-05
390 289 0.253423
390 332 0.65108
390 535 5.74357e-06
390 862 9.74869e-05
390 866 0.0310622
390 1576 0.0254443
390 2023 0.038862
391 289 0.0826802
391 290 0.91732
392 6 0.0030449
392 60 0.954565
392 76 5.33064e-06
392 292 0.00334127
392 499 0.0387406
392 509 0.000302575
393 291 0.227246
393 300 0.637562
393 1230 0.0442969
393 1231 0.0227213
393 1442 0.0681738
394 13 1
395 294 1
396 255 1
397 296 1
398 146 0.999845
398 297 0.000154537
399 56 0.499998
399 81 0.500002
400 9 0.00840611
400 298 0.78151
400 419 0.159663
400 1183 0.02521
400 2723 0.02521
401 299 0.312558
401 600 0.604278
401 1296 0.0207062
401 2949 0.0624584
402 301 1
403 302 1
404 242 0.476966
404 243 0.410309
404 303 0.0048466
404 313 0.096932
404 1356 0.0048466
404 2720 0.0048466
404 2942 0.0012538
405 205 0.0592011
405 304 0.470436
405 627 0.470363
406 305 1
407 306 0.555528
407 315 0.333354
407 2819 0.0740786
407 3649 0.0370393
408 307 1
409 288 1
410 308 0.952381
410 1461 0.0476191
411 309 0.995537
411 406 0.000449719
411 535 0.00201126
411 1339 0.00200162
412 49 0.496665
412 107 0.116035
412 310 0.3873
413 5 1
414 311 0.666667
414 345 0.333333
415 312 0.486212
415 929 0.513788
416 313 0.986486
416 881 0.0135135
417 314 1
418 172 0.904423
418 173 0.0479762
418 1299 0.0476012
419 316 0.249665
419 332 0.374498
419 625 0.249713
419 2301 0.00129156
419 3412 0.124833
420 317 0.0909091
420 1121 0.909091
421 318 1
422 319 1
423 49 1
424 107 0.0223593
424 320 0.666574
424 570 0.0444383
424 616 0.155534
424 1028 0.0666574
424 1359 0.0222181
424 2611 0.0222191
425 136 1
426 150 1
427 49 0.333303
427 50 0.333709
427 52 0.332987
428 321 1
429 9 0.632288
429 530 0.367712
430 155 0.206832
430 1651 0.793159
430 1652 9.09636e-06
431 322 1
432 325 1
433 326 0.794044
433 724 0.205956
434 63 0.999638
434 427 4.44789e-07
434 627 0.000357456
434 840 3.78559e-06
435 47 1
436 114 1
437 47 0.200004
437 52 0.199999
437 56 0.19999
437 2565 0.400007
438 184 0.499994
438 327 0.500006
439 328 1
440 122 1
441 239 0.779671
441 333 3.19756e-05
441 472 0.220297
442 9 0.0994042
442 239 0.130273
442 367 0.000582425
442 426 0.0502323
442 878 0.619042
442 984 0.0502332
442 3058 0.0502328
443 329 0.921991
443 367 0.0780087
444 201 0.0330616
444 204 2.62899e-07
444 496 0.301175
444 509 0.0348664
444 850 0.239011
444 995 0.0174795
444 1061 0.00184188
444 1350 0.115155
444 1490 0.141691
444 1666 0.0513419
444 1667 0.0555184
444 2669 0.00885811
445 53 0.885526
445 878 0.114474
446 330 1
447 76 7.74654e-05
447 113 0.999923
448 151 0.0571827
448 331 0.942817
449 309 0.893892
449 406 0.0851362
449 2618 0.0209716
450 39 3.40388e-07
450 332 0.871476
450 862 0.114219
450 1602 3.26208e-07
450 2023 0.0143045
451 192 0.120811
451 246 0.0270044
451 333 0.243467
451 1312 0.547859
451 1595 1.20612e-05
451 2224 4.897e-06
451 3618 0.0608412
452 59 0.0121897
452 76 0.00164976
452 84 0.0121795
452 246 0.0114005
452 378 0.961964
452 2081 0.000616754
453 139 0.235181
453 334 0.382414
453 2561 0.382405
454 335 1
455 336 0.999993
455 1858 6.6446e-06
456 337 0.936175
456 741 0.0300287
456 878 0.0111532
456 2606 0.0223064
456 2831 6.21776e-07
456 3074 0.000336244
457 63 0.00458266
457 340 0.966138
457 1368 0.0292793
458 339 0.981478
458 3002 0.0185218
459 341 1
460 9 0.0930951
460 342 0.555089
460 610 0.0390907
460 1710 0.312725
461 52 0.128528
461 210 0.615272
461 342 0.0020607
461 1068 0.125405
461 2719 0.128734
462 343 0.814815
462 413 0.185185
463 140 0.222041
463 344 0.777959
464 39 1.38024e-07
464 107 0.958975
464 146 0.00635197
464 310 0.0153133
464 372 0.0193594
465 119 1
466 346 1
467 347 0.944444
467 1629 0.0555556
468 348 0.795918
468 420 0.163265
468 719 0.0204082
468 2208 0.0204082
469 349 1
470 350 1
471 351 1
472 11 0.173526
472 20 0.177102
472 32 0.649372
473 5 0.443671
473 9 0.261258
473 13 0.0272289
473 80 0.00109524
473 556 0.00298185
473 2766 0.263765
474 352 0.919998
474 382 0.0400001
474 424 0.0400017
475 194 0.634452
475 352 0.000390733
475 759 9.54292e-06
475 917 0.365148
476 353 1
477 354 0.910107
477 778 0.014946
477 1977 0.000214342
477 2024 0.0448382
477 2134 0.0149461
477 2954 0.0149461
477 3518 2.65429e-06
478 72 0.00116037
478 205 0.0304728
478 313 0.968367
479 355 0.733332
479 620 1.77345e-06
479 1973 0.266666
480 270 1
481 192 0.096513
481 270 0.517627
481 1234 0.0964982
481 1290 0.0963652
481 2613 0.0964983
481 3189 0.0964982
482 356 1
483 357 0.937334
483 2731 0.000148718
483 2732 0.0625169
484 9 0.105529
484 39 0.894471
485 180 1
486 359 1
487 194 0.999375
487 360 0.000249764
487 361 0.000374788
488 360 0.208896
488 361 0.791104
489 362 1
490 363 0.846154
490 1440 0.153846
491 206 0.0714286
491 364 0.785714
491 993 0.0714286
491 1601 0.0714286
492 270 1
493 15 1
494 13 0.0730664
494 169 0.0641653
494 289 0.32335
494 290 0.539418
495 289 0.888251
495 290 0.111749
496 365 1
497 5 0.929359
497 180 0.00659006
497 233 0.0108199
497 366 0.0122509
497 374 0.000292832
497 754 0.0345273
497 775 0.000478045
497 3051 0.00568227
498 368 0.333333
498 2809 0.666667
499 369 0.250141
499 378 0.249534
499 1066 0.25014
499 2249 5.06023e-05
499 2292 0.250135
500 370 1
501 9 3.75732e-07
501 371 0.834472
501 377 0.12838
501 1236 0.00480906
501 1383 1.10667e-05
501 2035 0.000214158
501 2835 1.78189e-05
501 3552 0.0320951
502 122 6.89009e-05
502 373 0.999931
503 40 0.19589
503 122 0.108768
503 139 0.0443666
503 1134 0.108269
503 2563 0.108526
503 2564 0.325634
503 2566 0.108547
504 376 1
505 21 0.666667
505 174 0.333333
506 265 2.37736e-06
506 379 0.920504
506 1950 0.0794934
507 380 1
508 381 1
509 226 1
510 415 3.28609e-05
510 569 7.93608e-06
510 1317 0.0172447
510 1459 0.00206025
510 1526 0.980654
511 107 1.83943e-05
511 382 0.261852
511 1061 0.214426
511 1165 0.523704
512 88 0.052989
512 383 0.177565
512 1475 0.0591882
512 1681 0.710258
513 384 1
514 385 1
515 385 0.125599
515 495 0.874401
516 8 0.75
516 2192 0.25
517 63 1
517 66 3.34042e-07
518 150 0.030303
518 389 0.939394
518 2807 0.030303
519 386 1
520 49 0.540527
520 66 0.459473
521 311 0.817073
521 345 0.182927
522 348 1
523 387 1
524 228 0.962329
524 1286 0.0123467
524 1862 0.0126622
524 2979 0.0126622
525 388 0.985915
525 1414 0.0140851
526 49 0.664114
526 50 0.335886
527 63 0.0257169
527 309 0.0263168
527 374 2.01209e-06
527 389 0.947964
528 52 0.25001
528 56 0.49997
528 107 0.25002
529 332 0.925161
529 866 0.0748394
530 242 1
531 390 1
532 391 1
533 9 0.840742
533 923 0.159258
534 394 1
535 397 0.949177
535 1705 0.0508226
536 396 1
537 398 0.720089
537 778 3.33087e-05
537 2303 0.279513
537 2304 0.000364536
538 255 0.200112
538 401 0.199644
538 2077 0.200112
538 3084 0.400131
539 399 1
540 402 1
541 404 1
542 405 1
543 407 1
544 408 1
545 409 0.111111
545 1272 0.888889
546 171 1
547 253 1
548 52 0.121558
548 453 0.878442
549 254 1
550 237 0.019649
550 239 0.882502
550 333 2.72979e-05
550 2341 0.0785375
550 3058 3.65462e-07
550 3611 0.0192838
551 410 1
552 14 0.835692
552 52 0.164308
553 54 0.0199641
553 132 0.0732967
553 274 0.0720927
553 411 0.793104
553 616 0.0415422
554 412 1
555 15 0.95611
555 1767 0.0438904
556 15 0.125737
556 414 0.749367
556 3490 0.124896
557 162 1
558 415 1
559 9 7.36808e-07
559 415 0.958556
559 610 1.2882e-05
559 635 0.0413276
559 1710 0.000103056
560 43 0.499986
560 416 0.500014
561 417 1
562 418 0.5
562 3699 0.5
563 43 0.499809
563 422 0.500191
564 66 0.909089
564 850 0.0909114
565 39 0.66585
565 54 0.33415
566 423 0.5
566 695 0.5
567 424 1
568 162 1
569 425 1
570 49 0.499862
570 54 0.500138
571 43 1
571 426 3.5681e-07
572 329 1
573 427 1
574 428 0.428573
574 483 0.428573
574 1082 0.142854
575 429 0.500023
575 778 0.499977
576 430 1
577 431 0.5
577 512 0.5
578 432 0.818182
578 1628 0.181818
579 433 0.333899
579 439 0.332263
579 890 0.333838
580 250 0.499337
580 439 0.250943
580 440 0.24972
581 434 1
582 39 0.0670522
582 42 0.0871991
582 52 0.149728
582 435 0.696021
583 436 1
584 435 0.467408
584 437 0.131299
584 770 0.401293
585 438 1
586 27 0.5
586 657 0.5
587 349 1
588 442 0.398651
588 443 0.282376
588 922 0.269142
588 2039 0.0498314
589 444 0.872591
589 445 0.127409
590 362 0.891267
590 445 0.108733
591 25 0.181723
591 446 0.181839
591 1127 0.454598
591 1444 9.40987e-07
591 2061 0.0909195
591 3496 0.0909195
592 447 1
593 448 1
594 449 1
595 11 1
596 450 1
597 451 1
598 115 0.0622941
598 452 0.441168
598 971 0.496537
599 453 0.224207
599 454 1.67659e-05
599 2092 0.322701
599 2545 0.453075
600 455 0.75
600 465 0.25
601 456 0.333333
601 464 0.333333
601 1599 0.333333
602 457 0.888888
602 841 0.055556
602 2338 0.055556
603 458 0.75
603 3148 0.25
604 306 0.249959
604 459 0.750041
605 460 1
606 337 0.78879
606 540 0.170293
606 741 0.0270387
606 1169 0.0138788
607 462 1
608 463 1
609 231 1
610 466 0.829945
610 1515 0.170055
611 459 0.0589922
611 467 0.530932
611 1273 0.0589924
611 1338 0.0561216
611 1344 0.117985
611 1514 0.0589924
611 1871 0.117985
612 468 0.955014
612 1324 0.0449862
613 469 0.901886
613 820 0.0784248
613 1393 0.000142127
613 1835 0.0195467
614 470 0.954545
614 1437 0.0454545
615 22 0.409091
615 471 0.424242
615 1335 0.0151515
615 1363 0.151515
616 472 0.909091
616 3384 0.0909091
617 392 0.866667
617 1661 0.133333
618 450 1
619 80 0.856478
619 476 0.123054
619 2134 0.0204683
620 9 1.59908e-06
620 475 0.999998
620 1602 6.61901e-07
621 80 0.933687
621 476 0.0609763
621 547 1.16599e-06
621 1611 0.00533536
622 477 1
623 478 0.333341
623 1963 0.333319
623 3487 0.33334
624 479 0.666667
624 956 0.333333
625 39 0.364299
625 44 0.378777
625 66 0.18974
625 411 0.0118588
625 908 0.0316073
625 1542 0.0237175
625 3112 2.41829e-07
626 387 1
627 39 0.500005
627 49 0.499995
628 219 0.857143
628 382 0.142857
629 424 1
630 480 1
631 481 0.0908928
631 796 0.878631
631 1985 0.0304763
632 140 1
633 482 1
634 271 0.5
634 2761 0.5
635 483 1
636 39 0.329555
636 56 0.670445
637 484 0.961538
637 2776 0.0384615
638 485 0.5
638 1174 0.5
639 140 0.0573656
639 486 0.90416
639 624 0.0384749
640 487 1
641 488 1
642 14 0.0769262
642 52 0.923074
643 63 0.0199865
643 114 0.879819
643 843 0.0999797
643 2004 0.000214414
644 39 0.331706
644 49 0.3346
644 52 0.333694
645 490 1
646 137 0.250238
646 242 0.249287
646 492 0.250238
646 493 0.250238
647 304 0.916667
647 979 0.0833333
648 494 1
649 265 0.999986
649 289 1.39462e-05
650 498 1
651 497 1
652 49 0.420799
652 56 0.526441
652 67 0.0526503
652 374 0.000109217
653 379 0.625956
653 502 0.124681
653 1032 0.124681
653 3005 0.124681
654 42 0.497847
654 59 0.502153
655 49 0.24965
655 50 0.25021
655 52 0.249919
655 69 0.250221
656 49 0.507985
656 56 0.481276
656 233 0.0107381
657 503 1
658 39 0.390672
658 42 0.203684
658 49 0.405645
659 505 0.333333
659 1593 0.666667
660 39 0.333159
660 50 0.333907
660 52 0.332934
661 448 0.764706
661 506 0.235294
662 42 0.166716
662 49 0.332934
662 54 0.166791
662 56 0.166768
662 69 0.166791
663 237 0.999996
663 508 4.38029e-06
664 507 0.642858
664 2660 0.357142
665 9 0.248488
665 60 0.250486
665 94 0.250513
665 425 0.250513
666 9 0.844359
666 354 0.0777225
666 3494 0.077918
667 94 0.357927
667 237 0.356707
667 508 0.285366
668 49 0.329256
668 54 0.335372
668 69 0.335372
669 52 0.499058
669 69 0.500942
670 11 0.194743
670 65 0.402628
670 94 0.402629
671 510 1
672 215 0.0622336
672 511 0.937766
673 39 0.325039
673 49 0.336889
673 107 0.338073
674 52 0.332846
674 56 0.667154
675 514 0.714286
675 1502 0.285714
676 11 8.30493e-05
676 515 0.888815
676 3550 0.111102
677 39 0.334391
677 49 0.330556
677 52 0.335053
678 517 1
679 122 0.333343
679 518 0.333343
679 520 0.333314
680 154 8.69749e-05
680 520 6.71525e-06
680 1102 0.840851
680 2204 0.0795276
680 2844 0.0795275
681 39 0.59972
681 54 0.200145
681 56 0.200135
682 50 0.333575
682 56 0.33281
682 146 0.333616
683 521 0.333333
683 786 0.666667
684 522 0.675642
684 523 0.324358
685 39 0.0598445
685 44 0.0984325
685 49 0.0536786
685 52 0.394024
685 107 0.394021
686 27 0.5
686 1635 0.5
687 353 0.75
687 2068 0.25
688 9 1
689 9 0.248426
689 526 0.751574
690 39 0.222966
690 44 0.106545
690 49 0.111748
690 56 0.335087
690 107 0.223654
691 52 0.666659
691 69 0.333341
692 360 1
693 361 1
694 527 1
695 5 1.3877e-05
695 213 0.66737
695 3381 0.332616
696 528 3.47443e-05
696 529 0.333322
696 3209 0.666644
697 170 0.497839
697 530 0.502161
698 55 1
699 531 1.0847e-05
699 532 0.999989
700 366 0.0890701
700 533 0.195216
700 534 0.671192
700 806 8.21713e-06
700 2725 0.0445128
701 39 0.29112
701 66 0.472613
701 2197 0.236267
702 62 0.0122548
702 168 0.826714
702 224 2.6905e-05
702 986 0.158048
702 3096 0.00295615
703 13 1
704 5 0.00581045
704 535 0.982524
704 865 0.00066767
704 1307 0.00366609
704 2733 0.00733229
705 5 1
706 395 0.13359
706 536 0.200386
706 615 0.599229
706 788 0.0667952
707 25 0.334696
707 537 0.665304
708 538 1
709 11 0.114504
709 741 0.532835
709 2339 0.00273647
709 2626 0.11628
709 3009 0.116822
709 3138 0.116822
710 539 1
711 39 0.00565893
711 135 0.111428
711 541 0.784813
711 1598 0.0981006
712 13 0.0712478
712 370 0.0714044
712 630 0.571743
712 1066 0.142805
712 2292 0.0714
712 3634 0.0714
713 542 1
714 543 1
715 33 0.0820059
715 135 0.179941
715 227 0.656047
715 947 0.0820059
716 544 0.501882
716 2661 0.498118
717 544 2.26978e-05
717 2661 0.999977
718 545 0.666667
718 1810 0.333333
719 546 1
720 548 1
721 549 1
722 550 1
723 551 0.912674
723 2274 0.0873261
724 63 0.242835
724 552 0.504777
724 2810 0.252388
725 553 1
726 339 1
727 356 0.55395
727 435 0.388895
727 1524 0.000506605
727 1813 0.00110618
727 1858 0.0555424
728 554 0.888889
728 3164 0.111111
729 555 1
730 556 0.00513785
730 1062 0.000376345
730 1236 0.41409
730 1525 5.86391e-06
730 1670 4.71319e-05
730 2725 0.00282677
730 3037 0.482578
730 3606 0.0949374
731 556 0.0652643
731 557 0.934736
732 9 1
733 9 1
734 393 1
735 346 0.9
735 2006 0.1
736 558 1
737 559 0.333333
737 561 0.666667
738 560 0.933337
738 822 0.0666632
739 9 1
740 562 1
741 563 1
742 354 0.000491702
742 564 0.499754
742 565 0.499754
743 192 0.999983
743 566 1.67439e-05
744 457 0.333335
744 566 0.666665
745 567 0.665647
745 568 0.334353
746 568 0.331913
746 777 0.334043
746 778 0.334044
747 11 0.169735
747 274 0.622699
747 3680 0.207566
748 250 0.169756
748 571 0.830244
749 572 0.903226
749 1548 0.0322581
749 2272 0.0645161
750 210 1
751 573 1
752 574 0.668046
752 588 0.220947
752 1573 0.111007
753 575 1
754 577 0.666517
754 592 0.333258
754 593 0.000225069
755 578 1
756 579 1
757 580 0.5
757 1452 0.5
758 13 0.987157
758 581 0.0128425
759 1359 1.74278e-06
759 1533 0.666669
759 3366 0.0740759
759 3370 0.259254
760 581 0.999967
760 582 3.32154e-05
761 1147 0.330871
761 1825 0.330871
761 1835 0.00100515
761 1978 0.00638305
761 2270 0.330869
762 295 0.500007
762 582 0.499993
763 583 1
764 584 1
765 13 0.504294
765 135 7.63495e-06
765 380 0.495469
765 3632 0.000228877
766 585 0.272603
766 1163 0.727397
767 586 1
768 587 1
769 243 0.432677
769 443 0.244663
769 2620 0.32266
770 313 0.538031
770 588 0.00028845
770 589 0.46168
771 590 1
772 574 1
773 9 0.98627
773 588 0.0137296
774 591 0.333333
774 2627 0.666667
775 593 0.142775
775 635 0.428614
775 1359 0.28574
775 1469 0.142871
776 313 0.171318
776 793 0.828682
777 313 0.46323
777 594 0.268385
777 3196 0.268385
778 132 1
779 595 1
780 45 0.0628397
780 56 0.0612078
780 69 0.000219801
780 320 0.0628399
780 569 0.0588356
780 570 0.0628397
780 616 0.0628192
780 1131 0.188519
780 2746 0.18852
780 2749 0.18852
780 3290 0.0628399
781 568 1
782 596 1
783 597 0.90625
783 1507 0.03125
783 1518 0.03125
783 2833 0.03125
784 599 0.833333
784 2268 0.166667
785 601 1
786 602 0.195944
786 868 0.587833
786 1168 0.195944
786 1169 0.0202792
787 50 0.666584
787 54 0.333416
788 43 1
789 60 1
790 76 1
791 76 1
792 76 1
793 76 1
794 104 1
795 76 1
796 39 0.329486
796 49 0.335081
796 69 0.335433
797 603 1
798 525 0.25
798 604 0.25
798 605 0.5
799 592 0.14317
799 606 0.428415
799 687 0.142805
799 1112 0.28561
800 607 1
801 9 1
802 608 0.00019539
802 1167 0.499902
802 1427 0.499902
803 354 0.333357
803 608 0.666643
804 609 1
805 610 1
806 612 0.993847
806 1274 0.00575605
806 1447 0.000396809
807 612 0.744108
807 1274 0.124624
807 1447 0.131269
808 613 0.619048
808 1209 0.333333
808 1221 0.047619
809 614 1
810 615 1
811 39 0.440886
811 69 0.159747
811 412 0.399368
812 617 1
813 136 0.222248
813 472 0.111007
813 619 0.583402
813 3050 0.0555621
813 3053 0.027781
814 244 1
815 25 0.107102
815 621 0.315141
815 1108 0.577757
816 622 0.9
816 650 0.0999999
817 623 0.5
817 2469 0.5
818 60 0.000216423
818 118 0.164824
818 625 0.505312
818 1582 0.164824
818 3413 0.164824
819 300 0.517001
819 625 0.482999
820 341 1
821 626 0.333333
821 3573 0.666667
822 304 0.0666844
822 627 0.666578
822 1207 0.133369
822 2774 0.0666845
822 3466 0.0666844
823 628 0.5
823 2330 0.5
824 242 0.499999
824 243 0.500001
825 629 1
826 468 1
827 631 1
828 9 0.267363
828 632 0.641148
828 3244 0.0914886
829 213 0.434236
829 633 0.188593
829 746 0.188592
829 747 0.188579
830 634 1
831 635 0.599997
831 766 0.400003
832 149 1
833 172 0.380339
833 173 0.366101
833 2560 0.25356
834 236 1
835 637 1
836 638 0.875
836 3149 0.125
837 639 1
838 640 1
839 9 1
840 641 1
841 97 0.933333
841 3045 0.0666667
842 9 1
843 424 0.218203
843 643 0.218204
843 1303 0.132737
843 1304 0.218204
843 2275 0.212652
844 644 1
845 341 1
846 645 1
847 349 1
848 646 1
849 192 0.052622
849 390 0.0526321
849 647 0.894746
850 648 1
851 33 0.923077
851 2845 0.0769231
852 649 0.75
852 3184 0.25
853 76 0.43932
853 1079 0.56068
854 44 0.250041
854 50 0.249959
854 56 0.249954
854 146 0.250046
855 650 0.295775
855 1303 0.0649519
855 1322 0.491386
855 1501 0.147887
856 651 1
857 9 0.697573
857 56 0.302427
858 652 0.923077
858 3554 0.0769231
859 9 1
860 627 1
861 9 1
862 653 1
863 346 0.888889
863 2006 0.111111
864 654 1
865 210 0.0238847
865 558 0.928509
865 731 0.0238079
865 824 0.0237981
866 626 0.666865
866 627 0.333135
867 655 1
868 76 0.000878416
868 242 0.24522
868 656 0.441398
868 957 0.0980884
868 2092 0.214415
869 9 0.232241
869 626 0.767759
870 357 1
871 364 1
872 658 1
873 25 8.17661e-05
873 192 0.627539
873 660 0.120528
873 703 0.131788
873 1261 1.90814e-05
873 2202 0.120044
874 234 1
875 661 1
876 210 0.497028
876 342 0.430204
876 3351 0.0727682
877 537 1
878 52 0.499524
878 662 0.500476
879 342 1
880 663 1
881 279 0.723258
881 1366 0.0328753
881 2283 0.197252
881 3182 0.0137389
881 3537 0.0328754
882 664 1
883 408 0.111111
883 665 0.888889
884 666 1
885 668 1
886 669 0.970372
886 792 0.00740561
886 936 0.0148148
886 2135 0.00740742
887 300 0.333333
887 3576 0.666667
888 39 0.656229
888 56 0.343771
889 39 0.653238
889 50 0.346762
890 670 1
891 52 0.666455
891 69 0.333545
892 627 1
893 104 0.626203
893 338 0.373797
894 56 5.38381e-06
894 60 4.21985e-05
894 382 0.294104
894 424 0.235283
894 1232 0.411745
894 1531 0.0588207
895 672 1
896 50 0.500151
896 56 0.499849
897 350 1
898 674 1
899 49 0.486919
899 56 0.0324539
899 69 0.480627
900 675 0.987545
900 997 0.0124551
901 676 1
902 677 1
903 678 1
904 679 1
905 680 0.0944949
905 1349 0.181552
905 2825 0.723953
906 191 0.999073
906 680 0.000927291
907 681 1
908 682 1
909 683 1
910 684 1
911 685 1
912 22 0.0746125
912 135 0.225107
912 380 0.0771261
912 541 0.0771417
912 924 0.0771417
912 1294 0.314588
912 2300 0.154283
913 686 1
914 22 0.285998
914 687 0.714002
915 50 0.33366
915 52 0.332694
915 56 0.333645
916 192 0.192307
916 258 0.0384615
916 688 0.653847
916 1014 0.0384616
916 1379 0.0384616
916 3701 0.0384616
917 689 1
918 690 1
919 52 0.3333
919 54 0.33335
919 146 0.33335
920 283 0.5
920 2024 0.5
921 692 1
922 693 1
923 694 1
924 695 1
925 696 1
926 697 1
927 698 1
928 699 1
929 700 0.000171688
929 959 0.999828
930 700 0.671
930 959 0.329
931 701 1
932 702 0.250002
932 935 0.375005
932 2961 0.249994
932 2964 0.124999
933 703 0.873524
933 3694 0.126476
934 704 1
935 706 1
936 708 1
937 709 1
938 693 1
939 710 1
940 711 1
941 671 0.98074
941 996 0.0192599
942 712 1
943 713 1
944 714 1
945 7 0.868559
945 192 0.0261778
945 279 0.0526236
945 2019 0.0263199
945 2541 0.02632
946 179 0.264864
946 192 0.0652642
946 300 0.00492827
946 304 0.599559
946 715 0.0653706
946 1259 1.41015e-05
947 716 0.25
947 846 0.25
947 2032 0.25
947 2053 0.25
948 9 0.333222
948 717 0.666778
949 718 1
950 77 0.999478
950 140 0.000522013
951 140 0.331822
951 209 0.334086
951 719 0.334092
952 720 0.999999
952 2801 1.26831e-06
953 721 1
954 192 0.333329
954 592 0.333332
954 722 0.33334
955 111 1
956 332 1
957 723 1
958 49 0.554906
958 410 0.445094
959 53 1
960 39 0.364074
960 410 0.635926
961 14 0.410593
961 39 0.454733
961 52 0.134675
962 725 0.246064
962 739 0.753936
963 15 0.961512
963 2178 0.038488
964 395 1
965 396 1
966 726 1
967 727 1
968 728 1
969 729 1
970 731 0.888889
970 2013 0.111111
971 732 1
972 258 0.500002
972 734 0.124996
972 735 0.125
972 1089 0.125001
972 1609 0.125001
973 736 1
974 39 0.453538
974 411 0.546462
975 737 1
976 738 1
977 122 1
978 742 0.500003
978 743 0.499997
979 425 0.500003
979 743 0.499997
980 743 0.499997
980 744 0.500003
981 39 0.119829
981 179 0.171737
981 1061 7.8364e-05
981 1257 0.0011568
981 1259 0.348813
981 1961 0.358386
982 310 1
983 67 0.0504362
983 250 0.317731
983 745 0.319799
983 890 0.00332518
983 1879 0.308709
984 250 0.613792
984 439 0.311023
984 443 0.0751847
985 184 0.43368
985 248 0.144561
985 799 0.421759
986 748 0.916667
986 1456 0.0833333
987 360 0.78568
987 361 0.21432
988 749 1
989 210 0.0528307
989 750 0.841928
989 970 0.105241
990 135 0.923077
990 751 0.0769231
991 684 0.333333
991 3369 0.666667
992 752 1
993 265 0.97746
993 2911 0.0108218
993 3071 0.0117184
994 22 1
995 5 5.52369e-05
995 12 0.760583
995 530 0.0350685
995 3071 0.10922
995 3526 0.095073
996 366 0.331998
996 648 0.668002
997 374 0.00857489
997 523 2.72705e-05
997 755 0.991398
998 754 0.0342341
998 756 0.482883
998 3672 0.482883
999 204 0.750009
999 246 0.125002
999 1670 0.124989
1000 759 0.399997
1000 1926 0.600003
1001 452 0.333333
1001 1170 0.333333
1001 2076 0.333333
1002 140 0.0666949
1002 684 0.933305
1003 752 1
1004 39 0.1264
1004 761 0.4992
1004 1019 0.2496
1004 2539 0.1248
1005 39 0.00132803
1005 49 0.998672
1006 474 0.500001
1006 821 0.499999
1007 184 1
1008 39 0.250002
1008 49 0.249373
1008 54 0.250313
1008 762 0.250313
1009 764 1
1010 765 1
1011 184 0.0505742
1011 202 0.00978911
1011 203 0.151662
1011 354 0.130635
1011 1258 0.65734
1012 44 0.499752
1012 52 0.000101208
1012 56 0.500147
1013 79 1
1014 54 1
1015 76 0.0002726
1015 534 0.999727
1016 242 0.454545
1016 625 0.454546
1016 1436 0.0909092
1017 765 1
1018 50 0.777711
1018 410 0.222289
1019 50 0.499418
1019 54 0.500582
1020 767 1
1021 768 1
1022 107 1
1023 360 0.999472
1023 361 0.000527555
1024 456 1
1025 119 1
1026 42 4.94333e-05
1026 55 0.0161896
1026 435 0.740731
1026 437 0.22464
1026 836 0.0183892
1027 769 1
1028 204 0.666667
1028 1506 0.333333
1029 42 0.727385
1029 52 0.0907678
1029 91 0.0909235
1029 509 0.0909235
1030 65 0.200405
1030 382 0.2073
1030 436 0.473836
1030 625 0.118459
1031 67 1
1032 39 0.33244
1032 52 0.333754
1032 411 0.333806
1033 435 0.228057
1033 437 0.771943
1034 39 0.491699
1034 50 0.253909
1034 410 0.254393
1035 771 1
1036 5 7.63887e-05
1036 50 0.333314
1036 56 0.333235
1036 67 0.333375
1037 39 5.12336e-05
1037 65 0.559522
1037 66 0.440427
1038 773 0.66677
1038 840 0.33323
1039 39 0.49541
1039 56 0.50459
1040 773 1
1041 5 0.00146463
1041 39 0.000879465
1041 54 0.33256
1041 56 0.332537
1041 762 0.332559
1042 774 1
1043 52 0.500073
1043 56 0.499927
1044 175 1
1045 50 0.285691
1045 54 0.285724
1045 69 0.285724
1045 412 0.142862
1046 49 0.470416
1046 67 0.529584
1047 781 1
1048 647 1
1049 162 1
1050 782 1
1051 783 0.833333
1051 1987 0.166667
1052 49 0.0416003
1052 50 0.239341
1052 56 0.239657
1052 146 0.479402
1053 291 0.5
1053 300 0.5
1054 784 1
1055 785 1
1056 71 0.928743
1056 789 0.0356286
1056 3561 0.0356286
1057 378 0.856678
1057 790 0.143322
1058 12 0.339838
1058 204 0.339838
1058 791 0.320324
1059 63 0.333554
1059 792 0.332664
1059 1951 0.333782
1060 12 0.666668
1060 265 0.333332
1061 141 1
1062 39 0.529968
1062 44 0.470032
1063 793 1
1064 9 1
1065 9 1
1066 794 1
1067 795 1
1068 797 0.15
1068 1185 0.85
1069 5 0.794396
1069 203 0.205604
1070 218 1
1071 798 1
1072 799 0.770686
1072 1923 0.152876
1072 1939 0.0764381
1073 800 1
1074 801 1
1075 802 1
1076 803 1
1077 804 1
1078 805 1
1079 12 0.817911
1079 39 7.42578e-07
1079 107 0.0606438
1079 806 0.0607089
1079 1079 0.0607089
1079 1945 2.68858e-05
1080 9 0.000830063
1080 25 0.35396
1080 88 0.0129618
1080 286 0.141816
1080 453 0.477463
1080 1265 0.012969
1080 1883 3.93298e-07
1081 807 1
1082 491 0.601844
1082 1154 0.100292
1082 1828 0.10031
1082 3220 0.0972435
1082 3287 0.10031
1083 808 1
1084 809 1
1085 810 1
1086 9 1
1087 811 1
1088 812 1
1089 813 1
1090 814 0.5
1090 816 0.5
1091 815 1
1092 816 1
1093 817 1
1094 9 0.249658
1094 22 0.250111
1094 818 0.250115
1094 3278 0.250116
1095 22 2.11265e-05
1095 818 0.999979
1096 819 1
1097 9 0.8
1097 60 0.2
1098 9 1
1099 755 0.000133105
1099 821 0.922954
1099 1384 0.0384566
1099 1881 0.0384566
1100 823 1
1101 49 0.500021
1101 52 0.499979
1102 825 1
1103 22 0.278938
1103 46 0.630941
1103 475 0.0450542
1103 2987 0.0450672
1104 60 0.0648671
1104 76 0.199749
1104 268 0.0668531
1104 818 0.534825
1104 1096 0.0668531
1104 3282 0.0668531
1105 39 4.38061e-05
1105 826 0.999956
1106 827 1
1107 828 0.967737
1107 2316 0.0230414
1107 2817 0.00922175
1108 49 1
1109 829 1
1110 830 1
1111 831 1
1112 194 0.385249
1112 435 0.252473
1112 826 0.0517992
1112 1301 0.0517992
1112 1458 0.0517986
1112 1670 0.0514923
1112 2301 0.155388
1113 833 1
1114 834 1
1115 608 0.375
1115 1427 0.625
1116 835 1
1117 837 1
1118 838 1
1119 839 1
1120 184 0.285486
1120 202 0.00066525
1120 248 0.428273
1120 354 3.46e-06
1120 839 0.0714364
1120 840 0.0713787
1120 1731 0.142758
1121 39 0.497635
1121 54 0.502365
1122 842 0.266667
1122 1133 0.466667
1122 1134 0.0666648
1122 1135 0.200001
1123 33 0.75
1123 844 0.25
1124 317 0.5
1124 1371 0.5
1125 260 1
1126 845 1
1127 749 0.75
1127 3036 0.25
1128 244 1
1129 9 0.000312566
1129 847 0.999687
1130 386 1
1131 848 0.887926
1131 1631 0.110991
1131 3464 5.21251e-05
1131 3611 0.0010316
1132 9 0.000503203
1132 849 0.666331
1132 1496 0.333166
1133 77 0.85
1133 612 0.15
1134 50 0.499735
1134 52 0.500265
1135 435 0.970945
1135 2642 0.0290551
1136 184 0.0513451
1136 851 0.0018687
1136 856 0.667652
1136 996 0.0223446
1136 2031 0.256789
1137 853 1
1138 463 1
1139 855 1
1140 39 0.49949
1140 52 0.50051
1141 343 1
1142 184 1
1143 857 1
1144 5 0.91755
1144 865 0.0812171
1144 1624 0.00123333
1145 154 1
1146 629 1
1147 858 0.285714
1147 1488 0.714286
1148 597 0.125
1148 859 0.75
1148 1065 0.125
1149 74 0.75
1149 3258 0.25
1150 242 0.0714271
1150 243 0.0714287
1150 313 0.857144
1151 860 0.666667
1151 2104 0.333333
1152 389 0.941196
1152 806 0.0588043
1153 861 1
1154 862 0.894599
1154 1178 0.105401
1155 863 1
1156 49 0.333203
1156 56 0.333378
1156 69 0.333418
1157 309 0.467519
1157 864 0.532481
1158 865 0.871278
1158 1309 0.0322793
1158 1315 0.0322831
1158 1388 0.032283
1158 1624 0.0318766
1159 52 0.499777
1159 107 0.500223
1160 5 0.957221
1160 1624 0.0213893
1160 3051 0.0213893
1161 50 0.500058
1161 56 0.499942
1162 54 0.5
1162 107 0.5
1163 866 0.999999
1163 870 8.13347e-07
1164 867 0.75
1164 2190 0.25
1165 868 0.9
1165 3146 0.1
1166 348 1
1167 869 1
1168 332 0.510695
1168 870 0.451111
1168 2134 0.0381934
1169 487 0.6
1169 1075 0.4
1170 39 0.419086
1170 55 0.0446866
1170 56 0.0446743
1170 233 0.446866
1170 320 0.0446865
1171 871 0.705882
1171 2112 0.294118
1172 39 0.656434
1172 44 0.343566
1173 872 1
1174 165 1
1175 39 0.959855
1175 132 4.97895e-05
1175 2640 0.040095
1176 39 0.333203
1176 56 0.332852
1176 69 0.333944
1177 50 0.481347
1177 56 0.300603
1177 233 0.158018
1177 2688 0.0600327
1178 873 1
1179 874 0.736842
1179 937 0.263158
1180 875 0.75
1180 1556 0.25
1181 15 0.821758
1181 1227 0.118835
1181 2547 0.0594071
1182 56 0.499942
1182 107 0.468804
1182 310 0.0312536
1183 479 0.666667
1183 956 0.166667
1183 2085 0.166667
1184 387 1
1185 66 1
1186 63 0.97559
1186 389 0.0244102
1187 477 1
1188 49 0.499764
1188 56 0.472442
1188 233 0.0277939
1189 876 0.666667
1189 3201 0.333333
1190 49 0.485221
1190 67 0.514779
1191 877 1
1192 49 0.487521
1192 233 0.512479
1193 535 1
1194 387 1
1195 878 1
1196 864 1
1197 274 4.07075e-06
1197 393 0.00284986
1197 890 0.529675
1197 1632 0.467472
1198 862 1
1199 862 0.000419543
1199 2667 0.161261
1199 2669 0.838319
1200 879 0.6
1200 3023 0.4
1201 49 0.333717
1201 50 0.666283
1202 39 7.73801e-06
1202 52 0.961532
1202 107 0.0384607
1203 49 0.123026
1203 67 0.876974
1204 314 1
1205 39 0.495443
1205 50 0.504557
1206 44 0.32432
1206 56 0.324325
1206 66 0.324327
1206 1542 0.0270273
1207 314 0.0201259
1207 468 0.979874
1208 880 0.2
1208 894 0.2
1208 1870 0.6
1209 385 1
1210 881 1
1211 9 1
1212 306 0.142791
1212 459 0.571473
1212 882 0.142868
1212 2715 0.142868
1213 883 0.166667
1213 1758 0.833333
1214 884 0.0625
1214 1123 0.9375
1215 80 0.0848319
1215 306 0.304924
1215 459 0.152754
1215 885 0.152497
1215 1509 0.152497
1215 1514 0.152497
1216 886 1
1217 887 0.222222
1217 897 0.777778
1218 888 0.0714286
1218 1271 0.928571
1219 889 1
1220 52 0.499993
1220 69 0.500007
1221 250 6.11435e-05
1221 890 0.999939
1222 891 1
1223 892 1
1224 386 0.500064
1224 893 0.125017
1224 896 0.374919
1225 242 0.333333
1225 243 0.333333
1225 313 0.333334
1226 895 1
1227 250 1
1228 893 0.0666667
1228 896 0.733333
1228 1625 0.2
1229 395 0.188782
1229 396 0.760505
1229 2009 0.0507136
1230 601 0.333333
1230 898 0.666667
1231 899 0.333333
1231 1678 0.666667
1232 901 1
1233 902 1
1234 903 1
1235 904 1
1236 905 1
1237 896 0.000539771
1237 906 0.99946
1238 861 1
1239 907 1
1240 553 1
1241 617 0.1
1241 1331 0.9
1242 9 1
1243 909 1
1244 910 1
1245 9 1
1246 911 1
1247 912 1
1248 9 0.00159423
1248 332 0.259029
1248 366 0.0353485
1248 870 0.565669
1248 2134 0.102975
1248 3441 0.0353849
1249 39 6.4731e-05
1249 44 0.349412
1249 49 0.350005
1249 66 0.300519
1250 386 0.499998
1250 896 0.500002
1251 71 1
1252 914 1
1253 915 1
1254 916 1
1255 49 0.492549
1255 69 0.0722928
1255 412 0.435158
1256 116 1
1257 87 0.5
1257 917 0.5
1258 96 1
1259 918 1
1260 192 0.319754
1260 919 0.680246
1261 920 1
1262 468 1
1263 309 0.331002
1263 921 0.668998
1264 923 1
1265 925 0.950002
1265 927 0.0499976
1266 9 1
1267 926 0.999949
1267 927 5.10889e-05
1268 915 1
1269 928 1
1270 930 1
1271 9 1
1272 931 1
1273 134 0.110693
1273 913 0.00376169
1273 932 0.774852
1273 3491 0.110693
1274 933 1
1275 283 1
1276 934 1
1277 11 1
1278 11 9.43381e-05
1278 669 0.78564
1278 936 0.214265
1279 938 1
1280 939 1
1281 940 1
1282 941 1
1283 942 1
1284 942 1
1285 184 0.249992
1285 943 0.250003
1285 2941 0.500005
1286 944 1
1287 945 1
1288 946 1
1289 947 1
1290 5 0.199852
1290 184 0.400034
1290 948 0.200057
1290 3443 0.200057
1291 49 0.496104
1291 54 0.137331
1291 411 0.366564
1292 949 0.666667
1292 2080 0.333333
1293 950 1
1294 951 1
1295 50 0.499992
1295 69 0.444451
1295 758 0.0555564
1296 952 0.272727
1296 1094 0.363636
1296 2773 0.363636
1297 890 0.5
1297 953 0.5
1298 954 0.230769
1298 1072 0.769231
1299 955 0.333333
1299 1086 0.666667
1300 124 1
1301 958 0.666667
1301 1843 0.333333
1302 47 0.500051
1302 63 0.499949
1303 44 0.333267
1303 56 0.333359
1303 69 0.333374
1304 47 0.500013
1304 309 0.499987
1305 47 0.500407
1305 80 0.499593
1306 47 0.500565
1306 63 0.499435
1307 56 0.47612
1307 69 0.476436
1307 309 0.0474437
1308 541 0.221246
1308 924 0.111251
1308 960 0.445003
1308 1276 0.111251
1308 3541 0.111251
1309 47 1
1310 821 0.5
1310 961 0.25
1310 2553 0.25
1311 963 1
1312 47 0.587693
1312 309 0.412307
1313 964 0.9
1313 3691 0.1
1314 9 0.112118
1314 309 0.0697568
1314 917 0.818125
1315 9 0.480401
1315 47 0.519599
1316 173 1
1317 965 1
1318 966 1
1319 25 1
1320 967 1
1321 706 1
1322 968 1
1323 969 0.571429
1323 1015 0.142857
1323 1812 0.142857
1323 3427 0.142857
1324 9 1
1325 314 1
1326 314 0.837442
1326 487 7.64002e-05
1326 869 2.86111e-05
1326 1075 0.162443
1326 2145 9.87832e-06
1327 101 1
1328 113 1
1329 39 0.490247
1329 310 0.509753
1330 972 1
1331 379 0.120052
1331 846 0.490233
1331 973 0.0220403
1331 975 0.245116
1331 2814 0.122558
1332 786 0.428235
1332 973 0.543569
1332 976 0.0281965
1333 974 0.923077
1333 1665 0.0769231
1334 553 1
1335 63 1
1336 977 1
1337 9 1
1338 9 1
1339 980 1
1340 39 1
1341 981 0.733059
1341 3162 0.266941
1342 58 1
1343 982 1
1344 50 0.000351244
1344 55 0.0816266
1344 80 0.102178
1344 475 0.407922
1344 983 0.101981
1344 984 0.305942
1345 9 1
1346 9 1
1347 985 1
1348 215 1
1349 847 1
1350 9 1
1351 224 0.294457
1351 1062 0.0588634
1351 1618 0.64668
1352 9 0.00192097
1352 987 0.998079
1353 224 0.727218
1353 1486 0.0909272
1353 2784 0.0909274
1353 2785 0.0909274
1354 9 0.922874
1354 632 0.0771263
1355 988 1
1356 989 1
1357 332 1
1358 52 0.334263
1358 54 0.334316
1358 56 0.331421
1359 224 1
1360 819 1
1361 49 0.495238
1361 52 0.504762
1362 63 0.497096
1362 991 0.502904
1363 994 1
1364 39 0.499209
1364 50 0.500791
1365 42 0.333712
1365 132 0.332576
1365 3080 0.333712
1366 821 1
1367 62 1
1368 280 1
1369 170 1
1370 998 1
1371 999 0.25
1371 1679 0.75
1372 1000 1
1373 720 0.6
1373 1001 0.4
1374 22 0.500002
1374 132 0.499998
1375 1002 1
1376 1003 1
1377 76 1
1378 80 0.999999
1378 201 8.33249e-07
1379 39 0.325455
1379 56 0.337223
1379 107 0.337321
1380 1000 1
1381 1004 1
1382 3 1
1383 1005 1
1384 1006 1
1385 9 1
1386 1007 1
1387 1008 1
1388 1009 1
1389 25 1
1390 1010 1
1391 1011 1
1392 1012 1
1393 1013 1
1394 9 1
1395 1014 1
1396 261 1
1397 285 0.265913
1397 760 0.734087
1398 1016 1
1399 1017 1
1400 1018 1
1401 179 0.769738
1401 755 0.0766217
1401 1961 0.0769738
1401 2197 0.0766665
1402 9 1
1403 1020 1
1404 1021 1
1405 1023 1
1406 1024 1
1407 1025 1
1408 1026 1
1409 1029 0.5
1409 2724 0.5
1410 1030 1
1411 1031 1
1412 11 0.0833531
1412 153 0.350133
1412 154 0.000251314
1412 424 0.330304
1412 913 0.0826272
1412 1303 0.000182645
1412 2568 0.153148
1413 60 0.496867
1413 1030 0.503133
1414 1033 1
1415 1034 1
1416 1035 1
1417 1036 1
1418 1037 1
1419 1038 1
1420 1039 1
1421 1040 1
1422 298 0.75
1422 3000 0.25
1423 1041 1
1424 864 1
1425 1042 1
1426 1043 1
1427 1044 1
1428 1045 1
1429 9 1
1430 790 1
1431 1046 1
1432 1047 1
1433 911 1
1434 1048 1
1435 669 1
1436 95 0.0613545
1436 890 0.102834
1436 980 0.835686
1436 1113 0.00012607
1437 488 0.903503
1437 2792 0.0964975
1438 1049 1
1439 80 1
1440 1050 1
1441 9 0.0846564
1441 1051 0.903235
1441 2141 0.0121083
1442 1051 1
1443 1052 1
1444 1053 1
1445 1054 1
1446 1055 1
1447 1056 1
1448 1057 1
1449 1058 0.998377
1449 3211 0.00162296
1450 49 0.00684299
1450 1059 0.993157
1451 39 0.927776
1451 1060 0.0722242
1452 1060 1
1453 1063 0.666667
1453 1113 0.333333
1454 1064 1
1455 1066 1
1456 1067 1
1457 298 0.6687
1457 1524 0.3313
1458 1069 0.236001
1458 1207 0.534799
1458 1225 0.1528
1458 3527 0.0763999
1459 863 1
1460 39 0.103596
1460 49 0.000856584
1460 332 0.00831774
1460 862 0.88723
1461 470 1
1462 15 1
1463 39 0.332815
1463 50 0.333758
1463 52 0.333427
1464 13 1
1465 13 0.425648
1465 1070 0.143588
1465 1582 0.430764
1466 1071 1
1467 276 1
1468 1073 1
1469 1074 1
1470 574 1
1471 172 1
1472 10 0.250005
1472 587 0.499996
1472 3506 0.249998
1473 86 0.200004
1473 457 0.599993
1473 1359 0.200003
1474 1077 1
1475 1078 1
1476 140 0.5
1476 1079 0.333333
1476 3713 0.166667
1477 1080 1
1478 1081 1
1479 371 0.167045
1479 857 0.33409
1479 1083 0.33409
1479 2035 0.164776
1480 1084 0.8
1480 2048 0.2
1481 5 0.317609
1481 14 0.17739
1481 63 1.03269e-05
1481 66 0.289635
1481 67 0.215356
1482 1085 1
1483 862 1
1484 39 1
1485 475 1
1486 67 1
1487 88 1
1488 486 1
1489 13 1
1490 251 1
1491 468 1
1492 233 1
1493 955 0.5
1493 1086 0.5
1494 487 0.830319
1494 1075 0.116699
1494 2145 0.0529815
1495 84 1
1496 114 0.8
1496 1638 0.2
1497 1087 1
1498 1088 0.666667
1498 2189 0.333333
1499 76 9.73766e-05
1499 246 0.0814122
1499 333 0.787251
1499 1595 0.131239
1500 25 0.25
1500 619 0.5
1500 881 0.25
1501 271 1
1502 271 0.706907
1502 1180 0.293093
1503 1090 1
1504 253 1
1505 892 1
1506 1091 1
1507 1092 1
1508 1093 1
1509 9 1
1510 1094 1
1511 382 0.166667
1511 1535 0.833333
1512 1095 1
1513 250 1
1514 1097 1
1515 1098 1
1516 769 1
1517 2652 0.000399189
1517 2671 1.68757e-05
1517 2672 0.499792
1517 2708 0.499792
1518 1099 1
1519 2753 1
1520 5 0.106565
1520 619 0.746235
1520 1100 0.0406426
1520 3632 0.106557
1521 1100 0.990166
1521 1101 0.00983359
1522 1101 0.248846
1522 1278 0.751154
1523 1104 1
1524 1105 0.5
1524 1106 0.5
1525 1107 1
1526 54 0.335118
1526 132 0.329421
1526 680 0.335462
1527 192 0.397175
1527 193 0.552589
1527 3052 0.0502358
1528 1111 0.5
1528 3150 0.5
1529 1112 1
1530 382 0.499999
1530 983 0.500001
1531 63 1
1532 9 0.420039
1532 378 0.579961
1533 939 0.00914727
1533 2998 0.990853
1534 1114 1
1535 1115 1
1536 632 0.00295471
1536 1116 0.797648
1536 1117 0.199398
1537 4 0.25
1537 1284 0.5
1537 1426 0.25
1538 140 0.035854
1538 1119 0.964146
1539 209 0.666667
1539 2231 0.25
1539 2963 0.0833333
1540 1122 1
1541 1124 1
1542 1125 1
1543 137 1
1544 1126 0.7
1544 2232 0.1
1544 3363 0.2
1545 1127 1
1546 1128 1
1547 192 0.461536
1547 1129 0.538464
1548 1130 1
1549 239 1
1550 535 1
1551 309 0.833329
1551 406 0.166671
1552 894 1
1553 495 0.5
1553 1131 0.5
1554 39 0.248261
1554 49 0.250535
1554 50 0.250681
1554 52 0.250523
1555 1132 0.25
1555 1137 0.249999
1555 1138 0.25
1555 2055 0.25
1556 25 0.189951
1556 1139 0.202512
1556 1140 0.202512
1556 1246 0.405025
1557 1141 1
1558 549 0.805072
1558 807 0.194928
1559 1142 1
1560 664 1
1561 404 1
1562 9 1
1563 1143 1
1564 1144 0.5
1564 1145 0.5
1565 1146 1
1566 5 1.14804e-05
1566 13 0.373726
1566 1471 0.0925479
1566 1840 0.0925479
1566 2504 0.25607
1566 3510 0.185096
1567 104 1
1568 1148 1
1569 3266 1
1570 1149 1
1571 68 0.00389033
1571 170 0.391461
1571 854 0.360965
1571 2276 0.243684
1572 1150 1
1573 88 0.00374251
1573 1317 0.367962
1573 2938 0.422267
1573 2949 0.00110131
1573 2950 0.204927
1574 13 0.466232
1574 295 0.533768
1575 1151 1
1576 1152 0.2
1576 1733 0.6
1576 2622 0.2
1577 1153 0.999814
1577 1154 0.000185647
1578 1155 1
1579 1156 1
1580 523 1.84644e-06
1580 531 0.211324
1580 532 0.317796
1580 758 0.200831
1580 1157 0.105948
1580 2938 0.00243786
1580 2950 0.0557142
1580 3235 0.105947
1581 1158 1
1582 1159 1
1583 1160 1
1584 1161 1
1585 1162 1
1586 340 0.714241
1586 3461 0.285759
1587 385 1
1588 703 1
1589 1166 0.875
1589 2327 0.125
1590 33 0.25
1590 636 0.25
1590 1239 0.249999
1590 1240 0.25
1591 1086 1
1592 1170 1
1593 740 0.000808459
1593 1173 0.999192
1594 1075 1
1595 39 0.66613
1595 50 0.33387
1596 389 1
1597 95 0.20255
1597 862 0.091415
1597 1178 0.706035
1598 866 0.18994
1598 1175 0.101257
1598 1550 0.303772
1598 1581 0.40503
1599 49 0.333241
1599 52 0.333319
1599 69 0.33344
1600 39 0.332853
1600 54 0.333976
1600 56 0.333171
1601 1079 0.0909093
1601 1176 0.909091
1602 50 0.666601
1602 52 0.333399
1603 39 0.490615
1603 50 0.509385
1604 219 1
1605 52 0.499993
1605 54 0.500007
1606 1176 1
1607 510 1
1608 1177 1
1609 380 1
1610 962 1
1611 13 1
1612 1179 0.143635
1612 2086 0.430904
1612 2769 0.393788
1612 2775 0.0316737
1613 183 0.833333
1613 1994 0.166667
1614 1181 0.499997
1614 1182 0.500003
1615 242 0.240813
1615 565 0.189528
1615 2081 0.000314042
1615 2200 0.189528
1615 2202 0.000760605
1615 2203 0.189528
1615 3083 0.189528
1616 313 0.73106
1616 1080 0.26894
1617 1184 1
1618 1185 1
1619 959 1
1620 49 0.501839
1620 50 0.498161
1621 1186 1
1622 767 1
1623 1187 1
1624 1188 1
1625 224 1
1626 821 1
1627 127 1
1628 7 1
1629 285 1
1630 1189 1
1631 919 0.5
1631 1190 0.5
1632 58 1
1633 1191 1
1634 1192 1
1635 289 0.255143
1635 290 0.53149
1635 306 0.0711454
1635 315 0.0711111
1635 881 0.0711111
1636 1193 1
1637 1194 0.5
1637 1278 0.5
1638 804 1
1639 1195 1
1640 1196 1
1641 1197 1
1642 1199 1
1643 503 1
1644 210 0.870258
1644 1068 0.0226218
1644 1429 0.0290085
1644 2350 0.0781112
1645 1200 1
1646 1203 1
1647 205 0.0714464
1647 304 0.78591
1647 382 0.0357223
1647 627 0.0711983
1647 3374 0.0357232
1648 1204 1
1649 9 1
1650 9 0.665116
1650 1205 0.334884
1651 459 0.764665
1651 1499 0.176501
1651 1500 0.0588337
1652 306 1
1653 1208 1
1654 1199 0.888889
1654 1220 0.111111
1655 49 0.0883326
1655 386 0.101177
1655 1074 0.303934
1655 1210 0.202623
1655 1218 0.202623
1655 1581 0.101311
1656 1112 1
1657 942 1
1658 1212 1
1659 228 1
1660 1213 1
1661 1214 0.958973
1661 2911 0.0410266
1662 1216 1
1663 398 0.375
1663 1218 0.5
1663 1572 0.125
1664 1219 1
1665 306 0.333256
1665 459 0.666744
1666 221 1
1667 192 0.49764
1667 555 0.50236
1668 221 0.894737
1668 1298 0.105263
1669 1222 1
1670 859 1
1671 1227 1
1672 425 0.498927
1672 2273 0.415773
1672 2914 0.0853003
1673 1228 1
1674 4 0.25
1674 1229 0.25
1674 1606 0.5
1675 80 0.000807219
1675 341 0.893988
1675 626 0.0526172
1675 1508 0.0525875
1676 60 0.470927
1676 626 0.529073
1677 709 0.000347996
1677 1233 0.999652
1678 86 0.142513
1678 192 0.429945
1678 457 0.0712569
1678 555 0.213771
1678 1300 0.0712569
1678 1376 0.0712569
1679 1237 0.9
1679 2229 0.1
1680 1238 1
1681 168 0.75
1681 1311 0.125
1681 1486 0.125
1682 1243 1
1683 551 1
1684 1244 1
1685 1245 0.875
1685 3712 0.125
1686 1248 1
1687 11 0.203512
1687 1249 0.796488
1688 1197 1
1689 1250 0.933333
1689 3368 0.0666667
1690 1253 1
1691 1254 0.5
1691 1381 0.25
1691 1408 0.25
1692 39 0.335721
1692 44 0.172709
1692 49 0.257822
1692 56 0.147373
1692 146 0.0863754
1693 1255 1
1694 1256 0.117647
1694 1671 0.882353
1695 39 0.365762
1695 44 0.0791782
1695 50 0.0791711
1695 56 0.237891
1695 146 0.237999
1696 49 0.499847
1696 54 0.250084
1696 56 0.250069
1697 179 0.926386
1697 1259 0.0736138
1698 1259 3.39471e-05
1698 1260 0.999966
1699 1262 1
1700 230 0.5
1700 756 0.5
1701 786 1
1702 22 1
1703 21 0.797235
1703 1565 0.0996544
1703 1879 0.00345685
1703 2613 0.0996539
1704 1263 1
1705 11 0.495173
1705 1264 0.504827
1706 72 0.0384615
1706 549 0.961538
1707 1266 1
1708 1267 1
1709 1270 1
1710 515 0.666667
1710 2278 0.333333
1711 1243 1
1712 154 0.333333
1712 1302 0.333333
1712 2087 0.333333
1713 1277 1
1714 1278 0.500003
1714 1279 0.499997
1715 1280 1
1716 1281 1
1717 1282 1
1718 1283 1
1719 1285 1
1720 457 0.166667
1720 866 0.833333
1721 1286 1
1722 1287 1
1723 37 0.580258
1723 1878 0.168462
1723 2835 0.0482646
1723 3105 0.201399
1723 3594 0.0016163
1724 136 0.166713
1724 1288 0.166713
1724 2652 0.33316
1724 2671 0.333415
1725 1289 1
1726 210 0.33333
1726 457 0.333335
1726 3359 0.333335
1727 103 1
1728 1292 1
1729 1219 0.666667
1729 2140 0.333333
1730 1293 1
1731 25 0.600001
1731 1332 0.2
1731 3426 0.199999
1732 30 0.667178
1732 219 0.332822
1733 114 0.504033
1733 509 0.327932
1733 3631 0.168035
1734 1294 1
1735 1295 1
1736 304 0.993755
1736 1296 0.00624544
1737 354 0.333668
1737 861 0.333166
1737 1297 0.333166
1738 622 1.74188e-05
1738 1303 0.14643
1738 1322 0.518957
1738 1501 0.296547
1738 1529 0.0370683
1738 2275 0.000980076
1739 486 1
1740 1305 0.5
1740 3373 0.5
1741 1306 1
1742 535 0.799615
1742 870 0.111536
1742 1307 0.0888487
1743 230 0.00746893
1743 1308 0.992531
1744 1310 0.333333
1744 1552 0.666667
1745 11 1
1746 535 0.249237
1746 551 0.250254
1746 915 0.250254
1746 1956 0.250254
1747 241 1
1748 636 1
1749 192 0.462213
1749 715 0.537787
1750 25 0.999694
1750 279 0.000306123
1751 380 0.000100923
1751 1313 0.999899
1752 1314 1
1753 386 0.199755
1753 1074 0.200081
1753 1210 0.200081
1753 1581 0.400083
1754 1319 1
1755 259 1
1756 1320 0.75
1756 1662 0.25
1757 3188 1
1758 1321 1
1759 1325 1
1760 1326 1
1761 468 0.5
1761 1324 0.5
1762 382 0.333385
1762 424 0.333386
1762 622 0.333229
1763 1329 1
1764 1330 1
1765 1331 1
1766 3 1.7965e-05
1766 1323 0.999982
1767 457 1
1768 695 1
1769 1326 1
1770 76 1
1771 1336 1
1772 932 0.5
1772 3698 0.5
1773 1340 0.111111
1773 1700 0.888889
1774 1341 1
1775 1342 1
1776 1343 1
1777 1345 0.5
1777 1346 0.5
1778 192 0.499995
1778 1347 0.500005
1779 630 0.5
1779 1308 0.5
1780 1348 0.5
1780 2850 0.5
1781 122 0.5
1781 592 0.5
1782 192 0.282945
1782 324 0.0597546
1782 1234 0.6573
1783 1108 0.499334
1783 1351 0.500666
1784 1352 0.500111
1784 1945 0.499889
1785 15 0.999951
1785 1377 4.93038e-05
1786 12 0.25
1786 382 0.25
1786 857 0.25
1786 1354 0.25
1787 565 0.5
1787 1355 0.5
1788 1359 1
1789 214 0.5
1789 1360 0.5
1790 63 1
1791 1114 1
1792 7 0.200329
1792 279 0.199915
1792 1364 0.199919
1792 2544 0.199919
1792 2768 0.199919
1793 1365 1
1794 1367 0.428571
1794 2285 0.571429
1795 208 0.750332
1795 358 0.249636
1795 1528 3.19314e-05
1796 386 0.601947
1796 870 0.142762
1796 1666 8.02958e-05
1796 2302 0.255211
1797 1370 1
1798 531 0.333333
1798 636 0.666667
1799 713 1
1800 5 1
1801 731 0.777783
1801 2013 0.111112
1801 2816 0.111105
1802 1372 1
1803 1373 1
1804 1126 1
1805 1374 1
1806 470 1
1807 456 0.25
1807 464 0.25
1807 683 0.25
1807 3549 0.25
1808 1375 1
1809 1243 1
1810 1380 1
1811 11 0.498027
1811 86 0.501973
1812 401 0.874858
1812 1288 0.125142
1813 1383 1
1814 104 0.499931
1814 1386 0.500069
1815 357 1
1816 9 0.329368
1816 1387 0.670632
1817 231 0.714286
1817 1269 0.142857
1817 1390 0.142857
1818 1391 1
1819 137 0.166463
1819 427 0.166445
1819 1201 0.166463
1819 1392 0.166463
1819 2078 0.166463
1819 3352 0.167704
1820 294 0.334139
1820 421 0.33414
1820 1393 0.331721
1821 192 0.044693
1821 457 0.86282
1821 1300 0.00164581
1821 1438 0.0908407
1822 350 1
1823 234 1
1824 470 1
1825 5 0.197545
1825 140 0.200619
1825 1395 0.601837
1826 1396 1
1827 96 0.5
1827 2251 0.5
1828 1397 1
1829 1398 1
1830 1399 1
1831 1400 1
1832 1401 1
1833 1402 1
1834 257 1
1835 40 0.198423
1835 1403 0.601183
1835 3507 0.200394
1836 1404 0.5
1836 2240 0.5
1837 1383 1
1838 1406 1
1839 1407 1
1840 1343 1
1841 1410 1
1842 1411 1
1843 1412 0.666668
1843 1421 0.333333
1844 250 1
1845 213 1
1846 1416 0.5
1846 1417 0.166667
1846 1443 0.333333
1847 246 0.333333
1847 373 0.333333
1847 1418 0.333333
1848 1419 1
1849 1420 1
1850 1421 1
1851 154 0.4
1851 1067 0.6
1852 154 1
1853 802 1
1854 1428 1
1855 1430 1
1856 283 0.249996
1856 565 0.249996
1856 2638 0.499991
1856 3542 1.77098e-05
1857 1431 1
1858 223 1
1859 1432 0.875
1859 2047 0.125
1860 1433 1
1861 241 1
1862 139 0.499998
1862 1434 0.500002
1863 1065 0.969449
1863 1435 0.0305513
1864 510 1
1865 5 1
1866 43 0.499794
1866 1436 0.500206
1867 1446 0.888889
1867 1663 0.111111
1868 289 1
1869 1448 1
1870 1449 1
1871 1450 1
1872 1451 1
1873 1452 1
1874 63 0.499883
1874 1454 0.500117
1875 1455 1
1876 924 0.99998
1876 1405 2.03193e-05
1877 622 0.5
1877 1501 0.5
1878 1107 1
1879 503 1
1880 1457 1
1881 1460 1
1882 215 1
1883 224 1
1884 1462 1
1885 811 1
1886 484 1
1887 13 0.293911
1887 1463 0.235363
1887 1980 0.470726
1888 1464 1
1889 1465 1
1890 1466 1
1891 111 1
1892 1467 1
1893 1468 1
1894 1470 1
1895 3275 1
1896 1477 1
1897 1478 0.5
1897 3513 0.5
1898 1479 0.5
1898 1480 0.5
1899 1113 1
1900 1481 1
1901 819 0.128754
1901 862 0.613726
1901 984 0.25752
1902 1482 1
1903 459 0.857143
1903 882 0.142857
1904 251 1
1905 1163 1
1906 1483 1
1907 1485 1
1908 49 0.498933
1908 52 0.250484
1908 56 0.250583
1909 1487 1
1910 35 1
1911 50 1
1912 39 0.498142
1912 52 0.501843
1912 210 1.45441e-05
1913 1491 0.5
1913 3529 0.5
1914 1492 0.916667
1914 3212 0.0833333
1915 270 0.5
1915 3501 0.5
1916 2 0.501776
1916 39 0.121893
1916 593 0.125443
1916 2697 0.250888
1917 39 0.750514
1917 49 0.249486
1918 39 0.323244
1918 49 0.338088
1918 54 0.338668
1919 39 0.658454
1919 56 0.341546
1920 364 1
1921 52 0.333506
1921 56 0.332928
1921 146 0.333566
1922 39 0.328817
1922 49 0.335292
1922 146 0.335891
1923 1497 1
1924 39 0.499317
1924 107 0.500683
1925 39 0.500075
1925 49 0.499925
1926 26 1
1927 749 1
1928 52 0.333419
1928 56 0.666581
1929 39 0.33308
1929 50 0.333965
1929 56 0.332955
1930 362 1
1931 1498 1
1932 39 0.332945
1932 49 0.333889
1932 56 0.333166
1933 39 0.743334
1933 107 0.256666
1934 9 1
1935 365 1
1936 39 0.331571
1936 50 0.334206
1936 107 0.334223
1937 50 0.220817
1937 114 0.114394
1937 2665 0.664789
1938 826 1
1939 635 1
1940 209 0.181818
1940 1503 0.727273
1940 3299 0.0909091
1941 171 1
1942 1504 1
1943 1505 1
1944 149 1
1945 378 1
1946 821 1
1947 189 1
1948 1510 1
1949 587 0.666667
1949 1511 0.333333
1950 814 1
1951 1416 0.5
1951 1443 0.5
1952 1512 1
1953 1516 1
1954 457 1
1955 1517 1
1956 31 1
1957 76 0.118593
1957 80 0.503426
1957 201 0.125994
1957 563 0.125994
1957 984 0.125994
1958 187 1
1959 1521 1
1960 617 1
1961 1226 0.5
1961 1523 0.5
1962 231 1
1963 10 0.139134
1963 556 0.137933
1963 854 0.166401
1963 1198 0.139134
1963 1525 0.139131
1963 2176 0.139134
1963 2956 0.139134
1964 748 1
1965 221 1
1966 229 0.428572
1966 252 0.142857
1966 469 0.142857
1966 820 0.285714
1967 419 1
1968 566 1
1969 1079 1
1970 9 0.315347
1970 775 0.513506
1970 1528 0.171147
1971 826 1
1972 29 0.33321
1972 300 0.33321
1972 755 0.000371111
1972 2839 0.33321
1973 385 0.144595
1973 622 0.855405
1974 455 1
1975 1288 0.416665
1975 1532 0.583331
1975 1533 4.18856e-06
1976 47 1
1977 13 0.503517
1977 49 0.496483
1978 587 0.05
1978 1534 0.95
1979 1535 1
1980 114 1
1981 1536 1
1982 1537 1
1983 1503 1
1984 1537 1
1985 306 1
1986 1538 1
1987 213 0.820998
1987 401 0.179002
1988 847 1
1989 114 1
1990 1485 0.75
1990 3151 0.25
1991 484 1
1992 1008 0.666667
1992 3152 0.333333
1993 1539 1
1994 1540 0.5
1994 3155 0.5
1995 1541 0.75
1995 3156 0.25
1996 926 0.5
1996 3157 0.5
1997 811 1
1998 1543 0.5
1998 3158 0.5
1999 1544 1
2000 253 0.750004
2000 2309 0.249996
2001 10 0.121324
2001 11 0.351202
2001 88 0.351649
2001 1545 0.175825
2002 475 1
2003 63 1
2004 1546 1
2005 184 0.333349
2005 1547 0.333544
2005 1636 0.333108
2006 63 1
2007 185 0.5
2007 1549 0.5
2008 63 1
2009 1553 1
2010 475 1
2011 1554 1
2012 1555 1
2013 135 1
2014 250 1
2015 1557 1
2016 1558 1
2017 1559 1
2018 1560 1
2019 1561 1
2020 1562 1
2021 468 1
2022 361 1
2023 674 0.333333
2023 1563 0.666667
2024 7 1
2025 7 0.888888
2025 279 1.42236e-06
2025 984 0.0555554
2025 2646 0.0555555
2026 840 1
2027 53 0.00761796
2027 468 0.992382
2028 1564 1
2029 1565 1
2030 336 0.5
2030 3422 0.5
2031 1566 1
2032 984 3.59627e-06
2032 1567 0.999996
2033 1568 1
2034 1569 1
2035 1571 1
2036 386 0.5
2036 1572 0.5
2037 475 0.333333
2037 1198 0.666667
2038 49 0.499815
2038 56 0.499689
2038 60 0.000496231
2039 39 0.333665
2039 50 0.333656
2039 52 0.33268
2040 39 0.398352
2040 50 0.601648
2041 49 0.651727
2041 67 0.167527
2041 374 0.178518
2041 1278 0.0022276
2042 981 1
2043 39 0.319867
2043 66 0.680133
2044 239 1
2045 84 0.800008
2045 2801 0.199992
2046 1574 1
2047 1575 1
2048 549 1
2049 864 1
2050 915 1
2051 1577 1
2052 1557 1
2053 1578 1
2054 1579 1
2055 1071 1
2056 1583 1
2057 219 1
2058 222 1
2059 309 0.812498
2059 1982 0.187502
2060 204 0.250444
2060 630 0.248668
2060 1584 0.250444
2060 1585 0.250444
2061 1586 0.648846
2061 2071 0.351154
2062 279 0.499992
2062 592 0.500008
2063 279 1
2064 1586 1
2065 1587 1
2066 1588 1
2067 192 0.494386
2067 715 0.505614
2068 1556 1
2069 1127 1
2070 1589 1
2071 1590 1
2072 1591 1
2073 1593 1
2074 88 0.307412
2074 1594 0.692588
2075 1595 0.49995
2075 1596 0.50005
2076 1597 1
2077 378 1
2078 49 0.666352
2078 56 0.333648
2079 49 1
2080 765 0.666667
2080 1600 0.333333
2081 1392 1
2082 998 1
2083 1601 1
2084 154 0.272724
2084 406 1.05238e-05
2084 1602 0.181816
2084 2722 0.0909081
2084 2772 0.363633
2084 3222 0.0909081
2085 486 1
2086 1603 1
2087 122 0.5
2087 1604 0.5
2088 617 1
2089 468 1
2090 11 0.499955
2090 1605 0.500045
2091 58 0.842105
2091 2543 0.157895
2092 1606 1
2093 1607 0.5
2093 2167 0.5
2094 314 1
2095 374 0.000237694
2095 1608 0.411565
2095 1790 0.176385
2095 3244 0.0590431
2095 3519 0.35277
2096 847 1
2097 387 1
2098 862 1
2099 863 1
2100 258 0.5
2100 549 0.0714284
2100 1609 0.0714286
2100 2298 0.142857
2100 2800 0.0714286
2100 2855 0.142857
2101 236 1
2102 14 0.420709
2102 49 0.496555
2102 52 0.0827365
2103 1610 1
2104 890 1
2105 1612 0.857143
2105 3007 0.142857
2106 956 1
2107 124 1
2108 387 1
2109 469 1
2110 25 1
2111 25 0.287322
2111 1613 0.42761
2111 1883 0.285068
2112 1614 1
2113 1615 1
2114 1616 1
2115 1617 0.5
2115 1619 0.5
2116 1619 1
2117 866 0.452125
2117 1576 0.547875
2118 1620 1
2119 1621 1
2120 937 1
2121 1072 1
2122 279 0.875
2122 2536 0.125
2123 73 0.8
2123 1519 0.2
2124 9 0.0251749
2124 1622 0.974825
2125 219 1
2126 907 1
2127 314 0.720091
2127 487 0.279892
2127 869 1.64116e-05
2128 869 1
2129 1623 1
2130 861 0.499999
2130 865 0.500001
2131 392 0.32604
2131 871 0.33698
2131 2112 0.33698
2132 1040 1
2133 152 0.505392
2133 535 0.494608
2134 1074 1
2135 1581 1
2136 937 1
2137 11 0.320271
2137 13 0.337438
2137 1626 0.342291
2138 386 1
2139 893 0.0588235
2139 896 0.941176
2140 874 1
2141 1627 1
2142 267 1
2143 39 0.177679
2143 52 0.411143
2143 56 0.205463
2143 146 0.205715
2144 1630 1
2145 556 0.435567
2145 855 0.287529
2145 1198 0.0693301
2145 1276 0.0693306
2145 2309 0.138243
2146 71 0.5
2146 468 0.5
2147 63 1
2148 86 1
2149 171 1
2150 1633 1
2151 1065 1
2152 417 1
2153 88 0.667346
2153 446 0.110644
2153 1636 0.000145375
2153 3244 0.221864
2154 47 1
2155 1256 1
2156 194 0.307692
2156 1672 0.692308
2157 25 0.748786
2157 2005 0.251214
2158 1637 1
2159 52 0.499846
2159 107 0.500154
2160 52 0.331655
2160 56 0.334133
2160 107 0.334212
2161 203 1
2162 203 0.334365
2162 218 0.665635
2163 1639 1
2164 1640 1
2165 25 0.00847316
2165 2081 0.495352
2165 2271 0.496174
2166 341 0.833333
2166 1641 0.166667
2167 286 1
2168 1642 1
2169 285 1
2170 1294 1
2171 1643 1
2172 1419 1
2173 1644 1
2174 1645 1
2175 246 1
2176 1646 1
2177 5 0.333599
2177 52 0.333747
2177 56 0.332655
2178 49 0.166812
2178 1647 0.166638
2178 1648 0.66655
2179 69 1
2180 39 0.371196
2180 49 0.628804
2181 1649 1
2182 150 1
2183 1650 1
2184 44 1
2185 1652 1
2186 1653 1
2187 1654 1
2188 1655 1
2189 1243 1
2190 1656 1
2191 1657 1
2192 1658 1
2193 1659 1
2194 622 0.106079
2194 975 0.530395
2194 1102 0.0452887
2194 2032 0.318237
2195 942 0.5
2195 1660 0.5
2196 39 0.496074
2196 50 0.503926
2197 1667 1
2198 905 1
2199 1668 1
2200 438 1
2201 769 1
2202 39 1
2203 65 1
2204 49 0.333253
2204 56 0.333239
2204 69 0.333508
2205 39 0.249864
2205 56 0.500081
2205 146 0.250055
2206 39 0.333367
2206 52 0.333362
2206 56 0.33327
2207 49 0.49055
2207 56 0.50945
2208 39 1
2209 39 0.332929
2209 50 0.333481
2209 69 0.33359
2210 9 0.332359
2210 39 0.330345
2210 49 0.337296
2211 39 0.247254
2211 49 0.752746
2212 44 0.0828958
2212 50 0.416249
2212 52 0.083236
2212 56 0.0846135
2212 146 0.333005
2213 1669 1
2214 69 1
2215 39 0.999992
