851 100
</s> -0.052025 0.023725 0.073244 -0.59818 0.31924 0.14857 0.18933 -0.27922 0.30044 0.56969 -0.1175 0.018723 -0.32916 0.48358 -0.21166 -0.14039 -0.21635 0.32769 0.20214 -0.22277 -0.50914 0.071412 0.23001 0.038572 -0.35565 0.15834 0.32523 -0.080092 -0.018657 0.35299 -0.22438 -0.0055253 -0.30459 -0.057307 -0.38262 -0.056563 -0.15874 0.1672 0.077591 0.018407 -0.45532 0.14401 0.37819 0.15771 0.23269 -0.13265 0.073486 -0.36949 -0.099179 -0.046778 -0.12495 -0.0055001 -0.31673 0.41576 -0.53364 -0.32971 0.09948 -0.16667 0.073088 -0.045047 -0.17886 0.38005 0.0015658 0.18421 -0.12465 -0.16718 -0.62032 0.11662 -0.0037225 0.042375 0.10885 0.33356 0.048832 0.50292 -0.53279 0.10298 0.25709 0.1354 0.10225 0.041026 -0.51999 0.6042 -0.033682 -0.21243 0.096417 -0.035979 0.45695 0.12527 -0.59947 -0.71015 0.1119 0.21864 0.53408 -0.67897 -0.14317 -0.16969 0.14832 0.30992 -0.025525 -0.41129 
1 -0.03098 0.013958 0.073116 -0.54266 0.28454 0.13894 0.16069 -0.24742 0.25355 0.50209 -0.10293 0.015978 -0.30536 0.43161 -0.18185 -0.13157 -0.18592 0.2934 0.1767 -0.18684 -0.45489 0.060982 0.20071 0.041908 -0.33 0.14162 0.2864 -0.073583 -0.012372 0.29684 -0.20243 -0.0056707 -0.25414 -0.045069 -0.3356 -0.052068 -0.14958 0.158 0.065781 0.013816 -0.42486 0.12707 0.32661 0.13618 0.21409 -0.11974 0.079337 -0.3227 -0.079349 -0.039657 -0.10994 -0.015936 -0.27838 0.36871 -0.47709 -0.28753 0.077739 -0.15433 0.070034 -0.050961 -0.15673 0.33482 -0.0071408 0.16456 -0.1002 -0.14899 -0.54945 0.096499 -0.020412 0.035644 0.10489 0.29739 0.055638 0.44631 -0.4709 0.090762 0.21648 0.1174 0.099355 0.042463 -0.4526 0.52834 -0.038215 -0.18142 0.094606 -0.022941 0.41165 0.10956 -0.53201 -0.61808 0.090135 0.19246 0.47077 -0.59531 -0.12303 -0.14706 0.1288 0.26256 -0.022259 -0.3718 
2 -0.028851 0.0058348 0.067947 -0.53994 0.27693 0.12373 0.16284 -0.25201 0.26118 0.50061 -0.10793 0.018144 -0.30069 0.4197 -0.17857 -0.12422 -0.19605 0.28751 0.17074 -0.18744 -0.45027 0.052815 0.19224 0.042217 -0.32784 0.14498 0.28648 -0.069602 -0.021864 0.30657 -0.19903 0.0059793 -0.26009 -0.04397 -0.33718 -0.05018 -0.14681 0.15582 0.072509 0.029295 -0.42132 0.13012 0.33301 0.1421 0.218 -0.12198 0.071738 -0.32477 -0.081522 -0.043328 -0.11262 -0.01124 -0.2733 0.36954 -0.47755 -0.27788 0.087993 -0.15266 0.060063 -0.044002 -0.15105 0.34415 -0.0020879 0.16417 -0.10513 -0.14576 -0.54493 0.09341 -0.012586 0.031618 0.11251 0.30206 0.056108 0.44199 -0.48464 0.098537 0.22918 0.10996 0.096475 0.040986 -0.45061 0.52929 -0.038206 -0.18641 0.086071 -0.023717 0.40943 0.11236 -0.53067 -0.62998 0.083301 0.19357 0.47326 -0.59996 -0.12349 -0.14399 0.12367 0.27066 -0.0090875 -0.36127 
X -0.022434 0.017404 0.043724 -0.33654 0.17699 0.086256 0.098855 -0.16087 0.17246 0.3253 -0.069065 0.0089859 -0.19946 0.26922 -0.1121 -0.077662 -0.12427 0.17896 0.11717 -0.11742 -0.28793 0.043708 0.13079 0.02659 -0.20525 0.097086 0.19139 -0.048216 -0.010727 0.18693 -0.12037 -0.0035869 -0.16999 -0.029895 -0.21499 -0.026073 -0.094009 0.098892 0.039699 0.013993 -0.26571 0.079029 0.20656 0.083659 0.13407 -0.081127 0.051563 -0.21156 -0.051364 -0.026055 -0.071519 -0.010166 -0.17001 0.23384 -0.30443 -0.18434 0.05773 -0.097917 0.042322 -0.026534 -0.10122 0.21703 -0.0041797 0.094828 -0.071238 -0.096899 -0.34991 0.063107 -0.011816 0.021051 0.076858 0.18354 0.035202 0.28682 -0.3056 0.066927 0.1412 0.079725 0.059346 0.018718 -0.28645 0.33878 -0.019796 -0.11189 0.062064 -0.013193 0.26014 0.074989 -0.33916 -0.40961 0.061341 0.12339 0.29344 -0.37289 -0.080976 -0.093503 0.077449 0.17774 -0.013418 -0.23673 
mu -0.062314 0.02622 0.10884 -0.72302 0.39182 0.19115 0.21074 -0.34428 0.35803 0.68921 -0.13826 0.021592 -0.41717 0.58554 -0.25802 -0.179 -0.25897 0.39426 0.2448 -0.26192 -0.62476 0.073575 0.28291 0.06507 -0.4423 0.21566 0.4017 -0.090308 -0.015096 0.42116 -0.26399 -0.0099522 -0.37455 -0.061817 -0.44983 -0.076477 -0.21035 0.21587 0.10026 0.035033 -0.56186 0.16223 0.45928 0.1864 0.29136 -0.16692 0.092415 -0.44293 -0.10939 -0.075439 -0.14176 -0.019735 -0.36733 0.50591 -0.6515 -0.40497 0.11885 -0.20808 0.084743 -0.064595 -0.1987 0.44791 -0.0063733 0.22163 -0.14651 -0.19742 -0.7516 0.13114 -0.00661 0.037375 0.1474 0.40256 0.065264 0.61686 -0.64316 0.12846 0.2972 0.14329 0.12903 0.058954 -0.62308 0.73479 -0.055863 -0.25392 0.13129 -0.030687 0.55297 0.16661 -0.73338 -0.86005 0.1329 0.26097 0.6428 -0.81534 -0.17583 -0.19015 0.17932 0.36369 -0.029555 -0.49873 
3 -0.029556 0.013156 0.063271 -0.4662 0.24139 0.11624 0.14033 -0.2097 0.21375 0.43988 -0.090396 0.020194 -0.26231 0.36138 -0.16298 -0.10464 -0.17343 0.24105 0.15813 -0.17075 -0.38825 0.04867 0.17445 0.036436 -0.27477 0.12883 0.24816 -0.059342 -0.015686 0.25729 -0.17134 0.0066372 -0.22929 -0.038208 -0.27895 -0.040672 -0.13223 0.12835 0.050062 0.018896 -0.36254 0.10985 0.28218 0.11612 0.18615 -0.10305 0.065599 -0.29165 -0.070782 -0.035316 -0.096733 -0.012092 -0.24038 0.32464 -0.40354 -0.24236 0.077228 -0.13256 0.058995 -0.046276 -0.13615 0.29065 -0.0054732 0.13158 -0.084437 -0.12711 -0.48202 0.086696 -0.01222 0.03322 0.090501 0.25615 0.049216 0.37569 -0.41484 0.079377 0.19162 0.089406 0.077263 0.035922 -0.39 0.45821 -0.029617 -0.15372 0.078682 -0.015523 0.34375 0.097067 -0.46727 -0.54002 0.07775 0.16981 0.39655 -0.51458 -0.10589 -0.12861 0.10587 0.23033 -0.011453 -0.32752 
u -0.035537 0.011975 0.077917 -0.50583 0.25747 0.12647 0.15746 -0.22963 0.24364 0.47807 -0.098917 0.020988 -0.28678 0.40026 -0.1788 -0.11549 -0.18032 0.27089 0.17152 -0.17604 -0.42764 0.065156 0.18982 0.030454 -0.30419 0.14555 0.27144 -0.063191 -0.0084224 0.28856 -0.19471 -0.0090087 -0.2532 -0.03899 -0.30987 -0.043306 -0.13733 0.15737 0.071344 0.015063 -0.39497 0.11711 0.31863 0.12188 0.20835 -0.11594 0.075325 -0.31488 -0.077496 -0.04483 -0.091703 -0.011002 -0.26077 0.34886 -0.4433 -0.2698 0.079959 -0.14075 0.061868 -0.046164 -0.14358 0.3188 -0.017459 0.14382 -0.10922 -0.13964 -0.52849 0.097597 -0.0074768 0.043905 0.096688 0.27927 0.045347 0.42552 -0.44737 0.088454 0.20807 0.099708 0.075406 0.039917 -0.42714 0.51284 -0.030721 -0.18126 0.085523 -0.020408 0.3923 0.10881 -0.49696 -0.59202 0.087784 0.17639 0.4397 -0.56425 -0.13155 -0.13476 0.11505 0.25233 -0.013122 -0.35022 
5 -0.034251 0.011539 0.053806 -0.44466 0.23248 0.10086 0.13781 -0.20197 0.20843 0.4059 -0.083693 0.0044574 -0.25285 0.35141 -0.14227 -0.10001 -0.16564 0.23162 0.14965 -0.15267 -0.3709 0.045041 0.1587 0.036658 -0.26963 0.11994 0.23677 -0.053626 -0.017876 0.25244 -0.1656 0.0096602 -0.20711 -0.03499 -0.27913 -0.032186 -0.11013 0.11957 0.057078 0.020838 -0.34437 0.10257 0.27141 0.11441 0.18238 -0.10042 0.060805 -0.26203 -0.065056 -0.033883 -0.089118 -0.011477 -0.22799 0.30947 -0.39199 -0.23641 0.073189 -0.12157 0.05634 -0.041211 -0.12978 0.27257 0.0011662 0.12203 -0.088301 -0.13132 -0.45262 0.077971 -0.01887 0.025319 0.084731 0.24931 0.03702 0.37084 -0.39073 0.088648 0.18216 0.09367 0.074216 0.027622 -0.3793 0.43218 -0.02345 -0.14522 0.076925 -0.018513 0.33161 0.091187 -0.44004 -0.51778 0.074906 0.16147 0.38469 -0.49463 -0.10558 -0.12381 0.10124 0.21977 -0.0084469 -0.30837 
4 -0.021257 0.01267 0.052875 -0.40992 0.21011 0.088723 0.12721 -0.17799 0.18837 0.37816 -0.087369 0.0048516 -0.23112 0.33127 -0.13585 -0.092545 -0.14202 0.21624 0.13769 -0.14802 -0.3456 0.04807 0.14745 0.023014 -0.23885 0.1053 0.21887 -0.052918 -0.0045355 0.2338 -0.15001 0.004027 -0.18863 -0.034368 -0.25891 -0.033284 -0.10581 0.11912 0.05462 0.016976 -0.31397 0.087376 0.25529 0.10978 0.16619 -0.094291 0.061194 -0.24601 -0.056823 -0.030649 -0.077471 -0.010377 -0.21519 0.28454 -0.35717 -0.21535 0.06237 -0.11909 0.045045 -0.033485 -0.11894 0.25606 0.0036992 0.12149 -0.077283 -0.11516 -0.41229 0.068532 -0.0079061 0.025726 0.078413 0.21864 0.043607 0.33702 -0.35632 0.076047 0.15941 0.088658 0.078015 0.032122 -0.34636 0.4041 -0.025862 -0.14246 0.076947 -0.013054 0.31421 0.088751 -0.3962 -0.47534 0.071119 0.13909 0.358 -0.44548 -0.10162 -0.1103 0.097504 0.20138 -0.0084347 -0.28543 
iti -0.039473 0.013218 0.057635 -0.45225 0.23559 0.1162 0.13889 -0.2135 0.22153 0.42092 -0.089157 0.01125 -0.25477 0.3533 -0.15983 -0.11188 -0.16256 0.24281 0.15529 -0.15889 -0.38731 0.052152 0.16911 0.032735 -0.27626 0.12212 0.24707 -0.057408 -0.01659 0.25621 -0.16357 -0.0083269 -0.22785 -0.038111 -0.2815 -0.049615 -0.12006 0.1393 0.062243 0.014449 -0.34854 0.109 0.28072 0.11628 0.18201 -0.09865 0.061051 -0.27098 -0.06877 -0.037106 -0.08961 -0.011237 -0.23083 0.31163 -0.39697 -0.24148 0.077978 -0.12904 0.057046 -0.033625 -0.13175 0.28411 -0.0024912 0.13762 -0.093433 -0.13037 -0.46971 0.089321 -0.0073062 0.029662 0.089895 0.2509 0.03796 0.37832 -0.40417 0.082471 0.18308 0.093602 0.074958 0.035712 -0.38065 0.44962 -0.029528 -0.16005 0.075937 -0.017506 0.34088 0.10025 -0.44843 -0.5398 0.081106 0.15646 0.39149 -0.50537 -0.11662 -0.12383 0.11021 0.2285 -0.013563 -0.31192 
lugal -0.059296 0.01743 0.099056 -0.73063 0.39352 0.18901 0.22003 -0.3465 0.36109 0.69377 -0.14008 0.025866 -0.41694 0.58346 -0.25341 -0.17334 -0.26362 0.39072 0.25571 -0.26776 -0.62956 0.081569 0.27991 0.049547 -0.44971 0.20972 0.40273 -0.093146 -0.019695 0.42255 -0.26396 -0.0047098 -0.37537 -0.060349 -0.45532 -0.073805 -0.20547 0.2184 0.096386 0.028085 -0.57607 0.16479 0.4645 0.19068 0.295 -0.16396 0.091395 -0.45029 -0.11293 -0.063306 -0.14388 -0.021977 -0.37866 0.50817 -0.65637 -0.40952 0.12119 -0.20765 0.094233 -0.066152 -0.20388 0.45896 -0.0041805 0.22321 -0.15627 -0.20645 -0.75421 0.13097 -0.015582 0.046961 0.15073 0.41184 0.071448 0.61697 -0.65284 0.13426 0.29978 0.15797 0.13125 0.059212 -0.62946 0.74647 -0.062591 -0.25169 0.13196 -0.028013 0.56626 0.15722 -0.73696 -0.87455 0.13038 0.26194 0.64553 -0.83138 -0.18138 -0.19809 0.18047 0.3683 -0.027338 -0.50411 
sila -0.035214 0.017525 0.07651 -0.57722 0.30094 0.14353 0.1791 -0.2672 0.27748 0.53937 -0.11305 0.017661 -0.32664 0.46337 -0.19592 -0.13199 -0.20805 0.31263 0.19909 -0.20092 -0.48762 0.06119 0.21334 0.044472 -0.35352 0.15683 0.31327 -0.074484 -0.012987 0.32847 -0.21075 0.00058735 -0.2828 -0.046847 -0.35679 -0.050472 -0.15614 0.16572 0.069867 0.018442 -0.45387 0.13062 0.36081 0.14807 0.23233 -0.13085 0.080347 -0.35123 -0.086187 -0.04494 -0.11568 -0.019078 -0.29743 0.39784 -0.51275 -0.30852 0.093218 -0.16517 0.066942 -0.050428 -0.16886 0.36614 -0.0044215 0.17302 -0.1119 -0.16615 -0.59059 0.10532 -0.013925 0.039796 0.11727 0.32303 0.056173 0.48421 -0.51107 0.10272 0.23838 0.12192 0.099652 0.044432 -0.49348 0.57697 -0.040353 -0.19318 0.098328 -0.025033 0.44512 0.12295 -0.57814 -0.68067 0.095962 0.20787 0.51038 -0.6449 -0.13818 -0.15247 0.13287 0.28787 -0.01739 -0.40003 
pisanduba -0.014444 0.0067669 0.024903 -0.20324 0.10771 0.051614 0.060992 -0.096253 0.10027 0.19024 -0.03962 0.0059884 -0.11684 0.15879 -0.069825 -0.048384 -0.074865 0.1084 0.068901 -0.073675 -0.17169 0.023138 0.076832 0.013838 -0.12257 0.056703 0.10687 -0.026878 -0.0036294 0.1144 -0.074101 -0.0032936 -0.10118 -0.018541 -0.12432 -0.017158 -0.054933 0.060221 0.025483 0.008248 -0.15914 0.043131 0.12716 0.052171 0.081489 -0.047496 0.024844 -0.12424 -0.032025 -0.017025 -0.039755 -0.0068907 -0.10529 0.13858 -0.18095 -0.10946 0.032853 -0.056304 0.024111 -0.017268 -0.057532 0.12559 -0.00079106 0.061653 -0.04109 -0.059475 -0.2091 0.036337 -0.0013421 0.011696 0.041316 0.11116 0.019011 0.17014 -0.18087 0.034709 0.081602 0.043042 0.034407 0.017872 -0.17248 0.20266 -0.015565 -0.068919 0.035909 -0.0099086 0.1552 0.043435 -0.20193 -0.23956 0.035979 0.071343 0.17874 -0.22721 -0.04991 -0.054837 0.048077 0.10013 -0.0088578 -0.13761 
gur -0.041988 0.013698 0.088276 -0.63261 0.33017 0.15485 0.19468 -0.28866 0.30153 0.59112 -0.12286 0.015265 -0.36213 0.50689 -0.21459 -0.14533 -0.2287 0.33704 0.20821 -0.22081 -0.53433 0.073845 0.23582 0.048231 -0.38037 0.17379 0.34431 -0.081777 -0.01224 0.36256 -0.23537 -8.5507e-05 -0.30757 -0.058185 -0.39202 -0.055519 -0.17446 0.18366 0.08377 0.028093 -0.48893 0.14209 0.39461 0.16209 0.25018 -0.14068 0.078902 -0.38536 -0.092297 -0.051085 -0.12455 -0.012436 -0.32707 0.4338 -0.56352 -0.33502 0.10205 -0.17704 0.0706 -0.049789 -0.19046 0.39943 -0.0055534 0.18595 -0.12787 -0.17924 -0.64956 0.11396 -0.011335 0.03845 0.12968 0.35048 0.055033 0.52937 -0.56165 0.10778 0.26859 0.12539 0.11112 0.043439 -0.54254 0.62133 -0.046887 -0.21257 0.10612 -0.026388 0.48724 0.1275 -0.6343 -0.74414 0.10702 0.2304 0.55751 -0.70452 -0.15008 -0.17164 0.14346 0.31742 -0.014555 -0.43829 
dumu -0.039713 0.011762 0.076711 -0.5412 0.28604 0.13796 0.16364 -0.25574 0.26619 0.50952 -0.10109 0.014 -0.30947 0.43034 -0.18963 -0.12563 -0.19527 0.29429 0.18246 -0.19467 -0.4653 0.060582 0.20759 0.039918 -0.33023 0.14839 0.29931 -0.073695 -0.012628 0.31363 -0.19494 9.1065e-05 -0.27432 -0.047119 -0.34222 -0.051844 -0.14501 0.15842 0.072279 0.018227 -0.42302 0.12773 0.33759 0.14099 0.21493 -0.12669 0.072944 -0.33734 -0.083147 -0.042052 -0.10993 -0.013171 -0.27612 0.37455 -0.48803 -0.29778 0.090492 -0.15284 0.06249 -0.047135 -0.15531 0.34121 -0.0056999 0.16656 -0.1124 -0.15185 -0.55763 0.096137 -0.010209 0.030341 0.10742 0.30271 0.051553 0.45879 -0.48323 0.10313 0.22363 0.11559 0.092473 0.045929 -0.46259 0.5456 -0.041483 -0.18406 0.094701 -0.027477 0.42025 0.1176 -0.54206 -0.64323 0.092428 0.19714 0.47773 -0.60528 -0.13225 -0.1462 0.1262 0.27351 -0.020404 -0.37094 
udu -0.038509 0.015309 0.077747 -0.54364 0.28599 0.13468 0.16392 -0.25067 0.26336 0.50782 -0.10241 0.014688 -0.30748 0.43136 -0.18374 -0.12592 -0.19234 0.28927 0.17951 -0.19307 -0.45782 0.060319 0.19978 0.04353 -0.32864 0.1483 0.29495 -0.068112 -0.016233 0.30433 -0.1956 0.00040164 -0.26574 -0.050414 -0.33231 -0.054353 -0.14947 0.16166 0.07568 0.02175 -0.42428 0.12455 0.34159 0.13853 0.20989 -0.1234 0.068133 -0.32376 -0.082407 -0.045099 -0.1107 -0.0074762 -0.27747 0.37344 -0.47774 -0.29335 0.088864 -0.15774 0.068538 -0.049635 -0.15456 0.33512 -0.0036409 0.16718 -0.096151 -0.13288 -0.50198 0.092027 -0.013159 0.037821 0.11183 0.29915 0.046229 0.45163 -0.48136 0.097371 0.22442 0.11107 0.092797 0.045658 -0.45993 0.54405 -0.041023 -0.18333 0.093232 -0.023708 0.41655 0.1141 -0.54008 -0.6441 0.089022 0.19286 0.47924 -0.60237 -0.13135 -0.14536 0.12508 0.26949 -0.018978 -0.37552 
igal -0.037543 0.013308 0.063357 -0.48951 0.25925 0.12445 0.148 -0.22606 0.23864 0.45608 -0.092576 0.018531 -0.27315 0.3875 -0.16643 -0.11314 -0.17504 0.26332 0.1676 -0.1771 -0.41636 0.057761 0.18307 0.03429 -0.2926 0.13929 0.26625 -0.059381 -0.015369 0.27845 -0.17508 -0.0061273 -0.24415 -0.041816 -0.30449 -0.043549 -0.13689 0.14498 0.062625 0.018223 -0.38172 0.10921 0.30391 0.12265 0.19586 -0.11152 0.062754 -0.29989 -0.074031 -0.040294 -0.096793 -0.014341 -0.25246 0.33234 -0.43342 -0.26828 0.079283 -0.1382 0.057466 -0.046264 -0.13508 0.30286 -0.0037473 0.14507 -0.099221 -0.13804 -0.50041 0.088894 -0.011639 0.031162 0.098281 0.27191 0.047802 0.41035 -0.43178 0.091297 0.19888 0.09951 0.083431 0.036036 -0.41454 0.49282 -0.034967 -0.16063 0.085622 -0.018665 0.37643 0.10107 -0.48648 -0.57643 0.081414 0.17598 0.42623 -0.54605 -0.11884 -0.13039 0.11818 0.24423 -0.014015 -0.33659 
kicib -0.035128 0.01396 0.072239 -0.52633 0.28089 0.13209 0.16067 -0.24869 0.26021 0.49845 -0.10199 0.014034 -0.30022 0.42258 -0.18486 -0.1264 -0.18985 0.28479 0.18145 -0.19343 -0.4509 0.060588 0.19937 0.035231 -0.32392 0.14206 0.28719 -0.064677 -0.01311 0.30053 -0.19336 -0.0074868 -0.26439 -0.040746 -0.33063 -0.051835 -0.14224 0.15583 0.07189 0.023964 -0.41241 0.12241 0.32904 0.13796 0.20866 -0.12146 0.072175 -0.32411 -0.08355 -0.04342 -0.10593 -0.012277 -0.26966 0.36551 -0.47172 -0.28973 0.08547 -0.14921 0.059562 -0.044153 -0.15252 0.33651 -0.0030365 0.16012 -0.10963 -0.14691 -0.54486 0.10371 -0.011244 0.031455 0.10665 0.2936 0.048332 0.44493 -0.47102 0.094985 0.22326 0.11623 0.090661 0.046596 -0.45125 0.53085 -0.039654 -0.18055 0.090598 -0.025817 0.40445 0.10717 -0.52787 -0.62606 0.09286 0.18913 0.46645 -0.59195 -0.12876 -0.14153 0.1255 0.26493 -0.018003 -0.36457 
gu -0.055989 0.02221 0.10572 -0.81039 0.42406 0.19726 0.24919 -0.36768 0.39057 0.7585 -0.1587 0.020146 -0.462 0.6416 -0.27534 -0.18812 -0.29175 0.42906 0.26694 -0.28623 -0.68225 0.094286 0.3005 0.061107 -0.48828 0.22178 0.44139 -0.10606 -0.018025 0.45793 -0.30419 -0.001891 -0.398 -0.063657 -0.50271 -0.072042 -0.22004 0.2406 0.1082 0.038839 -0.62647 0.18019 0.49834 0.20434 0.32133 -0.18739 0.10138 -0.48319 -0.11852 -0.064863 -0.16313 -0.014047 -0.41734 0.5572 -0.71864 -0.43322 0.13009 -0.22558 0.092717 -0.06349 -0.23174 0.49925 -0.0046001 0.24087 -0.16332 -0.22636 -0.82615 0.14567 -0.019239 0.053129 0.1614 0.44482 0.072113 0.67857 -0.71494 0.14454 0.33354 0.16757 0.13858 0.058318 -0.68771 0.79844 -0.057604 -0.27058 0.14059 -0.035043 0.61624 0.16595 -0.80345 -0.94769 0.1303 0.29285 0.70896 -0.90535 -0.19887 -0.21242 0.18444 0.40387 -0.025267 -0.55838 
ki -0.039715 0.012726 0.075312 -0.55546 0.2969 0.1429 0.1689 -0.26294 0.26781 0.52213 -0.10957 0.0088591 -0.3142 0.44315 -0.19834 -0.131 -0.19695 0.29935 0.19089 -0.19834 -0.47859 0.06162 0.21502 0.03488 -0.33784 0.14779 0.29931 -0.065909 -0.0097457 0.32043 -0.20341 -0.0034789 -0.27926 -0.048732 -0.34376 -0.054457 -0.15226 0.16648 0.074871 0.027525 -0.43117 0.12892 0.35193 0.14639 0.21836 -0.12244 0.074057 -0.34169 -0.089873 -0.048476 -0.11271 -0.016676 -0.28301 0.38259 -0.50239 -0.30437 0.094829 -0.1596 0.06643 -0.051474 -0.1581 0.35484 -0.0068865 0.16681 -0.11538 -0.15734 -0.57138 0.10916 -0.0082936 0.040887 0.11043 0.31001 0.04921 0.47143 -0.50007 0.10168 0.23105 0.11808 0.094132 0.044366 -0.47124 0.56165 -0.036779 -0.18699 0.090599 -0.022035 0.42781 0.1133 -0.55275 -0.65959 0.10015 0.20468 0.49745 -0.62663 -0.13875 -0.15418 0.13804 0.28336 -0.020041 -0.38197 
ce -0.051461 0.019675 0.10414 -0.73958 0.38861 0.18396 0.23099 -0.34746 0.36089 0.6948 -0.15098 0.014155 -0.4225 0.59521 -0.24717 -0.16629 -0.26945 0.3978 0.24942 -0.26862 -0.63217 0.083286 0.27545 0.051692 -0.44413 0.19632 0.3966 -0.092903 -0.018351 0.42244 -0.27711 -0.0021216 -0.3681 -0.061032 -0.46415 -0.066829 -0.20251 0.22009 0.10541 0.031711 -0.58189 0.16978 0.45971 0.18712 0.29767 -0.16267 0.093046 -0.455 -0.10694 -0.059763 -0.14449 -0.0131 -0.38771 0.51011 -0.66284 -0.40191 0.11945 -0.21226 0.080057 -0.062856 -0.21937 0.47161 -0.0052271 0.22247 -0.14804 -0.20815 -0.76307 0.13824 -0.021988 0.046439 0.14665 0.41078 0.069572 0.62266 -0.66194 0.13656 0.31008 0.15485 0.12691 0.056051 -0.62711 0.74576 -0.056218 -0.25536 0.12478 -0.027524 0.56782 0.15264 -0.74126 -0.86837 0.12708 0.26566 0.6526 -0.83114 -0.18136 -0.1987 0.17275 0.36815 -0.026665 -0.51787 
gin -0.042103 0.011067 0.089091 -0.64674 0.3337 0.15285 0.19939 -0.29264 0.30794 0.59292 -0.12728 0.019329 -0.36276 0.50715 -0.21513 -0.14491 -0.23523 0.34288 0.21651 -0.23255 -0.53482 0.069142 0.23607 0.046285 -0.38727 0.17348 0.35291 -0.082812 -0.027645 0.36318 -0.23297 0.00082848 -0.30857 -0.050723 -0.39668 -0.051351 -0.17772 0.1818 0.078016 0.024114 -0.49959 0.14542 0.39282 0.1642 0.26017 -0.14585 0.089554 -0.39047 -0.10101 -0.051176 -0.1249 -0.015667 -0.32602 0.43671 -0.56669 -0.34339 0.10092 -0.18362 0.077041 -0.057799 -0.1916 0.40546 -0.0077428 0.18958 -0.12169 -0.18475 -0.65356 0.11883 -0.014717 0.044446 0.13098 0.35678 0.061748 0.5362 -0.57423 0.12098 0.25878 0.13096 0.10985 0.048364 -0.54746 0.64026 -0.047162 -0.21697 0.11191 -0.024154 0.49063 0.13568 -0.64152 -0.75363 0.10712 0.23455 0.55762 -0.71807 -0.15431 -0.1747 0.14939 0.32296 -0.015908 -0.44264 
6 -0.028089 0.012237 0.060308 -0.41091 0.20659 0.10569 0.12908 -0.19271 0.19836 0.38465 -0.077635 0.0088181 -0.22741 0.33003 -0.14399 -0.088535 -0.14641 0.22274 0.13579 -0.14692 -0.3508 0.050605 0.15205 0.02824 -0.24752 0.11421 0.22194 -0.046101 -0.015357 0.22951 -0.14878 -0.0031791 -0.19522 -0.037107 -0.25313 -0.031944 -0.10977 0.12857 0.049089 0.017367 -0.32597 0.097396 0.24578 0.10863 0.1637 -0.094629 0.060938 -0.25503 -0.06302 -0.036402 -0.072455 -0.0086194 -0.20913 0.29107 -0.36285 -0.22296 0.065536 -0.10797 0.048188 -0.038803 -0.12479 0.25639 -0.007429 0.12077 -0.075831 -0.12223 -0.4149 0.077778 -0.0074311 0.021848 0.085859 0.22388 0.03368 0.34182 -0.36678 0.071279 0.16545 0.083982 0.073555 0.03487 -0.35126 0.41063 -0.034825 -0.14251 0.06196 -0.018949 0.31596 0.088523 -0.40963 -0.48469 0.065457 0.14203 0.35422 -0.46255 -0.10002 -0.10652 0.092459 0.20839 -0.011078 -0.2921 
12 -0.02327 0.014047 0.046508 -0.37842 0.19875 0.094457 0.12155 -0.18013 0.18626 0.3561 -0.071156 0.0081959 -0.21619 0.31339 -0.13375 -0.083428 -0.141 0.20442 0.12907 -0.14129 -0.3256 0.040309 0.14065 0.028733 -0.23307 0.10443 0.20546 -0.048134 -0.012169 0.22063 -0.13944 -0.0035852 -0.18563 -0.032728 -0.2413 -0.035269 -0.098033 0.11435 0.050718 0.018736 -0.30333 0.086446 0.23827 0.09514 0.15911 -0.090756 0.052001 -0.23792 -0.051846 -0.035668 -0.070412 -0.0092277 -0.19747 0.26569 -0.34414 -0.20558 0.060307 -0.11125 0.047191 -0.031255 -0.11025 0.24646 -0.011706 0.11163 -0.08036 -0.11092 -0.3972 0.071577 -0.0044848 0.021398 0.078265 0.21253 0.032211 0.32538 -0.34753 0.070009 0.15427 0.079735 0.063765 0.0302 -0.33039 0.38644 -0.030819 -0.12853 0.066593 -0.015305 0.29643 0.08643 -0.38653 -0.45614 0.062999 0.13536 0.34021 -0.4363 -0.092264 -0.096832 0.096883 0.19239 -0.011323 -0.26454 
cunigin -0.035432 0.011462 0.067297 -0.49523 0.2571 0.11799 0.15208 -0.22835 0.23717 0.46222 -0.095902 0.013276 -0.28164 0.3947 -0.16941 -0.11596 -0.1795 0.26341 0.16497 -0.17788 -0.41634 0.052168 0.18281 0.038055 -0.29892 0.13617 0.26888 -0.061475 -0.014709 0.28246 -0.18071 -0.00028092 -0.24037 -0.042619 -0.30731 -0.040011 -0.13495 0.14462 0.064015 0.020301 -0.38615 0.11104 0.30708 0.12572 0.1974 -0.11089 0.067434 -0.30024 -0.074087 -0.042875 -0.097602 -0.010621 -0.25515 0.34058 -0.43893 -0.26511 0.081213 -0.14144 0.056405 -0.044902 -0.14463 0.3112 -0.004181 0.14715 -0.095646 -0.13932 -0.50619 0.091671 -0.01384 0.033546 0.097466 0.27532 0.04656 0.41376 -0.44417 0.090557 0.2032 0.10243 0.085377 0.03696 -0.42254 0.49365 -0.037947 -0.16682 0.086182 -0.01922 0.37697 0.10152 -0.49229 -0.58362 0.082476 0.18029 0.43315 -0.55048 -0.11454 -0.13157 0.11369 0.24704 -0.014601 -0.33966 
niga -0.048277 0.016754 0.093787 -0.68681 0.36163 0.16529 0.20938 -0.32245 0.32979 0.64291 -0.13261 0.018419 -0.39214 0.54248 -0.24127 -0.15935 -0.25092 0.36979 0.23317 -0.24324 -0.58119 0.077227 0.25922 0.049267 -0.4158 0.19047 0.36959 -0.08582 -0.016786 0.39081 -0.24733 -0.0036521 -0.33788 -0.061057 -0.43108 -0.061935 -0.18822 0.20467 0.091684 0.027499 -0.53713 0.15641 0.43137 0.17754 0.26911 -0.15608 0.091581 -0.41838 -0.10734 -0.061847 -0.13938 -0.015275 -0.35312 0.46887 -0.6095 -0.37217 0.11419 -0.19421 0.082138 -0.057853 -0.19129 0.42579 -0.0099764 0.20362 -0.1403 -0.19556 -0.70359 0.12819 -0.012282 0.041679 0.13867 0.38462 0.066866 0.5774 -0.61125 0.12855 0.28514 0.14112 0.11965 0.049153 -0.58786 0.688 -0.047926 -0.22958 0.11367 -0.031467 0.52293 0.14361 -0.68392 -0.81154 0.11278 0.24662 0.6019 -0.76865 -0.16516 -0.18189 0.15812 0.34428 -0.023352 -0.47426 
bahul -0.042785 0.0261 0.071428 -0.4995 0.27104 0.12681 0.14553 -0.23536 0.2411 0.47676 -0.095287 0.0094915 -0.28802 0.4052 -0.17633 -0.12259 -0.17571 0.268 0.17241 -0.18522 -0.43125 0.050725 0.18919 0.043791 -0.29981 0.14831 0.27351 -0.062491 -0.010006 0.29169 -0.18503 -0.0054511 -0.25718 -0.041536 -0.31027 -0.053535 -0.14244 0.14497 0.070511 0.023464 -0.38908 0.10884 0.31136 0.12157 0.19361 -0.10908 0.066138 -0.30386 -0.075347 -0.047022 -0.094309 -0.0099008 -0.2524 0.35182 -0.44843 -0.28126 0.081797 -0.14779 0.059027 -0.043703 -0.13897 0.31097 -0.0059398 0.15635 -0.10119 -0.13785 -0.52026 0.097613 -0.010393 0.027299 0.10348 0.27465 0.04764 0.42766 -0.4456 0.090713 0.20595 0.10801 0.085677 0.040602 -0.43105 0.50336 -0.043096 -0.17745 0.090631 -0.025501 0.37946 0.10826 -0.50799 -0.59656 0.095451 0.17886 0.44717 -0.56345 -0.12136 -0.13056 0.12542 0.25182 -0.019687 -0.34317 
e -0.02425 0.002433 0.041183 -0.31203 0.17266 0.086342 0.096622 -0.14959 0.16092 0.30309 -0.06168 0.009067 -0.18082 0.24963 -0.12116 -0.082436 -0.10637 0.17078 0.10984 -0.11974 -0.27419 0.034704 0.12196 0.027743 -0.18994 0.094963 0.17092 -0.039356 -0.007589 0.18842 -0.11567 0.0017612 -0.16833 -0.033611 -0.19183 -0.028173 -0.087939 0.096399 0.049697 0.0038987 -0.25578 0.074945 0.19836 0.081531 0.13041 -0.069813 0.042019 -0.19642 -0.04898 -0.021029 -0.060275 -0.016614 -0.15704 0.22435 -0.28399 -0.17882 0.052058 -0.086488 0.032337 -0.026369 -0.0896 0.20082 -0.0037085 0.092097 -0.064136 -0.08266 -0.32184 0.060752 -0.010506 0.021379 0.067321 0.17322 0.018278 0.2706 -0.27805 0.061271 0.13772 0.066755 0.052314 0.030116 -0.26801 0.32185 -0.023436 -0.10729 0.058254 -0.010332 0.23949 0.069601 -0.31631 -0.38275 0.051502 0.1106 0.28367 -0.35354 -0.075211 -0.080427 0.065234 0.15776 -0.0086646 -0.22385 
7 -0.020494 0.017521 0.047753 -0.33855 0.17541 0.084184 0.10377 -0.15974 0.16166 0.31732 -0.06352 0.012161 -0.19537 0.27536 -0.11111 -0.078334 -0.11943 0.18148 0.11821 -0.12037 -0.28649 0.043412 0.12691 0.025586 -0.20804 0.092125 0.1836 -0.043946 -0.0082412 0.20058 -0.13014 -0.0037003 -0.15993 -0.026896 -0.21427 -0.037872 -0.098091 0.10055 0.042937 0.011653 -0.26243 0.083615 0.21008 0.085445 0.13928 -0.08066 0.053691 -0.21256 -0.04601 -0.022788 -0.06384 -0.009005 -0.17217 0.24179 -0.31026 -0.18271 0.052747 -0.10445 0.037987 -0.028742 -0.094477 0.21642 -0.01214 0.10504 -0.060688 -0.10033 -0.35577 0.065331 -0.012136 0.018455 0.068928 0.19872 0.024222 0.29443 -0.31125 0.058243 0.15047 0.076041 0.060659 0.032209 -0.29275 0.34133 -0.020617 -0.11529 0.059931 -0.0188 0.26019 0.071577 -0.34944 -0.40253 0.056763 0.12414 0.30338 -0.38346 -0.084697 -0.084554 0.078943 0.1693 -0.0068541 -0.24577 
cusuen -0.035934 0.015929 0.063482 -0.45617 0.24209 0.11276 0.13243 -0.21394 0.22539 0.43352 -0.089206 0.013975 -0.2649 0.36315 -0.15912 -0.10607 -0.16644 0.24776 0.15771 -0.16786 -0.39352 0.049632 0.17756 0.035905 -0.279 0.12961 0.25037 -0.056861 -0.0084683 0.26449 -0.16675 -0.0014207 -0.23219 -0.037539 -0.28386 -0.045513 -0.13051 0.13639 0.061733 0.023457 -0.35749 0.10232 0.28993 0.12018 0.18311 -0.10186 0.057099 -0.27845 -0.069405 -0.042208 -0.087206 -0.010324 -0.2351 0.31763 -0.4089 -0.25329 0.075583 -0.13008 0.053507 -0.03771 -0.12906 0.28436 -0.0042184 0.13963 -0.094684 -0.12491 -0.47173 0.085822 -0.0066592 0.026374 0.094896 0.25445 0.043729 0.38555 -0.40573 0.079652 0.18845 0.097021 0.078784 0.036677 -0.39033 0.46381 -0.03862 -0.1589 0.078937 -0.018786 0.35373 0.099951 -0.45778 -0.54555 0.079857 0.16239 0.40515 -0.51482 -0.1109 -0.11844 0.11085 0.22861 -0.016777 -0.31414 
8 -0.021464 0.0080419 0.045844 -0.35641 0.17996 0.079197 0.10582 -0.16507 0.16752 0.3351 -0.066785 0.00016279 -0.19462 0.28833 -0.11414 -0.089253 -0.13437 0.19571 0.11551 -0.12003 -0.29328 0.039828 0.12446 0.023726 -0.21501 0.097141 0.18994 -0.041874 -0.0064575 0.20096 -0.13798 0.0016588 -0.16634 -0.030672 -0.20932 -0.02786 -0.094551 0.10827 0.052617 0.015683 -0.27608 0.083221 0.21854 0.086898 0.14155 -0.085685 0.047809 -0.20923 -0.044166 -0.02654 -0.070314 -0.01348 -0.18157 0.23797 -0.31971 -0.18256 0.059271 -0.10071 0.046762 -0.02862 -0.097067 0.22825 -0.0057573 0.10572 -0.06985 -0.10047 -0.35935 0.066143 -0.016854 0.025367 0.073669 0.19703 0.038238 0.29848 -0.31583 0.063534 0.15192 0.067831 0.061878 0.023279 -0.30767 0.34932 -0.02084 -0.1238 0.062834 -0.012466 0.26806 0.073511 -0.35734 -0.41348 0.054641 0.12744 0.3098 -0.40131 -0.087492 -0.089039 0.08125 0.1694 -0.0088923 -0.25072 
1ce -0.029281 0.010084 0.045947 -0.36532 0.19066 0.090429 0.11874 -0.16934 0.17492 0.34244 -0.071957 0.0093964 -0.20736 0.29088 -0.12453 -0.087068 -0.13416 0.19525 0.11897 -0.13009 -0.30904 0.040926 0.1332 0.027751 -0.22401 0.10048 0.19745 -0.048311 -0.0077548 0.21143 -0.13562 -0.0040131 -0.17845 -0.02982 -0.22283 -0.032219 -0.10569 0.11024 0.052434 0.017364 -0.28654 0.083067 0.22787 0.090316 0.14847 -0.082181 0.049829 -0.22084 -0.051939 -0.031644 -0.070564 -0.0057741 -0.18621 0.24733 -0.32346 -0.19606 0.056253 -0.1047 0.043883 -0.033684 -0.10826 0.22884 -0.0042477 0.10715 -0.072841 -0.1001 -0.37833 0.066909 -0.011844 0.026236 0.0726 0.19833 0.032098 0.30489 -0.32082 0.059474 0.15525 0.071832 0.063156 0.027802 -0.30995 0.36424 -0.031722 -0.12179 0.059085 -0.012928 0.27778 0.072127 -0.36489 -0.42591 0.06299 0.12898 0.32376 -0.40764 -0.087373 -0.096071 0.083562 0.18242 -0.014581 -0.25414 
giri -0.039282 0.013169 0.076229 -0.55881 0.29391 0.13944 0.17229 -0.26282 0.27222 0.5231 -0.1094 0.012748 -0.32297 0.44333 -0.19602 -0.12618 -0.20609 0.30419 0.19155 -0.19858 -0.47932 0.065068 0.20839 0.039637 -0.34113 0.15209 0.30108 -0.067378 -0.016156 0.31746 -0.20463 -0.0047228 -0.28012 -0.05101 -0.35005 -0.053493 -0.15208 0.16526 0.072389 0.019034 -0.43761 0.12959 0.34938 0.14594 0.22162 -0.1286 0.070353 -0.34055 -0.085789 -0.04755 -0.11091 -0.013626 -0.29059 0.38685 -0.4995 -0.30652 0.091145 -0.15562 0.066182 -0.04815 -0.16017 0.35261 -0.0029355 0.16793 -0.11376 -0.15643 -0.57667 0.10721 -0.0097223 0.031099 0.1155 0.31121 0.0532 0.47106 -0.50015 0.10201 0.23093 0.12057 0.096211 0.0436 -0.47952 0.56277 -0.040964 -0.18987 0.09947 -0.024589 0.42771 0.11905 -0.5578 -0.66057 0.096562 0.20079 0.49376 -0.62914 -0.13741 -0.15344 0.12978 0.28312 -0.018823 -0.38515 
guruc -0.029469 0.011653 0.065316 -0.46336 0.24514 0.11407 0.14586 -0.21053 0.22075 0.4347 -0.091734 0.0088487 -0.26335 0.36728 -0.1591 -0.10817 -0.16625 0.24898 0.15309 -0.16245 -0.39044 0.054335 0.17585 0.034659 -0.28069 0.12793 0.24985 -0.062611 -0.01085 0.26872 -0.17215 -0.0026934 -0.22955 -0.038339 -0.28944 -0.04046 -0.1255 0.13862 0.064552 0.017597 -0.36045 0.11009 0.28967 0.11962 0.18531 -0.10223 0.05956 -0.28163 -0.070647 -0.039787 -0.090322 -0.008935 -0.2391 0.31918 -0.41307 -0.24694 0.076117 -0.13132 0.052791 -0.037834 -0.13755 0.29077 -0.0063187 0.13606 -0.090022 -0.13106 -0.47807 0.085161 -0.01092 0.031012 0.092018 0.25698 0.041327 0.38935 -0.4151 0.081772 0.19727 0.093415 0.079267 0.035211 -0.39691 0.46123 -0.032586 -0.15911 0.081211 -0.019135 0.35777 0.093747 -0.46555 -0.55138 0.075458 0.16543 0.40642 -0.51689 -0.10764 -0.12599 0.10699 0.23107 -0.013548 -0.32504 
geme -0.03247 0.011782 0.063876 -0.46313 0.24371 0.1136 0.1455 -0.21607 0.22524 0.43726 -0.090458 0.014411 -0.25969 0.36869 -0.16539 -0.10481 -0.16617 0.25226 0.1541 -0.16804 -0.39264 0.050215 0.1784 0.03196 -0.28336 0.12847 0.25004 -0.058124 -0.011372 0.2663 -0.17243 -0.0019638 -0.22975 -0.041348 -0.29241 -0.042626 -0.12475 0.13478 0.061595 0.022826 -0.36285 0.10676 0.29565 0.12451 0.18527 -0.10278 0.061964 -0.28048 -0.066984 -0.039187 -0.094397 -0.011264 -0.23774 0.32006 -0.41722 -0.2549 0.076971 -0.13202 0.052126 -0.039838 -0.135 0.2926 -0.0058152 0.13864 -0.092363 -0.13232 -0.47608 0.086017 -0.006653 0.026718 0.090437 0.2617 0.043418 0.39497 -0.41422 0.085368 0.19043 0.099578 0.079509 0.035173 -0.39719 0.46547 -0.03084 -0.16175 0.079123 -0.021011 0.35971 0.096099 -0.46327 -0.55114 0.081664 0.1694 0.40592 -0.52289 -0.10874 -0.12559 0.10787 0.23233 -0.016382 -0.32202 
dubsar -0.023139 0.0077383 0.044107 -0.31873 0.17049 0.081113 0.096381 -0.14808 0.15755 0.30291 -0.062611 0.010556 -0.18259 0.25493 -0.11087 -0.0749 -0.11517 0.17241 0.10589 -0.11323 -0.27218 0.035923 0.11898 0.022367 -0.19117 0.087331 0.17394 -0.041238 -0.0074786 0.1826 -0.11235 -0.00089227 -0.15805 -0.025558 -0.19788 -0.030424 -0.087015 0.09476 0.040635 0.01509 -0.24503 0.075371 0.19976 0.081519 0.12906 -0.07185 0.043414 -0.19832 -0.046829 -0.026397 -0.062546 -0.0078702 -0.16223 0.22079 -0.28523 -0.17294 0.051457 -0.090846 0.039293 -0.02903 -0.092582 0.19982 -0.0031207 0.093863 -0.065052 -0.09012 -0.32494 0.060763 -0.0027523 0.019287 0.063113 0.17766 0.033119 0.27072 -0.28448 0.056766 0.13306 0.067967 0.055671 0.026889 -0.27493 0.32215 -0.02452 -0.10726 0.051853 -0.013154 0.24575 0.066532 -0.31936 -0.37998 0.054045 0.11533 0.27824 -0.3578 -0.077203 -0.087616 0.074637 0.15765 -0.010246 -0.22054 
ca -0.039977 0.0056881 0.080872 -0.57773 0.30969 0.14179 0.17927 -0.26696 0.28269 0.54298 -0.10734 0.0088711 -0.32715 0.46713 -0.20328 -0.13662 -0.20175 0.31274 0.19631 -0.20764 -0.49584 0.06345 0.22262 0.041761 -0.35602 0.15674 0.31539 -0.071139 -0.01608 0.33311 -0.20682 -0.0088616 -0.29313 -0.046591 -0.35783 -0.05645 -0.15647 0.17496 0.084624 0.02473 -0.44803 0.13284 0.36673 0.14512 0.23435 -0.12825 0.078608 -0.35496 -0.085618 -0.045031 -0.11369 -0.012618 -0.29779 0.40179 -0.51823 -0.31641 0.097318 -0.16867 0.069429 -0.046864 -0.16078 0.36416 -0.0057955 0.17493 -0.11866 -0.16512 -0.60176 0.10816 -0.012466 0.036617 0.12024 0.31842 0.046534 0.48449 -0.51569 0.1079 0.23715 0.11504 0.10178 0.047883 -0.49768 0.5852 -0.046225 -0.19921 0.095643 -0.024401 0.44221 0.12148 -0.58277 -0.68965 0.096878 0.203 0.50862 -0.64859 -0.13656 -0.15928 0.14306 0.28864 -0.015581 -0.38875 
ugula -0.03195 0.011221 0.066409 -0.45739 0.23978 0.11463 0.13645 -0.21237 0.22213 0.43235 -0.088222 0.012895 -0.26274 0.36494 -0.15867 -0.1064 -0.16904 0.25009 0.15424 -0.16725 -0.39194 0.052787 0.17367 0.035373 -0.27933 0.12707 0.24789 -0.057854 -0.0092949 0.2625 -0.1677 -0.0036076 -0.22993 -0.039077 -0.28709 -0.041953 -0.12331 0.13411 0.06048 0.019006 -0.35865 0.10544 0.28695 0.11783 0.18131 -0.1024 0.06071 -0.27983 -0.067567 -0.036983 -0.092598 -0.01395 -0.23216 0.31545 -0.4106 -0.25047 0.075702 -0.12898 0.057596 -0.037054 -0.12767 0.29059 -0.0050454 0.13695 -0.094872 -0.12626 -0.46815 0.083739 -0.0076921 0.029005 0.092358 0.25373 0.043152 0.38892 -0.40994 0.08561 0.19254 0.097196 0.080204 0.034801 -0.39267 0.45817 -0.035151 -0.15321 0.07741 -0.023565 0.35072 0.094629 -0.45815 -0.54242 0.077424 0.16549 0.4037 -0.51414 -0.11185 -0.12413 0.10923 0.23188 -0.014724 -0.31437 
la -0.040994 0.01463 0.086565 -0.6286 0.32906 0.15252 0.19594 -0.29326 0.30362 0.585 -0.1203 0.022387 -0.35638 0.4977 -0.21442 -0.14934 -0.23221 0.33968 0.20996 -0.22276 -0.52954 0.069906 0.23214 0.046598 -0.38299 0.17068 0.34129 -0.077334 -0.015805 0.36078 -0.23059 0.0020315 -0.30994 -0.04741 -0.38779 -0.059906 -0.16999 0.1842 0.081611 0.025631 -0.48809 0.14243 0.3868 0.15717 0.24265 -0.14091 0.078703 -0.38376 -0.091087 -0.045743 -0.12535 -0.0156 -0.31784 0.42347 -0.5631 -0.33955 0.1025 -0.17971 0.064191 -0.058279 -0.17598 0.39647 -0.0070465 0.18661 -0.12591 -0.1739 -0.6407 0.1142 -0.013627 0.04173 0.12837 0.35184 0.054933 0.53124 -0.55804 0.10971 0.26062 0.13555 0.10038 0.043648 -0.52986 0.62815 -0.040649 -0.21259 0.10714 -0.030503 0.48103 0.1312 -0.61981 -0.74062 0.11015 0.22375 0.55706 -0.70433 -0.15251 -0.16738 0.14625 0.31469 -0.020858 -0.43269 
kuc -0.038829 0.014972 0.087039 -0.62403 0.32799 0.15101 0.18255 -0.28756 0.30329 0.58673 -0.1184 0.016208 -0.36115 0.49422 -0.21391 -0.15138 -0.2256 0.33341 0.20688 -0.22086 -0.52313 0.073564 0.237 0.046095 -0.38134 0.17024 0.33595 -0.074311 -0.010234 0.35885 -0.22614 0.0019425 -0.30525 -0.046645 -0.39105 -0.058237 -0.17073 0.18394 0.075633 0.024369 -0.48686 0.14891 0.39038 0.15871 0.25489 -0.14027 0.081885 -0.3785 -0.094388 -0.048893 -0.12661 -0.0080819 -0.32602 0.42911 -0.55021 -0.33431 0.10498 -0.17969 0.075873 -0.048184 -0.18299 0.38966 -0.005241 0.18687 -0.1198 -0.1811 -0.63255 0.11772 -0.014908 0.035791 0.12182 0.34599 0.056803 0.52372 -0.55315 0.11002 0.25823 0.13255 0.11078 0.051799 -0.53041 0.63033 -0.040932 -0.20996 0.11134 -0.026491 0.47787 0.12814 -0.62218 -0.73347 0.10769 0.22416 0.5409 -0.69086 -0.14313 -0.16682 0.14198 0.31199 -0.009537 -0.42703 
a -0.020477 0.0057398 0.051954 -0.37533 0.1943 0.099151 0.1188 -0.17207 0.19232 0.35131 -0.074 0.0084547 -0.22164 0.30137 -0.13445 -0.090087 -0.13611 0.21076 0.12516 -0.12532 -0.32337 0.043316 0.13992 0.025143 -0.23684 0.10581 0.1968 -0.043078 -0.004386 0.2148 -0.14677 0.0052387 -0.18914 -0.035414 -0.23965 -0.034075 -0.10457 0.11183 0.051407 0.019271 -0.29828 0.078031 0.24331 0.10432 0.14498 -0.087335 0.046531 -0.22625 -0.065311 -0.033339 -0.07541 -0.016431 -0.18665 0.25897 -0.33114 -0.21539 0.061709 -0.1086 0.042078 -0.034819 -0.10752 0.24011 -0.0066386 0.11167 -0.078564 -0.10707 -0.39215 0.070688 -0.0069327 0.027685 0.071153 0.20999 0.039627 0.31928 -0.34005 0.058794 0.15882 0.086616 0.061117 0.031093 -0.32807 0.3785 -0.02773 -0.12134 0.067266 -0.015703 0.29138 0.071422 -0.38068 -0.44506 0.061159 0.13599 0.32969 -0.42028 -0.088408 -0.10576 0.08431 0.18835 -0.0072284 -0.25638 
urima -0.032856 0.011168 0.064016 -0.46326 0.24746 0.11297 0.1348 -0.21915 0.22429 0.43987 -0.090444 0.012759 -0.26647 0.36727 -0.16279 -0.11605 -0.16617 0.24711 0.15876 -0.16802 -0.39766 0.052424 0.17495 0.037156 -0.2819 0.13312 0.25037 -0.061408 -0.012759 0.26797 -0.16588 -0.00054153 -0.23351 -0.038114 -0.2897 -0.048687 -0.13056 0.13924 0.065436 0.022525 -0.36502 0.10703 0.29632 0.12279 0.1833 -0.10141 0.061943 -0.2837 -0.066807 -0.042077 -0.091383 -0.012116 -0.24014 0.32116 -0.41432 -0.25766 0.07761 -0.13276 0.058139 -0.039684 -0.13065 0.28687 -0.0025747 0.13986 -0.095694 -0.12936 -0.48039 0.085642 -0.0039324 0.025428 0.096294 0.25979 0.042946 0.39398 -0.41436 0.082529 0.19181 0.09791 0.082938 0.037543 -0.39882 0.46782 -0.036746 -0.16082 0.081711 -0.02188 0.35755 0.10074 -0.46775 -0.55176 0.083226 0.16602 0.40995 -0.52305 -0.11198 -0.12526 0.11318 0.23204 -0.019549 -0.31967 
en -0.058773 0.029887 0.094424 -0.64553 0.33737 0.16481 0.1776 -0.30065 0.31919 0.60643 -0.11811 0.014557 -0.37419 0.51608 -0.23046 -0.15271 -0.22931 0.34232 0.22628 -0.23552 -0.55059 0.074791 0.2482 0.049635 -0.38468 0.18814 0.35239 -0.077605 -0.013354 0.36988 -0.22878 -0.0011135 -0.3267 -0.052044 -0.40066 -0.062748 -0.17896 0.18185 0.079719 0.027366 -0.49489 0.13621 0.40121 0.16295 0.25367 -0.14502 0.084024 -0.3951 -0.10271 -0.061572 -0.1275 -0.021025 -0.32389 0.44051 -0.57241 -0.35888 0.10243 -0.18492 0.072707 -0.062276 -0.17771 0.39771 -0.0058674 0.19539 -0.13488 -0.17393 -0.66003 0.11406 -0.0016616 0.029076 0.13074 0.352 0.067249 0.53164 -0.56667 0.10907 0.26244 0.13231 0.10681 0.050837 -0.53882 0.6508 -0.061907 -0.22854 0.1116 -0.02714 0.49301 0.13893 -0.64606 -0.75623 0.11898 0.22674 0.55988 -0.72346 -0.16013 -0.16502 0.1621 0.32093 -0.02378 -0.4364 
aca -0.043851 0.014761 0.08212 -0.57868 0.30303 0.14221 0.17665 -0.27028 0.28145 0.54537 -0.11116 0.013763 -0.32921 0.46566 -0.19946 -0.13226 -0.20694 0.31683 0.19808 -0.21053 -0.49634 0.067457 0.22032 0.049852 -0.35249 0.16091 0.32039 -0.07616 -0.011669 0.33138 -0.21444 -0.0041834 -0.28962 -0.049616 -0.36481 -0.05333 -0.15614 0.17202 0.07783 0.022424 -0.45367 0.13344 0.36616 0.15237 0.23165 -0.13114 0.081763 -0.35472 -0.087764 -0.050301 -0.11494 -0.013994 -0.29995 0.40083 -0.52253 -0.31645 0.098667 -0.16557 0.064109 -0.050317 -0.16692 0.36298 -0.0028019 0.17698 -0.11617 -0.16129 -0.60261 0.10788 -0.013054 0.03869 0.11687 0.32301 0.046916 0.48265 -0.52056 0.098342 0.24213 0.12511 0.097835 0.047527 -0.50455 0.58093 -0.047458 -0.19826 0.096874 -0.03035 0.44014 0.11955 -0.58097 -0.69113 0.10028 0.20689 0.5115 -0.64789 -0.13838 -0.16 0.13935 0.28703 -0.014476 -0.39787 
usa -0.031853 0.015106 0.056192 -0.39388 0.20943 0.098102 0.11669 -0.18977 0.19287 0.37436 -0.075858 0.010083 -0.22187 0.31925 -0.14145 -0.096537 -0.13925 0.21126 0.13272 -0.14339 -0.33764 0.043567 0.14987 0.032676 -0.23885 0.11618 0.21302 -0.04955 -0.0097703 0.22809 -0.14031 -0.0063479 -0.20071 -0.032296 -0.24166 -0.040575 -0.10699 0.11892 0.050503 0.015895 -0.30885 0.086469 0.24587 0.099502 0.1532 -0.088292 0.053779 -0.23841 -0.061613 -0.034891 -0.074045 -0.013027 -0.19922 0.27427 -0.35483 -0.21989 0.063767 -0.11189 0.047593 -0.03269 -0.1142 0.24725 -0.0055771 0.12018 -0.077737 -0.10875 -0.40646 0.072061 -0.0084938 0.02289 0.079463 0.22559 0.032287 0.336 -0.35178 0.069996 0.16153 0.083724 0.071237 0.029778 -0.33893 0.40224 -0.033154 -0.13726 0.069382 -0.020081 0.30063 0.08472 -0.39352 -0.46952 0.066814 0.1386 0.34319 -0.44204 -0.092597 -0.10464 0.096363 0.20089 -0.014595 -0.27058 
kalga -0.023774 0.0087642 0.040282 -0.31966 0.1656 0.079502 0.096914 -0.15193 0.15733 0.30036 -0.060598 0.010258 -0.18438 0.25513 -0.1147 -0.075191 -0.11796 0.17276 0.11139 -0.11748 -0.27046 0.035645 0.12156 0.024704 -0.19313 0.087261 0.17083 -0.04389 -0.012703 0.18584 -0.11495 0.00034196 -0.16278 -0.029971 -0.19683 -0.027434 -0.088212 0.095559 0.044712 0.014414 -0.25342 0.072928 0.2015 0.083486 0.12705 -0.070447 0.042678 -0.19516 -0.046699 -0.030028 -0.063595 -0.0076469 -0.1675 0.22139 -0.28481 -0.17732 0.052098 -0.088481 0.035988 -0.026706 -0.088886 0.20007 -0.0033851 0.097674 -0.064256 -0.090043 -0.32813 0.058733 -0.0089588 0.019485 0.066167 0.18122 0.027506 0.26946 -0.28897 0.05762 0.13359 0.068356 0.056485 0.025441 -0.27539 0.32406 -0.026588 -0.10662 0.056163 -0.0175 0.24604 0.071022 -0.31968 -0.37883 0.053923 0.11293 0.28103 -0.36006 -0.075429 -0.086576 0.077553 0.16423 -0.011578 -0.22026 
an -0.024455 0.0049792 0.043651 -0.36012 0.18726 0.087894 0.10691 -0.17477 0.17849 0.34744 -0.068389 0.011746 -0.20321 0.28435 -0.12654 -0.096479 -0.14195 0.18671 0.13016 -0.13443 -0.30649 0.036283 0.13667 0.026198 -0.22642 0.11138 0.19784 -0.040593 -0.00053501 0.20749 -0.13029 0.0040461 -0.18955 -0.02895 -0.22099 -0.02694 -0.10493 0.10851 0.044344 0.014285 -0.29123 0.081614 0.23386 0.099012 0.1418 -0.0888 0.040152 -0.2166 -0.050853 -0.026541 -0.073652 -0.018527 -0.18575 0.26329 -0.32039 -0.19873 0.057806 -0.10061 0.048882 -0.032358 -0.098775 0.22233 -0.0032311 0.10725 -0.084621 -0.10615 -0.36371 0.063041 -0.0048743 0.024991 0.065644 0.21173 0.030565 0.30851 -0.32478 0.063674 0.14323 0.076839 0.076886 0.032378 -0.31286 0.36997 -0.036967 -0.12328 0.067827 -0.013732 0.277 0.081435 -0.36508 -0.42169 0.05962 0.13364 0.31353 -0.41364 -0.084221 -0.0921 0.082643 0.17919 -0.019221 -0.24367 
cu -0.034447 0.0094134 0.07418 -0.4768 0.24687 0.11573 0.14044 -0.22287 0.2357 0.45607 -0.093424 0.014051 -0.27866 0.38244 -0.16623 -0.11336 -0.17854 0.25964 0.16762 -0.18262 -0.40574 0.046953 0.18242 0.03533 -0.29894 0.13085 0.26163 -0.064067 -0.010516 0.27614 -0.17775 -0.00010453 -0.24207 -0.036061 -0.29928 -0.042193 -0.13243 0.14083 0.06498 0.021749 -0.37916 0.10981 0.30531 0.11986 0.18386 -0.11052 0.060319 -0.29242 -0.072005 -0.040699 -0.087312 -0.012921 -0.25526 0.32695 -0.42502 -0.25991 0.080273 -0.13337 0.063771 -0.036437 -0.13984 0.30451 -0.0027985 0.14087 -0.091923 -0.1339 -0.4943 0.088568 -0.0067633 0.036406 0.10345 0.27187 0.050908 0.40448 -0.42825 0.090615 0.19834 0.10509 0.079814 0.033658 -0.41338 0.48325 -0.037244 -0.1622 0.082666 -0.022343 0.37492 0.10065 -0.48527 -0.56844 0.080443 0.16918 0.42568 -0.53818 -0.10491 -0.12649 0.10984 0.24379 -0.0142 -0.33038 
ubda -0.031278 0.014323 0.048079 -0.42232 0.22411 0.10496 0.12581 -0.20996 0.21435 0.40442 -0.080522 0.015151 -0.23614 0.33573 -0.14668 -0.10322 -0.15958 0.22707 0.14887 -0.15299 -0.35851 0.044785 0.15706 0.027826 -0.25989 0.11503 0.22916 -0.050726 -0.01335 0.24191 -0.14849 0.0010321 -0.22118 -0.030071 -0.25894 -0.038737 -0.11756 0.12436 0.052791 0.020222 -0.33395 0.095107 0.26825 0.11463 0.16828 -0.098129 0.052538 -0.25969 -0.059017 -0.031744 -0.083402 -0.012449 -0.22187 0.29434 -0.37877 -0.23501 0.063901 -0.11854 0.052188 -0.035275 -0.11818 0.26391 -0.0080952 0.12799 -0.093931 -0.11878 -0.43079 0.07725 -0.0073631 0.01891 0.081836 0.24153 0.036883 0.35369 -0.37991 0.074499 0.16786 0.090394 0.078469 0.03593 -0.36773 0.43587 -0.041649 -0.14564 0.075121 -0.018416 0.32318 0.093729 -0.42406 -0.50329 0.07635 0.15623 0.36441 -0.4822 -0.097832 -0.1133 0.10245 0.20952 -0.019983 -0.28331 
nigkak -0.022182 0.0075205 0.04295 -0.3102 0.1668 0.075851 0.094189 -0.14426 0.1496 0.29396 -0.061554 0.0078509 -0.17768 0.25014 -0.10981 -0.072412 -0.11367 0.16679 0.10702 -0.11179 -0.26605 0.033396 0.11701 0.025035 -0.18983 0.08504 0.17071 -0.037787 -0.0077116 0.17717 -0.1117 -0.0016252 -0.15328 -0.027299 -0.19603 -0.028689 -0.08384 0.091808 0.041158 0.014707 -0.2433 0.071342 0.19643 0.08292 0.12439 -0.069857 0.040456 -0.18835 -0.047937 -0.028838 -0.06211 -0.0081835 -0.16021 0.21484 -0.2802 -0.16996 0.051678 -0.090543 0.036771 -0.027517 -0.088933 0.19655 -0.0043854 0.095201 -0.062602 -0.087415 -0.31978 0.056083 -0.0079276 0.020442 0.065346 0.17386 0.031103 0.26242 -0.27771 0.058539 0.12848 0.065996 0.05426 0.025459 -0.26674 0.31398 -0.022507 -0.10652 0.05293 -0.015622 0.23885 0.066719 -0.30886 -0.36831 0.05251 0.11082 0.27474 -0.34856 -0.07486 -0.085094 0.074546 0.15779 -0.011959 -0.21477 
n -0.025184 0.0070449 0.047729 -0.33683 0.18107 0.082075 0.097354 -0.16303 0.16439 0.31815 -0.0645 0.010775 -0.1957 0.26823 -0.11734 -0.076992 -0.12146 0.18796 0.11062 -0.12867 -0.29425 0.037558 0.13261 0.024417 -0.20836 0.099059 0.17594 -0.044681 -0.0030238 0.19431 -0.12303 -0.0020044 -0.16678 -0.025152 -0.21497 -0.026191 -0.097327 0.099125 0.046977 0.012124 -0.26796 0.077505 0.21335 0.093893 0.1409 -0.084665 0.043718 -0.20572 -0.050012 -0.028521 -0.063894 -0.015909 -0.17874 0.23901 -0.30805 -0.18088 0.052885 -0.098075 0.03572 -0.023336 -0.092086 0.21039 -0.011883 0.10344 -0.065116 -0.094864 -0.35902 0.064481 -0.010634 0.015358 0.068687 0.19018 0.026223 0.29357 -0.3088 0.063327 0.1382 0.073328 0.06162 0.026038 -0.29601 0.3435 -0.027682 -0.12315 0.058201 -0.022602 0.25468 0.071512 -0.3404 -0.40148 0.057924 0.12504 0.29273 -0.38189 -0.07771 -0.08848 0.076151 0.16299 -0.0053506 -0.23849 
ninda -0.044509 0.012533 0.092329 -0.64296 0.33732 0.15674 0.19522 -0.29641 0.30943 0.60502 -0.12015 0.018541 -0.36598 0.51283 -0.21773 -0.14882 -0.23314 0.34609 0.21851 -0.22782 -0.54736 0.067871 0.23868 0.050549 -0.39117 0.17846 0.34942 -0.080756 -0.019251 0.36785 -0.23211 -0.0011038 -0.31453 -0.054244 -0.39652 -0.056979 -0.17781 0.18752 0.081525 0.024042 -0.50441 0.14931 0.39983 0.16375 0.25758 -0.14511 0.085176 -0.39188 -0.096213 -0.052085 -0.12737 -0.017036 -0.33003 0.44299 -0.57282 -0.34759 0.10198 -0.183 0.074371 -0.053841 -0.1858 0.39914 -0.006887 0.19237 -0.12893 -0.18182 -0.65488 0.11972 -0.011857 0.040831 0.13271 0.35895 0.062606 0.53836 -0.57568 0.11891 0.26733 0.136 0.11112 0.049268 -0.54845 0.64437 -0.046017 -0.21902 0.11 -0.029918 0.49527 0.13773 -0.63899 -0.75721 0.1082 0.22916 0.56401 -0.71892 -0.15156 -0.17134 0.1481 0.32193 -0.022038 -0.44017 
limmuba -0.025318 0.0093625 0.042943 -0.36498 0.19166 0.094666 0.11229 -0.17775 0.18475 0.34199 -0.066591 0.017108 -0.2067 0.28511 -0.12251 -0.092222 -0.14082 0.1929 0.12679 -0.13178 -0.30835 0.036825 0.13519 0.024295 -0.22403 0.10622 0.19281 -0.047492 -0.0079234 0.20275 -0.12421 -0.0050419 -0.18767 -0.027906 -0.22299 -0.03368 -0.098961 0.10751 0.050553 0.017732 -0.28942 0.085186 0.2275 0.10315 0.14891 -0.083965 0.040224 -0.21823 -0.052345 -0.033027 -0.070272 -0.013548 -0.18577 0.26079 -0.32528 -0.20156 0.057444 -0.10101 0.044146 -0.026896 -0.094768 0.21923 -0.0030294 0.10642 -0.078795 -0.10658 -0.37214 0.061299 -0.0093341 0.0211 0.067827 0.20594 0.034167 0.30034 -0.32955 0.063455 0.1448 0.077136 0.073303 0.0329 -0.31198 0.3671 -0.037312 -0.12051 0.067334 -0.01465 0.27132 0.078233 -0.3648 -0.42809 0.06315 0.13201 0.315 -0.41732 -0.084159 -0.097734 0.089779 0.18289 -0.016677 -0.24294 
ARADzu -0.010348 0.0038977 0.017631 -0.12968 0.069195 0.033815 0.038618 -0.063979 0.063565 0.12163 -0.022996 0.0036646 -0.073076 0.10409 -0.046598 -0.031885 -0.044934 0.069771 0.043707 -0.046459 -0.11022 0.016033 0.048332 0.0091171 -0.078726 0.035153 0.068773 -0.015923 -0.004309 0.075038 -0.047107 -0.0012983 -0.066506 -0.012269 -0.077825 -0.014018 -0.034991 0.037578 0.019983 0.0085592 -0.10092 0.030157 0.079223 0.033683 0.049509 -0.026508 0.017286 -0.079356 -0.019125 -0.011713 -0.025337 -0.0048257 -0.067226 0.08888 -0.11484 -0.070151 0.023261 -0.036298 0.0176 -0.011421 -0.036193 0.081185 -0.0034229 0.039928 -0.024484 -0.03509 -0.13405 0.026188 -0.0023371 0.0092803 0.026631 0.072201 0.012914 0.10978 -0.11636 0.023897 0.052637 0.024539 0.022172 0.0087177 -0.11038 0.13283 -0.010167 -0.045371 0.021792 -0.005515 0.098568 0.026413 -0.13027 -0.15497 0.019889 0.046282 0.11485 -0.14431 -0.031617 -0.035575 0.032229 0.065347 -0.0031811 -0.087991 
idab -0.025041 0.0097775 0.046603 -0.33923 0.1813 0.082927 0.096863 -0.16075 0.16691 0.32198 -0.06403 0.0066369 -0.19082 0.27098 -0.11825 -0.079625 -0.1239 0.18521 0.11888 -0.12548 -0.28746 0.038642 0.12732 0.024745 -0.20244 0.092731 0.18706 -0.042415 -0.0067957 0.19845 -0.12472 0.00094527 -0.17051 -0.026917 -0.21131 -0.035102 -0.093966 0.10094 0.046011 0.015167 -0.26576 0.078389 0.21545 0.088027 0.13405 -0.078387 0.04671 -0.21126 -0.05091 -0.028955 -0.06774 -0.013869 -0.17444 0.23604 -0.30379 -0.18603 0.054061 -0.097012 0.043426 -0.027674 -0.097077 0.21659 -0.0055421 0.10546 -0.068348 -0.098742 -0.35252 0.061636 -0.0078799 0.01757 0.070943 0.18663 0.032883 0.2895 -0.3061 0.065009 0.14347 0.074447 0.058287 0.027842 -0.28984 0.34396 -0.024594 -0.11535 0.058215 -0.020437 0.25964 0.074511 -0.34254 -0.4052 0.059931 0.12433 0.29647 -0.3875 -0.082279 -0.090687 0.081872 0.17155 -0.00758 -0.23615 
lu -0.050965 0.01411 0.084695 -0.60044 0.32109 0.14936 0.1822 -0.28134 0.29803 0.56873 -0.11839 0.016865 -0.34706 0.48823 -0.20938 -0.1416 -0.22104 0.32383 0.20624 -0.22187 -0.52334 0.060267 0.23123 0.047804 -0.37174 0.16791 0.33112 -0.077472 -0.023698 0.3512 -0.22166 -0.0052016 -0.30077 -0.051422 -0.38132 -0.052209 -0.17279 0.18318 0.077115 0.024102 -0.48099 0.13936 0.38272 0.15788 0.24172 -0.14074 0.084389 -0.36976 -0.095384 -0.052306 -0.11196 -0.018451 -0.30847 0.41986 -0.53973 -0.32639 0.099117 -0.1722 0.07804 -0.056936 -0.17289 0.38035 -0.0060116 0.18015 -0.1265 -0.16668 -0.62292 0.11242 -0.013133 0.03416 0.12783 0.34094 0.057053 0.51143 -0.53932 0.10962 0.25086 0.1284 0.10815 0.048519 -0.51675 0.61381 -0.041481 -0.20264 0.10879 -0.026187 0.46269 0.13302 -0.60402 -0.7223 0.11199 0.21483 0.53605 -0.68633 -0.14938 -0.16274 0.14191 0.30768 -0.027919 -0.41849 
GAN -0.028414 0.013324 0.050161 -0.41313 0.21805 0.10541 0.12796 -0.19281 0.19859 0.387 -0.080771 0.014062 -0.23445 0.32604 -0.13821 -0.097028 -0.15318 0.22212 0.14175 -0.14831 -0.34795 0.043289 0.15513 0.027657 -0.2509 0.10889 0.2213 -0.050122 -0.0030242 0.23396 -0.14934 0.00028021 -0.20359 -0.037578 -0.25873 -0.037558 -0.10896 0.12238 0.055363 0.013524 -0.31758 0.094991 0.26375 0.10771 0.16261 -0.09414 0.052099 -0.25534 -0.059947 -0.032329 -0.085562 -0.016358 -0.21584 0.2869 -0.36693 -0.22804 0.066641 -0.11451 0.051517 -0.035686 -0.12081 0.26376 -0.0060683 0.11896 -0.084931 -0.1107 -0.42305 0.073008 -0.0066046 0.027416 0.083407 0.22638 0.035948 0.34604 -0.37327 0.070913 0.17643 0.088533 0.068349 0.030877 -0.35358 0.40936 -0.025197 -0.14365 0.070716 -0.021935 0.31761 0.088175 -0.40754 -0.4894 0.070938 0.14985 0.36971 -0.46372 -0.10064 -0.11629 0.097451 0.20879 -0.012559 -0.2837 
muku -0.026682 0.010597 0.052609 -0.3578 0.19142 0.090713 0.10792 -0.16697 0.17344 0.33864 -0.071125 0.0069328 -0.20491 0.28744 -0.124 -0.084342 -0.12976 0.19815 0.1234 -0.12846 -0.30817 0.03841 0.13999 0.029203 -0.2192 0.10119 0.19642 -0.044592 -0.0063725 0.20818 -0.13377 -0.00086261 -0.18075 -0.029745 -0.22204 -0.036495 -0.098766 0.10812 0.051823 0.01635 -0.27865 0.084134 0.22788 0.09051 0.14388 -0.083504 0.050079 -0.21951 -0.05466 -0.031113 -0.069191 -0.011112 -0.18463 0.25042 -0.32226 -0.20022 0.060896 -0.10427 0.044142 -0.029874 -0.10202 0.22222 -0.0028927 0.10661 -0.072803 -0.10102 -0.37281 0.067653 -0.0046868 0.018054 0.073368 0.19884 0.033208 0.30654 -0.31999 0.0628 0.15146 0.07436 0.058922 0.033245 -0.31038 0.36325 -0.028847 -0.1239 0.060711 -0.016572 0.27738 0.074924 -0.36104 -0.42815 0.061906 0.12806 0.31721 -0.40354 -0.08566 -0.097118 0.086889 0.18424 -0.013937 -0.24816 
bahun -0.044469 0.02667 0.06877 -0.47821 0.26067 0.12191 0.1345 -0.22308 0.23394 0.45446 -0.090598 0.0078154 -0.27714 0.38715 -0.16924 -0.11647 -0.16877 0.25664 0.16663 -0.1761 -0.41079 0.049662 0.18277 0.041837 -0.28333 0.14197 0.26492 -0.0612 -0.0090644 0.27995 -0.17272 -0.0070016 -0.2429 -0.036821 -0.30111 -0.049611 -0.13584 0.13859 0.064752 0.022241 -0.37217 0.10018 0.29548 0.1132 0.18628 -0.10637 0.062165 -0.2952 -0.071996 -0.0456 -0.092584 -0.013116 -0.24546 0.33176 -0.4273 -0.27123 0.079101 -0.1431 0.052764 -0.045485 -0.13044 0.29603 -0.006468 0.14847 -0.10082 -0.13502 -0.49754 0.087054 -0.008092 0.022154 0.098344 0.26261 0.044133 0.40501 -0.42522 0.087118 0.19689 0.099856 0.080543 0.039517 -0.40858 0.48082 -0.044209 -0.17268 0.085251 -0.023086 0.36272 0.10202 -0.48559 -0.56849 0.092145 0.16976 0.42347 -0.54034 -0.12223 -0.11974 0.12154 0.23921 -0.02034 -0.32801 
mac -0.050742 0.023721 0.092669 -0.64556 0.34399 0.15851 0.19565 -0.30179 0.31633 0.61285 -0.12487 0.021093 -0.37287 0.52138 -0.22837 -0.15191 -0.22786 0.35115 0.22091 -0.23571 -0.54962 0.070153 0.24918 0.047847 -0.39495 0.17964 0.35243 -0.076744 -0.015032 0.37274 -0.24089 -0.0051802 -0.32137 -0.058964 -0.40062 -0.05904 -0.17901 0.1893 0.085227 0.024573 -0.50623 0.15133 0.4014 0.16426 0.25258 -0.14693 0.088362 -0.39117 -0.094841 -0.05436 -0.12793 -0.013516 -0.32924 0.45011 -0.57108 -0.35582 0.10274 -0.18665 0.0776 -0.052744 -0.18083 0.40358 -0.0052751 0.1956 -0.1348 -0.17493 -0.66731 0.12232 -0.016164 0.043169 0.13012 0.36248 0.059853 0.54918 -0.57582 0.11574 0.27139 0.13711 0.10744 0.049274 -0.55546 0.65119 -0.051312 -0.21906 0.10605 -0.025308 0.49479 0.13437 -0.64698 -0.76871 0.10911 0.23335 0.57122 -0.72678 -0.15772 -0.16911 0.15553 0.32444 -0.022179 -0.44743 
ziga -0.032709 0.01084 0.060764 -0.4488 0.23538 0.11091 0.13942 -0.20898 0.21587 0.42182 -0.091855 0.010901 -0.25342 0.35582 -0.15403 -0.10548 -0.16631 0.24352 0.1532 -0.16143 -0.38075 0.049356 0.17031 0.029877 -0.27353 0.12292 0.23953 -0.053794 -0.010424 0.25452 -0.16147 -0.003461 -0.22222 -0.039164 -0.27853 -0.039364 -0.12309 0.13588 0.060324 0.017209 -0.3465 0.10105 0.27929 0.11647 0.17932 -0.10201 0.057268 -0.27645 -0.067866 -0.042343 -0.090701 -0.0084684 -0.22929 0.30821 -0.39746 -0.24466 0.075634 -0.12834 0.053141 -0.036715 -0.1269 0.27844 -0.0075115 0.13185 -0.095365 -0.12965 -0.46038 0.081482 -0.0067369 0.026166 0.089115 0.25038 0.043183 0.37671 -0.3977 0.082633 0.18555 0.091767 0.074205 0.032587 -0.38471 0.45033 -0.031548 -0.15231 0.07402 -0.021107 0.34326 0.093217 -0.44659 -0.52778 0.076526 0.16221 0.39448 -0.50505 -0.10622 -0.11652 0.10631 0.22298 -0.015748 -0.31122 
sar -0.056887 0.021689 0.10855 -0.78164 0.4127 0.19241 0.2396 -0.36619 0.3804 0.73864 -0.14832 0.024676 -0.43678 0.6261 -0.27286 -0.18798 -0.28549 0.42387 0.26652 -0.28595 -0.66126 0.089584 0.29418 0.056644 -0.47328 0.21277 0.42713 -0.10061 -0.020564 0.44731 -0.2828 0.00035006 -0.38975 -0.068137 -0.48417 -0.067661 -0.21679 0.23477 0.10567 0.038014 -0.60673 0.17966 0.49215 0.19947 0.31633 -0.17652 0.11165 -0.47691 -0.11591 -0.063729 -0.15052 -0.019137 -0.4021 0.54064 -0.69937 -0.42732 0.12762 -0.21818 0.095845 -0.073676 -0.23155 0.48996 -0.0093359 0.23044 -0.15588 -0.21974 -0.80803 0.15263 -0.010835 0.048943 0.1574 0.43849 0.074964 0.66242 -0.69879 0.13799 0.32671 0.1648 0.13461 0.060635 -0.67956 0.79516 -0.06194 -0.27169 0.1332 -0.035838 0.59982 0.16388 -0.78247 -0.92926 0.13024 0.28935 0.68378 -0.87583 -0.18419 -0.21731 0.18596 0.39405 -0.021478 -0.54054 
abi -0.024846 0.012903 0.05117 -0.39947 0.21183 0.098848 0.12954 -0.18345 0.1937 0.37215 -0.07859 0.0089742 -0.22523 0.31853 -0.13717 -0.093374 -0.14523 0.21917 0.13941 -0.1434 -0.33602 0.044499 0.15113 0.031613 -0.24187 0.11046 0.21647 -0.04766 -0.0091104 0.23058 -0.1492 -0.0071282 -0.19865 -0.033666 -0.24838 -0.033256 -0.10868 0.12094 0.051104 0.017305 -0.3151 0.090424 0.25175 0.10321 0.15911 -0.087779 0.051546 -0.24464 -0.0608 -0.035599 -0.078819 -0.0081612 -0.20573 0.27618 -0.35382 -0.21495 0.064832 -0.11134 0.041708 -0.033488 -0.11536 0.25157 -0.0036969 0.11572 -0.078633 -0.1133 -0.41423 0.077417 -0.0086982 0.029904 0.077049 0.22415 0.038686 0.33195 -0.35793 0.073951 0.16812 0.083097 0.069242 0.028582 -0.34272 0.39972 -0.029788 -0.14032 0.06763 -0.012123 0.30871 0.080389 -0.40113 -0.47149 0.06605 0.1412 0.35128 -0.4461 -0.093818 -0.11421 0.094005 0.19546 -0.010651 -0.2756 
mana -0.039499 0.015202 0.068128 -0.50828 0.26646 0.1253 0.1552 -0.23368 0.2465 0.47661 -0.096295 0.014758 -0.29149 0.40637 -0.17591 -0.11929 -0.18436 0.27049 0.17234 -0.18762 -0.43116 0.057608 0.18885 0.033785 -0.30259 0.14039 0.2752 -0.060747 -0.016246 0.29192 -0.18699 -0.0018684 -0.25321 -0.042816 -0.30906 -0.049273 -0.14239 0.14827 0.065902 0.020625 -0.39302 0.11286 0.31538 0.12924 0.20075 -0.1113 0.067593 -0.30514 -0.07812 -0.042397 -0.097585 -0.011079 -0.26122 0.3479 -0.45063 -0.27927 0.080598 -0.14421 0.061217 -0.044442 -0.14585 0.31743 -0.0068112 0.15133 -0.10493 -0.1421 -0.52109 0.093843 -0.0095347 0.034226 0.099478 0.28041 0.045628 0.42424 -0.4526 0.094292 0.20884 0.10596 0.089078 0.039587 -0.43233 0.50992 -0.036997 -0.17065 0.085791 -0.027036 0.38696 0.10595 -0.50432 -0.59715 0.088191 0.18223 0.44541 -0.571 -0.12217 -0.13581 0.12303 0.2573 -0.016146 -0.34693 
i -0.025033 0.0064263 0.045106 -0.33494 0.17314 0.081086 0.10684 -0.16003 0.17013 0.30912 -0.067474 0.015436 -0.18907 0.26177 -0.11256 -0.075094 -0.12706 0.18027 0.11394 -0.11274 -0.2832 0.025753 0.12962 0.030959 -0.2046 0.097479 0.18492 -0.045376 -0.010397 0.19545 -0.11899 -0.0033728 -0.15715 -0.028681 -0.19404 -0.036314 -0.092964 0.10005 0.040168 0.0099753 -0.26043 0.07813 0.21014 0.092485 0.13188 -0.078024 0.047806 -0.21276 -0.04466 -0.020431 -0.065216 -0.0090562 -0.17128 0.22929 -0.30604 -0.17658 0.051916 -0.097541 0.039002 -0.020549 -0.096632 0.21661 -0.006508 0.09515 -0.063832 -0.095501 -0.33822 0.062059 -0.0030468 0.012512 0.068519 0.19441 0.033049 0.28454 -0.29364 0.063051 0.13528 0.070882 0.053198 0.03216 -0.28116 0.33727 -0.034196 -0.11562 0.049785 -0.017511 0.25229 0.073897 -0.3304 -0.39263 0.055448 0.11713 0.29643 -0.38117 -0.083413 -0.088225 0.07949 0.16645 -0.0054317 -0.22903 
kubi -0.023511 0.0070602 0.045291 -0.35576 0.18623 0.08545 0.11079 -0.16195 0.1732 0.32955 -0.064717 0.01128 -0.1992 0.28368 -0.12071 -0.079194 -0.12966 0.18726 0.11881 -0.12813 -0.2923 0.040906 0.13209 0.028753 -0.21674 0.09676 0.1916 -0.043435 -0.0094165 0.20168 -0.12553 3.7286e-05 -0.17702 -0.028107 -0.21697 -0.033951 -0.095597 0.10134 0.045061 0.014475 -0.27698 0.080546 0.22222 0.091285 0.13799 -0.080073 0.046354 -0.21861 -0.053377 -0.026127 -0.071115 -0.007425 -0.18228 0.24453 -0.31009 -0.18892 0.056582 -0.10238 0.036423 -0.030662 -0.10202 0.22104 -0.0032053 0.10569 -0.065329 -0.09981 -0.36091 0.068439 -0.009542 0.024188 0.071015 0.19274 0.033485 0.29331 -0.31452 0.065868 0.14494 0.072085 0.05834 0.029835 -0.30147 0.35608 -0.025371 -0.11904 0.058535 -0.015949 0.26914 0.073358 -0.35479 -0.41128 0.057547 0.13135 0.30749 -0.39732 -0.082708 -0.09847 0.081828 0.17755 -0.0087686 -0.23957 
13 -0.021692 0.010394 0.050393 -0.34511 0.18067 0.085268 0.10537 -0.15647 0.1684 0.32629 -0.063992 0.014368 -0.20075 0.27859 -0.11905 -0.07756 -0.12851 0.18453 0.1181 -0.12968 -0.29726 0.03849 0.12901 0.023862 -0.20508 0.097171 0.18799 -0.039472 -0.0089327 0.19827 -0.1287 0.00094046 -0.16495 -0.027339 -0.2147 -0.029974 -0.09733 0.098565 0.045254 0.012413 -0.26598 0.082042 0.22012 0.093464 0.14034 -0.077712 0.041662 -0.21757 -0.056817 -0.027293 -0.073934 -0.0034914 -0.17806 0.23457 -0.30779 -0.18857 0.055909 -0.095353 0.044783 -0.027218 -0.10052 0.21663 -0.0061675 0.096083 -0.071042 -0.099672 -0.35864 0.070823 -0.010606 0.023961 0.065559 0.19979 0.032432 0.29145 -0.31179 0.06363 0.14464 0.070477 0.06067 0.024014 -0.29779 0.34832 -0.023683 -0.11409 0.062303 -0.013148 0.26744 0.071107 -0.35258 -0.40892 0.056607 0.12579 0.30706 -0.3928 -0.082121 -0.093099 0.083 0.1713 -0.0047159 -0.23693 
ma -0.062158 0.018339 0.11616 -0.81779 0.4401 0.20432 0.24763 -0.38251 0.39667 0.77949 -0.15695 0.021677 -0.47348 0.65444 -0.28235 -0.19318 -0.29125 0.44657 0.27946 -0.29826 -0.70111 0.087476 0.31166 0.059439 -0.49502 0.2295 0.44474 -0.10283 -0.024691 0.47096 -0.30342 -0.0015136 -0.40781 -0.067349 -0.50631 -0.076313 -0.23346 0.24657 0.10921 0.036107 -0.64105 0.18416 0.51213 0.21475 0.32542 -0.17896 0.11395 -0.49869 -0.1234 -0.073094 -0.16545 -0.018571 -0.42151 0.57325 -0.73378 -0.44658 0.13479 -0.23199 0.096445 -0.068884 -0.22897 0.51765 -0.0056748 0.24918 -0.1724 -0.22598 -0.84922 0.15768 -0.019548 0.055958 0.16194 0.46066 0.080044 0.69413 -0.73274 0.14692 0.34292 0.17656 0.13893 0.067722 -0.70951 0.82755 -0.063751 -0.27872 0.13824 -0.039849 0.62729 0.17571 -0.82659 -0.97409 0.14456 0.29839 0.72211 -0.92875 -0.20094 -0.21805 0.19859 0.40566 -0.025798 -0.5659 
erin -0.028061 0.011377 0.052676 -0.3765 0.19618 0.092121 0.11596 -0.17416 0.18222 0.35078 -0.071457 0.013588 -0.21431 0.29886 -0.12949 -0.084715 -0.13707 0.20012 0.12923 -0.1342 -0.31718 0.042361 0.14036 0.028353 -0.2268 0.10247 0.20327 -0.0482 -0.010636 0.21481 -0.13578 -0.00019586 -0.18385 -0.030028 -0.23091 -0.033339 -0.10395 0.10831 0.051338 0.018035 -0.29454 0.083904 0.23795 0.098182 0.14975 -0.085036 0.046697 -0.22995 -0.054937 -0.030334 -0.074585 -0.0073219 -0.19303 0.25554 -0.33205 -0.20565 0.063786 -0.10832 0.045799 -0.034512 -0.10517 0.23855 -0.0075306 0.11296 -0.07777 -0.10484 -0.38655 0.071139 -0.0081671 0.02534 0.074484 0.21057 0.036235 0.31258 -0.33801 0.065731 0.1592 0.083924 0.067414 0.026314 -0.32063 0.3748 -0.028436 -0.12783 0.063644 -0.018302 0.29072 0.0746 -0.37466 -0.44252 0.06384 0.13506 0.32895 -0.41864 -0.087988 -0.10018 0.089956 0.19018 -0.012391 -0.26167 
9 -0.02143 0.0068643 0.030379 -0.2437 0.13307 0.059216 0.078151 -0.11773 0.12054 0.23609 -0.043958 0.0060794 -0.14153 0.19583 -0.089316 -0.049015 -0.091383 0.13593 0.090136 -0.097981 -0.21194 0.021892 0.087697 0.01013 -0.14763 0.071533 0.13482 -0.032578 -0.0099461 0.14946 -0.087199 0.0045046 -0.12305 -0.01913 -0.15015 -0.021585 -0.067686 0.069638 0.034966 0.0078133 -0.20166 0.062588 0.1519 0.070907 0.10552 -0.058604 0.034349 -0.158 -0.038766 -0.026285 -0.051086 -0.0093687 -0.12793 0.17295 -0.21732 -0.13262 0.035516 -0.069978 0.027363 -0.011839 -0.076772 0.15455 -3.6049e-05 0.076712 -0.051714 -0.069888 -0.25795 0.048923 -0.0065347 0.021045 0.04356 0.13813 0.029288 0.20622 -0.23124 0.038704 0.094524 0.055037 0.043312 0.013003 -0.21391 0.25384 -0.016341 -0.077561 0.047629 -0.0081945 0.1947 0.055378 -0.24192 -0.29259 0.04077 0.084055 0.21459 -0.27795 -0.054709 -0.066706 0.056887 0.11826 -0.0060131 -0.16727 
bati -0.030917 0.012058 0.046714 -0.33735 0.18071 0.085547 0.099398 -0.16116 0.16768 0.31887 -0.065302 0.0056285 -0.19417 0.26554 -0.11725 -0.081375 -0.12029 0.18184 0.11409 -0.12159 -0.2923 0.038426 0.12713 0.026492 -0.20923 0.097561 0.18538 -0.044639 -0.0051683 0.19599 -0.12369 -0.003903 -0.1729 -0.026325 -0.21183 -0.032947 -0.09399 0.10085 0.046525 0.013472 -0.25876 0.073508 0.21584 0.085768 0.13025 -0.071564 0.041564 -0.2064 -0.051189 -0.031343 -0.064677 -0.0064993 -0.17092 0.23287 -0.3026 -0.18692 0.058186 -0.095683 0.039181 -0.029331 -0.09686 0.21092 -0.0036909 0.10234 -0.070982 -0.097032 -0.35054 0.064756 -0.0042789 0.022132 0.065928 0.18897 0.030323 0.28622 -0.3037 0.053786 0.13697 0.07197 0.057777 0.029385 -0.29149 0.34506 -0.029143 -0.11603 0.057891 -0.01697 0.25795 0.073331 -0.3426 -0.40564 0.058846 0.11866 0.29938 -0.38071 -0.08535 -0.088763 0.082864 0.17287 -0.012896 -0.22913 
kimac -0.024559 0.013817 0.04649 -0.34439 0.18642 0.085407 0.10433 -0.16213 0.16736 0.3259 -0.066275 0.010292 -0.19543 0.27609 -0.12484 -0.083614 -0.1208 0.18666 0.1169 -0.12689 -0.29516 0.039983 0.13121 0.02719 -0.21271 0.09421 0.18623 -0.042757 -0.007773 0.19927 -0.1305 -0.003565 -0.17219 -0.029475 -0.21299 -0.029659 -0.094071 0.10091 0.04605 0.013937 -0.27334 0.079341 0.21485 0.089833 0.13553 -0.076831 0.048249 -0.21052 -0.052841 -0.031465 -0.0655 -0.0096413 -0.17352 0.23802 -0.30541 -0.1909 0.057649 -0.10029 0.038708 -0.030374 -0.098396 0.21559 -0.0049249 0.10365 -0.069919 -0.094722 -0.35746 0.066661 -0.0063846 0.019055 0.071971 0.19509 0.030531 0.29233 -0.3126 0.06125 0.14249 0.075464 0.05833 0.025657 -0.29437 0.3475 -0.026782 -0.11703 0.059482 -0.0148 0.26559 0.069636 -0.34496 -0.41092 0.05985 0.12379 0.30707 -0.38722 -0.085981 -0.09084 0.083964 0.17325 -0.014876 -0.23554 
2kam -0.030941 0.012495 0.05091 -0.39613 0.21201 0.097509 0.1273 -0.18673 0.1874 0.37116 -0.079598 0.009226 -0.2304 0.31604 -0.14135 -0.091926 -0.14251 0.21378 0.13264 -0.14681 -0.33837 0.046283 0.14578 0.029807 -0.24309 0.10855 0.2172 -0.048294 -0.0089251 0.22608 -0.14819 -0.0025182 -0.19952 -0.033821 -0.24906 -0.037952 -0.11083 0.11594 0.052765 0.011615 -0.31229 0.093175 0.24974 0.10102 0.15259 -0.088626 0.048194 -0.23957 -0.056396 -0.034121 -0.081516 -0.0073829 -0.20354 0.26986 -0.35117 -0.2188 0.062454 -0.11091 0.043082 -0.037097 -0.11155 0.25031 -0.0033247 0.1157 -0.083884 -0.11102 -0.40746 0.071352 -0.010026 0.023576 0.078482 0.21975 0.034735 0.33677 -0.35173 0.0734 0.15945 0.085119 0.067528 0.029512 -0.3433 0.39743 -0.030191 -0.13464 0.068364 -0.018127 0.30373 0.081705 -0.39986 -0.46989 0.064428 0.14498 0.35248 -0.44396 -0.094855 -0.11227 0.094879 0.19912 -0.013309 -0.27255 
ensi -0.027905 0.010369 0.048499 -0.3636 0.18907 0.090994 0.10509 -0.16695 0.17581 0.33744 -0.070255 0.0062054 -0.20609 0.29057 -0.1249 -0.083658 -0.13068 0.19782 0.12464 -0.13321 -0.30881 0.037488 0.13632 0.026422 -0.22009 0.10198 0.19623 -0.045356 -0.009489 0.20786 -0.13066 -0.0028594 -0.18609 -0.029101 -0.22315 -0.036559 -0.097893 0.10344 0.048768 0.014629 -0.28003 0.08394 0.22639 0.092999 0.14247 -0.081518 0.047778 -0.22105 -0.056173 -0.030252 -0.07271 -0.0083419 -0.18457 0.24572 -0.31878 -0.19765 0.062731 -0.10147 0.043734 -0.036267 -0.099774 0.22603 -0.0031719 0.10739 -0.072045 -0.097411 -0.37223 0.068958 -0.0039264 0.023999 0.074104 0.20127 0.034811 0.30324 -0.31985 0.064706 0.14871 0.079025 0.060722 0.029839 -0.30662 0.36524 -0.030549 -0.12618 0.060241 -0.0153 0.27662 0.076336 -0.36158 -0.42581 0.062922 0.12853 0.31504 -0.40579 -0.085958 -0.096405 0.088386 0.18387 -0.013095 -0.24864 
gida -0.049674 0.015236 0.098675 -0.69812 0.36647 0.17337 0.20565 -0.32489 0.33994 0.65848 -0.13323 0.019633 -0.40116 0.55952 -0.24094 -0.1576 -0.25465 0.37659 0.24035 -0.24951 -0.59686 0.080234 0.26026 0.055925 -0.42144 0.19806 0.37865 -0.089726 -0.023624 0.39785 -0.25302 -0.0054523 -0.34693 -0.058199 -0.43242 -0.062098 -0.18903 0.20462 0.090465 0.02517 -0.54717 0.15718 0.43491 0.18423 0.27606 -0.16223 0.091054 -0.42466 -0.10862 -0.056711 -0.13982 -0.020312 -0.35887 0.48002 -0.62301 -0.38107 0.11681 -0.19524 0.084045 -0.058451 -0.20037 0.4366 -0.01081 0.20949 -0.13858 -0.20111 -0.71383 0.12831 -0.019005 0.041042 0.14579 0.39034 0.064175 0.58752 -0.62762 0.12748 0.29105 0.14804 0.11625 0.058867 -0.59667 0.70473 -0.054372 -0.23988 0.1183 -0.028608 0.5361 0.14938 -0.69881 -0.82904 0.12076 0.25158 0.61325 -0.78502 -0.17089 -0.18398 0.16518 0.34491 -0.020462 -0.47365 
nanna -0.045374 0.022308 0.070556 -0.50227 0.2709 0.12494 0.14456 -0.23684 0.24733 0.47764 -0.093344 0.012506 -0.29044 0.40082 -0.17974 -0.11583 -0.18374 0.27254 0.17403 -0.18493 -0.43084 0.054567 0.19787 0.039008 -0.30038 0.14403 0.27531 -0.05559 -0.015392 0.29258 -0.17992 -0.0052296 -0.25511 -0.040194 -0.31443 -0.051729 -0.14749 0.1407 0.063213 0.018201 -0.38818 0.1044 0.31612 0.12607 0.20033 -0.11664 0.064736 -0.30619 -0.080701 -0.037601 -0.099849 -0.018626 -0.25215 0.34617 -0.44438 -0.28577 0.082191 -0.14842 0.055248 -0.044602 -0.14299 0.31828 -0.007358 0.15121 -0.10726 -0.13841 -0.51542 0.09162 -0.011355 0.029979 0.10482 0.2809 0.051494 0.41975 -0.44785 0.093347 0.21073 0.10365 0.088998 0.036578 -0.42612 0.50649 -0.049288 -0.18174 0.089839 -0.02803 0.38401 0.1044 -0.50802 -0.59581 0.093797 0.17896 0.43887 -0.56865 -0.1297 -0.13076 0.12383 0.25312 -0.020209 -0.34487 
ga -0.0686 0.020731 0.12579 -0.9077 0.47466 0.21863 0.27575 -0.41842 0.43484 0.84241 -0.17542 0.02515 -0.51603 0.71534 -0.31671 -0.2089 -0.33616 0.48409 0.30637 -0.32406 -0.76511 0.098905 0.33898 0.067537 -0.54391 0.25035 0.48771 -0.11097 -0.020568 0.51582 -0.32634 -0.0072268 -0.44713 -0.075852 -0.56011 -0.07722 -0.24933 0.27191 0.1212 0.039364 -0.70185 0.19753 0.56221 0.22964 0.36569 -0.20307 0.11533 -0.5513 -0.13554 -0.077932 -0.17734 -0.016968 -0.46976 0.62222 -0.80682 -0.49492 0.14952 -0.25927 0.10957 -0.070493 -0.25588 0.5669 -0.012714 0.27272 -0.19019 -0.25113 -0.92648 0.16237 -0.019559 0.051027 0.17704 0.50434 0.080787 0.75911 -0.81506 0.16463 0.37434 0.18528 0.1526 0.067198 -0.77927 0.90752 -0.067204 -0.30008 0.15772 -0.04662 0.69377 0.18894 -0.89901 -1.0657 0.15419 0.32797 0.79351 -1.0141 -0.21804 -0.24278 0.21648 0.45345 -0.030855 -0.61935 
ara -0.055923 0.026109 0.098257 -0.74709 0.39444 0.18298 0.22537 -0.35489 0.36727 0.71301 -0.14299 0.020197 -0.42708 0.59994 -0.26697 -0.1749 -0.26576 0.40371 0.25088 -0.2758 -0.64191 0.080727 0.28551 0.058199 -0.45217 0.20928 0.39999 -0.095128 -0.02123 0.43134 -0.27281 -0.0048428 -0.37676 -0.062445 -0.47223 -0.070946 -0.20552 0.22497 0.10174 0.028871 -0.58407 0.17482 0.47457 0.19278 0.29428 -0.16072 0.099096 -0.46192 -0.11196 -0.068049 -0.14627 -0.014557 -0.38293 0.5096 -0.66745 -0.41358 0.12015 -0.20989 0.083032 -0.063982 -0.21583 0.46839 -0.010469 0.22918 -0.15605 -0.20716 -0.77411 0.14026 -0.014149 0.051121 0.14605 0.41683 0.063531 0.64112 -0.66814 0.13245 0.31013 0.16252 0.12502 0.059635 -0.64295 0.7561 -0.056507 -0.26137 0.12953 -0.030489 0.57364 0.15686 -0.75071 -0.89223 0.12835 0.26729 0.66607 -0.83913 -0.18591 -0.20047 0.18836 0.37885 -0.023439 -0.51611 
amarsuen -0.02673 0.013235 0.050013 -0.35452 0.18864 0.088105 0.10637 -0.16828 0.17588 0.33778 -0.069519 0.010992 -0.2033 0.28449 -0.12611 -0.083162 -0.1278 0.19148 0.12373 -0.13131 -0.30529 0.039823 0.13575 0.027796 -0.21814 0.10294 0.19527 -0.043433 -0.0086051 0.20561 -0.12925 -0.00042339 -0.1789 -0.027628 -0.2199 -0.037196 -0.10079 0.10605 0.048044 0.016006 -0.27802 0.078289 0.22451 0.093965 0.14237 -0.080448 0.047358 -0.21722 -0.053691 -0.034145 -0.068666 -0.010324 -0.1813 0.24716 -0.3184 -0.19566 0.058071 -0.10046 0.042359 -0.02996 -0.10192 0.22338 -0.0031694 0.10834 -0.073728 -0.096648 -0.36531 0.067354 -0.0036705 0.020842 0.070936 0.19902 0.034135 0.30013 -0.31524 0.060954 0.14618 0.0748 0.062046 0.027431 -0.30336 0.36259 -0.031175 -0.12572 0.061368 -0.015433 0.27146 0.0768 -0.35647 -0.42484 0.062162 0.12765 0.31304 -0.40008 -0.085913 -0.094842 0.087752 0.17942 -0.013049 -0.2451 
1kam -0.030469 0.011633 0.060047 -0.45218 0.24499 0.11217 0.1413 -0.21502 0.21866 0.4255 -0.089637 0.0092903 -0.26033 0.35958 -0.15891 -0.10215 -0.16378 0.24181 0.15414 -0.16492 -0.38834 0.046234 0.16917 0.035286 -0.27685 0.12682 0.24592 -0.0579 -0.014395 0.25703 -0.1686 -0.00267 -0.22878 -0.038837 -0.2828 -0.041678 -0.12484 0.13636 0.059191 0.011563 -0.35693 0.10628 0.28362 0.11089 0.17216 -0.099718 0.058005 -0.27267 -0.063958 -0.03757 -0.090041 -0.0067857 -0.22956 0.30647 -0.40104 -0.24767 0.071883 -0.127 0.047285 -0.040815 -0.12423 0.27894 -0.0069623 0.13595 -0.091838 -0.12645 -0.47014 0.08496 -0.0085571 0.029145 0.089562 0.25383 0.042224 0.38291 -0.40056 0.082 0.18307 0.095734 0.072547 0.033291 -0.3908 0.44895 -0.032584 -0.15202 0.077424 -0.020891 0.34697 0.095845 -0.45333 -0.53955 0.073917 0.15897 0.40347 -0.50259 -0.1067 -0.12318 0.10793 0.22902 -0.014493 -0.30772 
23 -0.024247 0.0081922 0.045292 -0.33785 0.17466 0.083628 0.10596 -0.1507 0.15948 0.31646 -0.065865 0.013545 -0.19332 0.27488 -0.11173 -0.076619 -0.12582 0.18185 0.11742 -0.12296 -0.28947 0.04095 0.12538 0.02266 -0.20597 0.096069 0.18202 -0.0458 -0.012228 0.19324 -0.1223 -3.0726e-05 -0.1597 -0.03173 -0.20968 -0.029998 -0.094586 0.093949 0.045641 0.014838 -0.26417 0.076311 0.21769 0.086559 0.13747 -0.073668 0.039291 -0.21134 -0.052295 -0.02471 -0.06677 -0.0031506 -0.17672 0.23463 -0.30482 -0.1856 0.054171 -0.099014 0.041483 -0.029778 -0.099312 0.2152 -0.0096922 0.099984 -0.064234 -0.098316 -0.34623 0.062468 -0.011591 0.023451 0.067326 0.18602 0.032544 0.2796 -0.3017 0.062818 0.13789 0.072857 0.057455 0.027797 -0.28927 0.33978 -0.025293 -0.11208 0.058808 -0.012409 0.2589 0.071477 -0.32884 -0.39633 0.054609 0.11917 0.29809 -0.38006 -0.079474 -0.08772 0.07508 0.16433 -0.014667 -0.22844 
nubanda -0.030049 0.0074598 0.058559 -0.42634 0.22686 0.10547 0.12695 -0.20135 0.20738 0.40235 -0.080433 0.014297 -0.2438 0.34073 -0.14647 -0.099348 -0.15552 0.23191 0.14775 -0.15328 -0.36643 0.048394 0.16375 0.032598 -0.25974 0.1201 0.23228 -0.055168 -0.014307 0.24537 -0.15478 -0.0026431 -0.215 -0.035839 -0.26584 -0.039181 -0.11542 0.12646 0.056204 0.016222 -0.33701 0.097869 0.26538 0.11007 0.16904 -0.098273 0.053425 -0.26226 -0.065635 -0.037343 -0.083987 -0.011045 -0.21822 0.29723 -0.38276 -0.23477 0.069566 -0.1206 0.049401 -0.035191 -0.12171 0.26949 -0.0036066 0.12826 -0.087053 -0.11998 -0.43853 0.07742 -0.0054282 0.025814 0.085081 0.23976 0.038597 0.36227 -0.38313 0.078819 0.17611 0.092698 0.075202 0.036393 -0.36514 0.43162 -0.031422 -0.14692 0.075501 -0.020728 0.32746 0.091364 -0.42818 -0.50544 0.07346 0.15382 0.37562 -0.48168 -0.10067 -0.11672 0.10076 0.21656 -0.013759 -0.29025 
ab -0.01824 0.011757 0.044203 -0.29922 0.15619 0.073403 0.091225 -0.1374 0.13979 0.28141 -0.06151 0.0044414 -0.16733 0.23878 -0.10557 -0.0645 -0.10939 0.15942 0.10475 -0.11282 -0.25584 0.03097 0.11033 0.023677 -0.18246 0.085326 0.16569 -0.038528 -0.007447 0.17404 -0.10996 -0.0051923 -0.14871 -0.023035 -0.18611 -0.030962 -0.083432 0.085938 0.040627 0.018302 -0.23124 0.067315 0.18957 0.075322 0.12163 -0.062715 0.041411 -0.18295 -0.044678 -0.025864 -0.056232 -0.011376 -0.15507 0.20894 -0.26756 -0.16161 0.046174 -0.085847 0.035675 -0.026647 -0.083838 0.18894 -0.0062377 0.086006 -0.055576 -0.083717 -0.31096 0.050832 -0.004319 0.018164 0.055056 0.16694 0.02623 0.25181 -0.26953 0.052342 0.13175 0.062385 0.050659 0.020841 -0.25028 0.29806 -0.022697 -0.098974 0.046068 -0.01525 0.23078 0.065751 -0.29545 -0.35346 0.051592 0.1087 0.26521 -0.33542 -0.066784 -0.086862 0.067391 0.14735 -0.0081224 -0.21075 
daba -0.033067 0.010179 0.061357 -0.44685 0.23714 0.10977 0.13778 -0.21485 0.2205 0.42637 -0.088714 0.011856 -0.25391 0.35712 -0.15532 -0.10224 -0.16182 0.24527 0.15569 -0.16464 -0.38665 0.050915 0.17058 0.032039 -0.27309 0.12508 0.24141 -0.059293 -0.013141 0.26188 -0.16286 -0.0050142 -0.22396 -0.039602 -0.28034 -0.041301 -0.12533 0.13921 0.059357 0.018708 -0.35319 0.09919 0.28113 0.12004 0.17768 -0.10041 0.057967 -0.2784 -0.068836 -0.03683 -0.08865 -0.015918 -0.23124 0.31087 -0.40346 -0.25035 0.074323 -0.12667 0.051617 -0.037745 -0.13019 0.28031 -0.0084376 0.13263 -0.093846 -0.13065 -0.46521 0.083029 -0.0086636 0.024442 0.092432 0.25143 0.042009 0.37864 -0.40418 0.077205 0.1863 0.094803 0.079378 0.035612 -0.38409 0.45765 -0.031102 -0.15419 0.078586 -0.019994 0.34531 0.095047 -0.45192 -0.53157 0.079475 0.16019 0.39758 -0.50629 -0.11122 -0.11737 0.10947 0.22743 -0.012143 -0.30891 
kac -0.032243 0.016051 0.057319 -0.43747 0.22283 0.10599 0.13325 -0.20231 0.20722 0.40205 -0.087041 0.013909 -0.24522 0.34992 -0.15291 -0.10167 -0.15627 0.23365 0.15003 -0.15331 -0.36676 0.042348 0.16249 0.034679 -0.26644 0.11932 0.23555 -0.054421 -0.015885 0.24813 -0.15347 0.0018575 -0.21104 -0.037196 -0.26414 -0.037644 -0.11447 0.12277 0.05406 0.010365 -0.3415 0.099358 0.26559 0.10941 0.16721 -0.10039 0.062144 -0.26629 -0.067261 -0.034451 -0.085725 -0.012805 -0.21707 0.29789 -0.38561 -0.23758 0.070178 -0.12457 0.051304 -0.035317 -0.1221 0.27199 -0.0033724 0.13104 -0.079488 -0.12689 -0.44521 0.080504 -0.012356 0.022572 0.087682 0.2444 0.039785 0.36442 -0.39153 0.081819 0.17688 0.090583 0.072262 0.038617 -0.36551 0.43024 -0.032325 -0.1451 0.0746 -0.020711 0.32772 0.088765 -0.42731 -0.5167 0.071851 0.15509 0.3829 -0.49179 -0.10411 -0.11279 0.10553 0.21404 -0.018566 -0.29593 
bala -0.052592 0.020033 0.10189 -0.7232 0.38277 0.18313 0.21663 -0.33737 0.35226 0.68132 -0.13829 0.018062 -0.4178 0.58034 -0.25355 -0.17402 -0.26045 0.39247 0.2444 -0.25956 -0.6256 0.075922 0.27458 0.054776 -0.43669 0.2032 0.39019 -0.091974 -0.018454 0.41724 -0.26519 -0.0051546 -0.36309 -0.059474 -0.45208 -0.070088 -0.19852 0.2166 0.097587 0.031397 -0.56694 0.15918 0.45623 0.18244 0.28821 -0.16313 0.097356 -0.44397 -0.11149 -0.060582 -0.14345 -0.018006 -0.37414 0.49752 -0.64612 -0.3972 0.11973 -0.20575 0.087718 -0.063716 -0.20686 0.45588 -0.0089064 0.22192 -0.14732 -0.20602 -0.74469 0.13122 -0.010309 0.04456 0.14555 0.4035 0.067345 0.61193 -0.64752 0.13103 0.29815 0.14975 0.12001 0.056316 -0.62097 0.72928 -0.0573 -0.24682 0.12319 -0.034809 0.55809 0.15201 -0.72651 -0.86304 0.12548 0.25704 0.64116 -0.81346 -0.17724 -0.19589 0.1752 0.36461 -0.02605 -0.49806 
laia -0.020128 0.0083775 0.03759 -0.2694 0.13762 0.063632 0.083744 -0.12307 0.12697 0.24859 -0.049978 0.0088931 -0.15355 0.21166 -0.092708 -0.063942 -0.10161 0.14364 0.093195 -0.098201 -0.22546 0.029417 0.10006 0.021068 -0.1637 0.073335 0.14138 -0.034333 -0.0087459 0.15398 -0.095579 0.001626 -0.13212 -0.021634 -0.16836 -0.024539 -0.06773 0.077346 0.03531 0.013857 -0.20604 0.059561 0.16541 0.067006 0.10613 -0.060188 0.034054 -0.16117 -0.03998 -0.024876 -0.052633 -0.0068454 -0.13814 0.18471 -0.24108 -0.14355 0.044308 -0.075592 0.030401 -0.022529 -0.076048 0.16778 -0.00094203 0.078906 -0.055218 -0.076886 -0.27232 0.051136 -0.0067044 0.015776 0.05238 0.14989 0.026216 0.22626 -0.24039 0.047575 0.11107 0.060249 0.047669 0.021829 -0.22854 0.27006 -0.020178 -0.090256 0.049137 -0.013864 0.20405 0.057061 -0.26445 -0.31721 0.04368 0.10026 0.23557 -0.29931 -0.06379 -0.070733 0.063414 0.13485 -0.00834 -0.18333 
inanna -0.037906 0.020623 0.05871 -0.41655 0.2252 0.1054 0.11887 -0.19726 0.20349 0.39584 -0.076204 0.01153 -0.23838 0.33449 -0.14685 -0.094971 -0.15094 0.22767 0.14544 -0.15179 -0.35727 0.045964 0.16499 0.032671 -0.24827 0.11891 0.22614 -0.046783 -0.01358 0.24455 -0.14763 -0.003467 -0.21168 -0.034365 -0.25953 -0.04236 -0.12122 0.11852 0.053191 0.016996 -0.32176 0.08645 0.26209 0.10364 0.16621 -0.097591 0.05489 -0.25317 -0.067705 -0.033039 -0.081656 -0.013193 -0.21075 0.28728 -0.36682 -0.23477 0.07005 -0.12331 0.045591 -0.038809 -0.11971 0.26432 -0.004441 0.12508 -0.088889 -0.11776 -0.42907 0.075156 -0.010395 0.024272 0.088718 0.23371 0.042577 0.34919 -0.37194 0.075703 0.17417 0.085481 0.072008 0.031133 -0.35397 0.42377 -0.040243 -0.14793 0.071101 -0.021957 0.31911 0.086201 -0.42242 -0.49325 0.078459 0.14857 0.36495 -0.47281 -0.10777 -0.10643 0.10348 0.2081 -0.018165 -0.2854 
sa -0.04516 0.019463 0.082663 -0.59457 0.31817 0.14961 0.18452 -0.27645 0.2887 0.56378 -0.11933 0.020813 -0.3403 0.48063 -0.20281 -0.14003 -0.21501 0.32381 0.20655 -0.21539 -0.5039 0.061886 0.22405 0.043253 -0.36647 0.16302 0.33003 -0.080335 -0.016328 0.34304 -0.21469 -0.0041113 -0.30442 -0.051112 -0.37337 -0.05352 -0.16168 0.18055 0.081963 0.026241 -0.46593 0.13118 0.37192 0.15498 0.23833 -0.14145 0.082931 -0.36642 -0.091404 -0.046946 -0.11651 -0.017075 -0.30741 0.41474 -0.53984 -0.33312 0.09603 -0.16563 0.073337 -0.047268 -0.17718 0.37581 -0.010606 0.17531 -0.11918 -0.17164 -0.61584 0.10905 -0.012997 0.041176 0.12172 0.34305 0.057876 0.50718 -0.53652 0.114 0.25272 0.12229 0.10582 0.041493 -0.51634 0.60957 -0.046761 -0.20994 0.10082 -0.026092 0.45457 0.12578 -0.60252 -0.71162 0.0929 0.22009 0.52341 -0.66754 -0.13808 -0.16189 0.13438 0.30214 -0.021844 -0.41046 
bad -0.053237 0.023748 0.09686 -0.64193 0.34357 0.1665 0.18495 -0.30158 0.31958 0.60701 -0.12267 0.01541 -0.36904 0.51489 -0.22598 -0.1594 -0.22415 0.34407 0.21794 -0.22888 -0.56097 0.065823 0.25066 0.05588 -0.39348 0.18853 0.35248 -0.082208 -0.016148 0.3759 -0.23674 -0.002861 -0.32041 -0.055012 -0.40138 -0.066461 -0.18218 0.19102 0.082606 0.031802 -0.50202 0.14323 0.41144 0.16088 0.25928 -0.13973 0.083507 -0.39263 -0.098589 -0.057308 -0.11889 -0.014573 -0.32906 0.45351 -0.58166 -0.35324 0.10819 -0.18734 0.077347 -0.060047 -0.18337 0.39361 -0.0030339 0.19467 -0.1338 -0.17925 -0.66718 0.12086 -0.0082757 0.035054 0.13587 0.35809 0.05212 0.54697 -0.57261 0.11846 0.26316 0.12996 0.11003 0.057575 -0.55753 0.65613 -0.051554 -0.22275 0.11297 -0.02913 0.4924 0.13766 -0.65536 -0.77283 0.11692 0.22693 0.57362 -0.72389 -0.16274 -0.16547 0.15676 0.31806 -0.020387 -0.44369 
sarta -0.035475 0.016046 0.065221 -0.50041 0.26528 0.12596 0.15617 -0.23062 0.24318 0.47281 -0.094678 0.012749 -0.28086 0.40418 -0.17643 -0.12028 -0.18006 0.27412 0.17327 -0.18407 -0.4266 0.0574 0.1903 0.037315 -0.30451 0.13447 0.27347 -0.063896 -0.015248 0.28806 -0.18507 0.00083397 -0.24926 -0.042911 -0.31466 -0.042587 -0.1397 0.14848 0.065118 0.022566 -0.39178 0.11856 0.31674 0.12846 0.204 -0.11547 0.071172 -0.30938 -0.073035 -0.039817 -0.097729 -0.01197 -0.25838 0.34798 -0.44862 -0.2737 0.083478 -0.14426 0.059653 -0.045397 -0.14733 0.31342 -0.0063233 0.14855 -0.10005 -0.14212 -0.51811 0.099508 -0.0070416 0.030412 0.10089 0.27915 0.046818 0.42377 -0.45058 0.091973 0.20994 0.10455 0.08886 0.039992 -0.43764 0.50914 -0.03998 -0.17532 0.086964 -0.0236 0.38468 0.10467 -0.50059 -0.59586 0.083184 0.18383 0.43948 -0.55848 -0.11979 -0.1398 0.11649 0.2503 -0.014794 -0.35052 
cebi -0.018537 0.0073772 0.038391 -0.28466 0.14935 0.071645 0.087655 -0.12757 0.13721 0.26472 -0.055868 0.0048668 -0.16086 0.22611 -0.092796 -0.066626 -0.10513 0.15159 0.09653 -0.10371 -0.23659 0.034864 0.1045 0.023502 -0.16913 0.076512 0.15416 -0.036242 -0.0083249 0.16217 -0.10585 -0.0013017 -0.1405 -0.024621 -0.17587 -0.028672 -0.078376 0.082422 0.036447 0.012099 -0.22085 0.065994 0.17755 0.070485 0.112 -0.067193 0.039815 -0.17062 -0.043554 -0.020128 -0.056078 -0.0054284 -0.1482 0.19736 -0.25096 -0.1487 0.044562 -0.079598 0.033737 -0.023299 -0.080666 0.17928 -0.00048243 0.08505 -0.056167 -0.084103 -0.2931 0.053762 -0.0072202 0.022965 0.058905 0.16009 0.023459 0.23989 -0.25727 0.050826 0.11598 0.057904 0.048109 0.020103 -0.24224 0.28384 -0.017362 -0.097888 0.047708 -0.011246 0.21946 0.057928 -0.28067 -0.33343 0.047012 0.10099 0.24867 -0.31683 -0.069206 -0.077264 0.064041 0.14477 -0.0088744 -0.19568 
3kam -0.026634 0.015687 0.053947 -0.40506 0.21622 0.10009 0.12707 -0.19137 0.19434 0.38338 -0.084575 0.0092416 -0.23216 0.32226 -0.14347 -0.092478 -0.14886 0.21885 0.13859 -0.14538 -0.34676 0.045337 0.14749 0.031197 -0.24545 0.11106 0.21975 -0.053023 -0.0092504 0.23196 -0.15182 -0.0012615 -0.205 -0.034621 -0.25506 -0.036377 -0.11238 0.12063 0.054742 0.0097625 -0.31994 0.093205 0.25387 0.10256 0.15548 -0.091245 0.052402 -0.24533 -0.056362 -0.032496 -0.081437 -0.0062888 -0.20564 0.27873 -0.35969 -0.22248 0.064922 -0.11581 0.044781 -0.035657 -0.11295 0.2529 -0.0050047 0.11886 -0.086085 -0.11314 -0.41996 0.074504 -0.0077697 0.023983 0.080532 0.22805 0.036725 0.34516 -0.36104 0.074496 0.16572 0.08673 0.066955 0.031472 -0.34964 0.40547 -0.02753 -0.13849 0.069278 -0.017767 0.31216 0.085857 -0.40842 -0.47957 0.068131 0.14685 0.35806 -0.45369 -0.097046 -0.11082 0.098576 0.20353 -0.014163 -0.27791 
urbilum -0.026458 0.0082033 0.045968 -0.32509 0.17072 0.079499 0.0973 -0.15009 0.15581 0.30534 -0.062334 0.0080517 -0.18417 0.25406 -0.11371 -0.076424 -0.11703 0.17189 0.11182 -0.11816 -0.27727 0.037609 0.123 0.022727 -0.19879 0.09159 0.1791 -0.042084 -0.010059 0.18492 -0.11777 -0.00092002 -0.16174 -0.029323 -0.19796 -0.032373 -0.091983 0.095584 0.043651 0.012593 -0.25122 0.073616 0.20423 0.085024 0.13045 -0.072424 0.042671 -0.19702 -0.049308 -0.03056 -0.06301 -0.0098206 -0.16635 0.22249 -0.28676 -0.177 0.051758 -0.090907 0.041048 -0.028208 -0.091951 0.20291 -0.001765 0.096537 -0.067001 -0.089868 -0.33281 0.060301 -0.0050175 0.020162 0.065689 0.17831 0.029683 0.27338 -0.28767 0.054899 0.13171 0.067978 0.057415 0.026623 -0.27469 0.32534 -0.028406 -0.1159 0.054992 -0.012896 0.2472 0.068853 -0.323 -0.38426 0.056109 0.11475 0.28352 -0.36331 -0.079342 -0.085465 0.076553 0.16286 -0.01144 -0.22014 
lugale -0.041009 0.012138 0.071525 -0.49709 0.26922 0.13187 0.14893 -0.23778 0.24536 0.47565 -0.095794 0.017001 -0.28487 0.39829 -0.17379 -0.11972 -0.17894 0.26474 0.17477 -0.18352 -0.43364 0.052574 0.19275 0.035216 -0.30598 0.14552 0.27296 -0.06546 -0.013192 0.28954 -0.18194 -0.0014987 -0.25571 -0.041263 -0.31302 -0.051417 -0.14061 0.1484 0.067358 0.020607 -0.39476 0.11473 0.31811 0.13086 0.19983 -0.10942 0.063566 -0.30658 -0.076332 -0.047445 -0.096477 -0.016395 -0.25888 0.34924 -0.44944 -0.28005 0.083766 -0.14327 0.066067 -0.041791 -0.14211 0.31255 -0.0013824 0.15219 -0.10652 -0.1384 -0.51699 0.091275 -0.0090248 0.030321 0.10385 0.27735 0.048384 0.42417 -0.44445 0.091793 0.2034 0.10837 0.090427 0.041717 -0.4314 0.50845 -0.045118 -0.17337 0.088617 -0.021168 0.38546 0.11004 -0.50426 -0.5983 0.093091 0.17815 0.44137 -0.56956 -0.12389 -0.13372 0.12447 0.25144 -0.019782 -0.34466 
tug -0.033549 0.014453 0.061928 -0.44176 0.23209 0.10969 0.13975 -0.20651 0.21623 0.41232 -0.086325 0.016187 -0.25378 0.34983 -0.15685 -0.10229 -0.15781 0.24168 0.14922 -0.16227 -0.37775 0.046788 0.16561 0.033825 -0.26911 0.12325 0.24339 -0.053611 -0.0085345 0.25346 -0.16169 -0.0023567 -0.21721 -0.039122 -0.27317 -0.037219 -0.12414 0.13265 0.057139 0.020469 -0.34223 0.099374 0.28088 0.11359 0.17395 -0.097761 0.060212 -0.2698 -0.067181 -0.039204 -0.085492 -0.016752 -0.22787 0.30767 -0.392 -0.24306 0.073387 -0.12944 0.05124 -0.040407 -0.12369 0.27828 -0.0066139 0.13317 -0.089716 -0.12163 -0.45566 0.083646 -0.006896 0.02684 0.089581 0.24134 0.040204 0.37153 -0.39315 0.075948 0.18234 0.092985 0.077493 0.033585 -0.36993 0.44413 -0.036361 -0.15108 0.070441 -0.023148 0.33514 0.09235 -0.43773 -0.5239 0.074329 0.15888 0.38798 -0.49821 -0.11033 -0.11756 0.10799 0.22127 -0.012459 -0.3033 
ceba -0.030793 0.0095598 0.053901 -0.40332 0.21215 0.10206 0.12409 -0.19011 0.19925 0.38093 -0.082468 0.012483 -0.22971 0.32112 -0.1356 -0.094546 -0.14823 0.22109 0.13763 -0.14968 -0.34705 0.046021 0.15173 0.029284 -0.24553 0.11134 0.21849 -0.055258 -0.0077844 0.23126 -0.14618 -0.0026488 -0.19799 -0.035659 -0.25147 -0.040485 -0.11101 0.12072 0.055046 0.01655 -0.31692 0.094024 0.25136 0.10797 0.16043 -0.09231 0.053442 -0.25208 -0.063161 -0.034112 -0.079634 -0.010346 -0.21031 0.28136 -0.36062 -0.21796 0.063568 -0.11524 0.045019 -0.03523 -0.11337 0.2552 -0.0017087 0.12204 -0.082134 -0.11591 -0.41446 0.078727 -0.008682 0.027358 0.07792 0.2257 0.040022 0.34284 -0.36453 0.073527 0.16855 0.082865 0.071179 0.030953 -0.348 0.40341 -0.027738 -0.13774 0.070526 -0.014981 0.31185 0.084703 -0.40455 -0.47915 0.070099 0.14445 0.35564 -0.45579 -0.097833 -0.10811 0.092987 0.20598 -0.01219 -0.28055 
badu -0.053967 0.02253 0.091222 -0.61214 0.32604 0.15816 0.17529 -0.2912 0.30388 0.5793 -0.11835 0.018709 -0.35171 0.49159 -0.21453 -0.15505 -0.21303 0.32808 0.20641 -0.22101 -0.52916 0.067215 0.23761 0.051504 -0.37353 0.17588 0.33318 -0.078151 -0.01375 0.35863 -0.22575 -0.0011788 -0.30874 -0.054187 -0.37918 -0.065048 -0.17219 0.18437 0.07899 0.028291 -0.4789 0.13685 0.39218 0.15677 0.24395 -0.13389 0.076758 -0.3687 -0.091928 -0.055269 -0.11616 -0.014217 -0.31292 0.42878 -0.55028 -0.33705 0.10394 -0.17871 0.07328 -0.055623 -0.17138 0.37255 -0.0021226 0.18702 -0.1161 -0.16251 -0.60225 0.10851 -0.0075988 0.035278 0.12468 0.33746 0.051528 0.51944 -0.54561 0.10968 0.25204 0.12671 0.10305 0.054579 -0.52629 0.62231 -0.049586 -0.21399 0.10427 -0.029553 0.46891 0.13189 -0.61952 -0.73581 0.10794 0.21383 0.5447 -0.68673 -0.15243 -0.15727 0.148 0.30593 -0.022667 -0.42285 
guba -0.04025 0.014833 0.068798 -0.5334 0.28135 0.13411 0.16243 -0.25037 0.25874 0.50165 -0.10502 0.01694 -0.30733 0.42395 -0.18381 -0.12541 -0.19617 0.28615 0.18172 -0.19457 -0.45031 0.059022 0.20236 0.040453 -0.3201 0.15102 0.2867 -0.070678 -0.011709 0.30299 -0.1948 -0.0046544 -0.26835 -0.045608 -0.33319 -0.04694 -0.14308 0.1615 0.073084 0.02522 -0.41899 0.12003 0.33511 0.14294 0.21172 -0.12436 0.065188 -0.32245 -0.079068 -0.043006 -0.10163 -0.014529 -0.27441 0.36616 -0.47707 -0.28917 0.08876 -0.149 0.058365 -0.042221 -0.15108 0.33467 -0.0041082 0.15561 -0.1099 -0.15065 -0.54981 0.098883 -0.0099714 0.029328 0.10786 0.29771 0.048017 0.44999 -0.48026 0.093007 0.21767 0.1127 0.094633 0.042577 -0.45684 0.53476 -0.044081 -0.17947 0.091366 -0.02378 0.40425 0.10949 -0.53356 -0.62964 0.092079 0.19156 0.46617 -0.59881 -0.12859 -0.14209 0.1257 0.271 -0.020239 -0.36524 
sadu -0.031196 0.014005 0.058161 -0.42043 0.22437 0.10612 0.12646 -0.19347 0.20352 0.39404 -0.08238 0.012732 -0.23871 0.33746 -0.14644 -0.099917 -0.14462 0.22789 0.14286 -0.15447 -0.35722 0.046505 0.15749 0.0325 -0.25396 0.11702 0.22694 -0.052127 -0.010162 0.24117 -0.15159 -0.00052309 -0.2113 -0.033603 -0.25788 -0.039586 -0.11556 0.1262 0.05532 0.016877 -0.32554 0.09558 0.26858 0.10897 0.16713 -0.095572 0.055839 -0.25198 -0.063242 -0.036368 -0.081561 -0.0077652 -0.21507 0.2887 -0.37286 -0.22787 0.067085 -0.11845 0.048792 -0.037845 -0.11905 0.25869 -0.0060799 0.126 -0.074246 -0.10973 -0.39754 0.071331 -0.0067517 0.025786 0.087296 0.23161 0.036044 0.34976 -0.37436 0.075464 0.17406 0.089426 0.07307 0.033061 -0.35817 0.42226 -0.032213 -0.14388 0.072365 -0.017161 0.31837 0.087149 -0.4192 -0.49704 0.07079 0.1479 0.37056 -0.46748 -0.10351 -0.11273 0.099384 0.20798 -0.014449 -0.28613 
amar -0.037776 0.01316 0.073729 -0.52784 0.27667 0.12977 0.16098 -0.24837 0.26075 0.49617 -0.10228 0.015402 -0.30049 0.42213 -0.18349 -0.12459 -0.19423 0.28628 0.18174 -0.19169 -0.4501 0.06275 0.19931 0.045121 -0.32278 0.14973 0.28864 -0.066269 -0.011913 0.30608 -0.19417 -0.0037019 -0.26106 -0.041978 -0.32802 -0.052774 -0.14711 0.15607 0.068858 0.023346 -0.41271 0.11894 0.33696 0.13413 0.21267 -0.11981 0.073417 -0.32448 -0.083769 -0.046575 -0.10359 -0.017708 -0.27247 0.36673 -0.4742 -0.28951 0.084716 -0.15137 0.065906 -0.048697 -0.15293 0.33437 -0.0045469 0.15855 -0.10542 -0.14514 -0.54169 0.10164 -0.0070948 0.032593 0.10432 0.29628 0.049222 0.4474 -0.46883 0.091094 0.2186 0.11254 0.090029 0.046507 -0.45077 0.53983 -0.042686 -0.18422 0.088007 -0.022914 0.40799 0.11262 -0.53017 -0.63146 0.092377 0.19346 0.46328 -0.59253 -0.12513 -0.14283 0.12694 0.26517 -0.016959 -0.365 
ku -0.044205 0.016885 0.082339 -0.60338 0.32163 0.15083 0.18396 -0.27839 0.29198 0.56614 -0.10956 0.018797 -0.34381 0.48318 -0.20284 -0.14009 -0.22037 0.32419 0.2066 -0.21445 -0.51122 0.069199 0.22924 0.04442 -0.36567 0.16139 0.33543 -0.073055 -0.015925 0.34648 -0.2223 -0.0082197 -0.29654 -0.053471 -0.37618 -0.05555 -0.16278 0.17859 0.078041 0.023948 -0.46739 0.14263 0.37988 0.15262 0.24471 -0.13863 0.080809 -0.36571 -0.093877 -0.043944 -0.1193 -0.015812 -0.31326 0.4109 -0.5309 -0.32801 0.10173 -0.17397 0.069419 -0.050901 -0.17034 0.37832 -0.0018597 0.17919 -0.12086 -0.17487 -0.61824 0.11401 -0.013256 0.037597 0.12748 0.33828 0.0551 0.50803 -0.53704 0.11237 0.25072 0.12919 0.099678 0.051537 -0.51891 0.60203 -0.040512 -0.20673 0.097823 -0.032213 0.45967 0.12268 -0.60013 -0.71068 0.10373 0.22266 0.52376 -0.67768 -0.13635 -0.16196 0.13941 0.30548 -0.019416 -0.41599 
saga -0.047872 0.017072 0.091746 -0.66322 0.34948 0.16274 0.1983 -0.30617 0.3179 0.61897 -0.12913 0.022664 -0.37299 0.52639 -0.22606 -0.15409 -0.2386 0.3567 0.22316 -0.23897 -0.56134 0.071554 0.24796 0.04638 -0.40227 0.18254 0.3606 -0.081756 -0.018583 0.37991 -0.23636 -0.00084289 -0.32716 -0.054648 -0.41009 -0.056814 -0.18148 0.19695 0.083414 0.02401 -0.51505 0.14953 0.41428 0.16684 0.26462 -0.14992 0.091094 -0.40283 -0.099832 -0.054551 -0.1296 -0.016563 -0.33716 0.4564 -0.58932 -0.36222 0.10542 -0.18538 0.078333 -0.059144 -0.18644 0.41248 -0.010118 0.19816 -0.1313 -0.18794 -0.67703 0.1192 -0.012531 0.03894 0.13204 0.36951 0.063025 0.55609 -0.59194 0.12182 0.27406 0.14089 0.11281 0.051512 -0.56569 0.66396 -0.048454 -0.21672 0.11113 -0.031377 0.50506 0.1374 -0.6598 -0.78129 0.10994 0.24102 0.57953 -0.74562 -0.15606 -0.17858 0.15616 0.33198 -0.021688 -0.45414 
mackim -0.029642 0.011217 0.053502 -0.38937 0.20907 0.098226 0.11687 -0.18129 0.19103 0.36753 -0.076273 0.012656 -0.22479 0.31567 -0.13546 -0.091007 -0.14212 0.21202 0.13185 -0.1432 -0.33269 0.044398 0.14764 0.03066 -0.23883 0.10622 0.21247 -0.046017 -0.0091766 0.22569 -0.14308 0.0003809 -0.19455 -0.034328 -0.24286 -0.035579 -0.10967 0.11894 0.05399 0.017048 -0.30716 0.088557 0.24536 0.10125 0.15763 -0.089484 0.053249 -0.23936 -0.060813 -0.030497 -0.07818 -0.0093808 -0.20148 0.27061 -0.34841 -0.21309 0.065017 -0.11079 0.047835 -0.0321 -0.1095 0.24487 -0.0027037 0.11717 -0.080507 -0.10904 -0.40119 0.075923 -0.0070683 0.027322 0.078699 0.21992 0.036031 0.33105 -0.34779 0.069388 0.16436 0.086344 0.06493 0.032001 -0.33783 0.39405 -0.032581 -0.13083 0.066305 -0.01985 0.30053 0.082509 -0.39297 -0.46418 0.067118 0.13971 0.34595 -0.43869 -0.097088 -0.10214 0.095022 0.19613 -0.014857 -0.27057 
muhul -0.029255 0.012085 0.05536 -0.37661 0.20186 0.093845 0.1131 -0.17355 0.18326 0.35321 -0.073546 0.0084114 -0.21733 0.30415 -0.13212 -0.091385 -0.13088 0.20247 0.12966 -0.13792 -0.32439 0.041325 0.143 0.032248 -0.23178 0.11072 0.20401 -0.045754 -0.009777 0.21758 -0.13819 0.001616 -0.19217 -0.029339 -0.22868 -0.039881 -0.10636 0.1116 0.050839 0.016852 -0.29071 0.082939 0.2376 0.094213 0.14712 -0.084542 0.047895 -0.22618 -0.058096 -0.036508 -0.072574 -0.0099483 -0.19107 0.26357 -0.3383 -0.2113 0.061593 -0.1086 0.045813 -0.035974 -0.10407 0.23626 -0.0019775 0.1185 -0.076401 -0.099809 -0.38602 0.072018 -0.004136 0.024087 0.077154 0.20541 0.035212 0.32241 -0.334 0.065463 0.15573 0.082139 0.064654 0.031253 -0.32112 0.38275 -0.033004 -0.13382 0.069925 -0.019117 0.28444 0.08659 -0.38193 -0.45005 0.065279 0.13268 0.33504 -0.4265 -0.088473 -0.10219 0.09307 0.19078 -0.014473 -0.26059 
simurum -0.027806 0.012881 0.058692 -0.43738 0.23328 0.10642 0.13134 -0.20833 0.2133 0.40997 -0.083935 0.012458 -0.24836 0.34727 -0.15665 -0.10002 -0.15436 0.2333 0.14329 -0.1592 -0.37011 0.048588 0.16624 0.037251 -0.26781 0.12172 0.23617 -0.055249 -0.013578 0.24885 -0.1597 -0.0020921 -0.21885 -0.037347 -0.27189 -0.040798 -0.12298 0.13001 0.06069 0.014451 -0.34069 0.098106 0.27259 0.1071 0.16882 -0.093047 0.054064 -0.26296 -0.062367 -0.037514 -0.085143 -0.0082691 -0.21981 0.29916 -0.38781 -0.23817 0.069162 -0.12559 0.050304 -0.036891 -0.12158 0.27139 -0.004376 0.1304 -0.09005 -0.12191 -0.44734 0.081598 -0.0089964 0.031099 0.089394 0.24305 0.037586 0.3666 -0.3897 0.076594 0.17793 0.09683 0.073727 0.035182 -0.3707 0.43852 -0.033181 -0.1507 0.07683 -0.017118 0.33491 0.091423 -0.43348 -0.51902 0.072631 0.15327 0.38722 -0.48823 -0.10477 -0.11562 0.10417 0.22046 -0.016065 -0.29802 
bazi -0.03103 0.015151 0.05552 -0.40439 0.21364 0.10304 0.12008 -0.1882 0.19977 0.3841 -0.075863 0.013809 -0.22898 0.32169 -0.13961 -0.096918 -0.14615 0.21642 0.13738 -0.14203 -0.34719 0.044052 0.15375 0.02505 -0.2436 0.11258 0.22018 -0.051306 -0.006509 0.23143 -0.14675 -0.00026738 -0.2013 -0.036919 -0.25333 -0.039368 -0.11063 0.12118 0.053192 0.015451 -0.31568 0.091815 0.25418 0.10131 0.16308 -0.08992 0.053071 -0.24682 -0.061826 -0.036233 -0.082213 -0.012167 -0.20656 0.27988 -0.3628 -0.22186 0.069544 -0.1133 0.048825 -0.038075 -0.11639 0.25202 -0.0050276 0.12064 -0.084159 -0.11355 -0.41747 0.076465 -0.0053904 0.024663 0.082739 0.22569 0.036343 0.34207 -0.3612 0.073578 0.167 0.082608 0.067267 0.026442 -0.34194 0.40625 -0.029841 -0.13753 0.070563 -0.019603 0.30825 0.085183 -0.40802 -0.47824 0.073353 0.14092 0.3556 -0.45065 -0.10057 -0.1072 0.09956 0.20319 -0.015679 -0.28275 
gid -0.03988 0.011641 0.092065 -0.61822 0.32045 0.1479 0.18654 -0.28452 0.29682 0.57906 -0.1152 0.015624 -0.35379 0.49321 -0.20981 -0.14514 -0.22381 0.33324 0.2106 -0.22086 -0.52069 0.073083 0.22881 0.045204 -0.37779 0.1778 0.33727 -0.079781 -0.019839 0.34832 -0.22195 -0.0030949 -0.29929 -0.047849 -0.3852 -0.055957 -0.17014 0.18078 0.079784 0.021952 -0.4802 0.14257 0.38734 0.15918 0.24537 -0.14285 0.080067 -0.37459 -0.093841 -0.050324 -0.12591 -0.017186 -0.32289 0.42822 -0.55366 -0.33449 0.10392 -0.17439 0.076891 -0.052199 -0.18182 0.38991 -0.002374 0.18058 -0.11755 -0.17462 -0.62973 0.11065 -0.014196 0.042833 0.1301 0.34785 0.059906 0.52217 -0.54858 0.11276 0.25166 0.13092 0.10587 0.055418 -0.52244 0.62336 -0.045439 -0.20706 0.10984 -0.02773 0.47914 0.13397 -0.62187 -0.72674 0.10274 0.22559 0.54041 -0.69066 -0.14519 -0.16198 0.1387 0.30742 -0.010861 -0.42577 
igi -0.027195 0.0047968 0.053083 -0.40008 0.20963 0.098803 0.1274 -0.18564 0.19546 0.37134 -0.079187 0.011876 -0.22764 0.32029 -0.13356 -0.095633 -0.14463 0.21346 0.13193 -0.14894 -0.34269 0.041395 0.1523 0.03333 -0.23925 0.10718 0.21751 -0.047277 -0.01162 0.2271 -0.14558 0.0002784 -0.19766 -0.032365 -0.24992 -0.040627 -0.10829 0.11798 0.051805 0.021248 -0.31407 0.089109 0.24867 0.10191 0.16084 -0.085521 0.051721 -0.24395 -0.06159 -0.033625 -0.073023 -0.0087602 -0.20961 0.27676 -0.35801 -0.21698 0.064158 -0.1114 0.042488 -0.02969 -0.11349 0.24938 -0.0034114 0.11722 -0.078122 -0.11287 -0.40863 0.076864 -0.010582 0.026488 0.078622 0.22217 0.037203 0.34065 -0.3556 0.072033 0.16306 0.081456 0.06751 0.028766 -0.34126 0.40442 -0.029243 -0.1342 0.066575 -0.022875 0.31053 0.081635 -0.40173 -0.47507 0.066452 0.14475 0.34998 -0.44955 -0.092267 -0.10762 0.093293 0.19573 -0.011326 -0.27249 
urimake -0.035995 0.012029 0.069032 -0.49642 0.26191 0.12279 0.14521 -0.23515 0.24153 0.47195 -0.096042 0.015161 -0.28488 0.39533 -0.17514 -0.12219 -0.1772 0.26436 0.16866 -0.18005 -0.42717 0.054849 0.18774 0.039382 -0.30183 0.14247 0.26721 -0.064729 -0.013994 0.28676 -0.1796 -0.0011565 -0.25029 -0.039637 -0.30862 -0.050971 -0.13812 0.15103 0.06818 0.023066 -0.3907 0.11233 0.31759 0.13154 0.19834 -0.10925 0.064197 -0.30018 -0.074607 -0.044812 -0.096727 -0.013364 -0.25705 0.34669 -0.44632 -0.27578 0.082182 -0.13972 0.061983 -0.042656 -0.14104 0.30599 -0.0052244 0.15024 -0.10194 -0.13789 -0.5142 0.09391 -0.0067637 0.029972 0.10197 0.27957 0.04415 0.4207 -0.44357 0.088996 0.20625 0.10468 0.089211 0.041249 -0.42436 0.50167 -0.039512 -0.171 0.088995 -0.02326 0.3818 0.1091 -0.50043 -0.58899 0.089584 0.17608 0.43958 -0.55735 -0.1164 -0.13137 0.12119 0.25069 -0.022079 -0.34131 
abasagata -0.017596 0.0052777 0.037115 -0.25276 0.13401 0.06292 0.075044 -0.11769 0.12459 0.23833 -0.050186 0.006344 -0.14344 0.20127 -0.087521 -0.059955 -0.090321 0.1378 0.084791 -0.090686 -0.21622 0.028266 0.094778 0.01697 -0.15333 0.071228 0.13662 -0.032919 -0.0075795 0.14425 -0.092335 -0.0044588 -0.12472 -0.020042 -0.15795 -0.022972 -0.070528 0.075109 0.032359 0.0081876 -0.19826 0.058351 0.15889 0.065546 0.10299 -0.057228 0.032273 -0.15747 -0.039276 -0.020441 -0.050552 -0.0067803 -0.1299 0.17831 -0.22785 -0.13766 0.040435 -0.069061 0.03137 -0.023396 -0.072712 0.15957 -0.0030924 0.075826 -0.053854 -0.071944 -0.26014 0.046945 -0.0040105 0.015926 0.049524 0.14015 0.024623 0.2159 -0.22747 0.045111 0.10697 0.053493 0.042327 0.019893 -0.21579 0.25316 -0.018444 -0.08493 0.043522 -0.0098512 0.19538 0.054768 -0.2543 -0.29838 0.043551 0.091801 0.22338 -0.28524 -0.059465 -0.069429 0.060444 0.1264 -0.008339 -0.17602 
enlila -0.039089 0.016031 0.074351 -0.54321 0.28785 0.13494 0.15926 -0.25204 0.26528 0.51242 -0.097181 0.015075 -0.30965 0.44043 -0.18927 -0.13009 -0.19496 0.29576 0.17967 -0.19325 -0.46657 0.059995 0.20337 0.045537 -0.32743 0.15122 0.29537 -0.067486 -0.0075446 0.31478 -0.19537 -0.0018128 -0.27165 -0.044589 -0.33462 -0.048748 -0.14901 0.15982 0.07054 0.022259 -0.41972 0.12211 0.34216 0.13686 0.21752 -0.12288 0.06842 -0.32759 -0.082137 -0.04654 -0.10731 -0.020451 -0.27981 0.37316 -0.48388 -0.29671 0.084894 -0.15573 0.06015 -0.047181 -0.15123 0.33569 -0.0025892 0.16319 -0.10774 -0.15032 -0.55639 0.10169 -0.0051318 0.027486 0.10963 0.30165 0.04886 0.45835 -0.47615 0.095565 0.22697 0.11554 0.092027 0.044725 -0.46303 0.54818 -0.044229 -0.1839 0.093211 -0.024156 0.41614 0.11567 -0.5457 -0.64493 0.099195 0.19227 0.47774 -0.60874 -0.13071 -0.13788 0.12998 0.27209 -0.020186 -0.36589 
