2 0.00082737 0.981087 0.00880912 0.00502668 0.00212658 0.00169571 0.000210531 0.000118605 5.60988e-05 4.25717e-05 
3 0.0244442 0.847057 0.0810171 0.0361649 0.00795648 0.00219864 0.000427682 0.000447327 0.000150856 0.000135889 
4 0.209883 0.638151 0.0547442 0.0938151 0.00315332 9.27747e-05 0.000161373 0 0 0 
5 0.528618 0.468749 0.00246946 0.000151431 1.23407e-05 0 0 0 0 0 
6 0.094894 0.587697 0.208594 0.0864073 0.01644 0.00492561 0.000176842 0.000567467 0 0.000297026 
7 0.197544 0.636768 0.118127 0.0377682 0.0071857 0.00215291 7.72953e-05 0.000248032 0 0.000129826 
8 0.201822 0.600564 0.0565858 0.120396 0.0201083 0.000232406 0.000291894 0 0 0 
9 0.329443 0.627593 0.0399921 0.00166164 0.0013111 0 0 0 0 0 
10 0.0137704 0.528443 0.451172 0.00524659 0.00101149 0.000154759 0.000168114 1.16272e-05 1.08631e-05 1.07753e-05 
11 0.324248 0.62763 0.0215064 0.0253722 0.00114742 3.522e-05 6.12618e-05 0 0 0 
12 0.158471 0.444109 0.289304 0.102589 0.00409194 0.000623641 0.00067746 4.68549e-05 4.37759e-05 4.34217e-05 
13 0.321517 0.185642 0.012914 0.458428 0.0214807 6.81026e-06 1.1843e-05 0 0 0 
14 0.122866 0.436355 0.396664 0.0352128 0.00658442 0.00100742 0.00109436 7.56887e-05 7.07149e-05 7.01428e-05 
15 0.331488 0.298 0.338591 0.0304288 0.0013769 4.2264e-05 7.35142e-05 0 0 0 
16 0.242584 0.274846 0.295147 0.168057 0.0153901 0.00283105 0.000789476 0.000355318 0 0 
17 0.0857975 0.399237 0.365433 0.0623396 0.0569899 0.0227085 0.00556736 0.00161889 9.57773e-05 0.000212135 
18 0.0528667 0.589707 0.264504 0.0333617 0.0389276 0.0155137 0.00380344 0.00110598 6.5432e-05 0.000144924 
19 0.129434 0.313662 0.354247 0.0678896 0.0876472 0.0402747 0.00522383 0.00136224 8.05931e-05 0.000178503 
20 0.0692869 0.482415 0.350312 0.0412338 0.0370914 0.014782 0.00362404 0.00105381 6.23456e-05 0.000138088 
21 0.232891 0.465721 0.244843 0.0464816 0.00744325 0.00113882 0.0012371 8.55611e-05 7.99386e-05 7.92918e-05 
22 0.433801 0.439431 0.0966687 0.0249839 0.00378394 0.000578849 0.000628802 4.34896e-05 4.06318e-05 4.0303e-05 
23 0.0468099 0.508219 0.227557 0.152793 0.0342634 0.0151129 0.00742931 0.0042297 0.00202685 0.00155921 
24 0.110227 0.580762 0.245943 0.0500273 0.00964478 0.00147566 0.001603 0.000110868 0.000103582 0.000102744 
25 0.436535 0.326885 0.23557 0.000964852 4.51376e-05 0 0 0 0 0 
26 0.169081 0.31316 0.468392 0.0424046 0.00514872 0.000787757 0.000855738 5.91851e-05 5.52959e-05 5.48485e-05 
27 0.084315 0.473352 0.290084 0.117582 0.024373 0.00673508 0.00131011 0.00137029 0.000462117 0.000416266 
28 0.0631728 0.372324 0.435646 0.0464508 0.0538587 0.0214642 0.0052623 0.00153019 9.05292e-05 0.000200511 
29 0.0744495 0.487285 0.270293 0.129935 0.0267426 0.00738988 0.00143749 0.00150351 0.000507045 0.000456737 
30 0.27027 0.537177 0.0542144 0.132965 0.00495683 0.00015215 0.000264651 0 0 0 
31 0.153282 0.50004 0.188447 0.143765 0.0103475 0.00293263 0.000817925 0.000368122 0 0 
32 0.409854 0.233913 0.20132 0.14175 0.00941448 0.00266821 0.000744178 0.000334931 0 0 
33 0.233418 0.441158 0.279041 0.0373064 0.00671352 0.00102717 0.00111582 7.71728e-05 7.21015e-05 7.15181e-05 
34 0.06938 0.396191 0.39628 0.0496831 0.0578189 0.0230425 0.00564923 0.0016427 9.71858e-05 0.000215254 
35 0.127689 0.408488 0.251923 0.188286 0.0168907 0.00478708 0.00133514 0.000600905 0 0 
36 0.121497 0.394201 0.266569 0.193029 0.0176703 0.00500803 0.00139677 0.000628639 0 0 
37 0.107445 0.40408 0.244931 0.203356 0.0309466 0.00604626 0.00117612 0.00123015 0.000414855 0.000373694 
38 0.119378 0.533325 0.266777 0.066483 0.0103833 0.00158745 0.00172444 0.000119267 0.00011143 0.000110528 
39 0.34006 0.659571 0.000305901 5.92087e-05 4.82514e-06 0 0 0 0 0 
40 0.163841 0.455153 0.232111 0.131699 0.0126168 0.00378012 0.000135716 0.000435498 0 0.00022795 
41 0.207787 0.130375 0.11852 0.535938 0.00528398 0.00149322 0.000416467 0.000187438 0 0 
42 0.053446 0.918724 0.0100458 0.0169501 0.000769695 2.36259e-05 4.10949e-05 0 0 0 
43 0.0920258 0.762437 0.0820523 0.0567351 0.0048291 0.00136774 0.000381469 0.000171687 0 0 
44 0.27013 0.686375 0.0134598 0.0286255 0.00129987 3.98996e-05 6.94015e-05 0 0 0 
45 0.124173 0.400126 0.275662 0.177423 0.016177 0.00458481 0.00127873 0.000575515 0 0 
46 0.0438125 0.379798 0.524721 0.0410287 0.00780605 0.00233878 8.39682e-05 0.000269445 0 0.000141034 
47 0.0346334 0.881698 0.0583718 0.0200894 0.00382057 0.00114468 4.10971e-05 0.000131876 0 6.90271e-05 
48 0.0887337 0.299808 0.452358 0.141058 0.0129053 0.00365755 0.00102011 0.000459119 0 0 
49 0.307287 0.69134 0.00125442 0.000110395 8.9965e-06 0 0 0 0 0 
50 0.269014 0.720082 0.0103758 0.000511245 1.75535e-05 0 0 0 0 0 
51 0.119656 0.388228 0.270379 0.197408 0.0174025 0.00493215 0.0013756 0.000619115 0 0 
52 0.264175 0.732922 0.00183133 0.00105502 1.73872e-05 0 0 0 0 0 
53 0.155393 0.657223 0.0684367 0.115125 0.00352694 0.000107654 0.000187253 0 0 0 
54 0.13423 0.863015 0.00227191 0.000447066 3.64331e-05 0 0 0 0 0 
55 0.115357 0.805489 0.0730923 0.00249942 0.00356246 0 0 0 0 0 
56 0.24431 0.749619 0.00534099 0.000718374 1.11325e-05 0 0 0 0 0 
57 0.066955 0.867926 0.020146 0.0428633 0.0019464 5.9745e-05 0.000103921 0 0 0 
58 0.0516641 0.831956 0.0943221 0.0174972 0.0033733 0.000516117 0.000560656 3.87765e-05 3.62283e-05 3.59352e-05 
59 0.0182994 0.932552 0.0352031 0.0110736 0.00210687 0.000631242 2.26633e-05 7.27239e-05 0 3.80654e-05 
60 0.107054 0.866909 0.00912284 0.0162026 0.000655993 2.01257e-05 3.50067e-05 0 0 0 
61 0.0316172 0.677194 0.19969 0.0579915 0.0177662 0.00783631 0.00385223 0.00219318 0.00105096 0.000808481 
62 0.105471 0.434251 0.24012 0.182556 0.0327906 0.00342654 0.000955681 0.000430122 0 0 
63 0.141903 0.838303 0.00613732 0.0130157 0.000591037 1.81419e-05 3.15561e-05 0 0 0 
64 0.13726 0.613403 0.196286 0.043406 0.00713312 0.00109137 0.00118555 8.19961e-05 7.66078e-05 7.5988e-05 
65 0.208028 0.44202 0.230632 0.0967849 0.0203227 0.00182635 6.55707e-05 0.000210409 0 0.000110133 
66 0.180807 0.353787 0.384187 0.0574517 0.00751957 0.0041567 0.0119626 4.49807e-05 4.20249e-05 4.16848e-05 
67 0.161207 0.399467 0.387341 0.0248562 0.0258028 0.000576213 0.000625347 4.32507e-05 4.04085e-05 4.00816e-05 
68 0.0439785 0.184407 0.11391 0.622931 0.0335244 0.000542859 0.000589706 4.07856e-05 3.81055e-05 3.77971e-05 
69 0.130997 0.865589 0.00281373 0.000555246 4.5249e-05 0 0 0 0 0 
70 0.199795 0.605277 0.0559436 0.133143 0.00538788 0.000165381 0.000287664 0 0 0 
71 0.150967 0.755062 0.0269096 0.064243 0.00259974 7.97992e-05 0.000138803 0 0 0 
72 0.152541 0.781399 0.0531548 0.0102361 0.00197343 0.000301936 0.000327992 2.26848e-05 2.11941e-05 2.10226e-05 
73 0.0603152 0.577312 0.217855 0.110285 0.0240683 0.00665089 0.00129374 0.00135316 0.00045634 0.000411063 
74 0.0454967 0.686916 0.136179 0.0832857 0.0255152 0.0112543 0.00553246 0.00314977 0.00150936 0.00116112 
75 0.102573 0.55797 0.267781 0.0589916 0.00938054 0.00143523 0.00155909 0.00010783 0.000100745 9.99294e-05 
76 0.0544436 0.450281 0.424039 0.0692656 0.00145027 0.000430013 1.54386e-05 4.95408e-05 0 2.59308e-05 
77 0.0183226 0.0839936 0.877317 0.00756804 0.00836528 0.0033338 0.000817336 0.000237667 1.40609e-05 3.11432e-05 
78 0.0213633 0.403711 0.0980011 0.306149 0.0573911 0.0236648 0.0860226 0.000299139 0 0.00339814 
79 0.0529281 0.684516 0.15528 0.0816805 0.017995 0.00497263 0.00096728 0.00101171 0.000341189 0.000307337 
80 0.0406362 0.904235 0.0502024 0.00390754 0.000753332 0.00011526 0.000125207 8.65964e-06 8.09058e-06 8.02512e-06 
81 0.13589 0.54904 0.238862 0.0532404 0.00916485 0.0121986 0.00133898 9.26073e-05 8.65218e-05 8.58217e-05 
82 0.172816 0.659106 0.0519978 0.110634 0.00502382 0.000154207 0.000268227 0 0 0 
83 0.0442797 0.53184 0.256927 0.105825 0.0324113 0.014296 0.00702772 0.00400106 0.00191729 0.00147493 
84 0.074654 0.507742 0.370889 0.032125 0.00518772 0.00194214 0.00728957 5.9634e-05 5.57148e-05 5.5264e-05 
85 0.105063 0.480876 0.268156 0.126642 0.0141488 0.00422195 0.000151579 0.0004864 0 0.000254593 
86 0.0986274 0.419164 0.340712 0.106325 0.0260342 0.00597833 0.00116291 0.00121633 0.000410193 0.000369495 
87 0.0468099 0.525569 0.194046 0.166522 0.0366955 0.0151129 0.00742931 0.0042297 0.00202685 0.00155921 
88 0.117331 0.861691 0.00649311 0.0138059 0.000626918 1.92433e-05 3.34719e-05 0 0 0 
89 0.119656 0.403543 0.262368 0.190104 0.0174025 0.00493215 0.0013756 0.000619114 0 0 
90 0.0709479 0.385652 0.399012 0.051839 0.0604874 0.024106 0.00590996 0.00171852 0.000101671 0.000225189 
91 0.0808157 0.831181 0.0332042 0.0524965 0.0021244 6.52074e-05 0.000113422 0 0 0 
92 0.0232255 0.68191 0.115108 0.0958954 0.0495978 0.0172624 0.00511511 0.00905633 0 0.00282937 
93 0.018505 0.575733 0.190614 0.0626037 0.034685 0.0449894 0.0599298 0.0112565 0.0016838 0 
94 0.169963 0.683276 0.0712032 0.0724339 0.00288188 8.84596e-05 0.000153867 0 0 0 
95 0.105297 0.349497 0.355949 0.167846 0.0153142 0.00434029 0.00121053 0.000544821 0 0 
96 0.0908929 0.597306 0.204611 0.0851177 0.0161946 0.00485209 0.000174203 0.000558997 0 0.000292592 
97 0.0391717 0.604493 0.230287 0.0798907 0.0244738 0.0107949 0.00530665 0.00302121 0.00144775 0.00111372 
98 0.111203 0.751796 0.0476084 0.0858878 0.00323272 9.92286e-05 0.000172598 0 0 0 
99 0.121497 0.394201 0.251206 0.208392 0.0176703 0.00500803 0.00139677 0.000628639 0 0 
100 0.0910742 0.59712 0.204616 0.0851177 0.0161946 0.00485209 0.000174203 0.000558997 0 0.000292592 
101 0.00992842 0.787739 0.0910117 0.0603199 0.025519 0.0203486 0.00252637 0.00142326 0.000673186 0.00051086 
102 0.0496469 0.569263 0.193933 0.118619 0.0363399 0.0160288 0.00787957 0.00448604 0.00214969 0.00165371 
103 0.0882999 0.588129 0.204995 0.0826505 0.0180956 0.0168338 0.000169153 0.000542794 0 0.000284111 
104 0.0577553 0.902304 0.0211991 0.016995 0.00125011 0.000353828 9.86845e-05 4.44148e-05 0 0 
105 0.0717432 0.482328 0.254388 0.149407 0.0296226 0.00818571 0.00159229 0.00166543 0.000561649 0.000505924 
106 0.0666187 0.505012 0.264387 0.124859 0.0275067 0.00760102 0.00147856 0.00154647 0.000521532 0.000469786 
107 0.130067 0.866358 0.00295258 0.000575126 4.68692e-05 0 0 0 0 0 
108 0.0179526 0.584773 0.188516 0.0607674 0.0336496 0.0436465 0.0581409 0.0109205 0.00163354 0 
109 0.075183 0.593389 0.218544 0.0944956 0.0135263 0.00401346 0.000144094 0.00046238 0 0.000242021 
110 0.119656 0.403338 0.249643 0.203033 0.0174025 0.00493215 0.0013756 0.000619114 0 0 
111 0.0701731 0.429138 0.365276 0.0530032 0.0538623 0.0214642 0.0052623 0.00153019 9.05292e-05 0.000200511 
112 0.132795 0.410572 0.2454 0.187267 0.0171428 0.00485853 0.00135507 0.000609874 0 0 
113 0.0866963 0.309263 0.362942 0.223826 0.013263 0.00285545 0.000796401 0.000358435 0 0 
114 0.146939 0.524569 0.245848 0.0800942 0.00235293 7.22233e-05 0.000125625 0 0 0 
115 0.0425545 0.502158 0.255613 0.109214 0.0617048 0.0148965 0.00675392 0.00384518 0.00184259 0.00141747 
116 0.113452 0.539634 0.278878 0.0540073 0.0103754 0.00158745 0.00172444 0.000119267 0.00011143 0.000110528 
117 0.0717432 0.482328 0.269337 0.134459 0.0296226 0.00818571 0.00159229 0.00166543 0.000561649 0.000505924 
118 0.11999 0.406233 0.257313 0.192134 0.0174025 0.00493215 0.0013756 0.000619115 0 0 
119 0.00749752 0.811081 0.0873792 0.055932 0.0190691 0.0152055 0.00188784 0.00106353 0.00050304 0.000381742 
120 0.0984412 0.5331 0.257561 0.090358 0.01507 0.00451514 0.000162105 0.000520178 0 0.000272273 
121 0.113452 0.524938 0.293764 0.0538172 0.0103754 0.00158745 0.00172444 0.000119267 0.00011143 0.000110528 
122 0.120728 0.505556 0.2838 0.0651264 0.0204615 0.00357243 0.000128259 0.000411569 0 0.000215425 
123 0.187658 0.614181 0.0820112 0.110703 0.00502382 0.000154207 0.000268227 0 0 0 
124 0.00718226 0.793264 0.119024 0.0436357 0.0184605 0.0147202 0.00182759 0.00102959 0.000486985 0.000369558 
125 0.0103867 0.777948 0.0952064 0.0631039 0.0266968 0.0212877 0.00264297 0.00148895 0.000704256 0.000534438 
126 0.0895562 0.544405 0.260073 0.0842172 0.0159565 0.00478073 0.000171641 0.000550777 0 0.00028829 
127 0.0733714 0.515938 0.297692 0.0951806 0.0130728 0.00391675 0.000140622 0.000451239 0 0.000236189 
128 0.0776673 0.50221 0.262694 0.119912 0.0263763 0.00728865 0.00141779 0.00148292 0.000500099 0.00045048 
129 0.0804665 0.611317 0.202421 0.0863238 0.0142901 0.0042775 0.000153574 0.0004928 0 0.000257943 
130 0.0706562 0.47502 0.264409 0.135816 0.0416775 0.00816241 0.00156817 0.0016402 0.00055314 0.000498258 
131 0.0678179 0.382719 0.41143 0.0495682 0.0578189 0.0230425 0.00564923 0.0016427 9.71858e-05 0.000215254 
132 0.498309 0.310383 0.13964 0.0410279 0.00780605 0.00233878 8.39682e-05 0.000269445 0 0.000141034 
133 0.0881318 0.604177 0.255011 0.0417875 0.00805623 0.00123261 0.00133898 9.26073e-05 8.65218e-05 8.58217e-05 
134 0.00865555 0.648534 0.194552 0.090975 0.0224816 0.0303266 0.00220248 0.00124079 0.00058688 0.000445365 
135 0.151835 0.328537 0.480475 0.0320775 0.00542469 0.000717614 0.000779543 5.39152e-05 5.03723e-05 4.99647e-05 
136 0.139725 0.366974 0.311762 0.160952 0.0147252 0.00417335 0.00116397 0.000523866 0 0 
137 0.229975 0.585945 0.0538894 0.12467 0.0050927 0.000156319 0.000271902 0 0 0 
138 0.0658524 0.377046 0.343474 0.181782 0.0223893 0.00618687 0.00120348 0.00125876 0.000424502 0.000382384 
139 0.128026 0.523655 0.232012 0.0954784 0.0152823 0.00457873 0.000164389 0.000527505 0 0.000276108 
140 0.169556 0.0521645 0.106461 0.669093 0.00202686 0.00049774 0.000138822 6.24795e-05 0 0 
141 0.0496155 0.667719 0.177358 0.0801819 0.0176648 0.00488139 0.000949532 0.000993147 0.000334929 0.000301698 
142 0.018505 0.58028 0.186067 0.0626037 0.034685 0.0449894 0.0599298 0.0112565 0.0016838 0 
143 0.115775 0.421221 0.296496 0.147617 0.0135126 0.00382967 0.00106811 0.000480724 0 0 
144 0.0977711 0.542637 0.190568 0.128691 0.0348634 0.00451514 0.000162105 0.000520178 0 0.000272273 
145 0.0709479 0.382398 0.400601 0.0535048 0.0604874 0.024106 0.00590996 0.00171852 0.000101671 0.000225189 
146 0.140445 0.84674 0.00617264 0.00654315 9.85261e-05 0 0 0 0 0 
147 0.0913152 0.641348 0.212729 0.0433163 0.00835097 0.0012777 0.00138797 9.59954e-05 8.96872e-05 8.89615e-05 
148 0.0706562 0.47502 0.250105 0.154054 0.0378438 0.00806168 0.00156817 0.0016402 0.00055314 0.000498258 
149 0 0.593989 0.336913 0.0247456 1.19253e-05 0.0223663 0.0219739 0 0 0 
150 0.0959172 0.55894 0.238144 0.0870149 0.0146627 0.00439311 0.000157724 0.000506119 0 0.000264915 
151 0.119656 0.403404 0.262312 0.190298 0.0174025 0.00493215 0.0013756 0.000619115 0 0 
152 0.041028 0.580894 0.215367 0.0474156 0.0262154 0.0340036 0.0452958 0.00850783 0.00127264 0 
153 0.115304 0.347417 0.251242 0.220222 0.0599543 0.00417336 0.00116397 0.000523866 0 0 
154 0.116678 0.596771 0.22765 0.0384428 0.017866 0.00112658 0.0012238 8.46411e-05 7.9079e-05 7.84392e-05 
155 0.108519 0.53723 0.289355 0.0514773 0.00992434 0.00151843 0.00164947 0.000114082 0.000106585 0.000105722 
156 0.121497 0.394201 0.266569 0.193029 0.0176703 0.00500803 0.00139677 0.000628639 0 0 
157 0.0882583 0.542431 0.250785 0.0970939 0.0157252 0.00471145 0.000169153 0.000542795 0 0.000284111 
158 0.0706562 0.489941 0.265479 0.132429 0.0291737 0.00806168 0.00156817 0.0016402 0.00055314 0.000498258 
159 0.0984698 0.581511 0.220273 0.0792067 0.01507 0.00451514 0.000162105 0.000520178 0 0.000272273 
160 0.0234153 0.706602 0.105417 0.0877916 0.0454065 0.0158036 0.00468284 0.008291 0 0.00259027 
161 0.0709479 0.382564 0.4021 0.051839 0.0604874 0.024106 0.00590996 0.00171852 0.000101671 0.000225189 
162 0.0610563 0.641554 0.190172 0.0950531 0.00870127 0.00246607 0.000687801 0.000309557 0 0 
163 0.125303 0.360923 0.286399 0.204756 0.0161797 0.00458481 0.00127873 0.000575515 0 0 
164 0.0357355 0.149959 0.763212 0.0452967 0.00414645 0.00117517 0.000327761 0.000147515 0 0 
165 0.0656125 0.644836 0.213249 0.0273946 0.0319649 0.0127389 0.00312315 0.000908159 5.37287e-05 0.000119002 
166 0.0709479 0.388667 0.395998 0.051839 0.0604874 0.024106 0.00590996 0.00171852 0.000101671 0.000225189 
167 0.0951481 0.308712 0.425624 0.15117 0.0138382 0.00392195 0.00109385 0.000492308 0 0 
168 0.114993 0.382868 0.335148 0.144205 0.0213417 0.000627376 0.000681516 4.71355e-05 4.4038e-05 4.36817e-05 
169 0.110115 0.524386 0.299648 0.0522347 0.0100703 0.00154076 0.00167372 0.000115759 0.000108152 0.000107277 
170 0.131049 0.700287 0.152078 0.0150902 0.00109773 0.000328706 1.18014e-05 3.78694e-05 0 1.98217e-05 
171 0.104788 0.43939 0.22529 0.135235 0.092321 0.00129348 0.0014051 9.71805e-05 9.07945e-05 9.00598e-05 
172 0.0381646 0.695679 0.125448 0.0963613 0.0235141 0.0103716 0.00509854 0.00290273 0.00139098 0.00107005 
173 0.235125 0.309581 0.354029 0.0846795 0.0117164 0.00318606 0.000619754 0.000648222 0.000218606 0.000196916 
174 0.0301088 0.863602 0.0719267 0.0272865 0.00519158 0.00155545 5.58449e-05 0.0001792 0 9.37975e-05 
175 0.144866 0.378884 0.376571 0.095981 0.00341067 0.000104691 0.000182099 0 0 0 
176 0.0514046 0.548024 0.280521 0.0907511 0.026387 0.00207339 0.000578278 0.000260265 0 0 
177 0.0297065 0.180583 0.0691006 0.705081 0.00902723 0.00616634 5.69346e-05 0.000182697 0 9.56277e-05 
178 0.101187 0.516131 0.256835 0.113335 0.00925378 0.00141583 0.00153802 0.000106373 9.93831e-05 9.8579e-05 
179 0.252708 0.284173 0.421613 0.0367978 0.00336823 0.000954609 0.000266246 0.000119829 0 0 
180 0.0249927 0.642569 0.304621 0.020741 0.0058384 0.00104161 3.33474e-05 0.000107008 0 5.60106e-05 
181 0.0658802 0.355145 0.428133 0.0506183 0.0561669 0.0293389 0.0128187 0.00159577 9.4409e-05 0.000209104 
182 0.0869975 0.545613 0.264783 0.0814794 0.0155006 0.00464414 0.000166737 0.00053504 0 0.000280053 
183 0.0745172 0.478158 0.296289 0.115001 0.0253351 0.00700094 0.00136183 0.00142438 0.000480358 0.000432698 
184 0.413009 0.296213 0.132758 0.154192 0.0038273 0 0 0 0 0 
185 0.068578 0.461048 0.300805 0.129293 0.0283157 0.00782458 0.00152204 0.00159196 0.000536871 0.000483604 
186 0.0102293 0.766163 0.0937616 0.0772993 0.0262923 0.0209652 0.00260293 0.00146639 0.000693585 0.000526341 
187 0.109436 0.567997 0.212003 0.0794021 0.0258401 0.00439311 0.000157724 0.000506119 0 0.000264915 
188 0.116137 0.392186 0.273008 0.195055 0.0168907 0.00478708 0.00133514 0.000600905 0 0 
189 0.193645 0.521574 0.231473 0.042285 0.00815214 0.00124728 0.00135492 9.37098e-05 8.75518e-05 8.68434e-05 
190 0.116137 0.406222 0.269515 0.184513 0.0168907 0.00478708 0.00133514 0.000600905 0 0 
191 0.111777 0.533352 0.288039 0.053014 0.0102206 0.00156376 0.0016987 0.000117487 0.000109766 0.000108878 
192 0.498822 0.40601 0.0570592 0.0363402 0.00163054 5.00495e-05 8.70562e-05 0 0 0 
193 0.130852 0.470176 0.248402 0.133487 0.0122188 0.003463 0.000965848 0.000434697 0 0 
194 0.0988046 0.459382 0.349548 0.0790402 0.0117576 0.00121207 4.33888e-05 0.00013923 0 7.28762e-05 
195 0.113452 0.55411 0.264592 0.0538172 0.0103754 0.00158745 0.00172444 0.000119267 0.00011143 0.000110528 
196 0.121497 0.394201 0.251323 0.208276 0.0176703 0.00500802 0.00139676 0.000628639 0 0 
197 0.110115 0.525013 0.297407 0.0538482 0.0100703 0.00154076 0.00167372 0.000115759 0.000108152 0.000107277 
198 0.0717432 0.492329 0.259335 0.134459 0.0296226 0.00818571 0.00159229 0.00166543 0.000561649 0.000505924 
199 0.0717432 0.482328 0.253952 0.136587 0.0397783 0.0112865 0.00159229 0.00166543 0.000561649 0.000505924 
200 0.121497 0.402562 0.258208 0.193029 0.0176703 0.00500803 0.00139677 0.000628639 0 0 
201 0.0496787 0.30135 0.301471 0.323476 0.0168901 0.00466729 0.000907886 0.000949588 0.000320239 0.000288465 
202 0.123536 0.395772 0.256385 0.202003 0.0159537 0.00452113 0.00126097 0.000567522 0 0 
203 0.127927 0.596294 0.189252 0.0687096 0.0130728 0.00391675 0.000140622 0.000451239 0 0.000236189 
204 0.247154 0.641489 0.0403665 0.0676604 0.00307242 9.43082e-05 0.00016404 0 0 0 
205 0.134349 0.287741 0.532458 0.0403547 0.00364625 0.0010334 0.000288221 0.000129719 0 0 
206 0.0330218 0.701197 0.0989873 0.0950705 0.0424192 0.0147639 0.00437476 0.00774554 0 0.00241985 
207 0.0162544 0.588358 0.206366 0.0550303 0.0304666 0.0395177 0.052641 0.00988748 0.00147901 0 
208 0.22563 0.0648079 0.14507 0.560955 0.00253 0.000717008 0.000199977 9.00035e-05 0 0 
209 0.0626663 0.730159 0.171964 0.0270846 0.00571355 0.00157885 0.000307118 0.000321226 0.00010833 9.75817e-05 
210 0.155734 0.146527 0.689867 0.00563331 0.00189468 0.00014969 0.00016259 1.12452e-05 1.05062e-05 1.04212e-05 
211 0.066835 0.417219 0.379929 0.0488339 0.0569809 0.0227085 0.00556736 0.00161889 9.57773e-05 0.000212135 
212 0.0232255 0.666526 0.11661 0.109777 0.0495979 0.0172624 0.00511511 0.00905633 0 0.00282937 
213 0.151577 0.356951 0.475208 0.0135137 0.00203379 0.000310895 0.000337725 2.33579e-05 2.1823e-05 2.16464e-05 
214 0.149278 0.36598 0.267063 0.193664 0.017753 0.0044592 0.00124369 0.000559747 0 0 
215 0.152724 0.409679 0.271638 0.148313 0.0126216 0.00357716 0.000997689 0.000449028 0 0 
216 0.0813553 0.486027 0.246372 0.136487 0.0376216 0.00794136 0.00154476 0.00161572 0.000544884 0.000490822 
217 0.121497 0.394201 0.251189 0.2084 0.0176794 0.00500802 0.00139676 0.000628639 0 0 
218 0.144949 0.358329 0.308184 0.168957 0.0140069 0.00396978 0.00110719 0.000498312 0 0 
219 0.147013 0.44844 0.370947 0.0244286 0.0032612 0.00526008 0.000542432 3.74839e-05 3.50207e-05 3.47374e-05 
220 0.157975 0.367296 0.436455 0.0303608 0.00585282 0.000895485 0.000972763 6.72788e-05 6.28577e-05 6.23491e-05 
221 0.11982 0.517497 0.225357 0.124479 0.00918899 0.00260417 0.000726318 0.000326892 0 0 
222 0.0562757 0.69958 0.157354 0.0780152 0.0062773 0.00177881 0.000496119 0.000223287 0 0 
223 0.143706 0.612448 0.185572 0.0377865 0.00728489 0.00117124 0.0117697 0.000106505 7.82378e-05 7.76048e-05 
224 0.204481 0.496105 0.259434 0.0320672 0.00585282 0.000895485 0.000972763 6.72788e-05 6.28577e-05 6.23491e-05 
225 0.00794717 0.830914 0.0798024 0.0479887 0.0166858 0.0133048 0.00165186 0.000930591 0.00044016 0.000334024 
226 0.156658 0.72431 0.0903358 0.0218496 0.00481366 0.00133018 0.000258747 0.000270632 9.12679e-05 8.22125e-05 
227 0.216216 0.258465 0.445454 0.0737052 0.00456412 0.000693852 0.00075373 5.213e-05 4.87043e-05 4.83102e-05 
228 0.151033 0.548971 0.223264 0.050716 0.0138023 0.0060799 0.0029888 0.0017016 0.000815401 0.00062727 
229 0.226261 0.25215 0.165706 0.349664 0.00460057 0.000703166 0.000763847 5.28297e-05 4.93581e-05 4.89587e-05 
230 0.266943 0.595172 0.0405258 0.0935559 0.00350795 0.000107654 0.000187253 0 0 0 
231 0.0808901 0.653616 0.225101 0.0321263 0.0061141 0.000935462 0.00101619 7.02824e-05 6.56639e-05 6.51326e-05 
232 0.0709479 0.382692 0.401973 0.051839 0.0604874 0.024106 0.00590996 0.00171852 0.000101671 0.000225189 
233 0.0946371 0.549273 0.324439 0.0256778 0.00441793 0.000675947 0.000734279 5.07847e-05 4.74474e-05 4.70635e-05 
234 0.189036 0.537257 0.20667 0.0240681 0.0280834 0.0111921 0.00274391 0.000797882 4.72045e-05 0.000104552 
235 0.112896 0.473052 0.263777 0.133372 0.0120902 0.00342654 0.000955681 0.000430122 0 0 
236 0.0740367 0.5721 0.226324 0.0971091 0.0213941 0.0059119 0.00114999 0.00120281 0.000405636 0.000365389 
237 0.0642161 0.694939 0.154721 0.0600305 0.0195653 0.0058043 0.000122859 0.00039424 0 0.000206355 
238 0.111759 0.531203 0.290205 0.053014 0.0102206 0.00156376 0.0016987 0.000117487 0.000109766 0.000108878 
239 0.145416 0.569514 0.253185 0.0254103 0.00478867 0.000732669 0.000795897 5.50463e-05 5.1429e-05 5.10129e-05 
240 0.119656 0.418531 0.247379 0.190104 0.0174025 0.00493215 0.0013756 0.000619114 0 0 
241 0.0609397 0.598561 0.214359 0.0960453 0.021159 0.00584694 0.00113735 0.00118959 0.000401178 0.000361374 
242 0.179885 0.744854 0.0401994 0.0334159 0.0015174 4.65767e-05 8.10156e-05 0 0 0 
243 0.0891668 0.791657 0.0951021 0.0190964 0.00368161 0.000563289 0.000611899 4.23205e-05 3.95395e-05 3.92196e-05 
244 0.114068 0.328501 0.217479 0.250328 0.0837631 0.00417337 0.00116397 0.000523866 0 0 
245 0.105329 0.574238 0.21482 0.0838659 0.0159565 0.00478073 0.000171641 0.000550777 0 0.00028829 
246 0.167472 0.579977 0.201081 0.0408268 0.00787103 0.00120427 0.0013082 9.04784e-05 8.45328e-05 8.38488e-05 
247 0.121497 0.394201 0.251185 0.208414 0.0176703 0.00500802 0.00139676 0.000628639 0 0 
248 0.126123 0.53762 0.246485 0.0712861 0.013563 0.00406362 0.000145895 0.00046816 0 0.000245046 
249 0.0936896 0.569532 0.226286 0.0877408 0.0166929 0.00500138 0.000179563 0.000576197 0 0.000301595 
250 0.0639802 0.641598 0.168749 0.0829979 0.0226267 0.00998021 0.00490615 0.0027932 0.00133849 0.00102967 
251 0.136981 0.320411 0.45187 0.0706006 0.0141579 0.00391229 0.000761022 0.000795978 0.000268435 0.000241802 
252 0.189875 0.377914 0.392931 0.0311584 0.00600684 0.00091905 0.000998362 6.90493e-05 6.45118e-05 6.39899e-05 
253 0.062141 0.665443 0.199133 0.0581927 0.0110718 0.00331724 0.000119098 0.000382172 0 0.000200038 
254 0.104223 0.31914 0.352252 0.202626 0.0183655 0.0028025 0.000100617 0.000322869 0 0.000168997 
255 0.196081 0.381221 0.226353 0.176009 0.01455 0.00412053 0.00114924 0.000517235 0 0 
256 0.0232657 0.711946 0.104433 0.0982991 0.0241012 0.0192181 0.00262087 0.00994539 0.00568861 0.000482479 
257 0.00926259 0.804817 0.0836252 0.0554291 0.0234499 0.0186987 0.00232153 0.00130786 0.000618603 0.000469439 
258 0.111227 0.494888 0.292545 0.0741933 0.0227698 0.00361213 0.000129684 0.000416142 0 0.000217819 
259 0.118064 0.452599 0.225681 0.183545 0.0143951 0.00406902 0.00113487 0.000510769 0 0 
260 0.0675842 0.526774 0.239287 0.126664 0.0279053 0.00771118 0.00149999 0.00156889 0.00052909 0.000476595 
261 0.066835 0.377489 0.379141 0.0613622 0.0849695 0.0227085 0.00556736 0.00161889 9.57773e-05 0.000212135 
262 0.0895562 0.603169 0.201661 0.0838659 0.0159565 0.00478073 0.000171641 0.000550777 0 0.00028829 
263 0.0557086 0.531749 0.275687 0.104252 0.0229222 0.00633418 0.00123213 0.00128873 0.00043461 0.000391489 
264 0.0647682 0.546369 0.229439 0.121386 0.0267426 0.00738988 0.00143749 0.00150351 0.000507045 0.000456737 
265 0.117908 0.680534 0.155996 0.0434298 0.001967 6.03772e-05 0.00010502 0 0 0 
266 0.118678 0.472279 0.238112 0.133265 0.0265258 0.00728865 0.00141779 0.00148292 0.000500099 0.00045048 
267 0.172797 0.278512 0.196026 0.335212 0.0124845 0.00353828 0.000986845 0.000444147 0 0 
268 0.135115 0.191557 0.207035 0.191847 0.258412 0.012057 0.00295498 0.000859258 5.08356e-05 0.000112594 
269 0.0276946 0.495887 0.112364 0.155463 0.0305448 0.033436 0.1397 0.000482427 0 0.00442788 
270 0.0150353 0.461041 0.154941 0.0700532 0.0406692 0.0410058 0.124969 0.0901423 0.00214351 0 
271 0.106424 0.346528 0.253563 0.227439 0.0275121 0.0368236 0.00117909 0.00053067 0 0 
272 0.0811976 0.493594 0.188343 0.159724 0.0718903 0.00433453 0.000155621 0.000499371 0 0.000261382 
273 0.0504107 0.547313 0.198149 0.134535 0.0368992 0.0162754 0.00800079 0.00455506 0.00218276 0.00167915 
274 0.105297 0.341646 0.230761 0.209436 0.0718764 0.0318252 0.00861322 0.000544821 0 0 
275 0.0972447 0.449228 0.237167 0.0836153 0.129613 0.00136067 0.00147809 0.000102229 9.5511e-05 9.47383e-05 
276 0.029064 0.538783 0.0687484 0.0780786 0.0925799 0.181359 0.00946007 0.00105197 0.000497572 0.000377592 
277 0.0631116 0.47654 0.190243 0.182976 0.0789963 0.00532071 0.00103499 0.00108253 0.000365072 0.00032885 
278 0.0706562 0.47502 0.251063 0.160547 0.0303921 0.00806168 0.00156817 0.0016402 0.00055314 0.000498258 
279 0.156724 0.409784 0.277821 0.141327 0.010334 0.00285545 0.000796401 0.000358435 0 0 
280 0.0143034 0.632276 0.120533 0.147786 0.060732 0.0203575 0.00197464 0.00111243 0.000526168 0.000399293 
281 0.0738752 0.499275 0.167337 0.139695 0.0766363 0.0297723 0.00657016 0.00370098 0.0017735 0.00136431 
282 0.200108 0.350556 0.362429 0.0312061 0.0364045 0.0145082 0.00355692 0.00103429 6.11911e-05 0.00013553 
283 0.14864 0.534316 0.237685 0.0442185 0.0322355 0.00126231 0.00137124 9.48388e-05 8.86066e-05 8.78897e-05 
284 0.0504107 0.562696 0.196857 0.120444 0.036899 0.0162754 0.00800079 0.00455506 0.00218276 0.00167915 
285 0.128236 0.549946 0.233252 0.0773914 0.00860955 0.00111459 0.00121078 8.37407e-05 7.82378e-05 7.76048e-05 
286 0.124688 0.326762 0.230021 0.288301 0.0250326 0.00369911 0.0010317 0.000464336 0 0 
287 0.0788734 0.462358 0.323355 0.105645 0.020929 0.00578338 0.00112499 0.00117666 0.000396818 0.000357446 
288 0.217499 0.220589 0.432987 0.120003 0.00638165 0.00180845 0.000504387 0.000227009 0 0 
289 0.307367 0.369853 0.23946 0.0367574 0.0288695 0.000897136 0.0166187 6.19813e-05 5.79083e-05 5.74397e-05 
290 0.0565231 0.533706 0.135972 0.116628 0.153028 0.0035693 9.72632e-05 0.000312107 0 0.000163364 
291 0.117065 0.388127 0.26985 0.206916 0.0129057 0.00365755 0.00102011 0.000459119 0 0 
292 0.115198 0.538482 0.277431 0.0546452 0.0105351 0.00161187 0.00175097 0.000121102 0.000113144 0.000112228 
293 0.22845 0.201051 0.502471 0.0244361 0.0284905 0.0113543 0.00278368 0.000809446 4.78886e-05 0.000106067 
294 0.0231022 0.772247 0.0803697 0.0792372 0.0225399 0.0179702 0.00223108 0.0012569 0.000594501 0.000451149 
295 0.142716 0.393178 0.249369 0.191796 0.016411 0.00465031 0.001297 0.000583737 0 0 
296 0.0496469 0.554181 0.209016 0.118619 0.0363399 0.0160288 0.00787957 0.00448604 0.00214969 0.00165371 
297 0.115198 0.547545 0.268368 0.0546452 0.0105351 0.00161187 0.00175097 0.000121102 0.000113144 0.000112228 
298 0.0905197 0.512138 0.371548 0.0207072 0.00376252 0.000575669 0.000625347 4.32507e-05 4.04085e-05 4.00816e-05 
299 0.0553003 0.464179 0.387598 0.0333617 0.0389276 0.0155137 0.00380344 0.00110598 6.5432e-05 0.000144924 
300 0.210246 0.611132 0.147787 0.0205902 0.00896103 0.000557297 0.000605389 4.18703e-05 3.91189e-05 3.88024e-05 
301 0.129908 0.426565 0.244186 0.176725 0.016177 0.00458481 0.00127873 0.000575515 0 0 
302 0.0232255 0.666526 0.115107 0.101356 0.0594346 0.01735 0.00511511 0.00905633 0 0.00282937 
303 0.122062 0.40902 0.251185 0.193029 0.0176703 0.00500802 0.00139676 0.000628639 0 0 
304 0.123091 0.247982 0.560386 0.0280857 0.0284098 0.00905715 0.00222051 0.000645685 3.82002e-05 8.46086e-05 
305 0.0717432 0.482328 0.259223 0.144573 0.0296226 0.00818571 0.00159229 0.00166543 0.000561649 0.000505924 
306 0.165062 0.445732 0.328291 0.0486933 0.00896728 0.00268669 9.64594e-05 0.000309527 0 0.000162014 
307 0.018505 0.580936 0.185411 0.0626037 0.034685 0.0449894 0.0599298 0.0112565 0.0016838 0 
308 0.0718288 0.487472 0.339272 0.0418482 0.0389461 0.0155137 0.00380344 0.00110598 6.5432e-05 0.000144924 
309 0.0760876 0.874424 0.0377572 0.00960985 0.00155673 0.000466413 1.67455e-05 5.37343e-05 0 2.81258e-05 
310 0.0948786 0.399614 0.425522 0.059265 0.00831002 0.00104772 0.00116245 0.0100544 7.35435e-05 7.29485e-05 
311 0.00489297 0.895411 0.0448425 0.0297228 0.0125746 0.0100268 0.00124488 0.000701315 0.000331715 0.000251728 
312 0.0924425 0.599883 0.240046 0.0438511 0.0207997 0.00129348 0.0014051 9.71805e-05 9.07944e-05 9.00598e-05 
313 0.0624251 0.715844 0.188703 0.0241639 0.00781136 0.000457529 0.000497001 3.43739e-05 3.21151e-05 3.18552e-05 
314 0.0974975 0.316334 0.202934 0.185179 0.0989829 0.0965986 0.00197011 0.000504464 0 0 
315 0.107357 0.419095 0.282295 0.169553 0.0155212 0.00439894 0.00122689 0.000552183 0 0 
316 0.113452 0.524099 0.294603 0.0538172 0.0103754 0.00158745 0.00172444 0.000119267 0.00011143 0.000110528 
317 0.0182246 0.589115 0.180772 0.0616551 0.0341595 0.0443078 0.0590218 0.011086 0.00165829 0 
318 0.0698729 0.404711 0.383216 0.0510535 0.059571 0.0237407 0.00582042 0.00169248 0.000100131 0.000221777 
319 0.121497 0.394201 0.251314 0.203036 0.0229193 0.00500802 0.00139676 0.000628639 0 0 
320 0.0900602 0.254494 0.321416 0.223991 0.0767834 0.0112752 0.0215836 0.000396365 0 0 
321 0.121497 0.394201 0.251725 0.207874 0.0176703 0.00500803 0.00139677 0.000628639 0 0 
322 0.121497 0.394201 0.260489 0.199109 0.0176703 0.00500803 0.00139677 0.000628639 0 0 
323 0.0496469 0.56932 0.193876 0.118619 0.0363399 0.0160288 0.00787957 0.00448604 0.00214969 0.00165371 
324 0.0706562 0.47502 0.25014 0.147667 0.0441961 0.00806169 0.00156817 0.0016402 0.00055314 0.000498258 
325 0.0678179 0.393248 0.400917 0.049552 0.0578189 0.0230425 0.00564923 0.0016427 9.71858e-05 0.000215254 
326 0.0785133 0.592605 0.239499 0.0320908 0.0374446 0.0149227 0.00365855 0.00106384 6.29394e-05 0.000139403 
327 0.121497 0.394201 0.251185 0.193029 0.0246018 0.0134611 0.00139677 0.000628639 0 0 
328 0.121497 0.394671 0.266099 0.193029 0.0176703 0.00500802 0.00139676 0.000628639 0 0 
329 0.0944245 0.528737 0.250394 0.104991 0.0182919 0.0016631 0.00125069 8.65013e-05 8.0817e-05 8.01631e-05 
330 0.0892648 0.517141 0.297142 0.0850038 0.00857774 0.00124728 0.00135492 9.37098e-05 8.75518e-05 8.68434e-05 
331 0.151716 0.407528 0.274173 0.147693 0.0135126 0.00382967 0.00106811 0.000480724 0 0 
332 0.0582182 0.427018 0.470586 0.0336422 0.00871294 0.00150507 5.40351e-05 0.000173393 0 9.07578e-05 
333 0.124751 0.455228 0.331933 0.0759052 0.00901026 0.00137857 0.00149754 0.000103574 9.67678e-05 9.59848e-05 
334 0.0717432 0.497672 0.253992 0.134459 0.0296226 0.00818571 0.00159229 0.00166543 0.000561649 0.000505924 
335 0.0709479 0.384565 0.4001 0.051839 0.0604874 0.024106 0.00590996 0.00171852 0.000101671 0.000225189 
336 0.111759 0.558376 0.263032 0.053014 0.0102206 0.00156376 0.0016987 0.000117487 0.000109766 0.000108878 
337 0.243481 0.166379 0.487974 0.0963668 0.00425506 0.00127486 4.57709e-05 0.000146874 0 7.68772e-05 
338 0.181988 0.216124 0.526134 0.0577367 0.0126675 0.00350047 0.000680914 0.000712191 0.000240179 0.000216349 
339 0.173127 0.598173 0.182787 0.0364927 0.00691109 0.00207064 7.43413e-05 0.000238553 0 0.000124864 
340 0.232527 0.240752 0.417854 0.0965158 0.00883513 0.00250401 0.000698383 0.00031432 0 0 
341 0.11516 0.437099 0.286123 0.14728 0.0102565 0.00290644 0.000810623 0.000364835 0 0 
342 0.0427826 0.287649 0.564261 0.0801819 0.0176648 0.00488139 0.000949532 0.000993147 0.000334929 0.000301698 
343 0.0984542 0.51868 0.225065 0.141074 0.0119643 0.00339085 0.000945726 0.000425641 0 0 
344 0.0649523 0.405318 0.397544 0.0474582 0.0553758 0.0220688 0.00541053 0.00157329 9.30793e-05 0.000206159 
345 0.0544747 0.526349 0.311301 0.0387303 0.0451918 0.0180102 0.00441549 0.00128395 7.59613e-05 0.000168245 
346 0.0869441 0.504295 0.319162 0.032307 0.0374446 0.0149227 0.00365855 0.00106384 6.29394e-05 0.000139403 
347 0.0142444 0.669122 0.152108 0.0478734 0.0265238 0.0344037 0.0458287 0.00860792 0.00128761 0 
348 0.0126642 0.826081 0.0880088 0.0436047 0.0148315 0.0118265 0.00146832 0.000827192 0.000391253 0.00029691 
349 0.116949 0.45336 0.218758 0.189805 0.0151129 0.00428318 0.0011946 0.000537652 0 0 
350 0.0649523 0.419201 0.381911 0.049208 0.0553758 0.0220688 0.00541053 0.00157329 9.30793e-05 0.000206159 
351 0.0504107 0.562684 0.19687 0.120444 0.036899 0.0162754 0.00800079 0.00455506 0.00218276 0.00167915 
352 0.084176 0.401863 0.234416 0.0656354 0.210901 0.00147715 0.0012788 8.84452e-05 8.26332e-05 8.19646e-05 
353 0.0675842 0.49804 0.253507 0.141178 0.0279053 0.00771118 0.00149999 0.00156889 0.00052909 0.000476595 
354 0.116372 0.676927 0.169682 0.024007 0.0112864 0.000805042 0.000769008 5.31866e-05 4.96916e-05 4.92895e-05 
355 0.124321 0.458712 0.227559 0.160655 0.0230386 0.00406904 0.00113487 0.000510769 0 0 
356 0.245856 0.355741 0.360756 0.0298659 0.00575445 0.000880434 0.000956414 6.61481e-05 6.18013e-05 6.13012e-05 
357 0.120647 0.390493 0.372877 0.0545984 0.0401193 0.0159886 0.00391987 0.00113983 6.7435e-05 0.00014936 
358 0.179556 0.320044 0.399294 0.0896362 0.00820405 0.00232515 0.000648498 0.000291868 0 0 
359 0.0936896 0.569532 0.210906 0.0877367 0.0166935 0.0203692 0.000195779 0.000576197 0 0.000301595 
360 0.0692044 0.475797 0.373388 0.0648055 0.01233 0.0036942 0.000132632 0.0004256 0 0.000222769 
361 0.0951793 0.53521 0.319214 0.0399933 0.00769415 0.00117721 0.0012788 8.84452e-05 8.26332e-05 8.19646e-05 
362 0.106098 0.550952 0.274473 0.0459574 0.0195064 0.00130965 0.00142267 9.83953e-05 9.19294e-05 9.11856e-05 
363 0.0613593 0.51913 0.242363 0.134426 0.0320219 0.00700094 0.00136183 0.00142438 0.000480358 0.000432698 
364 0.0271954 0.652878 0.147277 0.0502375 0.0278337 0.0361026 0.0480918 0.009033 0.0013512 0 
365 0.0196083 0.718494 0.0971688 0.0809507 0.0548552 0.0145723 0.00431795 0.00764495 0 0.00238843 
366 0.0627241 0.3587 0.142536 0.422865 0.00968956 0.0028769 0.000103288 0.000331441 0 0.000173484 
367 0.0600353 0.580529 0.302438 0.0481682 0.00648539 0.00193506 6.94737e-05 0.000222933 0 0.000116689 
368 0.0103867 0.762566 0.0953888 0.0783038 0.0266968 0.0212877 0.00264297 0.00148895 0.000704256 0.000534438 
369 0.15417 0.468501 0.305314 0.0605844 0.00845407 0.00129348 0.0014051 9.71805e-05 9.07945e-05 9.00598e-05 
370 0.0688301 0.385915 0.405168 0.0503014 0.0586818 0.0233864 0.00573355 0.00166722 9.86363e-05 0.000218467 
371 0.105855 0.63097 0.207806 0.0414648 0.0114686 0.0010583 0.00114963 7.95114e-05 7.42864e-05 7.36853e-05 
372 0.0869975 0.530298 0.225003 0.128461 0.0236139 0.00464414 0.000166737 0.00053504 0 0.000280053 
373 0.101505 0.401449 0.370219 0.0455344 0.0531309 0.0211742 0.00519119 0.00150951 8.93059e-05 0.000197801 
374 0.0797962 0.361015 0.18932 0.347557 0.0186429 0.0030328 0.00010807 0.000346785 0 0.000181516 
375 0.197677 0.59872 0.0587145 0.138781 0.00563281 0.000172898 0.00030074 0 0 0 
376 0.0103867 0.777944 0.0952105 0.0631039 0.0266968 0.0212877 0.00264297 0.00148895 0.000704256 0.000534438 
377 0.0895562 0.588786 0.216044 0.0838659 0.0159565 0.00478073 0.000171641 0.000550777 0 0.00028829 
378 0.290432 0.59588 0.108217 0.00537766 9.39791e-05 0 0 0 0 0 
379 0.0992893 0.505524 0.228354 0.149041 0.0150148 0.00121019 0.0013082 9.04784e-05 8.45328e-05 8.38488e-05 
380 0.0601383 0.515242 0.188452 0.145499 0.056943 0.0186956 0.00732467 0.00417012 0.00199831 0.00153725 
381 0.0775364 0.47492 0.248217 0.148618 0.0385712 0.00794136 0.00154476 0.00161572 0.000544884 0.000490821 
382 0.199605 0.595286 0.1347 0.0559106 0.0106377 0.00318716 0.000114427 0.000367184 0 0.000192193 
383 0.0696016 0.512706 0.246372 0.130445 0.0287383 0.00794136 0.00154476 0.00161572 0.000544884 0.000490821 
384 0.0936896 0.584902 0.210921 0.0877367 0.0166929 0.00500138 0.000179563 0.000576197 0 0.000301595 
385 0.0336648 0.389626 0.0900482 0.144197 0.0258892 0.0622939 0.250429 0.000373225 0 0.00347905 
386 0.181165 0.645898 0.142056 0.0244961 0.00472262 0.000722563 0.000784919 5.42871e-05 5.07197e-05 5.03093e-05 
387 0.113762 0.294719 0.206259 0.218931 0.161074 0.00374163 0.00104356 0.000469673 0 0 
388 0.0611316 0.652886 0.224628 0.0220365 0.0256973 0.0102411 0.00251077 0.000730088 4.31937e-05 9.56685e-05 
389 0.139036 0.776531 0.0341989 0.0478766 0.00217405 6.67327e-05 0.000116075 0 0 0 
390 0.111759 0.531701 0.289707 0.053014 0.0102206 0.00156376 0.0016987 0.000117487 0.000109766 0.000108878 
391 0 0.545514 0.382447 0.0188165 1.43104e-05 0.0268395 0.0263687 0 0 0 
392 0.0905497 0.42864 0.43452 0.0325321 0.0120348 0.000748969 0.000812951 5.62259e-05 5.25311e-05 5.2106e-05 
393 0.0171832 0.526904 0.173607 0.0720882 0.0454952 0.0638919 0.088787 0.0104807 0.00156353 0 
394 0.0389628 0.841038 0.0642798 0.0493972 0.00452192 0.00128158 0.00035744 0.000160872 0 0 
395 0.0609682 0.880403 0.0237104 0.03328 0.00151123 4.63873e-05 8.06863e-05 0 0 0 
396 0.0389345 0.871222 0.0714913 0.0145571 0.00280647 0.000429392 0.000466448 3.22608e-05 3.01408e-05 2.98969e-05 
397 0.0197078 0.106221 0.735673 0.0186729 0.110819 0.0066961 0.00164166 0.000477366 2.8242e-05 6.25525e-05 
398 0.104034 0.535937 0.283948 0.0628361 0.009896 0.00145516 0.00158074 0.000109328 0.000102144 0.000101317 
399 0.0530071 0.290792 0.472869 0.10014 0.0592375 0.0180112 0.00441549 0.00128395 7.59613e-05 0.000168245 
400 0.0455096 0.535684 0.233313 0.122668 0.0333116 0.0146931 0.00722294 0.0041122 0.00197055 0.0015159 
401 0.0590292 0.40951 0.211501 0.285293 0.024373 0.00673508 0.00131011 0.00137029 0.000462117 0.000416266 
402 0.115198 0.546619 0.269294 0.0546452 0.0105351 0.00161187 0.00175097 0.000121102 0.000113144 0.000112228 
403 0.0481867 0.58199 0.188171 0.11513 0.0352711 0.0155574 0.00764782 0.0043541 0.00208647 0.00160507 
404 0.067857 0.438634 0.363159 0.0467991 0.0546067 0.0217623 0.00533538 0.00155144 9.17866e-05 0.000203296 
405 0.0103867 0.77795 0.0952047 0.0631039 0.0266968 0.0212877 0.00264297 0.00148895 0.000704256 0.000534438 
406 0.0640502 0.414207 0.39118 0.0470114 0.0546067 0.0217623 0.00533538 0.00155144 9.17866e-05 0.000203296 
407 0.059786 0.40194 0.391109 0.112054 0.0246855 0.00682143 0.00132691 0.00138786 0.000468041 0.000421603 
408 0.070281 0.759222 0.137323 0.0263157 0.00507244 0.000776087 0.000843061 5.83083e-05 5.44767e-05 5.40359e-05 
409 0.0706562 0.499137 0.25629 0.132421 0.0291737 0.00806168 0.00156817 0.0016402 0.00055314 0.000498258 
410 0.121553 0.457396 0.375968 0.0302682 0.00526753 0.000904717 0.00846901 6.0551e-05 5.65719e-05 5.61142e-05 
411 0.111468 0.375139 0.401601 0.102802 0.00664835 0.0010172 0.00110498 7.64235e-05 7.14015e-05 7.08238e-05 
412 0.091474 0.435279 0.423363 0.0399285 0.00736322 0.00112658 0.0012238 8.46411e-05 7.9079e-05 7.84392e-05 
413 0.066835 0.430193 0.366954 0.0488338 0.0569809 0.0227085 0.00556736 0.00161889 9.57773e-05 0.000212135 
414 0.117126 0.532242 0.279536 0.0579757 0.00972396 0.00147566 0.001603 0.000110868 0.000103582 0.000102744 
415 0.0200142 0.134555 0.113209 0.719864 0.00886827 0.00228357 0.000444202 0.000464605 0.000156683 0.000141138 
416 0.196745 0.611905 0.0591974 0.125952 0.00571942 0.000175558 0.000305366 0 0 0 
417 0.119656 0.391203 0.258336 0.206224 0.0176537 0.00493215 0.0013756 0.000619115 0 0 
418 0.0504107 0.555131 0.204422 0.120444 0.036899 0.0162754 0.00800079 0.00455506 0.00218276 0.00167915 
419 0.112528 0.360861 0.310002 0.186498 0.0211747 0.00584694 0.00113735 0.00118959 0.000401178 0.000361374 
420 0.0209674 0.698947 0.10757 0.0968077 0.0447758 0.0155841 0.00461781 0.00817585 0 0.00255429 
421 0.133976 0.57483 0.243043 0.0381952 0.00736322 0.00112658 0.0012238 8.46411e-05 7.9079e-05 7.84392e-05 
422 0.182691 0.553912 0.0573798 0.200259 0.00531089 0.000163018 0.000283555 0 0 0 
423 0.115198 0.532163 0.268814 0.0695814 0.0105351 0.00161187 0.00175097 0.000121102 0.000113144 0.000112228 
424 0.300003 0.500863 0.0544849 0.117026 0.00436313 0.0115591 0.0117006 0 0 0 
425 0.156537 0.48562 0.302559 0.0438531 0.00845407 0.00129348 0.0014051 9.71805e-05 9.07945e-05 9.00598e-05 
426 0.0717432 0.482328 0.25397 0.149822 0.0296265 0.00818571 0.00159229 0.00166543 0.000561649 0.000505924 
427 0.110115 0.511705 0.31048 0.0540831 0.0100703 0.00154076 0.00167372 0.000115759 0.000108152 0.000107277 
428 0.00964475 0.750892 0.0888542 0.0867791 0.0251509 0.0336919 0.00245419 0.00138259 0.000653952 0.000496264 
429 0.0504107 0.547313 0.21224 0.120444 0.036899 0.0162754 0.00800079 0.00455506 0.00218276 0.00167915 
430 0.132214 0.398329 0.258221 0.187269 0.0171428 0.00485853 0.00135507 0.000609874 0 0 
431 0.0504107 0.547313 0.196856 0.12315 0.0493135 0.0165393 0.00800079 0.00455506 0.00218276 0.00167915 
432 0.0716693 0.52659 0.252669 0.113504 0.0250061 0.00691002 0.00134414 0.00140588 0.00047412 0.000427078 
433 0.0709479 0.382396 0.402268 0.051839 0.0604874 0.024106 0.00590996 0.00171852 0.000101671 0.000225189 
434 0.0867414 0.658539 0.209027 0.0362442 0.00698755 0.0010691 0.00116136 8.03227e-05 7.50444e-05 7.44372e-05 
435 0.0536695 0.372558 0.140173 0.200659 0.175024 0.0576044 5.35167e-05 0.00017024 0 8.91077e-05 
436 0.0568696 0.492574 0.297817 0.107412 0.0343709 0.00752689 0.00126218 0.00132016 0.00044521 0.000401037 
437 0.0907735 0.297428 0.231177 0.221006 0.0279294 0.130172 0.00104422 0.000469673 0 0 
438 0.0606791 0.32705 0.339823 0.0867408 0.136604 0.0421265 0.00522815 0.00146978 8.69557e-05 0.000192596 
439 0.112819 0.423186 0.253513 0.187542 0.0164081 0.00465031 0.001297 0.000583737 0 0 
440 0.0918725 0.581402 0.219535 0.0851176 0.0161946 0.00485209 0.000174203 0.000558997 0 0.000292592 
441 0.139674 0.314539 0.428734 0.103782 0.00949229 0.00269026 0.000750328 0.000337699 0 0 
442 0.0964371 0.428318 0.334833 0.0927939 0.025249 0.0111358 0.00547423 0.00311662 0.00149347 0.00114889 
443 0.0691346 0.452408 0.316063 0.107987 0.032397 0.0065749 0.00370433 0.0108951 0.000439848 0.000396205 
444 0.194223 0.605945 0.0696817 0.124044 0.00563276 0.000172898 0.00030074 0 0 0 
445 0.121497 0.40954 0.25123 0.193029 0.0176703 0.00500803 0.00139677 0.000628639 0 0 
446 0.0819888 0.388584 0.39341 0.0488338 0.0569809 0.0227085 0.00556736 0.00161889 9.57773e-05 0.000212135 
447 0.0103867 0.77795 0.0952041 0.0631039 0.0266968 0.0212877 0.00264297 0.00148895 0.000704256 0.000534438 
448 0.0609188 0.536204 0.266229 0.104045 0.0229222 0.00633418 0.00123213 0.00128873 0.00043461 0.000391489 
449 0.0489059 0.575738 0.190993 0.116849 0.0357975 0.0157896 0.00776196 0.00441908 0.00211761 0.00162903 
450 0.0683195 0.464884 0.339969 0.0455342 0.0531309 0.0211742 0.00519118 0.00150951 8.93058e-05 0.000197801 
451 0.0232255 0.666526 0.115212 0.111175 0.0495979 0.0172624 0.00511511 0.00905633 0 0.00282937 
452 0.0449138 0.593111 0.190228 0.111434 0.0319791 0.0141054 0.00693402 0.00394772 0.00189173 0.00145527 
453 0.214167 0.229004 0.204308 0.29672 0.0524388 0.00239354 0.000667572 0.000300453 0 0 
454 0.0706562 0.490171 0.250105 0.132421 0.0291737 0.00806168 0.00156817 0.00199493 0.0153499 0.000498258 
455 0.0601725 0.585507 0.180344 0.110266 0.0337807 0.0149 0.00732467 0.00417012 0.00199831 0.00153725 
456 0.0696016 0.497771 0.254608 0.137143 0.0287391 0.00794136 0.00154476 0.00161572 0.000544884 0.000490821 
457 0.174202 0.679614 0.114161 0.0266081 0.00400507 0.0006127 0.000665574 4.60329e-05 4.30079e-05 4.26599e-05 
458 0.0489059 0.546221 0.220504 0.116855 0.0357975 0.0157896 0.00776196 0.00441909 0.00211761 0.00162903 
459 0.211571 0.380003 0.36171 0.0386643 0.0059546 0.000911058 0.00098968 6.84489e-05 6.39509e-05 6.34335e-05 
460 0.170512 0.658619 0.0563372 0.109159 0.00495683 0.000152151 0.000264651 0 0 0 
461 0.0900325 0.470165 0.245448 0.134345 0.0358112 0.00732395 0.0144681 0.00148156 0.000486763 0.000438467 
462 0.0504107 0.547313 0.197063 0.129044 0.0434764 0.0162754 0.00800079 0.00455506 0.00218276 0.00167915 
463 0.0657535 0.499567 0.27301 0.123096 0.0271192 0.00749396 0.00145773 0.00152469 0.000514186 0.00046317 
464 0.0783525 0.43527 0.354192 0.0474582 0.0553758 0.0220688 0.00541053 0.00157329 9.30793e-05 0.000206159 
465 0.0709479 0.38916 0.395505 0.051839 0.0604874 0.024106 0.00590996 0.00171852 0.000101671 0.000225189 
466 0.109661 0.534835 0.291464 0.0508126 0.00978256 0.00149674 0.0016259 0.000112452 0.000105062 0.000104212 
467 0.067266 0.469627 0.22637 0.204133 0.0229225 0.00633418 0.00123213 0.00128873 0.00043461 0.000391489 
468 0.207756 0.314669 0.437265 0.0261491 0.00504428 0.00811414 0.00083691 5.78796e-05 5.40761e-05 5.36386e-05 
469 0.14612 0.262993 0.172791 0.406023 0.00863585 0.00244753 0.00068263 0.00030723 0 0 
470 0.0186027 0.755325 0.0947238 0.075714 0.0329092 0.0114495 0.00339267 0.00600675 0 0.00187662 
471 0.0639476 0.782445 0.100801 0.041933 0.00797824 0.00239037 8.58205e-05 0.000275388 0 0.000144145 
472 0.102273 0.489575 0.348742 0.0482557 0.00825035 0.00126231 0.00137124 9.48388e-05 8.86066e-05 8.78897e-05 
473 0.118086 0.562907 0.255038 0.0507419 0.00978256 0.00149674 0.0016259 0.000112452 0.000105062 0.000104212 
474 0.0792044 0.465136 0.254257 0.158966 0.0304775 0.00782458 0.00152204 0.00159196 0.000536871 0.000483604 
475 0.194361 0.646863 0.10324 0.0532845 0.00207689 6.37502e-05 0.000110887 0 0 0 
476 0.0676647 0.435787 0.416751 0.0633654 0.012056 0.00361211 0.000129684 0.000416142 0 0.000217819 
477 0.0999658 0.430073 0.286559 0.163076 0.0145388 0.00412053 0.00114924 0.000517235 0 0 
478 0.0717432 0.482328 0.254004 0.149791 0.0296226 0.00818571 0.00159229 0.00166543 0.000561649 0.000505924 
479 0.0167059 0.595264 0.193799 0.0565172 0.0313129 0.0406155 0.0541033 0.0101621 0.0015201 0 
480 0.115198 0.53285 0.283063 0.0546452 0.0105351 0.00161187 0.00175097 0.000121102 0.000113144 0.000112228 
481 0.0489059 0.575748 0.190983 0.116849 0.0357975 0.0157896 0.00776196 0.00441908 0.00211761 0.00162903 
482 0.0179526 0.580347 0.180878 0.0728316 0.0336496 0.0436465 0.0581409 0.0109205 0.00163354 0 
483 0.0576463 0.48213 0.341892 0.0431354 0.049146 0.0195861 0.00480185 0.00139629 8.26079e-05 0.000182966 
484 0.129176 0.664926 0.109917 0.0919095 0.00375518 0.000115266 0.000200493 0 0 0 
485 0.0182246 0.58914 0.180747 0.0616551 0.0341595 0.0443078 0.0590218 0.011086 0.00165829 0 
486 0.055256 0.627223 0.234444 0.0345637 0.0317071 0.0126362 0.00309797 0.000900835 5.32954e-05 0.000118043 
487 0.0734624 0.276175 0.286919 0.0562889 0.130633 0.170776 0.00426831 0.00124115 7.34293e-05 0.000162636 
488 0.126567 0.36424 0.357661 0.134449 0.0122188 0.003463 0.000965848 0.000434697 0 0 
489 0.0232255 0.678352 0.118666 0.0958954 0.0495979 0.0172624 0.00511511 0.00905633 0 0.00282937 
490 0.0103867 0.777387 0.0957671 0.0631039 0.0266968 0.0212877 0.00264297 0.00148895 0.000704256 0.000534438 
491 0.130915 0.556537 0.217785 0.0753041 0.0142769 0.0042775 0.000153574 0.0004928 0 0.000257943 
492 0.217333 0.570347 0.0625944 0.143643 0.005623 0.000167813 0.000291894 0 0 0 
493 0.121497 0.398121 0.262649 0.193029 0.0176703 0.00500802 0.00139676 0.000628639 0 0 
494 0.0103152 0.781229 0.0937616 0.0621478 0.0262923 0.0209652 0.00260293 0.00146639 0.000693585 0.000526341 
495 0.0368377 0.435415 0.137119 0.0493852 0.0365838 0.107483 0.187508 0.00841009 0.00125801 0 
496 0.0608982 0.393556 0.154509 0.291474 0.0379787 0.0608971 0.000116819 0.000374528 0 0.000196037 
497 0.0863325 0.382396 0.386883 0.051839 0.0604874 0.024106 0.00590996 0.00171852 0.000101671 0.000225189 
498 0.0936896 0.569532 0.210906 0.103119 0.0166949 0.00500138 0.000179563 0.000576197 0 0.000301595 
499 0.0483087 0.223168 0.158564 0.556414 0.0119895 0.000676592 0.000734279 5.07847e-05 4.74474e-05 4.70635e-05 
500 0.0436893 0.474351 0.291452 0.130192 0.0319811 0.0141054 0.00693402 0.00394772 0.00189173 0.00145527 
501 0.0614882 0.331413 0.427908 0.0457876 0.0660734 0.0337685 0.00514569 0.0281323 8.81418e-05 0.000195164 
502 0.115198 0.532212 0.283695 0.0546503 0.0105351 0.00161187 0.00175097 0.000121102 0.000113144 0.000112228 
503 0.0646528 0.553142 0.194749 0.120755 0.0367707 0.0149 0.00732467 0.00417012 0.00199831 0.00153725 
504 0.0688301 0.414597 0.376496 0.0502915 0.0586818 0.0233864 0.00573355 0.00166722 9.86363e-05 0.000218467 
505 0.0232255 0.679076 0.117942 0.0958954 0.0495979 0.0172624 0.00511511 0.00905633 0 0.00282937 
506 0.0481867 0.567283 0.188172 0.11513 0.0378744 0.027642 0.00766573 0.0043541 0.00208647 0.00160507 
507 0.0742661 0.603159 0.222833 0.0817078 0.0132322 0.00396451 0.000142336 0.000456742 0 0.000239069 
508 0.0666187 0.476444 0.243122 0.152867 0.0493306 0.00760102 0.00147856 0.00154647 0.000521532 0.000469786 
509 0.116272 0.473858 0.294145 0.103042 0.00938054 0.00143523 0.00155909 0.00010783 0.000100745 9.99294e-05 
510 0.0910176 0.443429 0.276531 0.150632 0.0272506 0.00728865 0.00141779 0.00148292 0.000500099 0.00045048 
511 0.0350257 0.688643 0.163602 0.0719276 0.0204152 0.0162789 0.0020211 0.00113861 0.000538548 0.000408688 
512 0.018505 0.567435 0.184134 0.0742324 0.0378349 0.0449894 0.0599298 0.0112565 0.0016838 0 
513 0.121497 0.399668 0.26108 0.193051 0.0176703 0.00500802 0.00139676 0.000628639 0 0 
514 0.0739179 0.538875 0.234161 0.116531 0.0256729 0.00709428 0.00137999 0.00144337 0.000486763 0.000438467 
515 0.0415562 0.592839 0.197308 0.111038 0.0303599 0.0133912 0.00658293 0.00374783 0.00179595 0.00138158 
516 0.0655304 0.48138 0.280778 0.134274 0.0267431 0.00738988 0.00143749 0.00150351 0.000507045 0.000456737 
517 0.0709479 0.382397 0.402267 0.0518399 0.0604874 0.024106 0.00590996 0.00171852 0.000101671 0.000225189 
518 0.121497 0.394201 0.266563 0.193035 0.0176703 0.00500802 0.00139676 0.000628639 0 0 
519 0.0696016 0.482689 0.261425 0.145408 0.0287383 0.00794136 0.00154476 0.00161572 0.000544884 0.000490821 
520 0.115198 0.533055 0.282858 0.0546452 0.0105351 0.00161187 0.00175097 0.000121102 0.000113144 0.000112228 
521 0.0709479 0.382396 0.402268 0.051839 0.0604874 0.024106 0.00590996 0.00171852 0.000101671 0.000225189 
522 0 0.823759 0.0874223 0.0314315 0.033128 0.0121626 0.0120962 0 0 0 
523 0.0666189 0.462126 0.276752 0.151856 0.0310288 0.00760102 0.00147856 0.00154647 0.000521532 0.000469786 
524 0.116381 0.546363 0.268366 0.0546452 0.0105351 0.00161187 0.00175097 0.000121102 0.000113144 0.000112228 
525 0.0714314 0.491985 0.262319 0.132769 0.0291737 0.00806168 0.00156817 0.0016402 0.00055314 0.000498258 
526 0.0100766 0.784142 0.0927987 0.0612202 0.0258999 0.0206523 0.00256408 0.0014445 0.000683233 0.000518485 
527 0 0.821043 0.0887718 0.0319151 0.0336377 0.0123497 0.0122823 0 0 0 
528 0.0717432 0.482328 0.269337 0.134459 0.0296226 0.00818571 0.00159229 0.00166543 0.000561649 0.000505924 
529 0.119656 0.388228 0.26253 0.190104 0.0174025 0.00557426 0.015885 0.000619114 0 0 
530 0.0895562 0.559111 0.204872 0.0953007 0.0190683 0.0310799 0.000172374 0.000550777 0 0.00028829 
531 0.064335 0.452757 0.288275 0.157114 0.0263795 0.00728865 0.00141779 0.00148292 0.000500099 0.00045048 
532 0.107763 0.560172 0.275508 0.044984 0.00855974 0.00130965 0.00142267 9.83953e-05 9.19294e-05 9.11856e-05 
533 0.0675842 0.454367 0.239619 0.174458 0.0521862 0.00771158 0.00149999 0.00156889 0.00052909 0.000476595 
534 0.0948785 0.565933 0.294408 0.0355222 0.00684779 0.00104772 0.00113813 7.87162e-05 7.35435e-05 7.29485e-05 
535 0.035592 0.917258 0.0375204 0.00763856 0.00147264 0.000225315 0.000244759 1.69282e-05 1.58158e-05 1.56878e-05 
536 0.11787 0.382434 0.247747 0.222519 0.0226064 0.00485853 0.00135507 0.000609874 0 0 
537 0.110115 0.54414 0.278858 0.0532704 0.0100703 0.00154076 0.00167372 0.000115759 0.000108152 0.000107277 
538 0.0709479 0.382396 0.386883 0.051839 0.0609098 0.0390682 0.00590996 0.00171852 0.000101671 0.000225189 
539 0.0496469 0.53902 0.193957 0.148831 0.0363469 0.0160288 0.00787957 0.00448604 0.00214969 0.00165371 
540 0.0613593 0.412517 0.225971 0.145652 0.0565337 0.093821 0.00180845 0.00142438 0.000480358 0.000432698 
541 0.0788511 0.503568 0.279284 0.105301 0.0231984 0.0064105 0.00124698 0.00130425 0.000439846 0.000396205 
542 0.0696016 0.46793 0.261322 0.142803 0.0312809 0.0104278 0.0137048 0.0018946 0.000544884 0.000490822 
543 0.0709479 0.38842 0.396244 0.051839 0.0604874 0.024106 0.00590996 0.00171852 0.000101671 0.000225189 
544 0.0709479 0.382396 0.386883 0.051839 0.0754587 0.0245194 0.00590996 0.00171852 0.000101671 0.000225189 
545 0.0228736 0.679933 0.120161 0.0944424 0.0488464 0.0170008 0.00503761 0.00891911 0 0.0027865 
546 0.0281207 0.51839 0.114603 0.157855 0.0310147 0.0313103 0.113814 0.000395784 0 0.004496 
547 0.20051 0.60814 0.0591974 0.125952 0.00571942 0.000175558 0.000305366 0 0 0 
548 0.016477 0.609593 0.182359 0.055743 0.0308839 0.0400591 0.0533621 0.0100229 0.00149927 0 
549 0.0462322 0.267821 0.575113 0.0707863 0.0342221 0.0038315 0.000734035 0.000767752 0.000258916 0.000233227 
550 0.0696016 0.504093 0.254985 0.130445 0.0287383 0.00794136 0.00154476 0.00161572 0.000544884 0.000490821 
551 0.107486 0.407521 0.381905 0.0414855 0.0403372 0.0159887 0.00391987 0.00113983 6.7435e-05 0.00014936 
552 0.0698729 0.389964 0.397962 0.0510549 0.059571 0.0237407 0.00582042 0.00169248 0.000100131 0.000221777 
553 0.10986 0.28555 0.217413 0.228525 0.153572 0.00361691 0.00100877 0.000454017 0 0 
554 0.0678424 0.587066 0.208433 0.104054 0.0229222 0.00633418 0.00123213 0.00128873 0.00043461 0.000391489 
555 0.0160757 0.557565 0.236885 0.0572686 0.0300603 0.0389908 0.0519392 0.00975565 0.00145929 0 
556 0.183288 0.459993 0.236858 0.0699418 0.00889259 0.0392695 0.00147175 9.96408e-05 9.3093e-05 9.23398e-05 
557 0.0717432 0.482328 0.253952 0.134459 0.0296226 0.00837027 0.0167923 0.00166543 0.000561649 0.000505924 
558 0.0775821 0.543226 0.286152 0.0388448 0.0354207 0.0141161 0.00346079 0.00100634 5.95372e-05 0.000131867 
559 0.0103867 0.77795 0.0952041 0.0631039 0.0266968 0.0212877 0.00264297 0.00148895 0.000704256 0.000534438 
560 0.0496763 0.600401 0.236273 0.086534 0.019064 0.00526803 0.00102474 0.00107181 0.000361458 0.000325594 
561 0.0698729 0.391852 0.396075 0.0510535 0.059571 0.0237407 0.00582042 0.00169248 0.000100131 0.000221777 
562 0.0709479 0.396497 0.388167 0.051839 0.0604874 0.024106 0.00590996 0.00171852 0.000101671 0.000225189 
563 0.114717 0.537672 0.26481 0.0687521 0.0103961 0.00158745 0.00172444 0.000119267 0.00011143 0.000110528 
564 0.0504107 0.547313 0.196912 0.135772 0.036899 0.0162754 0.00800079 0.00455506 0.00218276 0.00167915 
565 0.148026 0.514391 0.273582 0.0507744 0.00978256 0.00149674 0.0016259 0.000112452 0.000105062 0.000104212 
566 0.0861574 0.577355 0.221252 0.0803404 0.0293486 0.00457874 0.000164389 0.000527504 0 0.000276108 
567 0.11787 0.38456 0.255641 0.216801 0.0183044 0.00485853 0.00135507 0.000609874 0 0 
568 0.199392 0.477881 0.265318 0.0455376 0.00877922 0.00134323 0.00145914 0.000100918 9.42866e-05 9.35237e-05 
569 0.19992 0.5355 0.173695 0.0730675 0.0130728 0.00391675 0.000140622 0.000451239 0 0.000236189 
570 0.0650069 0.364934 0.38198 0.0889418 0.0697439 0.02211 0.00541053 0.00157329 9.30793e-05 0.000206159 
571 0.115198 0.533237 0.282671 0.0546499 0.0105351 0.00161187 0.00175097 0.000121102 0.000113144 0.000112228 
572 0.0661937 0.678259 0.177485 0.0619879 0.0117939 0.00353359 0.000126865 0.000407096 0 0.000213084 
573 0.0688301 0.370982 0.375335 0.0946232 0.0591263 0.0233864 0.00573355 0.00166722 9.86363e-05 0.000218467 
574 0.117097 0.450684 0.243517 0.167293 0.0153142 0.00434029 0.00121053 0.000544821 0 0 
575 0.0281207 0.518901 0.114092 0.157855 0.0310147 0.0313103 0.113814 0.000395784 0 0.004496 
576 0.0179526 0.552647 0.217631 0.0637784 0.0336496 0.0436465 0.0581409 0.0109205 0.00163354 0 
577 0.119656 0.403956 0.261954 0.190104 0.0174025 0.00493215 0.0013756 0.000619114 0 0 
578 0.115198 0.53807 0.277843 0.0546452 0.0105351 0.00161187 0.00175097 0.000121102 0.000113144 0.000112228 
579 0.0709479 0.39778 0.386885 0.051839 0.0604874 0.024106 0.00590996 0.00171852 0.000101671 0.000225189 
580 0 0.53013 0.397831 0.0188166 1.43104e-05 0.0268395 0.0263687 0 0 0 
581 0.115198 0.532163 0.28375 0.0546452 0.0105351 0.00161187 0.00175097 0.000121102 0.000113144 0.000112228 
582 0.113452 0.539251 0.2643 0.0538172 0.0103754 0.00212692 0.0163365 0.000119267 0.00011143 0.000110528 
583 0.0678179 0.395949 0.398215 0.049552 0.0578189 0.0230425 0.00564923 0.0016427 9.71858e-05 0.000215254 
584 0.121497 0.394207 0.266563 0.193029 0.0176703 0.00500803 0.00139677 0.000628639 0 0 
585 0.0281207 0.518726 0.114266 0.157855 0.0310147 0.0313103 0.113814 0.000395784 0 0.004496 
586 0.0717432 0.482502 0.269026 0.134595 0.0296226 0.00818571 0.00159229 0.00166543 0.000561649 0.000505924 
587 0.239347 0.465325 0.240047 0.0438511 0.00845407 0.00129348 0.0014051 9.71805e-05 9.07945e-05 9.00598e-05 
588 0.0837554 0.372804 0.403068 0.0505862 0.0586818 0.0233864 0.00573355 0.00166722 9.86363e-05 0.000218467 
589 0.115198 0.532953 0.282945 0.0546595 0.0105351 0.00161187 0.00175097 0.000121102 0.000113144 0.000112228 
590 0.121497 0.394201 0.251395 0.208204 0.0176703 0.00500803 0.00139677 0.000628639 0 0 
591 0.115198 0.532163 0.28375 0.0546452 0.0105351 0.00161187 0.00175097 0.000121102 0.000113144 0.000112228 
592 0.140828 0.583881 0.182021 0.0740634 0.0140914 0.00422195 0.000151579 0.0004864 0 0.000254593 
593 0.121521 0.549157 0.262488 0.053014 0.0102206 0.00156376 0.0016987 0.000117487 0.000109766 0.000108878 
594 0.0709479 0.382396 0.386883 0.0671086 0.0606024 0.024106 0.00590996 0.00171852 0.000101671 0.000225189 
595 0.0103867 0.762566 0.0952041 0.0631039 0.027181 0.0361881 0.00264297 0.00148895 0.000704256 0.000534438 
596 0.196694 0.637469 0.0513045 0.109159 0.00495683 0.000152151 0.000264651 0 0 0 
597 0.0757429 0.644615 0.149802 0.115109 0.0105373 0.00298644 0.000832933 0.000374877 0 0 
598 0.0504107 0.562275 0.197278 0.120444 0.036899 0.0162754 0.00800079 0.00455506 0.00218276 0.00167915 
599 0.106969 0.552586 0.276475 0.0507419 0.00978256 0.00149674 0.0016259 0.000112452 0.000105062 0.000104212 
600 0.0963032 0.600921 0.172933 0.115112 0.0105373 0.00298644 0.000832933 0.000374877 0 0 
601 0.0698729 0.405353 0.382574 0.0510535 0.059571 0.0237407 0.00582042 0.00169248 0.000100131 0.000221777 
602 0.0291153 0.516502 0.111974 0.166781 0.030089 0.0303757 0.110417 0.00038397 0 0.00436179 
603 0.0958084 0.608372 0.185902 0.0899329 0.0146627 0.00439311 0.000157724 0.000506119 0 0.000264915 
604 0.115198 0.536916 0.278997 0.0546452 0.0105351 0.00161187 0.00175097 0.000121102 0.000113144 0.000112228 
605 0.119656 0.388228 0.264909 0.202876 0.0174037 0.00493215 0.0013756 0.000619115 0 0 
606 0.0696016 0.46793 0.248751 0.172841 0.0287383 0.00794136 0.00154476 0.00161572 0.000544884 0.000490821 
607 0.0935981 0.618397 0.219532 0.056853 0.00860581 0.00130965 0.00142267 9.83953e-05 9.19294e-05 9.11856e-05 
608 0.07416 0.497477 0.250099 0.13914 0.0275067 0.00760102 0.00147856 0.00154647 0.000521532 0.000469786 
609 0.115198 0.54754 0.268373 0.0546452 0.0105351 0.00161187 0.00175097 0.000121102 0.000113144 0.000112228 
610 0.0481867 0.567284 0.202877 0.11513 0.0352711 0.0155574 0.00764782 0.0043541 0.00208647 0.00160507 
611 0.0653407 0.51826 0.182794 0.111946 0.0474698 0.0400143 0.0120728 0.00463356 0.0159087 0.00155922 
612 0.0906141 0.268546 0.522927 0.0646766 0.0347937 0.0138663 0.00339954 0.000988527 5.84835e-05 0.000129533 
613 0.0508254 0.463848 0.391474 0.0336953 0.0393168 0.0156689 0.00384148 0.00111704 6.60863e-05 0.000146373 
614 0.0504107 0.562689 0.196864 0.120444 0.036899 0.0162754 0.00800079 0.00455506 0.00218276 0.00167915 
615 0.0617466 0.235291 0.255194 0.0362685 0.102788 0.16599 0.141466 0.00105556 6.23456e-05 0.000138088 
616 0.113171 0.528331 0.245477 0.0859191 0.0105544 0.00146742 0.0147804 0.000104955 9.8058e-05 9.72646e-05 
617 0.101677 0.398429 0.348903 0.120549 0.0214064 0.0059119 0.00114999 0.00120281 0.000405636 0.000365389 
618 0.14993 0.37935 0.23696 0.210488 0.0166459 0.0047177 0.00131579 0.000592197 0 0 
619 0.150278 0.303436 0.301096 0.218903 0.0215548 0.00342955 0.000898908 0.00040457 0 0 
620 0.244442 0.585178 0.0527101 0.112149 0.00509264 0.000156319 0.000271902 0 0 0 
621 0.0170344 0.626669 0.164726 0.055743 0.0308839 0.0400591 0.0533621 0.0100229 0.00149927 0 
622 0.118333 0.507092 0.32913 0.0360928 0.00691696 0.0010583 0.00114963 7.95114e-05 7.42864e-05 7.36853e-05 
623 0.0709479 0.382396 0.387474 0.0626109 0.0645096 0.024106 0.00590996 0.00171852 0.000101671 0.000225189 
624 0.0102293 0.766163 0.0941707 0.0768895 0.0262933 0.0209652 0.00260293 0.00146639 0.000693585 0.000526341 
625 0.116328 0.649201 0.148347 0.0705566 0.0114215 0.003422 0.000122859 0.00039424 0 0.000206355 
626 0.115169 0.539286 0.251939 0.0813729 0.00914151 0.00134323 0.00145914 0.000100918 9.42866e-05 9.35237e-05 
627 0.047696 0.492554 0.219857 0.204108 0.0205858 0.012138 0.00150696 0.00084896 0.000401549 0.000304724 
628 0.0504107 0.547313 0.21224 0.120444 0.036899 0.0162754 0.00800079 0.00455506 0.00218276 0.00167915 
629 0.116137 0.420925 0.240923 0.198402 0.0168907 0.00478708 0.00133514 0.000600905 0 0 
630 0.115549 0.424729 0.263018 0.175849 0.0149165 0.00422755 0.00117909 0.00053067 0 0 
631 0 0.53013 0.397831 0.0188165 1.43104e-05 0.0268395 0.0263687 0 0 0 
632 0.212525 0.575696 0.106622 0.100524 0.00427313 0.000131164 0.000228147 0 0 0 
633 0.121497 0.394201 0.251185 0.193029 0.0176703 0.00570505 0.0160844 0.000628639 0 0 
634 0.0696016 0.512049 0.247028 0.130445 0.0287383 0.00794136 0.00154476 0.00161572 0.000544884 0.000490821 
635 0.115407 0.558051 0.268134 0.048233 0.00752506 0.00115134 0.00125069 8.65013e-05 8.0817e-05 8.01631e-05 
636 0.123556 0.486731 0.244315 0.11073 0.024373 0.00673508 0.00131011 0.00137029 0.000462117 0.000416266 
637 0.0232255 0.678352 0.118666 0.0958954 0.0495978 0.0172624 0.00511511 0.00905633 0 0.00282937 
638 0.0647682 0.494798 0.280536 0.12186 0.0267426 0.00738988 0.00143749 0.00150351 0.000507045 0.000456737 
639 0.11123 0.444767 0.24467 0.176717 0.016177 0.00458481 0.00127873 0.000575515 0 0 
640 0.0103867 0.762917 0.110238 0.0631039 0.0266968 0.0212877 0.00264297 0.00148895 0.000704256 0.000534438 
641 0.0709479 0.382446 0.402218 0.051839 0.0604874 0.024106 0.00590996 0.00171852 0.000101671 0.000225189 
642 0.068578 0.475796 0.270759 0.144593 0.0283157 0.00782458 0.00152204 0.00159196 0.000536871 0.000483604 
643 0.121497 0.394201 0.266553 0.193045 0.0176703 0.00500802 0.00139676 0.000628639 0 0 
644 0.0228736 0.671579 0.113392 0.109565 0.0488464 0.0170008 0.00503761 0.00891911 0 0.0027865 
645 0.0504107 0.547313 0.196895 0.135789 0.036899 0.0162754 0.00800079 0.00455506 0.00218276 0.00167915 
646 0.018505 0.567435 0.183594 0.0779222 0.034685 0.0449894 0.0599298 0.0112565 0.0016838 0 
647 0.0606776 0.55753 0.234808 0.11438 0.0229232 0.00633418 0.00123213 0.00128873 0.00043461 0.000391489 
648 0.180118 0.644702 0.0541948 0.115308 0.00523609 0.000160722 0.000279561 0 0 0 
649 0.0489059 0.530975 0.235749 0.116855 0.0357975 0.0157896 0.00776196 0.00441908 0.00211761 0.00162903 
650 0.0481867 0.523167 0.188185 0.132224 0.0769718 0.0155728 0.00764782 0.0043541 0.00208647 0.00160507 
651 0.11617 0.567652 0.259228 0.0452308 0.00866809 0.00132622 0.00144067 9.96408e-05 9.30931e-05 9.23398e-05 
652 0.00876796 0.79995 0.0929727 0.0532695 0.0225362 0.0179702 0.00223108 0.0012569 0.000594502 0.000451149 
653 0.0504107 0.547313 0.197673 0.135008 0.0369017 0.0162754 0.00800079 0.00455506 0.00218276 0.00167915 
654 0.121497 0.409583 0.251187 0.193029 0.0176703 0.00500803 0.00139677 0.000628639 0 0 
655 0.116137 0.435581 0.240155 0.184513 0.0168907 0.00478708 0.00133514 0.000600905 0 0 
656 0.120226 0.386806 0.301713 0.169556 0.0155212 0.00439894 0.00122689 0.000552183 0 0 
657 0.0496469 0.554147 0.200288 0.12738 0.0363399 0.0160288 0.00787957 0.00448604 0.00214969 0.00165371 
658 0.0182246 0.588469 0.181418 0.0616551 0.0341595 0.0443078 0.0590218 0.011086 0.00165829 0 
659 0.0504107 0.547313 0.21224 0.120444 0.036899 0.0162754 0.00800079 0.00455506 0.00218276 0.00167915 
660 0.0711635 0.503133 0.251787 0.132421 0.0291737 0.00806168 0.00156817 0.0016402 0.00055314 0.000498258 
661 0.0103867 0.762566 0.0952409 0.0784314 0.026717 0.0212877 0.00264297 0.00148895 0.000704256 0.000534438 
662 0.0504107 0.547324 0.212229 0.120445 0.036899 0.0162754 0.00800079 0.00455506 0.00218276 0.00167915 
663 0 0.805666 0.0892107 0.0468535 0.0336377 0.0123497 0.0122823 0 0 0 
664 0.0658802 0.4252 0.374828 0.0481542 0.0561669 0.0223841 0.00548782 0.00159577 9.4409e-05 0.000209104 
665 0.159855 0.56241 0.158799 0.113897 0.00464703 0.000142641 0.00024811 0 0 0 
666 0.0100766 0.769653 0.0925985 0.0759092 0.0258999 0.0206523 0.00256408 0.0014445 0.000683233 0.000518485 
667 0.0102293 0.751012 0.0937616 0.0621478 0.0262923 0.021452 0.0324012 0.00148435 0.000693585 0.000526341 
668 0.0936896 0.56954 0.226282 0.0877367 0.0166929 0.00500138 0.000179563 0.000576197 0 0.000301595 
669 0.0460054 0.827691 0.105528 0.0165087 0.00315567 0.000482819 0.000524485 3.62748e-05 3.3891e-05 3.36168e-05 
670 0.0468145 0.565358 0.182966 0.140241 0.0342633 0.0151129 0.00742931 0.0042297 0.00202685 0.00155921 
671 0.0791711 0.603487 0.239379 0.062061 0.0116671 0.00349559 0.000125501 0.000402718 0 0.000210792 
672 0.121497 0.409586 0.251185 0.193029 0.0176703 0.00500803 0.00139677 0.000628639 0 0 
673 0.0908929 0.554336 0.247536 0.0851623 0.0161946 0.00485209 0.000174203 0.000558997 0 0.000292592 
674 0.130786 0.420589 0.240497 0.184513 0.0168907 0.00478708 0.00133514 0.000600905 0 0 
675 0.0864345 0.610073 0.221179 0.065508 0.01233 0.0036942 0.000132632 0.0004256 0 0.000222769 
676 0.0103867 0.77795 0.0952042 0.0631039 0.0266968 0.0212877 0.00264297 0.00148895 0.000704256 0.000534438 
677 0.12134 0.415776 0.24845 0.190104 0.0174025 0.00493215 0.0013756 0.000619115 0 0 
678 0.0222008 0.680877 0.110461 0.1063 0.0474097 0.0165008 0.00488944 0.00865678 0 0.00270454 
679 0.0496469 0.554076 0.208975 0.118765 0.0363399 0.0160288 0.00787957 0.00448604 0.00214969 0.00165371 
680 0.102751 0.565513 0.227653 0.0826505 0.0157252 0.00471145 0.000169153 0.000542795 0 0.000284111 
681 0.0576452 0.460183 0.354535 0.0524237 0.0491632 0.0195861 0.00480185 0.00139629 8.26079e-05 0.000182966 
682 0.0504107 0.562696 0.196857 0.120444 0.036899 0.0162754 0.00800079 0.00455506 0.00218276 0.00167915 
683 0.120044 0.494138 0.206671 0.158821 0.0145388 0.00412053 0.00114924 0.000517235 0 0 
684 0.00806904 0.820777 0.0831311 0.0476964 0.0201778 0.0160896 0.0019976 0.00112537 0.000532286 0.000403936 
685 0.0481867 0.537873 0.189781 0.155032 0.0378768 0.0155574 0.00764782 0.0043541 0.00208647 0.00160507 
686 0.0696016 0.468701 0.260464 0.160358 0.0287383 0.00794136 0.00154476 0.00161572 0.000544884 0.000490821 
687 0.11787 0.412285 0.258612 0.187267 0.0171428 0.00485853 0.00135507 0.000609874 0 0 
688 0.0704293 0.452012 0.350632 0.0977925 0.0204837 0.00566033 0.00110105 0.00115163 0.000388375 0.000349841 
689 0.0504107 0.557697 0.201856 0.120444 0.036899 0.0162754 0.00800079 0.00455506 0.00218276 0.00167915 
690 0 0.821051 0.0887644 0.0319151 0.0336377 0.0123497 0.0122823 0 0 0 
691 0.105817 0.567458 0.20461 0.0857123 0.0302194 0.00515811 0.000174203 0.000558997 0 0.000292592 
692 0.10672 0.480913 0.221115 0.169553 0.0155212 0.00439894 0.00122689 0.000552183 0 0 
693 0.0102293 0.771169 0.103908 0.0621478 0.0262923 0.0209652 0.00260293 0.00146639 0.000693585 0.000526341 
694 0.115198 0.532163 0.268557 0.0698379 0.0105351 0.00161187 0.00175097 0.000121102 0.000113144 0.000112228 
695 0.167401 0.381493 0.240653 0.188151 0.0159523 0.00452113 0.00126097 0.000567522 0 0 
696 0.0696016 0.512706 0.246372 0.130445 0.0287383 0.00794136 0.00154476 0.00161572 0.000544884 0.000490821 
697 0.121497 0.403575 0.257195 0.193029 0.0176703 0.00500803 0.00139677 0.000628639 0 0 
698 0.0100766 0.784579 0.0923622 0.0612202 0.0258999 0.0206523 0.00256408 0.0014445 0.000683233 0.000518485 
699 0.115198 0.547547 0.268366 0.0546452 0.0105351 0.00161187 0.00175097 0.000121102 0.000113144 0.000112228 
700 0.0103867 0.762566 0.0952041 0.0782588 0.0269265 0.0212877 0.00264297 0.00148895 0.000704256 0.000534438 
701 0.121497 0.394275 0.266483 0.193041 0.0176703 0.00500802 0.00139676 0.000628639 0 0 
702 0.0698729 0.376603 0.394007 0.0538283 0.0741138 0.0237407 0.00582042 0.00169248 0.000100131 0.000221777 
703 0.152257 0.580849 0.129691 0.100026 0.0201776 0.00846321 0.00416041 0.00236863 0.00113504 0.000873159 
704 0.0678179 0.389644 0.404513 0.0495593 0.0578189 0.0230425 0.00564923 0.0016427 9.71858e-05 0.000215254 
705 0.0103867 0.762566 0.0952041 0.0631039 0.0272918 0.0360773 0.00264297 0.00148895 0.000704256 0.000534438 
706 0.00992842 0.766199 0.112551 0.0603199 0.025519 0.0203486 0.00252637 0.00142326 0.000673186 0.00051086 
707 0.11787 0.398032 0.257016 0.191034 0.0292242 0.00485853 0.00135507 0.000609874 0 0 
708 0 0.805666 0.0887644 0.0338602 0.0470772 0.0123497 0.0122823 0 0 0 
709 0.114557 0.435695 0.23329 0.193515 0.0164117 0.00465031 0.001297 0.000583737 0 0 
710 0.0103867 0.762817 0.110334 0.063107 0.0266968 0.0212877 0.00264297 0.00148895 0.000704256 0.000534438 
711 0.0496469 0.554172 0.200819 0.12647 0.0366935 0.0160288 0.00787957 0.00448604 0.00214969 0.00165371 
712 0.066835 0.387216 0.40983 0.0489355 0.0569809 0.0227085 0.00556736 0.00161889 9.57773e-05 0.000212135 
713 0.109685 0.425464 0.268287 0.174262 0.0159523 0.00452113 0.00126097 0.000567522 0 0 
714 0.119656 0.403276 0.26249 0.190249 0.0174025 0.00493215 0.0013756 0.000619114 0 0 
715 0.134161 0.438471 0.241135 0.165104 0.0151127 0.00428318 0.0011946 0.000537652 0 0 
716 0.0709479 0.382396 0.387146 0.0669612 0.0604874 0.024106 0.00590996 0.00171852 0.000101671 0.000225189 
717 0.113452 0.554397 0.264305 0.0538172 0.0103754 0.00158745 0.00172444 0.000119267 0.00011143 0.000110528 
718 0.109685 0.453007 0.240744 0.174262 0.0159523 0.00452113 0.00126097 0.000567522 0 0 
719 0.0276946 0.511036 0.112366 0.155463 0.0305448 0.0308359 0.11209 0.000389788 0 0.0195794 
720 0.0616563 0.599895 0.244445 0.0715821 0.0189957 0.00282755 0.000101492 0.000325677 0 0.000170467 
721 0.0709479 0.385355 0.399309 0.051839 0.0604874 0.024106 0.00590996 0.00171852 0.000101671 0.000225189 
722 0.115198 0.532239 0.283674 0.0546453 0.0105351 0.00161187 0.00175097 0.000121102 0.000113144 0.000112228 
723 0.0717432 0.487523 0.264142 0.134459 0.0296226 0.00818571 0.00159229 0.00166543 0.000561649 0.000505924 
724 0.0399645 0.665693 0.150711 0.0910332 0.0278888 0.0123012 0.00604711 0.00344278 0.00164976 0.00126913 
725 0.0225322 0.64663 0.111671 0.0987739 0.0573017 0.0167471 0.00849785 0.0351012 1.31352e-07 0.00274491 
726 0.0696016 0.482965 0.276015 0.130542 0.0287383 0.00794136 0.00154476 0.00161572 0.000544884 0.000490821 
727 0.0709479 0.382396 0.402268 0.051839 0.0604874 0.024106 0.00590996 0.00171852 0.000101671 0.000225189 
728 0.0709479 0.382396 0.402268 0.051839 0.0604874 0.024106 0.00590996 0.00171852 0.000101671 0.000225189 
729 0.0709479 0.382396 0.402268 0.051839 0.0604874 0.024106 0.00590996 0.00171852 0.000101671 0.000225189 
730 0.09227 0.591165 0.207751 0.0864073 0.01644 0.00492561 0.000176842 0.000567467 0 0.000297026 
731 0.0550881 0.570564 0.239279 0.102849 0.0226525 0.00625966 0.00121764 0.00127357 0.000429497 0.000386883 
732 0.115198 0.532163 0.28375 0.0546453 0.0105351 0.00161187 0.00175097 0.000121102 0.000113144 0.000112228 
733 0.206205 0.605328 0.0583169 0.124044 0.00563276 0.000172898 0.00030074 0 0 0 
734 0.115198 0.544984 0.270929 0.0546452 0.0105351 0.00161187 0.00175097 0.000121102 0.000113144 0.000112228 
735 0.0504107 0.547313 0.196856 0.123794 0.0475417 0.0176677 0.00800079 0.00455506 0.00218276 0.00167915 
736 0.115198 0.532163 0.28375 0.0546453 0.0105351 0.00161187 0.00175097 0.000121102 0.000113144 0.000112228 
737 0.0717432 0.482328 0.269326 0.134469 0.0296226 0.00818571 0.00159229 0.00166543 0.000561649 0.000505924 
738 0.0709479 0.382396 0.402268 0.051839 0.0604874 0.024106 0.00590996 0.00171852 0.000101671 0.000225189 
739 0.0257443 0.460965 0.104451 0.144515 0.0283938 0.0290309 0.202421 0.000362338 0 0.00411606 
740 0.116137 0.406817 0.268919 0.184513 0.0168907 0.00478708 0.00133514 0.000600905 0 0 
741 0.165075 0.342039 0.223544 0.21543 0.0480571 0.00418874 0.00114924 0.000517235 0 0 
742 0.0717432 0.482328 0.269337 0.134459 0.0296226 0.00818571 0.00159229 0.00166543 0.000561649 0.000505924 
743 0.11123 0.382206 0.257341 0.211209 0.0315744 0.00458494 0.00127873 0.000575515 0 0 
744 0.0717432 0.482328 0.269337 0.134459 0.0296226 0.00818571 0.00159229 0.00166543 0.000561649 0.000505924 
745 0.0717432 0.482328 0.253952 0.140914 0.0385517 0.00818571 0.00159229 0.00166543 0.000561649 0.000505924 
746 0.0936896 0.569532 0.221782 0.0922449 0.0166929 0.00500138 0.000179563 0.000576197 0 0.000301595 
747 0.0936896 0.569532 0.216 0.0980271 0.0166929 0.00500138 0.000179563 0.000576197 0 0.000301595 
748 0.132626 0.456689 0.233778 0.156836 0.0143571 0.00406902 0.00113487 0.000510769 0 0 
749 0.113122 0.6117 0.180681 0.0750379 0.0142769 0.0042775 0.000153574 0.0004928 0 0.000257943 
750 0.0400071 0.653311 0.156044 0.0954739 0.0292492 0.0129012 0.00634209 0.00361072 0.00173024 0.00133104 
751 0.0717432 0.482328 0.253983 0.149811 0.0296242 0.00818571 0.00159229 0.00166543 0.000561649 0.000505924 
752 0.0675842 0.526711 0.239349 0.126664 0.0279053 0.00771118 0.00149999 0.00156889 0.00052909 0.000476595 
753 0.0882583 0.536515 0.205952 0.147842 0.0157256 0.00471145 0.000169153 0.000542794 0 0.000284111 
754 0.0752071 0.483121 0.204441 0.218973 0.0133969 0.00401346 0.000144094 0.00046238 0 0.000242021 
755 0.0656804 0.539464 0.233186 0.123096 0.0271192 0.00749396 0.00145773 0.00152469 0.000514186 0.00046317 
756 0.11787 0.412284 0.243687 0.202189 0.0171458 0.00485853 0.00135507 0.000609874 0 0 
757 0.0706562 0.480946 0.274481 0.132421 0.0291737 0.00806168 0.00156817 0.0016402 0.00055314 0.000498258 
758 0.0869975 0.539689 0.223293 0.0864165 0.057978 0.00464431 0.000166737 0.00053504 0 0.000280053 
759 0.0496469 0.550199 0.212997 0.118619 0.0363399 0.0160288 0.00787957 0.00448604 0.00214969 0.00165371 
760 0.155956 0.575251 0.11721 0.146668 0.00453369 0.000139162 0.000242059 0 0 0 
761 0.068578 0.469583 0.268368 0.139481 0.0420303 0.00782516 0.00152204 0.00159196 0.000536871 0.000483604 
762 0.119656 0.388228 0.253692 0.214095 0.0174025 0.00493215 0.0013756 0.000619115 0 0 
763 0.121497 0.394201 0.254116 0.205482 0.0176703 0.00500803 0.00139677 0.000628639 0 0 
764 0.0696016 0.512637 0.24644 0.130445 0.0287383 0.00794136 0.00154476 0.00161572 0.000544884 0.000490821 
765 0.0640502 0.44244 0.36316 0.0467991 0.0546067 0.0217623 0.00533538 0.00155144 9.17866e-05 0.000203296 
766 0.0638843 0.552243 0.226633 0.119724 0.0263763 0.00728865 0.00141779 0.00148292 0.000500099 0.00045048 
767 0.110115 0.567488 0.256546 0.0522343 0.0100703 0.00154076 0.00167372 0.000115759 0.000108152 0.000107277 
768 0.0504107 0.550247 0.209306 0.120444 0.036899 0.0162754 0.00800079 0.00455506 0.00218276 0.00167915 
769 0.112819 0.38033 0.29039 0.19352 0.0164108 0.00465031 0.001297 0.000583737 0 0 
770 0.163958 0.664683 0.0612317 0.10496 0.00476618 0.000146299 0.000254472 0 0 0 
771 0.0696016 0.46869 0.275413 0.131458 0.0427001 0.00794164 0.00154476 0.00161572 0.000544884 0.000490822 
772 0.11787 0.383564 0.281025 0.193575 0.0171428 0.00485853 0.00135507 0.000609874 0 0 
773 0.116635 0.561091 0.262956 0.0471349 0.00901026 0.00137857 0.00149754 0.000103574 9.67678e-05 9.59848e-05 
774 0.0717432 0.483658 0.268 0.134466 0.0296226 0.00818571 0.00159229 0.00166543 0.000561649 0.000505924 
775 0.103944 0.515634 0.319081 0.0486568 0.00938054 0.00143523 0.00155909 0.00010783 0.000100745 9.99294e-05 
776 0.128453 0.402629 0.251185 0.193029 0.0176703 0.00500802 0.00139676 0.000628639 0 0 
777 0.121497 0.394201 0.251185 0.194478 0.0316058 0.00500802 0.00139676 0.000628639 0 0 
778 0.148664 0.411793 0.207664 0.119716 0.109291 0.00124842 0.00135492 9.37098e-05 8.75518e-05 8.68434e-05 
779 0.0822949 0.500264 0.190631 0.206825 0.0146627 0.00439311 0.000157724 0.000506119 0 0.000264915 
780 0.032774 0.61363 0.101108 0.0880671 0.114494 0.0349948 0.004493 0.00795488 0 0.00248526 
781 0.0678179 0.387043 0.407121 0.049552 0.0578189 0.0230425 0.00564923 0.0016427 9.71858e-05 0.000215254 
782 0.018505 0.567625 0.198722 0.0626037 0.034685 0.0449894 0.0599298 0.0112565 0.0016838 0 
783 0.111682 0.455139 0.276173 0.110174 0.0173439 0.00634423 0.0218634 0.00108784 9.67678e-05 9.59848e-05 
784 0.0489059 0.560999 0.205726 0.116855 0.0357975 0.0157896 0.00776196 0.00441909 0.00211761 0.00162903 
785 0.0811522 0.375612 0.403158 0.0502915 0.0586818 0.0233864 0.00573355 0.00166722 9.86363e-05 0.000218467 
786 0.0958106 0.567953 0.204006 0.100037 0.0152796 0.0160208 0.000151579 0.0004864 0 0.000254593 
787 0.123012 0.501467 0.296129 0.0514803 0.0100448 0.0157028 0.00183738 0.000114082 0.000106585 0.000105722 
788 0.0863506 0.554517 0.229932 0.0924146 0.0171541 0.00457873 0.00262467 0.0121517 0 0.000276108 
789 0.113574 0.539129 0.279451 0.0538173 0.0103754 0.00158745 0.00172444 0.000119267 0.00011143 0.000110528 
790 0.0869975 0.563305 0.23385 0.0946806 0.0155412 0.00464414 0.000166737 0.00053504 0 0.000280053 
791 0.0281207 0.503516 0.114105 0.173227 0.0310147 0.0313103 0.113814 0.000395784 0 0.004496 
792 0.084527 0.46793 0.246523 0.145242 0.0436325 0.00794952 0.00154476 0.00161572 0.000544884 0.000490822 
793 0.0641501 0.710173 0.151638 0.0587926 0.011186 0.00335144 0.000120326 0.000386112 0 0.0002021 
794 0.0717432 0.487523 0.264142 0.134459 0.0296226 0.00818571 0.00159229 0.00166543 0.000561649 0.000505924 
795 0.0497243 0.574932 0.190981 0.116849 0.0357975 0.0157896 0.00776196 0.00441909 0.00211761 0.00162903 
796 0.0496097 0.630915 0.197363 0.0929772 0.0204837 0.00566033 0.00110105 0.00115163 0.000388375 0.000349841 
797 0.0489059 0.530975 0.235751 0.116853 0.0357975 0.0157896 0.00776196 0.00441908 0.00211761 0.00162903 
798 0.0688301 0.370982 0.420111 0.0502916 0.0586818 0.0233864 0.00573355 0.00166722 9.86363e-05 0.000218467 
799 0.0843797 0.314399 0.306038 0.227275 0.0627927 0.00371435 0.000965848 0.000434697 0 0 
800 0.0709479 0.387534 0.39713 0.0518396 0.0604874 0.024106 0.00590996 0.00171852 0.000101671 0.000225189 
801 0.0225322 0.661555 0.111671 0.0930378 0.0630378 0.0168291 0.0198058 0.00878599 0 0.00274491 
802 0.0878469 0.422513 0.350869 0.0453639 0.0656183 0.0208948 0.00512197 0.00148938 8.81151e-05 0.000195164 
803 0.121497 0.401394 0.259365 0.19304 0.0176703 0.00500802 0.00139676 0.000628639 0 0 
804 0.00965021 0.793786 0.088423 0.0585965 0.0247899 0.0197672 0.00245419 0.00138259 0.000653952 0.000496264 
805 0.0709479 0.387514 0.39715 0.0518391 0.0604874 0.024106 0.00590996 0.00171852 0.000101671 0.000225189 
806 0.09227 0.560903 0.209311 0.115109 0.0164401 0.00492561 0.000176842 0.000567467 0 0.000297026 
807 0.120442 0.496566 0.265066 0.0838213 0.0181938 0.00189996 0.0137229 0.000100918 9.42866e-05 9.35237e-05 
808 0.0717432 0.482328 0.259883 0.143913 0.0296226 0.00818571 0.00159229 0.00166543 0.000561649 0.000505924 
809 0.0625223 0.466731 0.337603 0.0438984 0.0625275 0.0200883 0.00492497 0.0014321 8.47261e-05 0.000187657 
810 0.113452 0.554273 0.264429 0.0538172 0.0103754 0.00158745 0.00172444 0.000119267 0.00011143 0.000110528 
811 0.123218 0.552779 0.252862 0.0523058 0.0157036 0.00136067 0.00147809 0.000102229 9.5511e-05 9.47383e-05 
812 0.0717432 0.48255 0.269114 0.134459 0.0296226 0.00818571 0.00159229 0.00166543 0.000561649 0.000505924 
813 0.121497 0.409586 0.251185 0.193029 0.0176703 0.00500802 0.00139676 0.000628639 0 0 
814 0.119656 0.40338 0.258378 0.194257 0.0174025 0.00493215 0.0013756 0.000619115 0 0 
815 0.0496469 0.562842 0.200354 0.118619 0.0363399 0.0160288 0.00787957 0.00448604 0.00214969 0.00165371 
816 0.130776 0.519199 0.285686 0.0518271 0.00925378 0.00141583 0.00153802 0.000106373 9.93831e-05 9.8579e-05 
817 0.0698729 0.382308 0.405619 0.0510535 0.059571 0.0237407 0.00582042 0.00169248 0.000100131 0.000221777 
818 0.0987735 0.537282 0.295894 0.0558677 0.00901026 0.00137858 0.00149754 0.000103574 9.67678e-05 9.59848e-05 
819 0.0526925 0.592477 0.176469 0.103168 0.0501923 0.0124459 0.00611825 0.00348328 0.00166917 0.00128406 
820 0.088044 0.380284 0.395142 0.0552362 0.0531315 0.0211742 0.00519119 0.00150951 8.93059e-05 0.000197801 
821 0.217412 0.427374 0.267772 0.0803594 0.00524129 0.000799784 0.000868803 6.00887e-05 5.61401e-05 5.56859e-05 
822 0.11787 0.399331 0.271436 0.187397 0.0171428 0.00485853 0.00135507 0.000609874 0 0 
823 0.0103867 0.777948 0.0952068 0.0631039 0.0266968 0.0212877 0.00264297 0.00148895 0.000704256 0.000534438 
824 0.121497 0.40938 0.251391 0.193029 0.0176703 0.00500803 0.00139677 0.000628639 0 0 
825 0.0103867 0.77795 0.0952041 0.0631039 0.0266968 0.0212877 0.00264297 0.00148895 0.000704256 0.000534438 
826 0.10672 0.372595 0.295141 0.203844 0.0155212 0.00439894 0.00122689 0.000552183 0 0 
827 0.0709479 0.386616 0.398035 0.0518525 0.0604874 0.024106 0.00590996 0.00171852 0.000101671 0.000225189 
828 0.0494424 0.699108 0.14987 0.0773435 0.0170395 0.0047086 0.00091592 0.000957992 0.000323073 0.000291018 
829 0.0717432 0.483662 0.268002 0.134459 0.0296226 0.00818571 0.00159229 0.00166543 0.000561649 0.000505924 
830 0.0895562 0.588518 0.201606 0.0838659 0.0159565 0.00478105 0.0148772 0.000550777 0 0.00028829 
831 0.0658802 0.39817 0.401651 0.0483606 0.0561669 0.0223841 0.00548782 0.00159577 9.4409e-05 0.000209104 
832 0.203828 0.604822 0.0591974 0.125952 0.00571942 0.000175558 0.000305366 0 0 0 
833 0.0281207 0.503516 0.114092 0.157855 0.0316568 0.0460529 0.113814 0.000395784 0 0.004496 
834 0.0717432 0.482328 0.254269 0.148702 0.0304465 0.00818571 0.00159229 0.00166543 0.000561649 0.000505924 
835 0.0103867 0.763269 0.109877 0.0631124 0.0266968 0.0212877 0.00264297 0.00148895 0.000704256 0.000534438 
836 0.0936896 0.569532 0.215243 0.0987803 0.0166962 0.00500138 0.000179563 0.000576197 0 0.000301595 
837 0.0717432 0.482513 0.269149 0.134461 0.0296226 0.00818571 0.00159229 0.00166543 0.000561649 0.000505924 
838 0.0504107 0.547313 0.200606 0.132078 0.036899 0.0162754 0.00800079 0.00455506 0.00218276 0.00167915 
839 0.09227 0.575293 0.208472 0.101559 0.01644 0.00492561 0.000176842 0.000567467 0 0.000297026 
840 0.0869975 0.613102 0.197304 0.0814698 0.0155006 0.00464414 0.000166737 0.00053504 0 0.000280053 
841 0.143052 0.394012 0.254793 0.184529 0.0168907 0.00478708 0.00133514 0.000600905 0 0 
842 0.00964475 0.734498 0.11082 0.095012 0.0252709 0.0197672 0.00245419 0.00138259 0.000653952 0.000496264 
843 0.108519 0.501854 0.296547 0.0672761 0.0223092 0.00151843 0.00164947 0.000114082 0.000106585 0.000105722 
844 0.0717432 0.482328 0.253953 0.149843 0.0296226 0.00818571 0.00159229 0.00166543 0.000561649 0.000505924 
845 0.0706562 0.498342 0.257085 0.132421 0.0291737 0.00806168 0.00156817 0.0016402 0.00055314 0.000498258 
846 0.114454 0.386251 0.274266 0.201757 0.0166459 0.0047177 0.00131579 0.000592197 0 0 
847 0.0815956 0.637588 0.202751 0.0619903 0.0117939 0.00353359 0.000126865 0.000407096 0 0.000213084 
848 0.0761228 0.611007 0.210566 0.0833368 0.0140449 0.00406362 0.000145895 0.00046816 0 0.000245046 
849 0.0706562 0.494774 0.260653 0.132421 0.0291737 0.00806168 0.00156817 0.0016402 0.00055314 0.000498258 
850 0.0661937 0.418794 0.197183 0.270365 0.0280286 0.0186886 0.000126865 0.000407096 0 0.000213084 
851 0.00964475 0.708097 0.0884038 0.0587188 0.110044 0.020105 0.00245419 0.00138259 0.000653952 0.000496264 
852 0.110115 0.508685 0.261871 0.0911392 0.0246441 0.00154076 0.00167372 0.000115759 0.000108152 0.000107277 
853 0.0496469 0.569319 0.193878 0.118619 0.0363399 0.0160288 0.00787957 0.00448604 0.00214969 0.00165371 
854 0.0803884 0.475452 0.24994 0.175283 0.0143038 0.00382459 0.000137313 0.000440621 0 0.000230632 
855 0.11929 0.333483 0.342945 0.184767 0.0140062 0.00392195 0.00109385 0.000492308 0 0 
856 0.0697884 0.369593 0.397468 0.0617367 0.0757654 0.019418 0.00462829 0.00134583 7.96221e-05 0.000176353 
857 0.100573 0.59667 0.211848 0.0721891 0.0137347 0.00411506 0.000147742 0.000474086 0 0.000248148 
858 0.0222008 0.681238 0.110444 0.105956 0.0474097 0.0165008 0.00488944 0.00865678 0 0.00270454 
859 0.0460584 0.679575 0.161832 0.0856845 0.0188771 0.00521639 0.0010147 0.0010613 0.000357914 0.000322402 
860 0.117887 0.548378 0.257654 0.063218 0.00951389 0.00145516 0.00158074 0.000109328 0.000102144 0.000101317 
861 0.121875 0.393328 0.279724 0.183077 0.0157338 0.0044592 0.00124369 0.000559747 0 0 
862 0.0345479 0.483206 0.201398 0.223562 0.0512612 0.00394177 0.000766659 0.000801875 0.000270424 0.000243593 
863 0.0549006 0.46165 0.371721 0.0401135 0.0468058 0.0186534 0.00457319 0.0013298 7.86742e-05 0.000174253 
864 0.0972447 0.605502 0.239098 0.0461301 0.00889324 0.00136067 0.00147809 0.000102229 9.55111e-05 9.47383e-05 
865 0.139259 0.359386 0.381044 0.0939245 0.0185681 0.00511607 0.000995183 0.0010409 0.000351031 0.000316202 
866 0.141548 0.387148 0.398813 0.0694829 0.00277435 8.51589e-05 0.000148126 0 0 0 
867 0.109685 0.454346 0.239402 0.174265 0.0159523 0.00452113 0.00126097 0.000567522 0 0 
868 0.0363957 0.419128 0.138303 0.0709837 0.0703997 0.105172 0.150059 0.00831448 0.00124372 0 
869 0.0506771 0.27314 0.276345 0.0412582 0.289004 0.0638928 0.0042214 0.00122751 7.26223e-05 0.000160849 
870 0.0907887 0.285344 0.460392 0.147083 0.0117272 0.00332165 0.000926426 0.000416955 0 0 
871 0.0420089 0.58372 0.190267 0.100733 0.0559304 0.0136598 0.00666733 0.00379588 0.00181897 0.00139929 
872 0.0678179 0.409444 0.384721 0.049552 0.0578189 0.0230425 0.00564923 0.0016427 9.71858e-05 0.000215254 
873 0.113452 0.554398 0.264304 0.0538172 0.0103754 0.00158745 0.00172444 0.000119267 0.00011143 0.000110528 
874 0.0561569 0.599184 0.212722 0.100458 0.0221318 0.00611576 0.00118964 0.00124429 0.000419623 0.000377989 
875 0.0666187 0.53359 0.235813 0.124855 0.0275067 0.00760102 0.00147856 0.00154647 0.000521532 0.000469786 
876 0.0675842 0.526603 0.239457 0.126664 0.0279053 0.00771118 0.00149999 0.00156889 0.00052909 0.000476595 
877 0.161878 0.604734 0.124655 0.103632 0.00470585 0.000144447 0.000251251 0 0 0 
878 0.122021 0.677403 0.0890913 0.107915 0.00329305 0.000100985 0.000175653 0 0 0 
879 0.0696016 0.512706 0.246372 0.130445 0.0287383 0.00794136 0.00154476 0.00161572 0.000544884 0.000490821 
880 0.0481867 0.58199 0.188171 0.11513 0.0352711 0.0155574 0.00764782 0.0043541 0.00208647 0.00160507 
881 0.102431 0.470009 0.261056 0.148662 0.0127619 0.00361691 0.00100877 0.000454017 0 0 
882 0.0496469 0.539036 0.209034 0.133738 0.0363468 0.0160288 0.00787957 0.00448604 0.00214969 0.00165371 
883 0.0281207 0.518391 0.114602 0.157855 0.0310147 0.0313103 0.113814 0.000395784 0 0.004496 
884 0.0103867 0.777949 0.0952053 0.0631039 0.0266968 0.0212877 0.00264297 0.00148895 0.000704256 0.000534438 
885 0.0103867 0.763293 0.109857 0.0631078 0.0266968 0.0212877 0.00264297 0.00148895 0.000704256 0.000534438 
886 0.0709479 0.38842 0.396244 0.051839 0.0604874 0.024106 0.00590996 0.00171852 0.000101671 0.000225189 
887 0.0102293 0.781315 0.0937616 0.0621478 0.0262923 0.0209652 0.00260293 0.00146639 0.000693585 0.000526341 
888 0.0504107 0.560552 0.199001 0.120444 0.036899 0.0162754 0.00800079 0.00455506 0.00218276 0.00167915 
889 0.119656 0.417834 0.248076 0.190104 0.0174025 0.00493215 0.0013756 0.000619114 0 0 
890 0.0615577 0.340775 0.181058 0.122639 0.223774 0.0671408 0.00112499 0.00117666 0.000396818 0.000357446 
891 0.0225322 0.691405 0.111672 0.0930329 0.0481173 0.0167471 0.00496242 0.00878599 0 0.00274491 
892 0.0198639 0.685439 0.140942 0.0820311 0.0424192 0.0147639 0.00437476 0.00774554 0 0.00241985 
893 0.0100766 0.754564 0.107685 0.0759117 0.0258999 0.0206523 0.00256408 0.0014445 0.000683233 0.000518485 
894 0.0100766 0.784579 0.0923622 0.0612202 0.0258999 0.0206523 0.00256408 0.0014445 0.000683233 0.000518485 
895 0.00900177 0.794124 0.0827464 0.0675728 0.023451 0.0184494 0.00229058 0.00129042 0.000610355 0.00046318 
896 0.0943196 0.559624 0.200153 0.12935 0.0118409 0.00335589 0.000935977 0.000421253 0 0 
897 0.0623191 0.443217 0.353944 0.0566735 0.0556847 0.0211742 0.00519119 0.00150951 8.93059e-05 0.000197801 
898 0.0696016 0.512705 0.246372 0.130445 0.0287383 0.00794136 0.00154476 0.00161572 0.000544884 0.000490821 
899 0 0.826392 0.0861147 0.0309624 0.0326335 0.0119811 0.0119157 0 0 0 
900 0.072111 0.482063 0.275796 0.13302 0.0260198 0.00719015 0.00139863 0.00146288 0.000493341 0.000444392 
901 0.0936896 0.570258 0.225522 0.0877781 0.0166929 0.00500138 0.000179563 0.000576197 0 0.000301595 
902 0.0688301 0.392304 0.398636 0.0504438 0.0586818 0.0233864 0.00573355 0.00166722 9.86363e-05 0.000218467 
903 0.126683 0.516782 0.289702 0.053014 0.0102206 0.00156376 0.0016987 0.000117487 0.000109766 0.000108878 
904 0.121497 0.394201 0.266568 0.193031 0.0176703 0.00500802 0.00139676 0.000628639 0 0 
905 0.068578 0.513663 0.248958 0.128527 0.0283157 0.00782458 0.00152204 0.00159196 0.000536871 0.000483604 
906 0.119656 0.394104 0.269611 0.1923 0.0174025 0.00493215 0.0013756 0.000619114 0 0 
907 0.0218791 0.653637 0.14663 0.0988546 0.0467226 0.0162616 0.00481858 0.00853132 0 0.00266535 
908 0.103134 0.379692 0.306001 0.178569 0.0229222 0.00633418 0.00123213 0.00128873 0.00043461 0.000391489 
909 0.0706562 0.502722 0.252705 0.132421 0.0291737 0.00806168 0.00156817 0.0016402 0.00055314 0.000498258 
910 0.115198 0.532934 0.282979 0.0546453 0.0105351 0.00161187 0.00175097 0.000121102 0.000113144 0.000112228 
911 0.0102293 0.781315 0.0937616 0.0621478 0.0262923 0.0209652 0.00260293 0.00146639 0.000693585 0.000526341 
912 0.0103867 0.777933 0.0952214 0.0631039 0.0266968 0.0212877 0.00264297 0.00148895 0.000704256 0.000534438 
913 0.0198639 0.570055 0.0985765 0.226623 0.0427559 0.0275851 0.00437477 0.00774554 0 0.00241985 
914 0.0232255 0.681911 0.115107 0.0958954 0.0495979 0.0172624 0.00511511 0.00905633 0 0.00282937 
915 0.0974975 0.316334 0.238995 0.280196 0.0613335 0.00401879 0.00112086 0.000504464 0 0 
916 0.0504107 0.547627 0.211926 0.120444 0.036899 0.0162754 0.00800079 0.00455506 0.00218276 0.00167915 
917 0.152946 0.497787 0.289851 0.0476956 0.00866809 0.00132622 0.00144067 9.96408e-05 9.30931e-05 9.23398e-05 
918 0.0717432 0.492329 0.259335 0.134459 0.0296226 0.00818571 0.00159229 0.00166543 0.000561649 0.000505924 
919 0.0931149 0.691619 0.171366 0.0348229 0.00671352 0.00102717 0.00111582 7.71728e-05 7.21015e-05 7.15181e-05 
920 0.0218791 0.685881 0.1228 0.0904402 0.0467226 0.0162616 0.00481858 0.00853132 0 0.00266535 
921 0.0228736 0.656463 0.143631 0.0944424 0.0488464 0.0170008 0.00503761 0.00891911 0 0.0027865 
922 0.0568696 0.472677 0.318164 0.108043 0.0343289 0.00648867 0.00126218 0.00132016 0.00044521 0.000401037 
923 0.111759 0.531265 0.290143 0.053014 0.0102206 0.00156376 0.0016987 0.000117487 0.000109766 0.000108878 
924 0.159912 0.530756 0.212282 0.077066 0.0146627 0.00439311 0.000157724 0.000506119 0 0.000264915 
925 0.079939 0.614068 0.246796 0.0490776 0.00755466 0.00111459 0.00121078 8.37407e-05 7.82378e-05 7.76048e-05 
926 0.193764 0.617786 0.0583005 0.124044 0.00563276 0.000172898 0.00030074 0 0 0 
927 0.0717432 0.48264 0.268992 0.134491 0.0296226 0.00818571 0.00159229 0.00166543 0.000561649 0.000505924 
928 0.0709479 0.38842 0.396244 0.051839 0.0604874 0.024106 0.00590996 0.00171852 0.000101671 0.000225189 
929 0.0575717 0.584589 0.216129 0.107899 0.0237712 0.00656878 0.00127777 0.00133646 0.000450706 0.000405988 
930 0.0666187 0.533587 0.235816 0.124855 0.0275067 0.00760102 0.00147856 0.00154647 0.000521532 0.000469786 
931 0.0101712 0.796975 0.0919226 0.05469 0.0231372 0.0184494 0.00229058 0.00129042 0.000610355 0.00046318 
932 0.0575401 0.522403 0.247711 0.111218 0.0324113 0.014296 0.00702772 0.00400106 0.00191729 0.00147493 
933 0.121497 0.398451 0.26232 0.193029 0.0176703 0.00500803 0.00139677 0.000628639 0 0 
934 0.0272813 0.518336 0.125612 0.153143 0.0300889 0.0303757 0.110417 0.00038397 0 0.00436179 
935 0.0908929 0.553135 0.248657 0.0852421 0.0161946 0.00485209 0.000174203 0.000558997 0 0.000292592 
936 0.0474883 0.516521 0.24245 0.127967 0.0347766 0.0153319 0.00753698 0.004291 0.00205623 0.00158181 
937 0.0425545 0.56796 0.216475 0.114264 0.0311485 0.013739 0.00675392 0.00384518 0.00184259 0.00141747 
938 0.0658802 0.394403 0.405641 0.0481378 0.0561669 0.0223841 0.00548782 0.00159577 9.4409e-05 0.000209104 
939 0.116137 0.376858 0.298878 0.184513 0.0168907 0.00478708 0.00133514 0.000600905 0 0 
940 0.0496469 0.53902 0.224169 0.118626 0.0363399 0.0160288 0.00787957 0.00448604 0.00214969 0.00165371 
941 0.0504107 0.547313 0.206969 0.125716 0.036899 0.0162754 0.00800079 0.00455506 0.00218276 0.00167915 
942 0.0089323 0.734735 0.158023 0.0532695 0.0225362 0.0179702 0.00223108 0.0012569 0.000594502 0.000451149 
943 0.115198 0.53753 0.278382 0.0546452 0.0105351 0.00161187 0.00175097 0.000121102 0.000113144 0.000112228 
944 0 0.808372 0.101443 0.0319151 0.0336377 0.0123497 0.0122823 0 0 0 
945 0.0504107 0.547313 0.196881 0.135801 0.0369008 0.0162754 0.00800079 0.00455506 0.00218276 0.00167915 
946 0.0496469 0.555505 0.207691 0.118619 0.0363399 0.0160288 0.00787957 0.00448604 0.00214969 0.00165371 
947 0.133832 0.412791 0.230904 0.20017 0.0159523 0.00452113 0.00126097 0.000567522 0 0 
948 0.121497 0.394201 0.252271 0.204401 0.0205962 0.00500802 0.00139676 0.000628639 0 0 
949 0.0182246 0.58914 0.180747 0.0616551 0.0341595 0.0443078 0.0590218 0.011086 0.00165829 0 
950 0.115198 0.532163 0.269131 0.0692643 0.0105351 0.00161187 0.00175097 0.000121102 0.000113144 0.000112228 
951 0.0604386 0.36524 0.453984 0.0432139 0.0504062 0.0200883 0.00492497 0.0014321 8.47261e-05 0.000187657 
952 0.13486 0.424125 0.241682 0.176717 0.016177 0.00458481 0.00127873 0.000575515 0 0 
953 0.0504107 0.547313 0.212169 0.120515 0.036899 0.0162754 0.00800079 0.00455506 0.00218276 0.00167915 
954 0.0179526 0.595272 0.178049 0.0607349 0.0336496 0.0436465 0.0581409 0.0109205 0.00163354 0 
955 0.0264905 0.532301 0.121968 0.148704 0.0292168 0.0294952 0.107217 0.00037284 0 0.00423536 
956 0.0272813 0.533262 0.110687 0.153143 0.0300889 0.0303757 0.110417 0.00038397 0 0.00436179 
957 0.132795 0.382434 0.243687 0.187367 0.028092 0.0236605 0.00135507 0.000609874 0 0 
958 0.0276946 0.52619 0.112364 0.155463 0.0305448 0.0308359 0.11209 0.000389788 0 0.00442788 
959 0.0671299 0.380521 0.397726 0.0686836 0.0561683 0.0223841 0.00548782 0.00159577 9.4409e-05 0.000209104 
960 0.0678179 0.412389 0.381775 0.049552 0.0578189 0.0230425 0.00564923 0.0016427 9.71858e-05 0.000215254 
961 0.115198 0.532426 0.283451 0.0546813 0.0105351 0.00161187 0.00175097 0.000121102 0.000113144 0.000112228 
962 0.0962275 0.411892 0.3537 0.122888 0.0109387 0.00310021 0.000864664 0.000389158 0 0 
963 0.11787 0.398797 0.271687 0.18768 0.0171428 0.00485853 0.00135507 0.000609874 0 0 
964 0.104734 0.426031 0.292281 0.156881 0.0143571 0.00406902 0.00113487 0.000510769 0 0 
965 0.0100766 0.783959 0.0929823 0.0612202 0.0258999 0.0206523 0.00256408 0.0014445 0.000683233 0.000518485 
966 0.018505 0.581046 0.185301 0.0626037 0.034685 0.0449894 0.0599298 0.0112565 0.0016838 0 
967 0.0709479 0.382396 0.402268 0.051839 0.0604874 0.024106 0.00590996 0.00171852 0.000101671 0.000225189 
968 0.0717432 0.482328 0.257133 0.146659 0.0296261 0.00818571 0.00159229 0.00166543 0.000561649 0.000505924 
969 0.0150724 0.751268 0.0879412 0.0900441 0.032874 0.0182066 0.00226044 0.00127344 0.000602324 0.000457085 
970 0.0324987 0.579886 0.17889 0.0607349 0.0336496 0.0436465 0.0581409 0.0109205 0.00163354 0 
971 0.118631 0.436763 0.255904 0.167292 0.0153142 0.00434029 0.00121053 0.000544821 0 0 
972 0.10852 0.56897 0.257614 0.0514773 0.00992434 0.00151843 0.00164947 0.000114082 0.000106585 0.000105722 
973 0.0105167 0.743041 0.091029 0.0757857 0.0541457 0.0203486 0.00252637 0.00142326 0.000673185 0.00051086 
974 0.0613593 0.555206 0.2324 0.114999 0.0253351 0.00700094 0.00136183 0.00142438 0.000480358 0.000432698 
975 0.0661831 0.372772 0.419109 0.0585616 0.0548265 0.0214642 0.0052623 0.00153019 9.05292e-05 0.000200511 
976 0.0709479 0.382396 0.386883 0.0530403 0.0746707 0.024106 0.00590996 0.00171852 0.000101671 0.000225189 
977 0.102573 0.583415 0.252672 0.0486566 0.00938054 0.00143523 0.00155909 0.00010783 0.000100745 9.99294e-05 
978 0.0638809 0.430339 0.348534 0.11973 0.0263763 0.00728865 0.00141779 0.00148292 0.000500099 0.00045048 
979 0.0103867 0.763086 0.110068 0.0631039 0.0266968 0.0212877 0.00264297 0.00148895 0.000704256 0.000534438 
980 0.0698729 0.391754 0.381021 0.066205 0.059571 0.0237407 0.00582042 0.00169248 0.000100131 0.000221777 
981 0.0756348 0.3494 0.438746 0.126816 0.00696766 0.0010583 0.00114963 7.95114e-05 7.42864e-05 7.36853e-05 
982 0.0706562 0.47502 0.265256 0.147573 0.0291737 0.00806168 0.00156817 0.0016402 0.00055314 0.000498258 
983 0.0706562 0.490171 0.265223 0.132454 0.0291737 0.00806169 0.00156817 0.0016402 0.00055314 0.000498258 
984 0.115321 0.570329 0.206359 0.0761066 0.0241072 0.00687354 0.000153574 0.0004928 0 0.000257943 
985 0.0717432 0.497564 0.254101 0.134459 0.0296226 0.00818571 0.00159229 0.00166543 0.000561649 0.000505924 
986 0.102562 0.345754 0.212317 0.306299 0.0271309 0.00422755 0.00117909 0.00053067 0 0 
987 0.0504107 0.562431 0.197122 0.120444 0.036899 0.0162754 0.00800079 0.00455506 0.00218276 0.00167915 
988 0.0717432 0.497672 0.253992 0.134459 0.0296226 0.00818571 0.00159229 0.00166543 0.000561649 0.000505924 
989 0.0504107 0.560552 0.199001 0.120444 0.036899 0.0162754 0.00800079 0.00455506 0.00218276 0.00167915 
990 0.225886 0.590036 0.0664082 0.112149 0.00509264 0.000156319 0.000271902 0 0 0 
991 0.113493 0.550298 0.268363 0.0538172 0.0103754 0.00158745 0.00172444 0.000119267 0.00011143 0.000110528 
992 0 0.821051 0.0887644 0.0319151 0.0336377 0.0123497 0.0122823 0 0 0 
993 0.0281207 0.503516 0.115158 0.172174 0.0310147 0.0313103 0.113814 0.000395784 0 0.004496 
