2 0 0.999593 0.000307904 9.92057e-05 0 0 0 0 0 0 
3 0.10192 0.843267 0.0341163 0.0133131 0 0.00738343 0 0 0 0 
4 0.994479 0.003092 0.00227602 0.000139229 1.14347e-05 1.907e-06 0 0 0 0 
5 0.172271 0.594715 0.126702 0.0692052 0.0289095 0.00442914 0.00365145 8.87775e-05 2.7157e-05 0 
6 0.9981 0.00178079 0.000109314 8.26369e-06 1.48534e-06 0 0 0 0 0 
7 0.0489864 0.897895 0.0524648 0.000327137 0.000327088 0 0 0 0 0 
8 0.924983 0.0532034 0.0107241 0.00723006 0.00215219 0.00113031 0.000286386 0.000222376 6.83169e-05 0 
9 0.0527165 0.941575 0.00354347 0.00123057 0.0007924 0.000142276 0 0 0 0 
10 0.994815 0.00437758 0.000634999 0.000168159 4.34434e-06 0 0 0 0 0 
11 0.929091 0.0672994 0.00177334 0.00119699 0.000356312 0.000187131 4.74134e-05 3.68161e-05 1.13104e-05 0 
12 0.28458 0.702774 0.00784946 0.00272594 0.00175532 0.000315169 0 0 0 0 
13 0.108524 0.891146 0.000138133 0.000162901 2.92803e-05 0 0 0 0 0 
14 0.096886 0.895489 0.00731266 0.000187452 0 0.00012507 0 0 0 0 
15 0.388959 0.608446 0.00161071 0.000559348 0.000360182 6.4671e-05 0 0 0 0 
16 0.0243042 0.973741 0.00121358 0.000421426 0.00027137 4.87247e-05 0 0 0 0 
17 0.988527 0.0101102 0.00100625 0.00035036 5.84815e-06 0 0 0 0 0 
18 0.980275 0.0143969 0.00261793 0.00176708 0.000526011 0.000276255 6.99946e-05 5.43503e-05 1.66971e-05 0 
19 0.872571 0.0948726 0.0159955 0.0107969 0.00321394 0.00168792 0.000427669 0.000332082 0.00010202 0 
20 0.597214 0.304814 0.0907856 0.00652028 0.000571464 9.53052e-05 0 0 0 0 
21 0.133257 0.863806 0.00249336 0.000265876 0 0.000177395 0 0 0 0 
22 0.951231 0.0337661 0.0073712 0.00497552 0.00148108 0.000777845 0.000197082 0.000153033 4.70138e-05 0 
23 0.117919 0.879662 0.00205336 0.000218957 0 0.00014609 0 0 0 0 
24 0.979809 0.0132066 0.00263016 0.00233213 0.0016033 0.000277012 7.01863e-05 5.44992e-05 1.67429e-05 0 
25 0.929063 0.0484302 0.0208562 0.0014979 0.000131282 2.18944e-05 0 0 0 0 
26 0.0641232 0.918939 0.0154736 0.00114105 0.000322728 0 0 0 0 0 
27 0.0107146 0.985169 0.00401205 5.23125e-05 5.23046e-05 0 0 0 0 0 
28 0.964814 0.0184676 0.0106398 0.00254256 0.00353588 0 0 0 0 0 
29 0.000776418 0.967816 0.0306786 0.000728667 0 0 0 0 0 0 
30 0.130841 0.760894 0.0813649 0.0266261 0 0.000274112 0 0 0 0 
31 0.138893 0.761564 0.0709876 0.0282646 0 0.00029098 0 0 0 0 
32 0.346267 0.626732 0.0167596 0.00582024 0.00374784 0.000672928 0 0 0 0 
33 0.214885 0.781003 0.0034907 0.000372226 0 0.000248353 0 0 0 0 
34 0.0913268 0.88455 0.0220381 0.00162513 0.000459644 0 0 0 0 0 
35 0.261338 0.737448 0.00103101 0.00010994 0 7.33533e-05 0 0 0 0 
36 0.110663 0.887071 0.00192401 0.000205164 0 0.000136888 0 0 0 0 
37 0.105687 0.870289 0.0215615 0.00197461 0.000487963 0 0 0 0 0 
38 0.0599522 0.912094 0.019243 0.00844188 0.000269097 0 0 0 0 0 
39 0.0615058 0.922248 0.014842 0.00109447 0.000309556 0 0 0 0 0 
40 0.0927318 0.882774 0.0223772 0.00165013 0.000466715 0 0 0 0 0 
41 0.046984 0.928316 0.0240723 0.000313875 0.000313827 0 0 0 0 0 
42 0.395977 0.579001 0.012331 0.00901144 0.00205145 0.0010774 0.00027298 0.000211967 6.51191e-05 0 
43 1.16981e-06 0.900566 0.0947205 0.00313035 0 0.00158193 0 0 0 0 
44 0.0927318 0.86739 0.0377616 0.00165013 0.000466715 0 0 0 0 0 
45 0.249702 0.646442 0.0812207 0.0224049 0 0.000230655 0 0 0 0 
46 0.127963 0.83468 0.0247504 0.0121191 0.000487963 0 0 0 0 0 
47 0.121418 0.847751 0.0295076 0.00103133 0.000291697 0 0 0 0 0 
48 0.184143 0.813419 0.00207076 0.000220812 0 0.000147328 0 0 0 0 
49 0.289132 0.155156 0.552063 0.00331148 0.000289133 4.82199e-05 0 0 0 0 
50 0.0463552 0.953552 4.13111e-05 4.38949e-05 7.88978e-06 0 0 0 0 0 
51 0.0838608 0.894626 0.0105699 0.0071345 0.00212375 0.00111537 0.000282601 0.000219437 6.7414e-05 0 
52 0.0959537 0.902213 0.00155637 0.000165961 0 0.000110731 0 0 0 0 
53 0.131466 0.853533 0.00934513 0.00321416 0.0020697 0.000371617 0 0 0 0 
54 0.266877 0.70285 0.0187911 0.00652572 0.00420212 0.000754495 0 0 0 0 
55 0.0993146 0.886718 0.0125358 0.00114803 0.000283699 0 0 0 0 0 
56 0.384015 0.0880966 0.523026 0.00441219 0.000385511 6.42932e-05 0 0 0 0 
57 0.0666158 0.919938 0.012068 0.00110519 0.000273114 0 0 0 0 0 
58 0.146674 0.850092 0.0027455 0.000292762 0 0.000195334 0 0 0 0 
59 0.0858379 0.913997 6.92305e-05 8.17266e-05 1.46897e-05 0 0 0 0 0 
60 0.200831 0.794742 0.00375922 0.000400859 0 0.000267457 0 0 0 0 
61 0.118564 0.881116 0.000134895 0.000156809 2.81853e-05 0 0 0 0 0 
62 0.0526788 0.919628 0.0269899 0.000351921 0.000351867 0 0 0 0 0 
63 0.0988845 0.876993 0.0220381 0.00162513 0.000459644 0 0 0 0 0 
64 0.173274 0.826104 0.000257998 0.000308108 5.538e-05 0 0 0 0 0 
65 0.263753 0.73012 0.00554931 0.00048957 8.79896e-05 0 0 0 0 0 
66 0.228583 0.739127 0.0299402 0.00213163 0.000186825 3.11575e-05 0 0 0 0 
67 0.0788851 0.920816 0.000189661 9.26394e-05 1.66512e-05 0 0 0 0 0 
68 0.172418 0.773508 0.0298392 0.0158003 0.00470333 0.00247013 0.000625857 0.000485973 0.000149297 0 
69 0.0967796 0.892242 0.00681436 0.00236647 0.00152385 0.000273608 0 0 0 0 
70 0.0208897 0.975874 0.0029564 0.000218005 6.16595e-05 0 0 0 0 0 
71 0.291564 0.696411 0.0116413 0.000230583 0 0.000153847 0 0 0 0 
72 0.163208 0.827288 0.00890576 0.000479449 0.000118438 0 0 0 0 0 
73 0.0457474 0.930203 0.0234387 0.000305615 0.000305569 0 0 0 0 0 
74 0.0543133 0.922321 0.0221262 0.000966291 0.000273302 0 0 0 0 0 
75 0.219698 0.760903 0.0120409 0.00418153 0.00269262 0.000483463 0 0 0 0 
76 0.198535 0.797628 0.00325799 0.000347411 0 0.000231796 0 0 0 0 
77 0.134216 0.851409 0.0089224 0.00309855 0.00199525 0.000358249 0 0 0 0 
78 0.101275 0.854207 0.0423705 0.00172205 0.000425549 0 0 0 0 0 
79 0.573002 0.407885 0.00939071 0.00633868 0.00188685 0.000990953 0.000251078 0.00019496 5.98942e-05 0 
80 0.224698 0.770446 0.000335025 0.00445032 7.04632e-05 0 0 0 0 0 
81 0.101838 0.875088 0.0210799 0.00155447 0.000439659 0 0 0 0 0 
82 0.804268 0.153623 0.0206941 0.0139615 0.00415596 0.00218266 0.00055302 0.000429416 0.000131922 0 
83 0.845304 0.0972633 0.0532198 0.00382224 0.000334996 5.58686e-05 0 0 0 0 
84 0.209768 0.785936 0.003647 0.000388893 0 0.000259474 0 0 0 0 
85 0.126605 0.840061 0.0163776 0.0110548 0.00329072 0.00172825 0.000437886 0.000340016 0.000104457 0 
86 0.108582 0.866735 0.0221523 0.00202871 0.000501332 0 0 0 0 0 
87 0.0390652 0.940398 0.020015 0.000260975 0.000260935 0 0 0 0 0 
88 0.410821 0.508768 0.0665241 0.0048072 0.00901003 6.98357e-05 0 0 0 0 
89 0.33286 0.654099 0.00641696 0.00431875 0.00128558 0.00067517 0.000171067 0.000132833 4.08079e-05 0 
90 0.00124227 0.936351 0.0612411 0.00116587 0 0 0 0 0 0 
91 0.0509917 0.948272 0.00062497 6.6639e-05 0 4.44622e-05 0 0 0 0 
92 0.187623 0.80978 0.00220521 0.000234737 0 0.000156619 0 0 0 0 
93 0.0457474 0.930203 0.0234386 0.000305615 0.000305569 0 0 0 0 0 
94 0.874158 0.12545 0.00033259 3.54502e-05 0 2.36527e-05 0 0 0 0 
95 0.868526 0.128886 0.00160673 0.000557899 0.000359249 6.45035e-05 0 0 0 0 
96 0.0372068 0.96233 0.000393483 4.19579e-05 0 2.79947e-05 0 0 0 0 
97 0.010762 0.824951 0.156536 0.00598264 0.00176858 0 0 0 0 0 
98 0.538022 0.110662 0.344186 0.00647183 0.000564819 9.4197e-05 0 0 0 0 
99 0.0440531 0.945842 0.00907866 0.000822756 0.000203318 0 0 0 0 0 
100 0.419853 0.0864165 0.488545 0.00470536 0.000411648 6.86521e-05 0 0 0 0 
101 0.108582 0.866735 0.0221523 0.00202871 0.000501332 0 0 0 0 0 
102 0.585694 0.119231 0.287342 0.00701586 0.000614866 0.000102544 0 0 0 0 
103 0.107115 0.868536 0.0218529 0.0020013 0.000494557 0 0 0 0 0 
104 7.21564e-07 0.938667 0.0584258 0.00193087 0 0.00097577 0 0 0 0 
105 0.0978583 0.879897 0.0199644 0.00182835 0.000451817 0 0 0 0 0 
106 0.192114 0.803654 0.00359337 0.000383174 0 0.000255658 0 0 0 0 
107 0.155225 0.749616 0.0678626 0.0270177 0 0.000278143 0 0 0 0 
108 0.477751 0.511331 0.00677713 0.00235354 0.00151552 0.000272113 0 0 0 0 
109 0.197788 0.797852 0.00370226 0.000394786 0 0.000263405 0 0 0 0 
110 0.0927318 0.882774 0.0223772 0.00165013 0.000466715 0 0 0 0 0 
111 0.101687 0.882508 0.0141852 0.00129909 0.000321028 0 0 0 0 0 
112 0.477009 0.0970897 0.419574 0.00574343 0.000500767 8.35149e-05 0 0 0 0 
113 0.203835 0.742502 0.0263662 0.0177971 0.0052977 0.00278229 0.000704948 0.000547388 0.000168165 0 
114 0.0532338 0.893061 0.0409296 0.0072925 0.00548356 0 0 0 0 0 
115 0.00124227 0.948506 0.0490857 0.00116587 0 0 0 0 0 0 
116 0.138893 0.761564 0.0709877 0.0282646 0 0.00029098 0 0 0 0 
117 0.1901 0.808027 0.00161709 0.00015327 0 0.000102263 0 0 0 0 
118 0.519446 0.103461 0.37038 0.00609039 0.000533785 8.90214e-05 0 0 0 0 
119 0.270983 0.698278 0.0190802 0.00662612 0.00426677 0.000766102 0 0 0 0 
120 0.010762 0.936062 0.0454248 0.00598245 0.00176858 0 0 0 0 0 
121 0.292461 0.626149 0.0399888 0.0269922 0.00803485 0.00421981 0.00106917 0.000830204 0.00025505 0 
122 0.166171 0.832063 0.0014991 0.000159852 0 0.000106655 0 0 0 0 
123 0.200831 0.779433 0.0190676 0.000400859 0 0.000267457 0 0 0 0 
124 0.0753446 0.904754 0.0181814 0.00134073 0.000379206 0 0 0 0 0 
125 0.00124227 0.948506 0.0490857 0.00116587 0 0 0 0 0 0 
126 0.00124227 0.948506 0.0490857 0.00116587 0 0 0 0 0 0 
127 0.194836 0.789805 0.0147111 0.000388893 0 0.000259474 0 0 0 0 
128 0.0927318 0.882774 0.0223772 0.00165013 0.000466715 0 0 0 0 0 
129 0.0837163 0.894171 0.0202016 0.0014897 0.00042134 0 0 0 0 0 
130 0.464115 0.0907549 0.435545 0.00904003 0.000467062 7.78937e-05 0 0 0 0 
131 0.00120519 0.950043 0.0476204 0.00113107 0 0 0 0 0 0 
132 0.115929 0.86067 0.0210015 0.00192333 0.000475288 0 0 0 0 0 
133 0.197788 0.782696 0.018858 0.000394786 0 0.000263405 0 0 0 0 
134 0.0534892 0.903027 0.0427697 0.000357335 0.00035728 0 0 0 0 0 
135 0.120099 0.852601 0.0245018 0.00224388 0.000554503 0 0 0 0 0 
136 0.600907 0.122202 0.267688 0.00846737 0.000630836 0.000105207 0 0 0 0 
137 0.788269 0.209726 0.000832504 0.000994203 0.0001787 0 0 0 0 0 
138 0.138893 0.746179 0.0863721 0.0282646 0 0.00029098 0 0 0 0 
139 0.122012 0.790552 0.062354 0.024827 0 0.000255591 0 0 0 0 
140 0.270983 0.698278 0.0190802 0.00662612 0.00426677 0.000766102 0 0 0 0 
141 0.00124227 0.948506 0.0490857 0.00116587 0 0 0 0 0 0 
142 0 0.97953 0.0192308 0.00123931 0 0 0 0 0 0 
143 0.0115651 0.931291 0.0488147 0.0064289 0.00190056 0 0 0 0 0 
144 0.278174 0.141702 0.576465 0.00331915 0.000290865 4.85086e-05 0 0 0 0 
145 0.307539 0.673612 0.0117003 0.00406319 0.00261642 0.00046978 0 0 0 0 
146 0.172174 0.816277 0.00716899 0.00248958 0.00160312 0.000287842 0 0 0 0 
147 0.255274 0.715769 0.0179741 0.006242 0.00401942 0.000721691 0 0 0 0 
148 0.197788 0.797852 0.00370226 0.000394786 0 0.000263405 0 0 0 0 
149 0.262894 0.707285 0.0185106 0.00642833 0.0041394 0.000743234 0 0 0 0 
150 0.121946 0.850333 0.0248787 0.0022784 0.000563034 0 0 0 0 0 
151 1.18781e-06 0.899036 0.0961778 0.0031785 0 0.00160627 0 0 0 0 
152 0.0534892 0.918391 0.0274051 0.000357335 0.00035728 0 0 0 0 0 
153 0.191998 0.80377 0.00359337 0.000383174 0 0.000255658 0 0 0 0 
154 0.197788 0.797852 0.00370226 0.000394786 0 0.000263405 0 0 0 0 
155 0.0848954 0.794089 0.119078 0.00151068 0.000427274 0 0 0 0 0 
156 0.136788 0.765177 0.069912 0.0278364 0 0.000286571 0 0 0 0 
157 0.179472 0.817013 0.00302112 0.000296089 0 0.000197554 0 0 0 0 
158 0.132765 0.772083 0.0678558 0.0270177 0 0.000278143 0 0 0 0 
159 0.393708 0.266034 0.282074 0.0383092 0.0110825 0.00582043 0.00147472 0.00114511 0.000351793 0 
160 0.16524 0.831117 0.00309303 0.000329821 0 0.00022006 0 0 0 0 
161 0.070088 0.911399 0.016913 0.00124719 0.00035275 0 0 0 0 0 
162 0.137421 0.851521 0.0101027 0.000744849 0.00021067 0 0 0 0 0 
163 0.121946 0.850333 0.0248787 0.0022784 0.000563034 0 0 0 0 0 
164 0.121946 0.850333 0.0248787 0.0022784 0.000563034 0 0 0 0 0 
165 0.486016 0.512139 0.00156634 0.000167025 0 0.000111441 0 0 0 0 
166 0.0449493 0.947281 0.00697395 0.000638345 0.000157747 0 0 0 0 0 
167 0.19377 0.729294 0.0565396 0.0201893 0 0.000207843 0 0 0 0 
168 0.476716 0.509634 0.0122509 0.00112194 0.000277252 0 0 0 0 0 
169 0.0596789 0.924558 0.0144011 0.00106196 0.000300361 0 0 0 0 0 
170 0.00124227 0.948506 0.0490857 0.00116587 0 0 0 0 0 0 
171 0.13868 0.828742 0.0304303 0.00172205 0.000425549 0 0 0 0 0 
172 0.138893 0.761564 0.0709876 0.0282646 0 0.00029098 0 0 0 0 
173 0.317112 0.456193 0.0210517 0.205534 0.000109019 0 0 0 0 0 
174 0.165242 0.831115 0.00309303 0.000329821 0 0.00022006 0 0 0 0 
175 0.122062 0.850218 0.0248787 0.0022784 0.000563034 0 0 0 0 0 
176 0.455405 0.229349 0.258789 0.0368076 0.0109566 0.00575429 0.00145796 0.0011321 0.000347795 0 
177 0.56427 0.152192 0.275865 0.00698201 0.000592371 9.8792e-05 0 0 0 0 
178 0.282029 0.687698 0.0187911 0.00652572 0.00420212 0.000754495 0 0 0 0 
179 0.282029 0.687698 0.0187911 0.00652572 0.00420212 0.000754495 0 0 0 0 
180 0 0.859709 0.116639 0.0230644 0.000587668 0 0 0 0 0 
181 0.0899637 0.885785 0.0221975 0.00160087 0.000452783 0 0 0 0 0 
182 0.262941 0.707238 0.0185106 0.00642833 0.0041394 0.000743234 0 0 0 0 
183 0.0126852 0.935576 0.0441971 0.00582076 0.00172078 0 0 0 0 0 
184 9.77309e-07 0.916929 0.0791336 0.00261523 0 0.00132161 0 0 0 0 
185 0.238025 0.734974 0.0167596 0.00582024 0.00374784 0.000672928 0 0 0 0 
186 0.544351 0.1108 0.290522 0.0536598 0.000571464 9.53052e-05 0 0 0 0 
187 0.697071 0.284545 0.0170351 0.00122345 0.000107228 1.78829e-05 0 0 0 0 
188 0.110371 0.858616 0.0289836 0.00162743 0.000402167 0 0 0 0 0 
189 0.0539461 0.911986 0.0335079 0.00027984 0.000279798 0 0 0 0 0 
190 0.262863 0.707754 0.0182384 0.00633379 0.00407853 0.000732304 0 0 0 0 
191 0.104889 0.871348 0.0217092 0.00160087 0.000452783 0 0 0 0 0 
192 0.197788 0.797852 0.00370226 0.000394786 0 0.000263405 0 0 0 0 
193 0.625268 0.127183 0.239287 0.00749494 0.000656411 0.000109472 0 0 0 0 
194 0.513496 0.100554 0.379439 0.00590821 0.000516749 8.61802e-05 0 0 0 0 
195 0.854368 0.128384 0.00896747 0.00539844 0.00160697 0.000843962 0.000213834 0.000166041 5.10099e-05 0 
196 1.16981e-06 0.900555 0.094731 0.00313034 0 0.00158193 0 0 0 0 
197 0.362227 0.565073 0.0518449 0.0206427 0 0.000212514 0 0 0 0 
198 0.460747 0.407269 0.0648466 0.0437711 0.0130295 0.00684293 0.00173379 0.00134628 0.000413594 0 
199 0.448964 0.134212 0.41104 0.00524959 0.000458249 7.6424e-05 0 0 0 0 
200 0.197154 0.798793 0.00344154 0.000366984 0 0.000244855 0 0 0 0 
201 0.0825695 0.895621 0.0199249 0.00146929 0.000415568 0 0 0 0 0 
202 1.1354e-06 0.903491 0.0919346 0.00303828 0 0.0015354 0 0 0 0 
203 0.011921 0.929177 0.0503167 0.00662672 0.00195904 0 0 0 0 0 
204 0.0792652 0.902717 0.0161712 0.00148096 0.000365972 0 0 0 0 0 
205 0.0524509 0.894633 0.0403277 0.00718526 0.00540292 0 0 0 0 0 
206 0.148169 0.826286 0.0236711 0.00170007 0.000149001 2.48495e-05 0 0 0 0 
207 0.0820731 0.859106 0.0419472 0.0167018 0 0.000171943 0 0 0 0 
208 0.0927318 0.882774 0.0223772 0.00165013 0.000466715 0 0 0 0 0 
209 0.13042 0.86673 0.0024193 0.000257979 0 0.000172126 0 0 0 0 
210 0.0692203 0.921196 0.00860168 0.000787745 0.000194666 0 0 0 0 0 
211 0.0803676 0.898404 0.0193935 0.00143011 0.000404486 0 0 0 0 0 
212 0.22945 0.758642 0.010881 0.000800435 0.000226392 0 0 0 0 0 
213 0.262894 0.707285 0.0185106 0.00642833 0.0041394 0.000743234 0 0 0 0 
214 0.221577 0.774534 0.00330202 0.000352106 0 0.000234929 0 0 0 0 
215 0.115522 0.881931 0.00216238 0.000230583 0 0.000153847 0 0 0 0 
216 0.010762 0.936062 0.0454248 0.00598245 0.00176858 0 0 0 0 0 
217 0.0511294 0.921991 0.0261961 0.00034157 0.000341518 0 0 0 0 0 
218 0.0692785 0.909002 0.0136532 0.00778253 0.000283699 0 0 0 0 0 
219 0.0248343 0.96211 0.0127238 0.000165905 0.00016588 0 0 0 0 0 
220 0.733661 0.142045 0.115176 0.008272 0.000724991 0.00012091 0 0 0 0 
221 0.508885 0.300565 0.0718133 0.0780403 0.0292791 0.00755787 0.00191493 0.00148693 0.000456805 0 
222 0.119782 0.846882 0.0163801 0.0110548 0.00329072 0.00172825 0.000437886 0.000340016 0.000104457 0 
223 0.212215 0.69146 0.0871944 0.00518913 0.00334145 0.00059996 0 0 0 0 
224 0.934473 0.0432606 0.0206331 0.00148188 0.000129878 2.16603e-05 0 0 0 0 
225 0.0507437 0.947779 0.00133434 8.5429e-05 0 5.69991e-05 0 0 0 0 
226 0.680439 0.139088 0.169435 0.0102053 0.00071433 0.000119132 0 0 0 0 
227 0.144695 0.45529 0.125825 0.274133 0 5.6969e-05 0 0 0 0 
228 0.41256 0.0806356 0.501582 0.00473761 0.000415166 6.92388e-05 0 0 0 0 
229 0.494135 0.306422 0.109499 0.0648841 0.0139736 0.0073388 0.00185943 0.00144383 0.000443565 0 
230 0.680439 0.138783 0.171794 0.00815035 0.00071433 0.000119132 0 0 0 0 
231 0.460747 0.272298 0.199127 0.0444615 0.0130295 0.00684293 0.00173379 0.00134628 0.000413594 0 
232 0.564269 0.139087 0.289189 0.00676457 0.000592371 9.8792e-05 0 0 0 0 
233 0.524543 0.309814 0.0738254 0.0499093 0.0300826 0.00784839 0.00197386 0.00153268 0.000470861 0 
234 0.108582 0.866735 0.0221523 0.00202871 0.000501332 0 0 0 0 0 
235 0.44994 0.424845 0.0615211 0.0415265 0.0123613 0.00649201 0.00164488 0.00127724 0.000392384 0 
236 0.451127 0.54257 0.00391253 0.00135867 0.00087489 0.000157087 0 0 0 0 
237 0.119598 0.871399 0.00822576 0.000605979 0.000171393 0 0 0 0 0 
238 0.0894776 0.887778 0.0207788 0.00153226 0.000433378 0 0 0 0 0 
239 0.189199 0.80663 0.00354129 0.000377621 0 0.000251953 0 0 0 0 
240 0.148245 0.82673 0.0224599 0.00205689 0.000508295 0 0 0 0 0 
241 0.283855 0.687602 0.0177173 0.00615283 0.003962 0.000711381 0 0 0 0 
242 0.24836 0.716375 0.0261346 0.00518913 0.00334145 0.00059996 0 0 0 0 
243 0.0112357 0.933277 0.0473998 0.00624256 0.00184547 0 0 0 0 0 
244 0.508885 0.300565 0.0717181 0.0930239 0.0143908 0.00755787 0.00191493 0.00148693 0.000456805 0 
245 0.279974 0.66947 0.0469197 0.00329895 0.000289133 4.82199e-05 0 0 0 0 
246 0.524543 0.309814 0.0742853 0.0647564 0.0148336 0.00779042 0.00197386 0.00153268 0.000470861 0 
247 0.508885 0.300565 0.0721124 0.0926296 0.0143908 0.00755787 0.00191493 0.00148693 0.000456805 0 
248 0.501401 0.296145 0.0711303 0.105874 0.0142003 0.00744672 0.00188677 0.00146507 0.000450088 0 
249 0.680439 0.138272 0.114647 0.0658087 0.000714329 0.000119132 0 0 0 0 
250 0.524543 0.309817 0.0852085 0.0538301 0.0148336 0.00779042 0.00197386 0.00153268 0.000470861 0 
251 0.50202 0.310804 0.114114 0.0476334 0.0141791 0.00744672 0.00188677 0.00146507 0.000450088 0 
252 0.508885 0.300728 0.101402 0.0631778 0.0143908 0.00755787 0.00191493 0.00148693 0.000456805 0 
253 0.660998 0.134321 0.113351 0.0905194 0.00069452 0.000115728 0 0 0 0 
254 0.473556 0.350172 0.0933854 0.0588714 0.0133914 0.00703302 0.00178195 0.00138367 0.000425083 0 
255 0.120099 0.822298 0.0548044 0.00224388 0.000554503 0 0 0 0 0 
256 0.524543 0.309814 0.0738254 0.0499686 0.0299445 0.00792727 0.00197386 0.00153268 0.000470861 0 
257 0.633834 0.128843 0.228955 0.00759212 0.000665403 0.000110972 0 0 0 0 
258 0.494135 0.292338 0.126911 0.0615568 0.0139736 0.0073388 0.00185943 0.00144383 0.000443564 0 
259 0.306842 0.649557 0.0404025 0.0029017 0.000254316 4.24133e-05 0 0 0 0 
260 0.680439 0.138418 0.172159 0.0081504 0.000714329 0.000119132 0 0 0 0 
261 0.651688 0.132445 0.207263 0.00780597 0.000684147 0.000114098 0 0 0 0 
262 0.488006 0.356319 0.0766203 0.0579677 0.0117583 0.00617533 0.00156464 0.00121493 0.000373243 0 
263 0.417865 0.463028 0.0585204 0.0395008 0.0117583 0.00617533 0.00156464 0.00121493 0.000373243 0 
264 0.136788 0.734874 0.100215 0.0278364 0 0.000286571 0 0 0 0 
265 0.501401 0.296145 0.0705791 0.106394 0.0142313 0.00744672 0.00188677 0.00146507 0.000450088 0 
266 0.571233 0.116123 0.305101 0.0068431 0.000599684 0.000100012 0 0 0 0 
267 0.410221 0.468908 0.0656697 0.0359896 0.0107131 0.00562641 0.00142556 0.00110694 0.000340066 0 
268 0.335929 0.663198 0.00074094 7.89571e-05 0 5.2681e-05 0 0 0 0 
269 0.270983 0.698278 0.0190802 0.00662612 0.00426677 0.000766102 0 0 0 0 
270 0.524543 0.309814 0.0738254 0.0500585 0.029979 0.00780284 0.00197386 0.00153268 0.000470861 0 
271 0.516595 0.305119 0.0728307 0.0642267 0.029638 0.00767238 0.00194395 0.00150946 0.000463727 0 
272 0.508915 0.313495 0.103437 0.0483451 0.0143908 0.00755787 0.00191493 0.00148693 0.000456805 0 
273 0.524543 0.309814 0.0738254 0.0500857 0.0299377 0.00781695 0.00197386 0.00153268 0.000470861 0 
274 0.690595 0.140335 0.116817 0.0514072 0.000725122 0.00012091 0 0 0 0 
275 0.616931 0.12542 0.227919 0.028974 0.000647659 0.000108013 0 0 0 0 
276 0.642637 0.13059 0.120018 0.105956 0.000687042 0.000112513 0 0 0 0 
277 0.550909 0.349213 0.0926062 0.00659791 0.000578267 9.64398e-05 0 0 0 0 
278 0.262894 0.707285 0.0185106 0.00642833 0.0041394 0.000743234 0 0 0 0 
279 0.491597 0.421656 0.0803831 0.00577317 0.000505983 8.43848e-05 0 0 0 0 
280 0.508885 0.305223 0.11174 0.0483442 0.0143908 0.00755787 0.00191493 0.00148693 0.000456805 0 
281 0.121946 0.850333 0.0248787 0.0022784 0.000563034 0 0 0 0 0 
282 0.270983 0.698278 0.0190802 0.00662612 0.00426677 0.000766102 0 0 0 0 
283 0.0939477 0.881558 0.0223772 0.00165013 0.000466715 0 0 0 0 0 
284 0.0913268 0.88455 0.0220381 0.00162513 0.000459644 0 0 0 0 0 
285 0.0534892 0.903006 0.0274051 0.0157419 0.00035728 0 0 0 0 0 
286 0.0503023 0.943991 0.00521333 0.000384438 0.000108733 0 0 0 0 0 
287 1.11854e-06 0.913649 0.0822573 0.00271846 0 0.00137378 0 0 0 0 
288 0.0488473 0.950428 0.000615489 6.56317e-05 0 4.37902e-05 0 0 0 0 
289 0.861327 0.133702 0.0030851 0.00107139 0.000689899 0.000123872 0 0 0 0 
290 0.00117025 0.951491 0.0462401 0.00109828 0 0 0 0 0 0 
291 0.0252917 0.968988 0.00513382 0.000470146 0.000116182 0 0 0 0 0 
292 0.094218 0.888764 0.00836269 0.00564297 0.00167976 0.00088219 0.00022352 0.000173562 5.33205e-05 0 
293 0.0803676 0.898404 0.0193935 0.00143011 0.000404486 0 0 0 0 0 
294 0.011395 0.932301 0.0480969 0.00633436 0.00187261 0 0 0 0 0 
295 0.233776 0.761381 0.0043472 0.000398108 9.83795e-05 0 0 0 0 0 
296 0.289436 0.69831 0.0112278 0.000800435 0.000226392 0 0 0 0 0 
297 0.0534892 0.918391 0.0274051 0.000357335 0.00035728 0 0 0 0 0 
298 0.603786 0.258178 0.0615211 0.054347 0.0123613 0.00649201 0.00164488 0.00127724 0.000392384 0 
299 0.011921 0.913792 0.0503221 0.022006 0.00195904 0 0 0 0 0 
300 0.215536 0.751624 0.0245122 0.00473294 0.00304769 0.000547216 0 0 0 0 
301 0.125868 0.848755 0.0227763 0.00208586 0.000515454 0 0 0 0 0 
302 0.143617 0.832588 0.0177807 0.00341825 0.00220111 0.000395212 0 0 0 0 
303 0.104977 0.819787 0.0536534 0.0213628 0 0.000219927 0 0 0 0 
304 0.0550455 0.932442 0.01123 0.00102844 0.000254147 0 0 0 0 0 
305 0.586931 0.399477 0.00843683 0.00292992 0.00188667 0.000338753 0 0 0 0 
306 0.0230501 0.927227 0.0424752 0.00559398 0.00165374 0 0 0 0 0 
307 1.05764e-06 0.910101 0.0856377 0.00283017 0 0.00143024 0 0 0 0 
308 0.113639 0.867592 0.016845 0.00154267 0.000381221 0 0 0 0 0 
309 0.0648181 0.918062 0.01564 0.00115332 0.000326199 0 0 0 0 0 
310 0.0913268 0.88455 0.0220381 0.00162513 0.000459644 0 0 0 0 0 
311 0.025873 0.971657 0.00153356 0.000532382 0.000342818 6.15532e-05 0 0 0 0 
312 0.013726 0.285778 0.349345 0.207869 0.0706503 0.047852 0.0113403 0.0102807 0.00315842 2.05493e-07 
313 0.520942 0.459605 0.0191372 0.000158005 0.000157981 0 0 0 0 0 
314 0.145624 0.845952 0.00769607 0.000567504 0.00016051 0 0 0 0 0 
315 0.136788 0.76515 0.0699384 0.0278364 0 0.000286571 0 0 0 0 
316 0.607014 0.269332 0.060766 0.0410008 0.0122048 0.00640984 0.00162406 0.00126107 0.000387417 0 
317 0.38887 0.512476 0.0484712 0.0327178 0.00973921 0.00511492 0.00129597 0.00100631 0.000309151 0 
318 0.0927318 0.882774 0.0223772 0.00165013 0.000466715 0 0 0 0 0 
319 0.346722 0.53916 0.065883 0.0314472 0.00936099 0.00491628 0.00124564 0.000967228 0.000297145 0 
320 0.0627873 0.920628 0.0151512 0.00111727 0.000316005 0 0 0 0 0 
321 0.0756692 0.907333 0.0152558 0.00139713 0.000345257 0 0 0 0 0 
322 0.101622 0.875278 0.0207323 0.00189867 0.000469195 0 0 0 0 0 
323 1.16981e-06 0.900566 0.0947205 0.00313035 0 0.00158193 0 0 0 0 
324 0.136788 0.765177 0.069912 0.0278364 0 0.000286571 0 0 0 0 
325 0.259028 0.711589 0.0182384 0.00633379 0.00407853 0.000732304 0 0 0 0 
326 0.0571984 0.923161 0.0185987 0.000812563 0.000229822 0 0 0 0 0 
327 0.29875 0.672293 0.0179741 0.006242 0.00401942 0.000721691 0 0 0 0 
328 0.251627 0.71983 0.0177173 0.00615283 0.003962 0.000711381 0 0 0 0 
329 0.761265 0.165848 0.0358108 0.0241721 0.00719539 0.00377893 0.000957467 0.000743467 0.000228403 0 
330 0.0762984 0.903548 0.0184116 0.0013577 0.000384006 0 0 0 0 0 
331 0.0574054 0.566344 0.37494 0.00102151 0.000288919 0 0 0 0 0 
332 0.0301478 0.969457 0.000335195 3.57419e-05 0 2.38474e-05 0 0 0 0 
333 0.107133 0.855767 0.0346041 0.0020013 0.000494557 0 0 0 0 0 
334 0.220174 0.75485 0.0155034 0.00538372 0.00346675 0.000622458 0 0 0 0 
335 0.251627 0.71983 0.0177173 0.00615283 0.003962 0.000711381 0 0 0 0 
336 0.454252 0.427399 0.052888 0.0464595 0.0105957 0.00556458 0.0014099 0.00109478 0.000336329 0 
337 0.582651 0.29823 0.0585319 0.0395008 0.0117583 0.00617533 0.00156464 0.00121493 0.000373243 0 
338 0.269766 0.701276 0.0179741 0.006242 0.00401942 0.000721691 0 0 0 0 
339 0.053637 0.908077 0.0273029 0.010871 0 0.000111915 0 0 0 0 
340 0.00124227 0.948506 0.0490857 0.00116587 0 0 0 0 0 0 
341 0.113 0.885336 0.00141242 0.000150612 0 0.00010049 0 0 0 0 
342 0.101439 0.825861 0.0518449 0.0206427 0 0.000212514 0 0 0 0 
343 0.262279 0.723644 0.0126337 0.001157 0.000285916 0 0 0 0 0 
344 0.593353 0.398918 0.00706095 0.000520672 0.000147264 0 0 0 0 0 
345 0.111641 0.862981 0.0227763 0.00208586 0.000515454 0 0 0 0 0 
346 0.0110695 0.934235 0.0467227 0.00615338 0.00181911 0 0 0 0 0 
347 0.0110695 0.934235 0.0467227 0.00615338 0.00181911 0 0 0 0 0 
348 0.460747 0.407269 0.0648466 0.0437711 0.0130295 0.00684293 0.00173379 0.00134628 0.000413594 0 
349 0.13959 0.827599 0.01846 0.0139676 0.000384006 0 0 0 0 0 
350 0.191971 0.803797 0.00359337 0.000383174 0 0.000255658 0 0 0 0 
351 0.116566 0.856936 0.0237811 0.00217788 0.000538194 0 0 0 0 0 
352 0.0927318 0.882774 0.0223772 0.00165013 0.000466715 0 0 0 0 0 
353 0.487076 0.373398 0.0685521 0.0462723 0.013774 0.00723396 0.00183287 0.00142321 0.000437228 0 
354 0.0784804 0.90368 0.0160111 0.0014663 0.000362349 0 0 0 0 0 
355 0.102942 0.873658 0.0210015 0.00192333 0.000475288 0 0 0 0 0 
356 0.0836471 0.858952 0.0559233 0.00118478 0.000292778 0 0 0 0 0 
357 0.194762 0.787235 0.011176 0.00388016 0.00249856 0.000448619 0 0 0 0 
358 0.198961 0.779321 0.0134806 0.0046815 0.00301457 0.000541268 0 0 0 0 
359 0.104972 0.876515 0.016913 0.00124719 0.00035275 0 0 0 0 0 
360 0.496238 0.482455 0.015242 0.00600393 0 6.18095e-05 0 0 0 0 
361 0.00993413 0.846133 0.136779 0.00552226 0.00163253 0 0 0 0 0 
362 0.0410039 0.948166 0.00989467 0.000729649 0.000206371 0 0 0 0 0 
363 0.21459 0.76231 0.0207323 0.00189867 0.000469195 0 0 0 0 0 
364 0.165924 0.810051 0.0215615 0.00197461 0.000487963 0 0 0 0 0 
365 0.229865 0.750335 0.0177705 0.00162743 0.000402167 0 0 0 0 0 
366 0.258546 0.713704 0.0172252 0.00598191 0.00385195 0.00069162 0 0 0 0 
367 1.1354e-06 0.903491 0.0919346 0.00303828 0 0.0015354 0 0 0 0 
368 0.101622 0.875278 0.0207323 0.00189867 0.000469195 0 0 0 0 0 
369 0.100336 0.876857 0.0204698 0.00187463 0.000463256 0 0 0 0 0 
370 0.600907 0.124281 0.266878 0.00719773 0.000630836 0.000105207 0 0 0 0 
371 0.242955 0.753156 0.00330202 0.000352106 0 0.000234929 0 0 0 0 
372 0.214803 0.76083 0.0151246 0.00525241 0.0033822 0.000607276 0 0 0 0 
373 0.571684 0.393341 0.0249416 0.00993082 0 0.000102236 0 0 0 0 
374 0.0818947 0.901575 0.0148359 0.00135868 0.000335754 0 0 0 0 0 
375 0.524543 0.309814 0.0753468 0.0634568 0.0150717 0.00779042 0.00197386 0.00153268 0.000470861 0 
376 0.244637 0.643457 0.0738076 0.0174987 0.0199077 0.00069162 0 0 0 0 
377 0.0922556 0.877925 0.0282383 0.00123285 0.000348695 0 0 0 0 0 
378 0.616931 0.12562 0.249303 0.00738969 0.000647659 0.000108013 0 0 0 0 
379 0.0390652 0.940398 0.020015 0.000260975 0.000260935 0 0 0 0 0 
380 0.125389 0.784745 0.064086 0.0255167 0 0.00026269 0 0 0 0 
381 1.16981e-06 0.900566 0.0947205 0.00313035 0 0.00158193 0 0 0 0 
382 0.0913268 0.88455 0.0220381 0.00162513 0.000459644 0 0 0 0 0 
383 0.118306 0.854801 0.0241361 0.00221039 0.000546227 0 0 0 0 0 
384 0.0857021 0.894882 0.017738 0.00130803 0.000369957 0 0 0 0 0 
385 0.0814537 0.897031 0.0196556 0.00144944 0.000409952 0 0 0 0 0 
386 0.193852 0.78488 0.0190954 0.00174231 0.000430555 0 0 0 0 0 
387 0.211891 0.748383 0.030319 0.0053692 0.00403735 0 0 0 0 0 
388 0.0955004 0.882791 0.0194833 0.00178429 0.00044093 0 0 0 0 0 
389 0.0949799 0.903076 0.00165101 0.000176053 0 0.000117464 0 0 0 0 
390 0.450102 0.53043 0.0145268 0.0028167 0.00180091 0.000323355 0 0 0 0 
391 0.176538 0.819499 0.00337629 0.000352106 0 0.000234929 0 0 0 0 
392 0.328719 0.666117 0.00481407 0.000280487 6.93129e-05 0 0 0 0 0 
393 0.0820377 0.901241 0.0150265 0.00135868 0.000335754 0 0 0 0 0 
394 0.727827 0.147879 0.115176 0.008272 0.000724991 0.00012091 0 0 0 0 
395 0 0.834658 0.165342 0 0 0 0 0 0 0 
396 0.121946 0.850333 0.0248787 0.0022784 0.000563034 0 0 0 0 0 
397 0.0117403 0.93025 0.0495543 0.00652631 0.00192936 0 0 0 0 0 
398 0.524543 0.325196 0.0738278 0.0498318 0.0148336 0.00779042 0.00197386 0.00153268 0.000470861 0 
399 0.197788 0.797852 0.00370226 0.000394786 0 0.000263405 0 0 0 0 
400 0.0545052 0.910323 0.025084 0.00998479 0 0.000102792 0 0 0 0 
401 0.116632 0.880798 0.00218169 0.000232642 0 0.000155221 0 0 0 0 
402 0.0534892 0.918391 0.0274051 0.000357335 0.00035728 0 0 0 0 0 
403 0.138893 0.761564 0.0709876 0.0282646 0 0.00029098 0 0 0 0 
404 0.0592907 0.441782 0.488948 0.00987743 0 0.000101687 0 0 0 0 
405 0.0333657 0.920506 0.0394047 0.0051896 0.00153419 0 0 0 0 0 
406 0.0927318 0.882774 0.0223772 0.00165013 0.000466715 0 0 0 0 0 
407 0.193577 0.784466 0.0136287 0.00473294 0.00304769 0.000547216 0 0 0 0 
408 0.00124227 0.948506 0.0490857 0.00116587 0 0 0 0 0 0 
409 0.011921 0.929177 0.0503167 0.00662672 0.00195904 0 0 0 0 0 
410 0.0709127 0.910357 0.0171119 0.00126186 0.0003569 0 0 0 0 0 
411 0.0824372 0.917082 0.000408189 4.34264e-05 0 2.89745e-05 0 0 0 0 
412 0.228752 0.578809 0.182597 0.00559348 0.00360182 0.00064671 0 0 0 0 
413 0.0985394 0.875889 0.0125658 0.00847922 0.00252403 0.00132559 0.000335865 0.000260797 8.01203e-05 0 
414 0.0476274 0.927334 0.0244018 0.000318175 0.000318126 0 0 0 0 0 
415 0.189044 0.790568 0.0126552 0.00439488 0.00283 0.000508129 0 0 0 0 
416 0.0654206 0.887693 0.0334362 0.0133131 0 0.000137056 0 0 0 0 
417 0.0518925 0.920827 0.026587 0.000346668 0.000346615 0 0 0 0 0 
418 0.107477 0.803497 0.0669294 0.0218714 0 0.000225163 0 0 0 0 
419 0.125389 0.784596 0.0642351 0.0255167 0 0.00026269 0 0 0 0 
420 0.0463573 0.929272 0.0237511 0.00030969 0.000309643 0 0 0 0 0 
421 0.00122345 0.949286 0.048342 0.0011482 0 0 0 0 0 0 
422 0.121946 0.850333 0.0248787 0.0022784 0.000563034 0 0 0 0 0 
423 0.270983 0.683575 0.0337834 0.00662612 0.00426677 0.000766102 0 0 0 0 
424 0.081152 0.902409 0.0147598 0.00134633 0.000332702 0 0 0 0 0 
425 0.270983 0.698278 0.0190802 0.00662612 0.00426677 0.000766102 0 0 0 0 
426 0.121946 0.850333 0.0248787 0.0022784 0.000563034 0 0 0 0 0 
427 0.487076 0.287684 0.0687217 0.13175 0.0138406 0.00723396 0.00183287 0.00142321 0.000437228 0 
428 0.270983 0.698278 0.0190802 0.00662612 0.00426677 0.000766102 0 0 0 0 
429 0.841672 0.156543 0.000740856 0.00088475 0.000159027 0 0 0 0 0 
430 0.254189 0.7417 0.0034907 0.000372226 0 0.000248353 0 0 0 0 
431 0.011921 0.929177 0.0503167 0.00662672 0.00195904 0 0 0 0 0 
432 0.0511294 0.921991 0.0261961 0.00034157 0.000341518 0 0 0 0 0 
433 0.0110396 0.955967 0.032228 0.000765469 0 0 0 0 0 0 
434 0.224141 0.77053 0.00330799 0.00114853 0.000739574 0.000132791 0 0 0 0 
435 0.154508 0.827965 0.0108791 0.00377805 0.00243281 0.000436813 0 0 0 0 
436 0.121947 0.850333 0.0248787 0.0022784 0.000563034 0 0 0 0 0 
437 0.194836 0.785944 0.00364838 0.0153129 0 0.000259474 0 0 0 0 
438 0.121946 0.834949 0.040263 0.0022784 0.000563034 0 0 0 0 0 
439 0.270983 0.698278 0.0190802 0.00662612 0.00426677 0.000766102 0 0 0 0 
440 0.241288 0.731341 0.0169892 0.00589997 0.00379918 0.000682146 0 0 0 0 
441 0.259802 0.71553 0.0153113 0.00531726 0.00342395 0.000614774 0 0 0 0 
442 0.251233 0.733384 0.0140592 0.00103133 0.000291697 0 0 0 0 0 
443 0.255053 0.706618 0.0286129 0.00552177 0.00355564 0.000638419 0 0 0 0 
444 0.448868 0.544218 0.0042914 0.0014903 0.000959654 0.000172307 0 0 0 0 
445 0.145813 0.757615 0.0688685 0.0274209 0 0.000282294 0 0 0 0 
446 0.0429235 0.934511 0.0219918 0.00028675 0.000286707 0 0 0 0 0 
447 0.130841 0.775381 0.066878 0.0266261 0 0.000274112 0 0 0 0 
448 0.161526 0.834921 0.00301666 0.000321677 0 0.000214626 0 0 0 0 
449 0.175133 0.798239 0.0198615 0.00384552 0.00247625 0.000444613 0 0 0 0 
450 0.424726 0.573303 0.00167363 0.000178465 0 0.000119074 0 0 0 0 
451 0.110403 0.861876 0.0254412 0.00182835 0.000451817 0 0 0 0 0 
452 0.468556 0.479426 0.0231862 0.020478 0.00465824 0.00244627 0.00061981 0.000481278 0.000147855 0 
453 0.120099 0.843283 0.0338194 0.00224388 0.000554503 0 0 0 0 0 
454 0.00124227 0.948506 0.0490857 0.00116587 0 0 0 0 0 0 
455 0.266877 0.702849 0.0187913 0.00652572 0.00420212 0.000754495 0 0 0 0 
456 0.121209 0.876992 0.00152718 0.000162849 0 0.000108655 0 0 0 0 
457 0.0615176 0.920655 0.0164233 0.00109447 0.000309556 0 0 0 0 0 
458 0.17724 0.806382 0.0101657 0.00353031 0.00227328 0.000408169 0 0 0 0 
459 0.0873561 0.88957 0.0210799 0.00155447 0.000439659 0 0 0 0 0 
460 0.541897 0.377385 0.0396583 0.0267691 0.00796844 0.00418493 0.00106034 0.000823343 0.000252942 0 
461 0.258164 0.714466 0.0169892 0.00589997 0.00379918 0.000682146 0 0 0 0 
462 0.0871046 0.893095 0.0177705 0.00162743 0.000402167 0 0 0 0 0 
463 0.127155 0.753574 0.0931281 0.0258761 0 0.00026639 0 0 0 0 
464 0.239071 0.760068 0.000357314 0.000426715 7.66989e-05 0 0 0 0 0 
465 0.00944954 0.94386 0.0398852 0.00525288 0.0015529 0 0 0 0 0 
466 0.00124227 0.948506 0.0490857 0.00116587 0 0 0 0 0 0 
467 0.000984725 0.959182 0.0389094 0.000924163 0 0 0 0 0 0 
468 0.00685718 0.959261 0.0289432 0.00381183 0.00112688 0 0 0 0 0 
469 0.0873561 0.88957 0.0210799 0.00155447 0.000439659 0 0 0 0 0 
470 0.0534892 0.918391 0.0274051 0.000357335 0.00035728 0 0 0 0 0 
471 0.011921 0.929177 0.0503167 0.00662672 0.00195904 0 0 0 0 0 
472 0.00993416 0.903296 0.0796156 0.00552226 0.00163253 0 0 0 0 0 
473 0.844464 0.084944 0.0659631 0.00419976 0.000367988 6.13708e-05 0 0 0 0 
474 0.0503132 0.917914 0.0312504 0.000260975 0.000260935 0 0 0 0 0 
475 0.382955 0.613717 0.00282852 0.000299493 0 0.000199825 0 0 0 0 
476 0.0534892 0.918391 0.0274051 0.000357335 0.00035728 0 0 0 0 0 
477 0.0490263 0.937334 0.0132935 0.000173334 0.000173308 0 0 0 0 0 
478 0.111109 0.870872 0.0161715 0.00148096 0.000365972 0 0 0 0 0 
479 0.100336 0.876856 0.0204702 0.00187463 0.000463256 0 0 0 0 0 
480 0.127556 0.844724 0.0248787 0.0022784 0.000563034 0 0 0 0 0 
481 0.115708 0.846446 0.0353499 0.0020013 0.000494557 0 0 0 0 0 
482 0.163386 0.833017 0.00305437 0.000325698 0 0.000217309 0 0 0 0 
483 0.112934 0.806157 0.0577071 0.022965 0 0.000236421 0 0 0 0 
484 0.786602 0.210768 0.00109203 0.00130321 0.000234242 0 0 0 0 0 
485 0.121982 0.850298 0.0248787 0.0022784 0.000563034 0 0 0 0 0 
486 0.270983 0.698278 0.0190802 0.00662612 0.00426677 0.000766102 0 0 0 0 
487 0.736075 0.1692 0.0877833 0.006298 0.000551982 9.20562e-05 0 0 0 0 
488 0.0745203 0.893532 0.0303098 0.00127688 0.000361149 0 0 0 0 0 
489 0.120099 0.852601 0.0245018 0.00224388 0.000554503 0 0 0 0 0 
490 0.102942 0.873658 0.0210015 0.00192333 0.000475288 0 0 0 0 0 
491 0.0457264 0.908142 0.0351575 0.00626407 0.00471024 0 0 0 0 0 
492 0 0.999999 0 0 0 0 0 0 0 0 
493 1.10797e-06 0.912498 0.0833541 0.0027547 0 0.0013921 0 0 0 0 
494 0.165137 0.795201 0.0374627 0.00176305 0.000435681 0 0 0 0 0 
495 0.185571 0.810512 0.00333027 0.000352106 0 0.000234929 0 0 0 0 
496 1.02943e-06 0.912498 0.0833541 0.0027547 0 0.0013921 0 0 0 0 
497 0.326655 0.66678 0.00426878 0.00130515 0.000840425 0.000150899 0 0 0 0 
498 0.0899637 0.886273 0.0217092 0.00160087 0.000452783 0 0 0 0 0 
499 0.515679 0.344795 0.0685521 0.0462723 0.013774 0.00723396 0.00183287 0.00142321 0.000437228 0 
500 0.121946 0.850333 0.0248787 0.0022784 0.000563034 0 0 0 0 0 
501 0.224958 0.761197 0.0126481 0.000932681 0.000263795 0 0 0 0 0 
502 0.138893 0.761563 0.0709886 0.0282646 0 0.00029098 0 0 0 0 
503 0.0861091 0.845251 0.0666743 0.00153226 0.000433378 0 0 0 0 0 
504 0.0548717 0.88977 0.042189 0.00751688 0.00565228 0 0 0 0 0 
505 0.118306 0.854801 0.0241361 0.00221039 0.000546227 0 0 0 0 0 
506 0.130973 0.846219 0.0204706 0.00187463 0.000463256 0 0 0 0 0 
507 0 0.832115 0.167885 0 0 0 0 0 0 0 
508 0.0927318 0.882774 0.0223772 0.00165013 0.000466715 0 0 0 0 0 
509 0.0147322 0.977523 0.00754802 9.84185e-05 9.84035e-05 0 0 0 0 0 
510 0.93994 0.0345929 0.0235987 0.00169487 0.000148546 2.47735e-05 0 0 0 0 
511 0.144395 0.829864 0.0231027 0.00211566 0.000522817 0 0 0 0 0 
512 0.220174 0.74366 0.0266935 0.00538372 0.00346675 0.000622458 0 0 0 0 
513 0.0534892 0.918391 0.0274051 0.000357335 0.00035728 0 0 0 0 0 
514 0.0934262 0.88208 0.0223772 0.00165013 0.000466715 0 0 0 0 0 
515 0.214115 0.767685 0.0163345 0.00149592 0.000369669 0 0 0 0 0 
516 0.259028 0.711589 0.0182384 0.00633379 0.00407853 0.000732304 0 0 0 0 
517 0.275548 0.683426 0.0380165 0.00273017 0.000239283 3.99061e-05 0 0 0 0 
518 0.0817167 0.899708 0.0166713 0.00152676 0.000377291 0 0 0 0 0 
519 0.191456 0.786826 0.0134806 0.0046815 0.00301457 0.000541268 0 0 0 0 
520 0.232867 0.611262 0.145899 0.00566708 0.00364921 0.000655219 0 0 0 0 
521 0.0618359 0.893847 0.0316041 0.0125836 0 0.000129546 0 0 0 0 
522 0.0534892 0.918391 0.0274051 0.000357335 0.00035728 0 0 0 0 0 
523 0.0117403 0.93025 0.0495543 0.00652631 0.00192936 0 0 0 0 0 
524 0.0244876 0.962731 0.0124569 0.000162425 0.0001624 0 0 0 0 0 
525 0.0446698 0.943537 0.0107742 0.000794506 0.000224715 0 0 0 0 0 
526 0.501401 0.296145 0.0707365 0.105609 0.014859 0.00744672 0.00188677 0.00146507 0.000450088 0 
527 0.259984 0.722485 0.0108827 0.00377805 0.00243281 0.000436813 0 0 0 0 
528 0.270983 0.682893 0.0190802 0.00663099 0.0196465 0.000766102 0 0 0 0 
529 0.412571 0.585944 0.0012601 0.000134309 0 8.9612e-05 0 0 0 0 
530 0.121946 0.850333 0.0248787 0.0022784 0.000563034 0 0 0 0 0 
531 1.18781e-06 0.899036 0.0961778 0.0031785 0 0.00160627 0 0 0 0 
532 0.0152823 0.939458 0.0407008 0.00455844 0 0 0 0 0 0 
533 0.129032 0.774487 0.0699647 0.0262457 0 0.000270196 0 0 0 0 
534 0.0320912 0.960614 0.00654703 0.000599579 0.000148167 0 0 0 0 0 
535 0.076753 0.915058 0.00508284 0.00176516 0.00113664 0.000204085 0 0 0 0 
536 0.0837169 0.89417 0.0202016 0.0014897 0.00042134 0 0 0 0 0 
537 0.179056 0.799429 0.0196556 0.00144944 0.000409952 0 0 0 0 0 
538 0.100434 0.876822 0.0207788 0.00153226 0.000433378 0 0 0 0 0 
539 0.259028 0.711589 0.0182384 0.00633379 0.00407853 0.000732304 0 0 0 0 
540 0.200831 0.794742 0.00375922 0.000400859 0 0.000267457 0 0 0 0 
541 0.0112299 0.933282 0.0473998 0.00624256 0.00184547 0 0 0 0 0 
542 0.00124227 0.948506 0.0490857 0.00116587 0 0 0 0 0 0 
543 0.212657 0.767098 0.0181698 0.001664 0.000411205 0 0 0 0 0 
544 0.000625949 0.974054 0.0247331 0.000587453 0 0 0 0 0 0 
545 0.0966649 0.881362 0.0197209 0.00180605 0.000446307 0 0 0 0 0 
546 0.0886407 0.887946 0.0213899 0.00157733 0.000446125 0 0 0 0 0 
547 0.127155 0.781713 0.0649886 0.0258761 0 0.00026639 0 0 0 0 
548 0.631746 0.366432 0.00154652 0.00016491 0 0.00011003 0 0 0 0 
549 0.0482891 0.926325 0.0247407 0.000322594 0.000322545 0 0 0 0 0 
550 0.182527 0.800682 0.010422 0.00361931 0.00233059 0.000418459 0 0 0 0 
551 0.376542 0.518438 0.0515984 0.0348286 0.0103675 0.00544492 0.00137958 0.00107123 0.000329096 0 
552 0.487318 0.373156 0.0685521 0.0462723 0.013774 0.00723396 0.00183287 0.00142321 0.000437228 0 
553 0.445927 0.430412 0.0607734 0.0410008 0.0122048 0.00640984 0.00162406 0.00126107 0.000387417 0 
554 0.448622 0.422867 0.0631401 0.0426193 0.0126866 0.00666286 0.00168817 0.00131085 0.00040271 0 
555 0.169778 0.811256 0.0170223 0.00155891 0.000385234 0 0 0 0 0 
556 0.127155 0.767535 0.0791673 0.0258761 0 0.00026639 0 0 0 0 
557 0.11285 0.806271 0.0576774 0.022965 0 0.000236421 0 0 0 0 
558 0.772397 0.219027 0.00532281 0.00184849 0.0011903 0.00021372 0 0 0 0 
559 0.0869618 0.906644 0.00584143 0.000430756 0.000121833 0 0 0 0 0 
560 0.0534892 0.903007 0.0427889 0.000357335 0.00035728 0 0 0 0 0 
561 0.121946 0.850333 0.0248787 0.0022784 0.000563034 0 0 0 0 0 
562 0.120099 0.852601 0.0245018 0.00224388 0.000554503 0 0 0 0 0 
563 0.128972 0.692946 0.151566 0.0262457 0 0.000270196 0 0 0 0 
564 0.461784 0.409705 0.0631401 0.0426193 0.0126866 0.00666286 0.00168817 0.00131085 0.00040271 0 
565 0.711844 0.144653 0.118849 0.023765 0.000763898 0.00012463 0 0 0 0 
566 0.0913268 0.88455 0.0220381 0.00162513 0.000459644 0 0 0 0 0 
567 0.138893 0.761564 0.0709876 0.0282646 0 0.00029098 0 0 0 0 
568 0.0814537 0.897031 0.0196556 0.00144944 0.000409952 0 0 0 0 0 
569 0.136788 0.765177 0.069912 0.0278364 0 0.000286571 0 0 0 0 
570 0.585694 0.119123 0.287449 0.0070155 0.000614866 0.000102544 0 0 0 0 
571 0.113912 0.883987 0.00178357 0.000190189 0 0.000126896 0 0 0 0 
572 0.011921 0.929177 0.0503167 0.00662672 0.00195904 0 0 0 0 0 
573 0.00124227 0.948506 0.0490857 0.00116587 0 0 0 0 0 0 
574 0.115745 0.801303 0.0591563 0.0235539 0 0.000242483 0 0 0 0 
575 0.337178 0.635452 0.0169892 0.00589997 0.00379918 0.000682146 0 0 0 0 
576 0.200831 0.794742 0.00375922 0.000400859 0 0.000267457 0 0 0 0 
577 0.0526788 0.919628 0.0269899 0.000351921 0.000351867 0 0 0 0 0 
578 0.120374 0.793355 0.0615226 0.024496 0 0.000252183 0 0 0 0 
579 0.508961 0.345266 0.0716216 0.0483442 0.0143908 0.00755787 0.00191493 0.00148693 0.000456805 0 
580 0.203687 0.792071 0.00361232 0.000377621 0 0.000251953 0 0 0 0 
581 0.197909 0.779641 0.013935 0.0048393 0.00311618 0.000559513 0 0 0 0 
582 0.530552 0.448206 0.0150224 0.00353744 0.00227328 0.000408169 0 0 0 0 
583 0.136788 0.765177 0.069912 0.0278364 0 0.000286571 0 0 0 0 
584 0.558216 0.366139 0.0411439 0.0224938 0.00669571 0.00351651 0.000890977 0.000691837 0.000212541 0 
585 0.270983 0.698278 0.0190802 0.00662612 0.00426677 0.000766102 0 0 0 0 
586 0.0886407 0.887946 0.0213899 0.00157733 0.000446125 0 0 0 0 0 
587 0.121946 0.850333 0.0248787 0.0022784 0.000563034 0 0 0 0 0 
588 0.0807719 0.745138 0.172379 0.00137126 0.000338863 0 0 0 0 0 
589 0.138893 0.759318 0.0732339 0.0282646 0 0.00029098 0 0 0 0 
590 0.112119 0.862856 0.0224599 0.00205689 0.000508295 0 0 0 0 0 
591 0.248201 0.711827 0.0298682 0.00574264 0.00369787 0.000663955 0 0 0 0 
592 0.011921 0.929177 0.0503167 0.00662672 0.00195904 0 0 0 0 0 
593 0.0927318 0.882774 0.0223772 0.00165013 0.000466715 0 0 0 0 0 
594 0.0518925 0.920827 0.026587 0.000346668 0.000346615 0 0 0 0 0 
595 0.248219 0.723639 0.0174678 0.00606617 0.0039062 0.000701361 0 0 0 0 
596 0.138893 0.761564 0.0709876 0.0282646 0 0.00029098 0 0 0 0 
597 0.0927318 0.882774 0.0223772 0.00165013 0.000466715 0 0 0 0 0 
598 0.341819 0.598271 0.042724 0.0170111 0 0.000175127 0 0 0 0 
599 0.285393 0.685223 0.0182385 0.00633379 0.00407853 0.000732304 0 0 0 0 
600 0.0511294 0.921991 0.0261961 0.00034157 0.000341518 0 0 0 0 0 
601 0.134747 0.768681 0.0688685 0.0274209 0 0.000282294 0 0 0 0 
602 0.118175 0.860375 0.0192514 0.00176305 0.000435681 0 0 0 0 0 
603 0.0511294 0.921991 0.0261961 0.00034157 0.000341518 0 0 0 0 0 
604 0.134148 0.841503 0.0218529 0.0020013 0.000494557 0 0 0 0 0 
605 0.198079 0.798134 0.00321512 0.00034284 0 0.000228746 0 0 0 0 
606 0.0375557 0.948384 0.0137026 0.000178667 0.00017864 0 0 0 0 0 
607 0.0534892 0.918391 0.0274051 0.000357335 0.00035728 0 0 0 0 0 
608 0.0534892 0.918391 0.0274051 0.000357335 0.00035728 0 0 0 0 0 
609 0.0137965 0.945344 0.0367438 0.00411526 0 0 0 0 0 0 
610 0.19197 0.791744 0.0156462 0.000383174 0 0.000255658 0 0 0 0 
611 0.0440101 0.908153 0.0472489 0.00029401 0.000293965 0 0 0 0 0 
612 0.158908 0.837784 0.00280861 0.000299493 0 0.000199824 0 0 0 0 
613 0.0467743 0.937604 0.0152251 0.000198519 0.000198489 0 0 0 0 0 
614 0.0414728 0.916687 0.031887 0.00568137 0.00427208 0 0 0 0 0 
615 7.56935e-07 0.661151 0.3358 0.00202552 0 0.0010236 0 0 0 0 
616 0.00107663 0.955372 0.0425409 0.00101042 0 0 0 0 0 0 
617 0.251389 0.724245 0.0151246 0.00525241 0.0033822 0.000607276 0 0 0 0 
618 0.0848954 0.892681 0.0204861 0.00151068 0.000427274 0 0 0 0 0 
619 0.0833708 0.914672 0.00168547 0.000162849 0 0.000108655 0 0 0 0 
620 0.0610003 0.89528 0.0311783 0.0124135 0 0.000127795 0 0 0 0 
621 0.0721686 0.919902 0.00492237 0.00170912 0.00110056 0.000197606 0 0 0 0 
622 0.0526788 0.919628 0.0269899 0.000351921 0.000351867 0 0 0 0 0 
623 0.0117403 0.915099 0.0647048 0.00652631 0.00192936 0 0 0 0 0 
624 0.0115651 0.931291 0.0488147 0.0064289 0.00190056 0 0 0 0 0 
625 0.350953 0.244442 0.168602 0.218712 0.00964182 0.00506377 0.00128301 0.000996245 0.00030606 0 
626 0.0534892 0.918391 0.0274051 0.000357335 0.00035728 0 0 0 0 0 
627 0.633834 0.129296 0.228496 0.00759773 0.000665403 0.000110972 0 0 0 0 
628 0.127156 0.781713 0.0649889 0.0258761 0 0.00026639 0 0 0 0 
629 0.200831 0.794742 0.00375922 0.000400859 0 0.000267457 0 0 0 0 
630 0.270983 0.698278 0.0190802 0.00662612 0.00426677 0.000766102 0 0 0 0 
631 0.102267 0.83171 0.0470836 0.018747 0 0.000192997 0 0 0 0 
632 0.270983 0.698278 0.0190802 0.00662612 0.00426677 0.000766102 0 0 0 0 
633 0.0148261 0.941266 0.0394859 0.00442237 0 0 0 0 0 0 
634 0.209761 0.785944 0.003647 0.000388893 0 0.000259474 0 0 0 0 
635 0.0482889 0.926325 0.0247407 0.000322594 0.000322545 0 0 0 0 0 
636 0.524543 0.309814 0.0741203 0.0649214 0.0148336 0.00779042 0.00197386 0.00153268 0.000470861 0 
637 0.0386311 0.94106 0.0197926 0.000258075 0.000258036 0 0 0 0 0 
638 0.011395 0.932301 0.0480969 0.00633436 0.00187261 0 0 0 0 0 
639 0.0798941 0.836457 0.0672227 0.0162584 0 0.000167378 0 0 0 0 
640 0.0548717 0.88977 0.042189 0.00751688 0.00565228 0 0 0 0 0 
641 0.0744155 0.905929 0.017957 0.00132418 0.000374524 0 0 0 0 0 
642 0.448627 0.409708 0.0762949 0.0426193 0.0126866 0.00666286 0.00168817 0.00131085 0.00040271 0 
643 0.0692106 0.916969 0.0126337 0.000924641 0.000261521 0 0 0 0 0 
644 0.680439 0.138272 0.114343 0.0661126 0.00071433 0.000119132 0 0 0 0 
645 0.00124227 0.948506 0.0490857 0.00116587 0 0 0 0 0 0 
646 0.0927318 0.86739 0.0223772 0.00170855 0.0157929 0 0 0 0 0 
647 0.0793101 0.899741 0.0191384 0.00141129 0.000399164 0 0 0 0 0 
648 0.0534892 0.918391 0.0274051 0.000357335 0.00035728 0 0 0 0 0 
649 0.143862 0.830025 0.0234365 0.00214632 0.000530394 0 0 0 0 0 
650 0.138893 0.761564 0.0709876 0.0282646 0 0.00029098 0 0 0 0 
651 0.138893 0.761564 0.0709876 0.0282646 0 0.00029098 0 0 0 0 
652 0.62528 0.140642 0.225823 0.00748952 0.000656411 0.000109472 0 0 0 0 
653 0.110091 0.8646 0.0227439 0.00205689 0.000508295 0 0 0 0 0 
654 0.270983 0.683025 0.0343327 0.00662612 0.00426677 0.000766102 0 0 0 0 
655 0.270983 0.682893 0.0190802 0.00668038 0.0195971 0.000766102 0 0 0 0 
656 0.410845 0.250046 0.279252 0.0390249 0.0116166 0.00610093 0.00154579 0.0012003 0.000368746 0 
657 0 0.994914 0.00384643 0.00123931 0 0 0 0 0 0 
658 0.516595 0.306369 0.0867888 0.0640479 0.0146088 0.00767238 0.00194395 0.00150946 0.000463727 0 
659 0.00120519 0.950043 0.0476204 0.00113107 0 0 0 0 0 0 
660 0.524543 0.309814 0.0739097 0.065132 0.0148336 0.00779042 0.00197386 0.00153268 0.000470861 0 
661 0.0978583 0.879897 0.0199644 0.00182835 0.000451817 0 0 0 0 0 
662 0.524543 0.309814 0.0738254 0.0498318 0.0148336 0.00785923 0.0172897 0.00153269 0.000470861 0 
663 0.203681 0.792148 0.00354129 0.000377621 0 0.000251953 0 0 0 0 
664 0.241286 0.662851 0.0854817 0.00589997 0.00379918 0.000682146 0 0 0 0 
665 0.011921 0.913792 0.0503167 0.00675264 0.0172177 0 0 0 0 0 
666 0.665915 0.319228 0.0134172 0.00122073 0.000219417 0 0 0 0 0 
667 0.108582 0.798008 0.0908797 0.00202871 0.000501332 0 0 0 0 0 
668 0.270983 0.682893 0.0193608 0.0217301 0.00426677 0.000766102 0 0 0 0 
669 0.524543 0.309871 0.0891521 0.0498318 0.0148336 0.00779042 0.00197386 0.00153268 0.000470861 0 
670 0.0540403 0.861137 0.0571958 0.0220599 0.00556664 0 0 0 0 0 
671 1.1354e-06 0.903491 0.0919346 0.00303828 0 0.0015354 0 0 0 0 
672 0.00103522 0.945177 0.0528162 0.000971556 0 0 0 0 0 0 
673 0.711844 0.144653 0.119372 0.023259 0.000747299 0.00012463 0 0 0 0 
674 0.270983 0.682893 0.019116 0.0219749 0.00426677 0.000766102 0 0 0 0 
675 0.101622 0.875278 0.0207323 0.00189867 0.000469195 0 0 0 0 0 
676 0.123672 0.787684 0.0632184 0.0251671 0 0.000259092 0 0 0 0 
677 0.524543 0.309814 0.0740699 0.0649718 0.0148336 0.00779042 0.00197386 0.00153268 0.000470861 0 
678 0.200831 0.794742 0.00375922 0.000400859 0 0.000267457 0 0 0 0 
679 0.00124227 0.933122 0.049087 0.0165491 0 0 0 0 0 0 
680 0.207341 0.77477 0.0163429 0.00120515 0.000340859 0 0 0 0 0 
681 0.270983 0.682893 0.0190802 0.00662612 0.00432258 0.0160949 0 0 0 0 
682 0.524543 0.309814 0.0738644 0.0651773 0.0148336 0.00779042 0.00197386 0.00153268 0.000470861 0 
683 0.194836 0.800869 0.003647 0.000388893 0 0.000259474 0 0 0 0 
684 0.00124227 0.94112 0.0564714 0.00116587 0 0 0 0 0 0 
685 0.625268 0.127107 0.235226 0.0116336 0.000656411 0.000109472 0 0 0 0 
686 0.0913268 0.88455 0.0220381 0.00162513 0.000459644 0 0 0 0 0 
687 0.116566 0.856936 0.0237811 0.00217788 0.000538194 0 0 0 0 0 
688 0.0927323 0.882774 0.0223772 0.00165013 0.000466715 0 0 0 0 0 
689 0.00120519 0.935243 0.0624207 0.00113107 0 0 0 0 0 0 
690 0.508885 0.300565 0.0725094 0.0922077 0.0144157 0.00755787 0.00191493 0.00148693 0.000456805 0 
691 0.270983 0.682893 0.0190813 0.0220096 0.00426677 0.000766102 0 0 0 0 
692 0.118306 0.854801 0.0241361 0.00221039 0.000546227 0 0 0 0 0 
693 0.138893 0.761564 0.0709876 0.0282646 0 0.00029098 0 0 0 0 
694 1.18781e-06 0.899036 0.0961778 0.0031785 0 0.00160627 0 0 0 0 
695 0.730638 0.161209 0.100218 0.00719772 0.000630836 0.000105207 0 0 0 0 
696 0.194836 0.800867 0.00364856 0.000388893 0 0.000259474 0 0 0 0 
697 0.12023 0.85247 0.0245018 0.00224388 0.000554503 0 0 0 0 0 
698 0.200831 0.794742 0.00375922 0.000400859 0 0.000267457 0 0 0 0 
699 0.248083 0.723774 0.017469 0.00606617 0.0039062 0.000701361 0 0 0 0 
700 0.134552 0.733331 0.0852115 0.0466753 0 0.000230655 0 0 0 0 
701 0.259053 0.708129 0.0216729 0.00633379 0.00407853 0.000732304 0 0 0 0 
702 0.0718279 0.910891 0.0163634 0.000715056 0.000202243 0 0 0 0 0 
703 0.166987 0.815173 0.0110733 0.00384552 0.00247625 0.000444613 0 0 0 0 
704 0.0139376 0.980655 0.00527047 6.87182e-05 6.87078e-05 0 0 0 0 0 
705 0.0295247 0.954762 0.0153199 0.000196837 0.000196807 0 0 0 0 0 
706 0.685565 0.234362 0.0741998 0.00532908 0.000467062 7.78937e-05 0 0 0 0 
707 0.120099 0.837357 0.0397464 0.00224388 0.000554503 0 0 0 0 0 
708 0.200831 0.794742 0.0037593 0.000400859 0 0.000267457 0 0 0 0 
709 0.321653 0.65368 0.0153113 0.00531726 0.00342395 0.000614774 0 0 0 0 
710 0.0540403 0.89144 0.0415498 0.00740299 0.00556664 0 0 0 0 0 
711 0.267804 0.659495 0.0518453 0.0206427 0 0.000212514 0 0 0 0 
712 0.463605 0.401837 0.0724556 0.0404883 0.0120523 0.00632971 0.00160376 0.00124531 0.000382574 0 
713 0.266877 0.70285 0.0187911 0.00652572 0.00420212 0.000754495 0 0 0 0 
714 0.0927318 0.882774 0.0223772 0.00165013 0.000466715 0 0 0 0 0 
715 0.135852 0.841341 0.0204698 0.00187463 0.000463256 0 0 0 0 0 
716 0.105002 0.871235 0.0217092 0.00160087 0.000452783 0 0 0 0 0 
717 0.176772 0.728077 0.0678558 0.0270177 0 0.000278143 0 0 0 0 
718 0.0148261 0.941266 0.0394859 0.00442237 0 0 0 0 0 0 
719 0.0152823 0.939458 0.0407008 0.00455844 0 0 0 0 0 0 
720 0.00112149 0.953513 0.0443135 0.00105252 0 0 0 0 0 0 
721 0.0893865 0.846551 0.0456851 0.0181901 0 0.000187264 0 0 0 0 
722 0.00122345 0.949286 0.048342 0.0011482 0 0 0 0 0 0 
723 0.121381 0.80829 0.0501543 0.0199696 0 0.000205584 0 0 0 0 
724 0.0913268 0.869399 0.0226117 0.0162031 0.000459644 0 0 0 0 0 
725 0.189188 0.806641 0.00354129 0.000377621 0 0.000251953 0 0 0 0 
726 0.265925 0.705532 0.0177173 0.00615283 0.003962 0.000711381 0 0 0 0 
727 0.284554 0.693245 0.0137803 0.00478553 0.00308156 0.000553296 0 0 0 0 
728 0.108582 0.866735 0.0221523 0.00202871 0.000501332 0 0 0 0 0 
729 0.200831 0.794742 0.00375922 0.000400859 0 0.000267457 0 0 0 0 
730 0.830912 0.0979108 0.0659553 0.00473696 0.000415166 6.92388e-05 0 0 0 0 
731 0.011921 0.928102 0.0513909 0.00662672 0.00195904 0 0 0 0 0 
732 0.138896 0.761561 0.0709876 0.0282646 0 0.00029098 0 0 0 0 
733 0.120099 0.838192 0.0389101 0.00224388 0.000554503 0 0 0 0 0 
734 0 0.671794 0.328205 0 0 0 0 0 0 0 
735 0.0469838 0.928316 0.0240721 0.000313875 0.000313827 0 0 0 0 0 
736 0.132765 0.772083 0.0678558 0.0270177 0 0.000278143 0 0 0 0 
737 0.0899637 0.886273 0.0217092 0.00160087 0.000452783 0 0 0 0 0 
738 0.0981308 0.809802 0.0718922 0.0199696 0 0.000205584 0 0 0 0 
739 0.0119217 0.929176 0.0503167 0.00662672 0.00195904 0 0 0 0 0 
740 0.138893 0.761564 0.0709876 0.0282646 0 0.00029098 0 0 0 0 
741 0.200831 0.794742 0.00375922 0.000400859 0 0.000267457 0 0 0 0 
742 0.011921 0.913792 0.0656862 0.00664185 0.00195904 0 0 0 0 0 
743 0.121946 0.850333 0.024879 0.0022784 0.000563034 0 0 0 0 0 
744 0.136788 0.750025 0.0850633 0.0278364 0 0.000286571 0 0 0 0 
745 0.118306 0.854653 0.0242843 0.00221039 0.000546227 0 0 0 0 0 
746 0.136885 0.749928 0.0850635 0.0278364 0 0.000286571 0 0 0 0 
747 0.0524509 0.882608 0.0523533 0.00718526 0.00540292 0 0 0 0 0 
748 0.0534892 0.915245 0.0305507 0.000357335 0.00035728 0 0 0 0 0 
749 0.358898 0.538293 0.0505121 0.0340954 0.0101493 0.00533029 0.00135053 0.00104868 0.000322168 0 
750 0.508885 0.345342 0.0716216 0.0483442 0.0143908 0.00755787 0.00191493 0.00148693 0.000456805 0 
751 0.118306 0.854801 0.0241361 0.00221039 0.000546227 0 0 0 0 0 
752 0.125514 0.77049 0.0782165 0.0255167 0 0.00026269 0 0 0 0 
753 0.00124227 0.948506 0.0490857 0.00116587 0 0 0 0 0 0 
754 0.136788 0.750025 0.0850533 0.0278466 0 0.000286571 0 0 0 0 
755 0.121946 0.850333 0.0248787 0.0022784 0.000563034 0 0 0 0 0 
756 0.138893 0.761564 0.0709876 0.0282646 0 0.00029098 0 0 0 0 
757 0 0.859709 0.116639 0.0230644 0.000587668 0 0 0 0 0 
758 0.729999 0.143824 0.116921 0.00839734 0.000735976 0.000122742 0 0 0 0 
759 0.513641 0.402882 0.0410141 0.0276843 0.00824087 0.00432801 0.00109659 0.000851492 0.000261589 0 
760 0.524561 0.32518 0.0738259 0.0498318 0.0148336 0.00779042 0.00197386 0.00153268 0.000470861 0 
761 0.54268 0.32167 0.0666479 0.044987 0.0133914 0.00703302 0.00178195 0.00138367 0.000425083 0 
762 0.266878 0.702849 0.0187911 0.00652572 0.00420212 0.000754495 0 0 0 0 
763 0.134747 0.768681 0.0688685 0.0274209 0 0.000282294 0 0 0 0 
764 0.200831 0.794742 0.00375922 0.000400859 0 0.000267457 0 0 0 0 
765 0.773347 0.130927 0.0887038 0.00637039 0.000558326 9.31143e-05 0 0 0 0 
766 0.0560069 0.917114 0.0261961 0.00034157 0.000341518 0 0 0 0 0 
767 0.138893 0.761564 0.0709876 0.0282646 0 0.00029098 0 0 0 0 
768 0.200831 0.794742 0.00375922 0.000400859 0 0.000267457 0 0 0 0 
769 0.282821 0.688222 0.0179741 0.006242 0.00401942 0.000721691 0 0 0 0 
770 0.275351 0.694818 0.01852 0.00642833 0.0041394 0.000743234 0 0 0 0 
771 0.270983 0.698278 0.0190802 0.00662612 0.00426677 0.000766102 0 0 0 0 
772 0.201108 0.794464 0.00375922 0.000400859 0 0.000267457 0 0 0 0 
773 0.543903 0.310324 0.0716216 0.0483442 0.0143908 0.00755787 0.00191493 0.00148693 0.000456805 0 
774 0.194836 0.800869 0.003647 0.000388893 0 0.000259474 0 0 0 0 
775 0.247464 0.748799 0.00317337 0.000338388 0 0.000225776 0 0 0 0 
776 0.283962 0.69818 0.011091 0.00384552 0.00247625 0.000444613 0 0 0 0 
777 0.284113 0.687344 0.0177173 0.00615283 0.003962 0.000711381 0 0 0 0 
778 0.138893 0.761564 0.0709876 0.0282646 0 0.00029098 0 0 0 0 
779 0.138893 0.761564 0.0709876 0.0282646 0 0.00029098 0 0 0 0 
780 0.0566685 0.895974 0.0467698 0.00029401 0.000293965 0 0 0 0 0 
781 0.207132 0.788508 0.00370226 0.000394786 0 0.000263405 0 0 0 0 
782 0.200831 0.794742 0.00375922 0.000400859 0 0.000267457 0 0 0 0 
783 0.0627872 0.920628 0.0151512 0.00111727 0.000316005 0 0 0 0 0 
784 0.251627 0.71983 0.0177173 0.00615283 0.003962 0.000711381 0 0 0 0 
785 0.0534892 0.918391 0.0274051 0.000357335 0.00035728 0 0 0 0 0 
786 0 0.710641 0.289358 0 0 0 0 0 0 0 
787 0.516595 0.305119 0.0727293 0.0793572 0.0146088 0.00767238 0.00194395 0.00150946 0.000463727 0 
788 0.11327 0.862607 0.0220381 0.00162513 0.000459644 0 0 0 0 0 
789 0.0534894 0.918391 0.0274051 0.000357335 0.00035728 0 0 0 0 0 
790 0.727189 0.144692 0.11872 0.00852652 0.000747299 0.00012463 0 0 0 0 
791 0.0169853 0.924112 0.0503167 0.00662672 0.00195904 0 0 0 0 0 
792 0.215512 0.780061 0.00375922 0.000400859 0 0.000267457 0 0 0 0 
793 0.0662249 0.905655 0.0274051 0.000357335 0.00035728 0 0 0 0 0 
794 0 0.942843 0.0571572 0 0 0 0 0 0 0 
795 0.104964 0.871622 0.0213899 0.00157733 0.000446125 0 0 0 0 0 
796 0.690595 0.140335 0.116032 0.0521757 0.000740692 0.00012091 0 0 0 0 
797 0.241286 0.731343 0.0169893 0.00589997 0.00379918 0.000682146 0 0 0 0 
798 0.0913268 0.854247 0.0523411 0.00162513 0.000459644 0 0 0 0 0 
799 0.248083 0.72374 0.0175038 0.00606617 0.0039062 0.000701361 0 0 0 0 
800 0.171763 0.82445 0.00321512 0.00034284 0 0.000228746 0 0 0 0 
801 0.0927379 0.882768 0.0223772 0.00165013 0.000466715 0 0 0 0 0 
802 0.221376 0.774391 0.00359337 0.000383174 0 0.000255658 0 0 0 0 
803 0.262901 0.707277 0.0185106 0.00642833 0.0041394 0.000743234 0 0 0 0 
804 0.121946 0.850333 0.0248787 0.0022784 0.000563034 0 0 0 0 0 
805 0.138893 0.761564 0.0709876 0.0282646 0 0.00029098 0 0 0 0 
806 0.254858 0.741589 0.00301666 0.000321677 0 0.000214626 0 0 0 0 
807 0.173208 0.803392 0.0210015 0.00192333 0.000475288 0 0 0 0 0 
808 0.0932532 0.885549 0.0190249 0.00174231 0.000430555 0 0 0 0 0 
809 0.138893 0.761564 0.0709876 0.0282646 0 0.00029098 0 0 0 0 
810 0.0146081 0.942129 0.0389052 0.00435733 0 0 0 0 0 0 
811 0.248083 0.646032 0.0952114 0.00606617 0.0039062 0.000701361 0 0 0 0 
812 0.102942 0.873658 0.0210015 0.00192333 0.000475288 0 0 0 0 0 
813 0.0793404 0.902608 0.0162042 0.00148096 0.000365972 0 0 0 0 0 
814 0.0913297 0.884547 0.0220381 0.00162513 0.000459644 0 0 0 0 0 
815 0.0440346 0.886369 0.0590288 0.00603207 0.00453578 0 0 0 0 0 
816 0.155405 0.841169 0.00290892 0.000310189 0 0.000206961 0 0 0 0 
817 0.197788 0.797852 0.00370226 0.000394786 0 0.000263405 0 0 0 0 
818 0.261225 0.710632 0.0174699 0.00606617 0.0039062 0.000701361 0 0 0 0 
819 1.18781e-06 0.884663 0.110551 0.0031785 0 0.00160627 0 0 0 0 
820 0.048969 0.925288 0.0250892 0.000327137 0.000327088 0 0 0 0 0 
821 0.0115651 0.931291 0.0488147 0.0064289 0.00190056 0 0 0 0 0 
822 0.125401 0.793721 0.0576774 0.022965 0 0.000236421 0 0 0 0 
823 0.0913268 0.88455 0.0220381 0.00162513 0.000459644 0 0 0 0 0 
824 0.0927318 0.86739 0.0377617 0.00165013 0.000466715 0 0 0 0 0 
825 0.270983 0.698278 0.0190802 0.00662612 0.00426677 0.000766102 0 0 0 0 
826 0.231581 0.750218 0.0163345 0.00149592 0.000369669 0 0 0 0 0 
827 0.138893 0.761564 0.0709876 0.0282646 0 0.00029098 0 0 0 0 
828 0.186138 0.809668 0.00362307 0.00034284 0 0.000228746 0 0 0 0 
829 0.199297 0.782041 0.0180329 0.000377621 0 0.000251953 0 0 0 0 
830 0.138893 0.761564 0.0709876 0.0282646 0 0.00029098 0 0 0 0 
831 0.209691 0.766523 0.0147644 0.00512736 0.00330167 0.000592817 0 0 0 0 
832 0 0.8714 0.106919 0.0211423 0.000538696 0 0 0 0 0 
833 0 0.823958 0.153418 0.0220616 0.000562118 0 0 0 0 0 
834 0.0873561 0.88957 0.0210799 0.00155447 0.000439659 0 0 0 0 0 
835 0.0152823 0.939458 0.0407008 0.00455844 0 0 0 0 0 0 
836 0.0837163 0.894171 0.0202016 0.0014897 0.00042134 0 0 0 0 0 
837 0.183859 0.812088 0.00344154 0.000366984 0 0.000244855 0 0 0 0 
838 0.00124227 0.948506 0.0490857 0.00116587 0 0 0 0 0 0 
839 0.092733 0.882773 0.0223772 0.00165013 0.000466715 0 0 0 0 0 
840 0.0927318 0.882774 0.0223772 0.00165013 0.000466715 0 0 0 0 0 
841 0.0451476 0.909305 0.0347125 0.00618478 0.00465061 0 0 0 0 0 
842 0.0119217 0.929176 0.0503167 0.00662672 0.00195904 0 0 0 0 0 
843 0.272189 0.698949 0.0180351 0.00615283 0.003962 0.000711381 0 0 0 0 
844 1.16981e-06 0.900566 0.0947205 0.00313035 0 0.00158193 0 0 0 0 
845 0.0476274 0.927334 0.0244018 0.000318175 0.000318126 0 0 0 0 0 
846 0.011921 0.929177 0.0503167 0.00662672 0.00195904 0 0 0 0 0 
847 0.116566 0.856936 0.0237811 0.00217788 0.000538194 0 0 0 0 0 
848 1.18781e-06 0.899036 0.0961778 0.0031785 0 0.00160627 0 0 0 0 
849 0.0744144 0.893584 0.0179594 0.0136675 0.000374524 0 0 0 0 0 
850 0.120099 0.852601 0.0245018 0.00224388 0.000554503 0 0 0 0 0 
851 0.0782801 0.901043 0.0188898 0.00139297 0.00039398 0 0 0 0 0 
852 0.0511294 0.921991 0.0261961 0.00034157 0.000341518 0 0 0 0 0 
853 0.71621 0.145741 0.128793 0.00839734 0.000735976 0.000122742 0 0 0 0 
854 0.680439 0.138332 0.172207 0.00818873 0.00071433 0.000119132 0 0 0 0 
855 0.100912 0.876975 0.0202016 0.0014897 0.00042134 0 0 0 0 0 
856 0.0848954 0.892681 0.0204861 0.00151068 0.000427274 0 0 0 0 0 
857 0.701071 0.159771 0.12975 0.00854986 0.000735976 0.000122742 0 0 0 0 
858 0.00104867 0.956531 0.041436 0.000984174 0 0 0 0 0 0 
859 0.091329 0.884548 0.0220381 0.00162513 0.000459644 0 0 0 0 0 
860 1.08743e-06 0.907568 0.0880501 0.0029099 0 0.00147053 0 0 0 0 
861 0.200834 0.794738 0.00375922 0.000400859 0 0.000267457 0 0 0 0 
862 0.00124227 0.948506 0.0490857 0.00116587 0 0 0 0 0 0 
863 0.00851497 0.949412 0.0359405 0.00473337 0.00139931 0 0 0 0 0 
864 0.121946 0.850333 0.0248787 0.0022784 0.000563034 0 0 0 0 0 
865 0.0876508 0.830086 0.0545341 0.0275456 0 0.000183628 0 0 0 0 
866 0.11832 0.854788 0.0241361 0.00221039 0.000546227 0 0 0 0 0 
867 0.19197 0.803797 0.00359337 0.000383174 0 0.000255658 0 0 0 0 
868 0.459392 0.435396 0.051791 0.0348287 0.0103675 0.00544492 0.00137958 0.00107123 0.000329096 0 
869 1.15235e-06 0.888506 0.106851 0.00308362 0 0.00155832 0 0 0 0 
870 0.0526837 0.919623 0.0269899 0.000351921 0.000351867 0 0 0 0 0 
871 0.0532338 0.893061 0.0409296 0.0072925 0.00548356 0 0 0 0 0 
872 0.0548717 0.88977 0.042189 0.00751688 0.00565228 0 0 0 0 0 
873 0.436258 0.543143 0.0127858 0.00444018 0.00285918 0.000513368 0 0 0 0 
874 0.103791 0.821837 0.0530367 0.0211173 0 0.000217399 0 0 0 0 
875 0.011921 0.929177 0.0503167 0.00662672 0.00195904 0 0 0 0 0 
876 0.187747 0.808786 0.00294397 0.000313926 0 0.000209455 0 0 0 0 
877 0.0927318 0.882774 0.0223772 0.00165013 0.000466715 0 0 0 0 0 
878 0.0534892 0.903036 0.0427605 0.000357335 0.00035728 0 0 0 0 0 
879 0.742575 0.187662 0.0342761 0.0231362 0.00688701 0.00361698 0.000916433 0.000711604 0.000218614 0 
880 0 0.832115 0.167885 0 0 0 0 0 0 0 
881 0.107168 0.87675 0.0146921 0.00108342 0.000306429 0 0 0 0 0 
882 0.0534892 0.918391 0.0274051 0.000357335 0.00035728 0 0 0 0 0 
883 0.251539 0.72146 0.0167596 0.00582024 0.00374784 0.000672928 0 0 0 0 
884 0.0115651 0.931291 0.0488147 0.0064289 0.00190056 0 0 0 0 0 
885 0.270983 0.698278 0.0190802 0.00662612 0.00426677 0.000766102 0 0 0 0 
886 0.0453683 0.922118 0.0231869 0.00923217 0 9.50438e-05 0 0 0 0 
887 1.15235e-06 0.90205 0.0933068 0.00308362 0 0.00155832 0 0 0 0 
888 0.701058 0.142462 0.119644 0.0359435 0.000769891 0.000122742 0 0 0 0 
889 0.516595 0.305119 0.0762333 0.0758532 0.0146088 0.00767238 0.00194395 0.00150946 0.000463727 0 
890 0.011395 0.932301 0.0480969 0.00633436 0.00187261 0 0 0 0 0 
891 0.524543 0.309814 0.0738546 0.0651871 0.0148336 0.00779042 0.00197386 0.00153268 0.000470861 0 
892 0.00124227 0.948506 0.0490857 0.00116587 0 0 0 0 0 0 
893 0.255211 0.717419 0.0169893 0.00589997 0.00379918 0.000682146 0 0 0 0 
894 0.117247 0.746771 0.11187 0.0238662 0 0.000245633 0 0 0 0 
895 0.121946 0.850333 0.0248787 0.0022784 0.000563034 0 0 0 0 0 
896 0.616931 0.125497 0.24939 0.0074259 0.000647659 0.000108013 0 0 0 0 
897 0.0511294 0.921991 0.0261961 0.00034157 0.000341518 0 0 0 0 0 
898 0.197788 0.797852 0.00370226 0.000394786 0 0.000263405 0 0 0 0 
899 0.530724 0.306158 0.0876302 0.04929 0.0146088 0.00767238 0.00194395 0.00150946 0.000463727 0 
900 0.162374 0.834241 0.0028747 0.000306539 0 0.000204526 0 0 0 0 
901 0.0534892 0.918391 0.0274051 0.000357335 0.00035728 0 0 0 0 0 
902 0.200831 0.794742 0.00375922 0.000400859 0 0.000267457 0 0 0 0 
903 1.1354e-06 0.903491 0.0919346 0.00303828 0 0.0015354 0 0 0 0 
904 0.0534892 0.918391 0.0274051 0.000357335 0.00035728 0 0 0 0 0 
905 0.308407 0.66752 0.0149423 0.00518913 0.00334145 0.00059996 0 0 0 0 
906 0.270983 0.698264 0.0190945 0.00662612 0.00426677 0.000766102 0 0 0 0 
907 0.115744 0.801303 0.0591563 0.0235539 0 0.000242483 0 0 0 0 
908 0.0534892 0.918391 0.0274051 0.000357335 0.00035728 0 0 0 0 0 
909 0.189188 0.806641 0.00354129 0.000377621 0 0.000251953 0 0 0 0 
910 0.138893 0.761564 0.0709876 0.0282646 0 0.00029098 0 0 0 0 
911 0.0518925 0.920827 0.026587 0.000346668 0.000346615 0 0 0 0 0 
912 0.303632 0.675458 0.0204677 0.000221207 0.000221174 0 0 0 0 0 
913 0.120099 0.852601 0.0245018 0.00224388 0.000554503 0 0 0 0 0 
914 0.00124227 0.942344 0.0552481 0.00116587 0 0 0 0 0 0 
915 0.524543 0.309814 0.0738747 0.065167 0.0148336 0.00779042 0.00197386 0.00153268 0.000470861 0 
916 0.0390653 0.929162 0.0312507 0.000260975 0.000260935 0 0 0 0 0 
917 0.0534892 0.918391 0.0274051 0.000357335 0.00035728 0 0 0 0 0 
918 0.0152823 0.939458 0.0407008 0.00455844 0 0 0 0 0 0 
919 0.524543 0.309814 0.0738279 0.0652137 0.0148337 0.00779042 0.00197386 0.00153268 0.000470861 0 
920 0.0526788 0.919628 0.0269899 0.000351921 0.000351867 0 0 0 0 0 
921 0.178822 0.817236 0.00334725 0.000356929 0 0.000238147 0 0 0 0 
922 0.0534892 0.918391 0.0274051 0.000357335 0.00035728 0 0 0 0 0 
923 0.270983 0.698278 0.0190802 0.00662612 0.00426677 0.000766102 0 0 0 0 
924 0.0927318 0.882774 0.0223772 0.00165013 0.000466715 0 0 0 0 0 
925 0.138893 0.761564 0.0709876 0.0282646 0 0.00029098 0 0 0 0 
926 0.0534892 0.918391 0.0274051 0.000357335 0.00035728 0 0 0 0 0 
927 0.0534892 0.918391 0.0274051 0.000357335 0.00035728 0 0 0 0 0 
928 0.270983 0.698278 0.0190802 0.00662612 0.00426677 0.000766102 0 0 0 0 
929 0.712833 0.162874 0.115176 0.008272 0.000724991 0.00012091 0 0 0 0 
930 0.717352 0.160182 0.113482 0.00815035 0.00071433 0.000119132 0 0 0 0 
931 0.121946 0.850333 0.0248787 0.0022784 0.000563034 0 0 0 0 0 
932 0.113236 0.832454 0.0516717 0.00211566 0.000522817 0 0 0 0 0 
933 0.183005 0.812596 0.00379584 0.000361887 0 0.000241455 0 0 0 0 
934 1.16981e-06 0.900566 0.0947205 0.00313035 0 0.00158193 0 0 0 0 
935 1.18781e-06 0.899036 0.0961778 0.0031785 0 0.00160627 0 0 0 0 
936 0.0152823 0.939458 0.0407008 0.00455844 0 0 0 0 0 0 
937 0.0534892 0.918391 0.0274051 0.000357335 0.00035728 0 0 0 0 0 
938 0.138893 0.761564 0.0709876 0.0282646 0 0.00029098 0 0 0 0 
939 0.011921 0.929177 0.0503167 0.00662672 0.00195904 0 0 0 0 0 
940 1.16981e-06 0.900566 0.0947205 0.00313035 0 0.00158193 0 0 0 0 
941 0.152614 0.844152 0.0027455 0.000292762 0 0.000195334 0 0 0 0 
942 0.0503884 0.923122 0.0258164 0.00033662 0.000336569 0 0 0 0 0 
943 0.011921 0.929177 0.0503167 0.00662672 0.00195904 0 0 0 0 0 
944 0.197788 0.797852 0.00370226 0.000394786 0 0.000263405 0 0 0 0 
945 0.0591529 0.925238 0.01426 0.00105155 0.000297416 0 0 0 0 0 
946 0.179694 0.799547 0.0186363 0.00170225 0.000420658 0 0 0 0 0 
947 0.011395 0.932301 0.0480969 0.00633436 0.00187261 0 0 0 0 0 
948 0.134754 0.768674 0.0688685 0.0274209 0 0.000282294 0 0 0 0 
949 0.183859 0.812088 0.00344154 0.000366984 0 0.000244855 0 0 0 0 
950 0.128478 0.78857 0.0591563 0.0235539 0 0.000242483 0 0 0 0 
951 0.270983 0.682893 0.019185 0.021906 0.00426677 0.000766102 0 0 0 0 
952 0.121948 0.861054 0.0152558 0.00139713 0.000345257 0 0 0 0 0 
953 0.0927318 0.882774 0.0223772 0.00165013 0.000466715 0 0 0 0 0 
954 0.270983 0.682893 0.0190811 0.0220098 0.00426677 0.000766102 0 0 0 0 
955 0.011921 0.929177 0.0503167 0.00662672 0.00195904 0 0 0 0 0 
956 0.266877 0.70285 0.0187911 0.00652572 0.00420212 0.000754495 0 0 0 0 
957 0.121946 0.850333 0.0248787 0.0022784 0.000563034 0 0 0 0 0 
958 0.24138 0.639007 0.109232 0.00589997 0.00379918 0.000682146 0 0 0 0 
959 0.116566 0.856936 0.0237811 0.00217788 0.000538194 0 0 0 0 0 
960 0.244637 0.664001 0.0808365 0.00598191 0.00385195 0.00069162 0 0 0 0 
961 0.244637 0.635765 0.109073 0.00598191 0.00385195 0.00069162 0 0 0 0 
962 0.327624 0.645006 0.0169892 0.00589997 0.00379918 0.000682146 0 0 0 0 
963 0.0112361 0.956077 0.029395 0.00329221 0 0 0 0 0 0 
964 0.0921689 0.88688 0.0188037 0.00172205 0.000425549 0 0 0 0 0 
965 0.0273991 0.965364 0.00661143 0.000487538 0.000137893 0 0 0 0 0 
966 0.0899637 0.886273 0.0217092 0.00160087 0.000452783 0 0 0 0 0 
967 0.0534892 0.918391 0.0274051 0.000357335 0.00035728 0 0 0 0 0 
968 0.138893 0.761564 0.0709876 0.0282646 0 0.00029098 0 0 0 0 
969 0.0534892 0.918391 0.0274051 0.000357335 0.00035728 0 0 0 0 0 
970 0.0825695 0.895621 0.0199249 0.00146929 0.000415568 0 0 0 0 0 
971 0.138893 0.761564 0.0709876 0.0282646 0 0.00029098 0 0 0 0 
972 0.0109135 0.921078 0.0601486 0.00606671 0.00179349 0 0 0 0 0 
973 0.200831 0.794742 0.00375922 0.000400859 0 0.000267457 0 0 0 0 
974 0.251627 0.648691 0.0888563 0.00615283 0.003962 0.000711381 0 0 0 0 
975 0.138893 0.761564 0.0709876 0.0282646 0 0.00029098 0 0 0 0 
976 0.0927318 0.882774 0.0223772 0.00165013 0.000466715 0 0 0 0 0 
977 0.480756 0.385452 0.0657353 0.0443707 0.013208 0.00693667 0.00175754 0.00136472 0.00041926 0 
978 0.0534892 0.903007 0.0427895 0.000357335 0.00035728 0 0 0 0 0 
979 0.121946 0.834949 0.0402631 0.0022784 0.000563034 0 0 0 0 0 
980 0.0534892 0.903007 0.0427895 0.000357335 0.00035728 0 0 0 0 0 
981 0.671065 0.240111 0.0456232 0.0281658 0.00838419 0.00440328 0.00111566 0.0008663 0.000266139 0 
982 0.44994 0.424845 0.0615211 0.0415265 0.0123613 0.00649201 0.00164488 0.00127724 0.000392384 0 
983 0.227531 0.768356 0.00349248 0.000372226 0 0.000248353 0 0 0 0 
984 0.203512 0.792256 0.00359347 0.000383174 0 0.000255658 0 0 0 0 
985 0.349848 0.646918 0.0027455 0.000292762 0 0.000195334 0 0 0 0 
986 0.104296 0.871996 0.0212778 0.00194863 0.000481542 0 0 0 0 0 
987 0.156524 0.840017 0.00294255 0.000310189 0 0.000206961 0 0 0 0 
988 0.0927318 0.882774 0.0223772 0.00165013 0.000466715 0 0 0 0 0 
989 0.00944954 0.931616 0.052129 0.00525288 0.0015529 0 0 0 0 0 
990 0.117247 0.798723 0.0599246 0.0238598 0 0.000245633 0 0 0 0 
991 0.0115651 0.931291 0.0488147 0.0064289 0.00190056 0 0 0 0 0 
992 0.0927318 0.882774 0.0223772 0.00165013 0.000466715 0 0 0 0 0 
993 0.117263 0.880681 0.0017454 0.000186113 0 0.000124177 0 0 0 0 
994 0.0843276 0.896504 0.0172034 0.00157549 0.000389332 0 0 0 0 0 
995 0.122 0.78356 0.0693573 0.024827 0 0.000255591 0 0 0 0 
996 0.19197 0.774562 0.0328288 0.000383174 0 0.000255658 0 0 0 0 
997 0.0861081 0.890404 0.0215225 0.00153226 0.000433378 0 0 0 0 0 
998 0.0117403 0.929176 0.0506285 0.00652631 0.00192936 0 0 0 0 0 
999 0.284395 0.689315 0.0163186 0.00566708 0.00364921 0.000655219 0 0 0 0 
1000 0.130841 0.775386 0.0668724 0.0266261 0 0.000274112 0 0 0 0 
1001 0.118306 0.854801 0.0241361 0.00221039 0.000546227 0 0 0 0 0 
1002 0.00993413 0.928154 0.0547569 0.00552226 0.00163253 0 0 0 0 0 
1003 0.118306 0.854801 0.0241361 0.00221039 0.000546227 0 0 0 0 0 
1004 0.110098 0.864691 0.0226459 0.00205689 0.000508295 0 0 0 0 0 
1005 0.271012 0.698229 0.0191004 0.00662612 0.00426677 0.000766102 0 0 0 0 
1006 0.186486 0.809403 0.0034907 0.000372226 0 0.000248353 0 0 0 0 
1007 0.255274 0.715769 0.0179741 0.006242 0.00401942 0.000721691 0 0 0 0 
1008 0.270983 0.682893 0.0190802 0.00670296 0.0195745 0.000766102 0 0 0 0 
1009 0.0899637 0.886273 0.0217092 0.00160087 0.000452783 0 0 0 0 0 
1010 0.130841 0.775386 0.0668724 0.0266261 0 0.000274112 0 0 0 0 
1011 0.225821 0.756128 0.0112235 0.00388016 0.00249856 0.000448619 0 0 0 0 
1012 0.516634 0.320226 0.0729977 0.0639434 0.0146088 0.00767238 0.00194395 0.00150946 0.000463727 0 
1013 0.0369872 0.943568 0.0189503 0.000247093 0.000247056 0 0 0 0 0 
1014 0.508885 0.345342 0.0716216 0.0483442 0.0143908 0.00755787 0.00191493 0.00148693 0.000456805 0 
1015 0.0559089 0.921244 0.0222667 0.000290334 0.00029029 0 0 0 0 0 
1016 0.0861081 0.819719 0.0922072 0.00153226 0.000433378 0 0 0 0 0 
1017 0.00124227 0.948506 0.0490857 0.00116587 0 0 0 0 0 0 
1018 0.467097 0.399111 0.0657349 0.0443707 0.013208 0.00693667 0.00175754 0.00136472 0.00041926 0 
1019 0.524543 0.309849 0.0891742 0.0498318 0.0148336 0.00779042 0.00197386 0.00153268 0.000470861 0 
1020 0.134747 0.768681 0.0688685 0.0274209 0 0.000282294 0 0 0 0 
1021 0.011921 0.929177 0.0503167 0.00662672 0.00195904 0 0 0 0 0 
1022 0.508885 0.345342 0.0716216 0.0483442 0.0143908 0.00755787 0.00191493 0.00148693 0.000456805 0 
1023 0.092736 0.88277 0.0223772 0.00165013 0.000466715 0 0 0 0 0 
1024 0.121946 0.850333 0.0248787 0.0022784 0.000563034 0 0 0 0 0 
1025 0.0526788 0.919628 0.0269899 0.000351921 0.000351867 0 0 0 0 0 
1026 0.19857 0.784993 0.0103737 0.00344558 0.00221872 0.000398373 0 0 0 0 
1027 0.262894 0.707285 0.0185107 0.00642833 0.0041394 0.000743234 0 0 0 0 
1028 0.118306 0.854801 0.0241361 0.00221039 0.000546227 0 0 0 0 0 
1029 0.467059 0.38545 0.0657584 0.0580459 0.013208 0.00693667 0.00175754 0.00136472 0.00041926 0 
1030 0.0399632 0.81527 0.144233 0.000266974 0.000266934 0 0 0 0 0 
1031 0.194836 0.800869 0.003647 0.000388893 0 0.000259474 0 0 0 0 
1032 0.524543 0.309814 0.0738908 0.0651509 0.0148336 0.00779042 0.00197386 0.00153268 0.000470861 0 
1033 0.503009 0.494547 0.00207838 0.000218957 0 0.00014609 0 0 0 0 
1034 0.516596 0.306167 0.101962 0.0490767 0.0146088 0.00767238 0.00194395 0.00150946 0.000463727 0 
1035 0.0518925 0.920827 0.026587 0.000346668 0.000346615 0 0 0 0 0 
1036 0.524543 0.309814 0.0738347 0.0652035 0.0148371 0.00779042 0.00197386 0.00153268 0.000470861 0 
1037 0.266877 0.698751 0.02289 0.00652572 0.00420212 0.000754495 0 0 0 0 
1038 0.101849 0.846105 0.050052 0.00155447 0.000439659 0 0 0 0 0 
1039 0.642637 0.133398 0.215469 0.007709 0.000674645 0.000112513 0 0 0 0 
1040 0.136788 0.765177 0.069912 0.0278364 0 0.000286571 0 0 0 0 
1041 0.524543 0.309814 0.0738264 0.0651069 0.014942 0.00779042 0.00197386 0.00153268 0.000470861 0 
1042 0.0927318 0.882774 0.0223772 0.00165013 0.000466715 0 0 0 0 0 
1043 0.270983 0.682893 0.0190802 0.00662913 0.0196379 0.000776621 0 0 0 0 
1044 0.0921689 0.88688 0.0188037 0.00172205 0.000425549 0 0 0 0 0 
1045 0.508885 0.315491 0.0716253 0.0781915 0.0143908 0.00755787 0.00191493 0.00148693 0.000456805 0 
1046 0.26857 0.701157 0.0187911 0.00652572 0.00420212 0.000754495 0 0 0 0 
1047 0.134747 0.768681 0.0688685 0.0274209 0 0.000282294 0 0 0 0 
1048 0.0927318 0.882774 0.0223772 0.00165013 0.000466715 0 0 0 0 0 
1049 0.189188 0.806641 0.00354129 0.000377621 0 0.000251953 0 0 0 0 
1050 0.0548717 0.88977 0.042189 0.00751688 0.00565228 0 0 0 0 0 
1051 0.231762 0.741948 0.0163186 0.00566708 0.00364921 0.000655219 0 0 0 0 
1052 0.524543 0.309814 0.0738254 0.0498577 0.0275223 0.0104604 0.00197386 0.00153269 0.000470861 0 
1053 0.011395 0.932301 0.0480969 0.00633436 0.00187261 0 0 0 0 0 
1054 0.0518925 0.920827 0.026587 0.000346668 0.000346615 0 0 0 0 0 
1055 0.011921 0.929177 0.0503167 0.00662672 0.00195904 0 0 0 0 0 
1056 0.207942 0.770802 0.0131938 0.00458189 0.00295043 0.000529752 0 0 0 0 
1057 0.207912 0.788579 0.00297989 0.000317754 0 0.000212009 0 0 0 0 
1058 0.011921 0.913792 0.0512002 0.0211279 0.00195904 0 0 0 0 0 
1059 0.266888 0.687739 0.0338903 0.00652572 0.00420212 0.000754495 0 0 0 0 
1060 0.132765 0.742671 0.0972674 0.0270177 0 0.000278143 0 0 0 0 
1061 0.136788 0.765177 0.069912 0.0278364 0 0.000286571 0 0 0 0 
1062 0.154204 0.746252 0.0709876 0.0282646 0 0.00029098 0 0 0 0 
1063 0.121946 0.850333 0.0248787 0.0022784 0.000563034 0 0 0 0 0 
1064 1.18781e-06 0.899036 0.0961778 0.0031785 0 0.00160627 0 0 0 0 
1065 0.144436 0.756021 0.0709876 0.0282646 0 0.00029098 0 0 0 0 
1066 0.121946 0.850333 0.0248787 0.0022784 0.000563034 0 0 0 0 0 
1067 0.136788 0.765177 0.069912 0.0278364 0 0.000286571 0 0 0 0 
1068 0.00922455 0.945196 0.0389356 0.00512782 0.00151592 0 0 0 0 0 
1069 0.180198 0.815723 0.00349192 0.000352106 0 0.000234929 0 0 0 0 
1070 0.230461 0.76565 0.00330202 0.000352106 0 0.000234929 0 0 0 0 
1071 0.118306 0.854801 0.0241361 0.00221039 0.000546227 0 0 0 0 0 
1072 7.39694e-06 0.913687 0.0822667 0.00268315 0 0.00135594 0 0 0 0 
1073 1.18781e-06 0.899036 0.0961778 0.0031785 0 0.00160627 0 0 0 0 
1074 0 0.757576 0.242424 0 0 0 0 0 0 0 
1075 0.0511294 0.921991 0.0261961 0.00034157 0.000341518 0 0 0 0 0 
1076 0.200831 0.794742 0.00375922 0.000400859 0 0.000267457 0 0 0 0 
1077 0.011921 0.929177 0.0503167 0.00662672 0.00195904 0 0 0 0 0 
1078 0 0.999999 0 0 0 0 0 0 0 0 
1079 0.166143 0.813146 0.0185875 0.00170225 0.000420658 0 0 0 0 0 
1080 0.14516 0.843486 0.0110658 0.000144266 0.000144244 0 0 0 0 0 
1081 0.241308 0.732051 0.0165362 0.00574264 0.00369787 0.000663955 0 0 0 0 
1082 0.238444 0.734556 0.0167596 0.00582024 0.00374784 0.000672928 0 0 0 0 
1083 0.0927318 0.882774 0.0223772 0.00165013 0.000466715 0 0 0 0 0 
1084 0.11879 0.796074 0.0607131 0.0241737 0 0.000248865 0 0 0 0 
1085 0.266877 0.70285 0.0187911 0.00652572 0.00420212 0.000754495 0 0 0 0 
1086 0.0927372 0.882769 0.0223772 0.00165013 0.000466715 0 0 0 0 0 
1087 0.128972 0.778595 0.065917 0.0262457 0 0.000270196 0 0 0 0 
1088 0.0927318 0.882774 0.0223772 0.00165013 0.000466715 0 0 0 0 0 
1089 0.200831 0.794742 0.00375922 0.000400859 0 0.000267457 0 0 0 0 
1090 0.197788 0.797852 0.00370226 0.000394786 0 0.000263405 0 0 0 0 
1091 0.011921 0.929177 0.0503167 0.00662672 0.00195904 0 0 0 0 0 
1092 0.104889 0.871348 0.0217092 0.00160087 0.000452783 0 0 0 0 0 
1093 0.00122345 0.949286 0.048342 0.0011482 0 0 0 0 0 0 
1094 0.147498 0.742644 0.0825616 0.0270177 0 0.000278143 0 0 0 0 
1095 1.19129e-06 0.899036 0.096178 0.0031785 0 0.00160627 0 0 0 0 
1096 0.00117025 0.951491 0.0462401 0.00109828 0 0 0 0 0 0 
1097 1.18781e-06 0.883652 0.0961778 0.0031785 0 0.0169909 0 0 0 0 
1098 0.0979276 0.867686 0.032106 0.00182835 0.000451817 0 0 0 0 0 
1099 0.154403 0.842435 0.00268516 0.000286328 0 0.000191041 0 0 0 0 
1100 0.011921 0.929177 0.0503167 0.00662672 0.00195904 0 0 0 0 0 
1101 0.544351 0.110753 0.33768 0.00654874 0.000571464 9.53052e-05 0 0 0 0 
1102 0.00124227 0.948506 0.0490857 0.00116587 0 0 0 0 0 0 
1103 0.225865 0.739274 0.0144256 0.0166315 0.00322488 0.000579031 0 0 0 0 
1104 0.0888988 0.890668 0.0187128 0.00134073 0.000379206 0 0 0 0 0 
1105 1.15235e-06 0.902048 0.0933087 0.00308362 0 0.00155832 0 0 0 0 
1106 0.138893 0.761564 0.0709876 0.0282646 0 0.00029098 0 0 0 0 
1107 0.0563324 0.925048 0.017334 0.00100241 0.000283518 0 0 0 0 0 
1108 0.467278 0.290369 0.17365 0.045016 0.013208 0.00693667 0.00175754 0.00136472 0.00041926 0 
1109 0.121946 0.850333 0.0248787 0.0022784 0.000563034 0 0 0 0 0 
1110 0.508628 0.349824 0.0695456 0.046943 0.0139736 0.0073388 0.00185943 0.00144383 0.000443564 0 
1111 0.0112299 0.933282 0.0473998 0.00624256 0.00184547 0 0 0 0 0 
1112 0.10389 0.862333 0.0315518 0.00178429 0.00044093 0 0 0 0 0 
1113 0.0548717 0.88977 0.042189 0.00751688 0.00565228 0 0 0 0 0 
1114 0.0534892 0.918391 0.0274051 0.000357335 0.00035728 0 0 0 0 0 
1115 0.125389 0.784745 0.064086 0.0255167 0 0.00026269 0 0 0 0 
1116 0.011921 0.929177 0.0503167 0.00662672 0.00195904 0 0 0 0 0 
1117 0.138893 0.761564 0.0709876 0.0282646 0 0.00029098 0 0 0 0 
1118 0.011921 0.929177 0.0503167 0.00662672 0.00195904 0 0 0 0 0 
1119 0.200843 0.794729 0.00375922 0.000400859 0 0.000267457 0 0 0 0 
1120 0.00993945 0.940845 0.0420611 0.00552226 0.00163253 0 0 0 0 0 
1121 0.508885 0.300987 0.115976 0.0483442 0.0143908 0.00755787 0.00191493 0.00148693 0.000456805 0 
1122 0.167359 0.816131 0.0159526 0.000334076 0 0.000222881 0 0 0 0 
1123 0.0511294 0.921991 0.0261961 0.00034157 0.000341518 0 0 0 0 0 
1124 0.136788 0.765177 0.069912 0.0278364 0 0.000286571 0 0 0 0 
1125 0.136788 0.765177 0.069912 0.0278364 0 0.000286571 0 0 0 0 
1126 0.120099 0.852601 0.0245018 0.00224388 0.000554503 0 0 0 0 0 
1127 0.132765 0.772083 0.0678558 0.0270177 0 0.000278143 0 0 0 0 
1128 0.121949 0.850331 0.0248787 0.0022784 0.000563034 0 0 0 0 0 
1129 0.21893 0.757547 0.0146072 0.00506703 0.00326282 0.000585843 0 0 0 0 
1130 0.0880728 0.891907 0.017968 0.00164551 0.000406636 0 0 0 0 0 
1131 0.214804 0.760592 0.0153627 0.00525241 0.0033822 0.000607276 0 0 0 0 
1132 0.194836 0.800846 0.00366955 0.000388893 0 0.000259474 0 0 0 0 
1133 0.086808 0.850977 0.0443672 0.0176654 0 0.000181863 0 0 0 0 
1134 0.670578 0.136315 0.184206 0.00808079 0.000703977 0.000117405 0 0 0 0 
1135 0.0667703 0.917148 0.0146921 0.00108342 0.000306429 0 0 0 0 0 
1136 0.291857 0.686659 0.0133356 0.00463116 0.00298215 0.000535448 0 0 0 0 
1137 0.0913268 0.88455 0.0220381 0.00162513 0.000459644 0 0 0 0 0 
1138 0.0899637 0.886273 0.0217092 0.00160087 0.000452783 0 0 0 0 0 
1139 0.0900882 0.886149 0.0217093 0.00160087 0.000452783 0 0 0 0 0 
1140 0.642637 0.130823 0.218055 0.00769775 0.000674645 0.000112513 0 0 0 0 
1141 0.183859 0.812088 0.00344154 0.000366984 0 0.000244855 0 0 0 0 
1142 0.200831 0.794742 0.00375922 0.000400859 0 0.000267457 0 0 0 0 
1143 0.0913268 0.88455 0.0220381 0.00162513 0.000459644 0 0 0 0 0 
1144 0.488878 0.382742 0.0646852 0.0415265 0.0123613 0.00649201 0.00164488 0.00127724 0.000392384 0 
1145 1.18781e-06 0.899036 0.0961778 0.0031785 0 0.00160627 0 0 0 0 
1146 0.262894 0.707285 0.0185106 0.00642833 0.0041394 0.000743234 0 0 0 0 
1147 0.00993413 0.940981 0.0419306 0.00552226 0.00163253 0 0 0 0 0 
1148 0.0940421 0.838559 0.0480645 0.0191375 0 0.000197018 0 0 0 0 
1149 0.0511294 0.921991 0.0261961 0.00034157 0.000341518 0 0 0 0 0 
1150 0.102942 0.860671 0.0339882 0.00192333 0.000475288 0 0 0 0 0 
1151 0.128972 0.778595 0.065917 0.0262457 0 0.000270196 0 0 0 0 
1152 0.441616 0.442113 0.0571268 0.0385603 0.0114784 0.0060283 0.00152739 0.00118601 0.000364357 0 
1153 0.0886407 0.887946 0.0213899 0.00157733 0.000446125 0 0 0 0 0 
1154 0.00963521 0.944236 0.0394047 0.0051896 0.00153419 0 0 0 0 0 
1155 0.00102212 0.957632 0.0403869 0.000959258 0 0 0 0 0 0 
1156 0.524543 0.309814 0.0738371 0.0652046 0.0148336 0.00779042 0.00197386 0.00153268 0.000470861 0 
1157 1.15235e-06 0.862737 0.13262 0.00308362 0 0.00155832 0 0 0 0 
1158 0.0387641 0.922168 0.0333733 0.00439527 0.00129936 0 0 0 0 0 
1159 0.516596 0.305148 0.102981 0.0490772 0.0146088 0.00767238 0.00194395 0.00150946 0.000463727 0 
1160 0.160919 0.821077 0.0111768 0.00388016 0.00249856 0.000448619 0 0 0 0 
1161 0.516595 0.305131 0.102998 0.0490767 0.0146088 0.00767238 0.00194395 0.00150946 0.000463727 0 
1162 0.524543 0.309814 0.08921 0.0498318 0.0148336 0.00779042 0.00197386 0.00153268 0.000470861 0 
1163 0.142249 0.854929 0.00239558 0.00025545 0 0.000170439 0 0 0 0 
1164 0.0837163 0.894171 0.0202016 0.0014897 0.00042134 0 0 0 0 0 
1165 0.0717568 0.909289 0.0173157 0.00127688 0.000361148 0 0 0 0 0 
1166 0.0526788 0.919628 0.0269899 0.000351921 0.000351867 0 0 0 0 0 
1167 9.89838e-07 0.915864 0.0801481 0.00264875 0 0.00133856 0 0 0 0 
1168 0.361637 0.524568 0.0625773 0.0333924 0.00994002 0.00522038 0.00132269 0.00102706 0.000315525 0 
1169 0.0481981 0.903176 0.0370579 0.00660267 0.00496484 0 0 0 0 0 
1170 0.234852 0.613387 0.128324 0.00582279 0.016951 0.000663957 0 0 0 0 
1171 9.53178e-07 0.91898 0.0771797 0.00255065 0 0.00128898 0 0 0 0 
1172 0.711844 0.144653 0.120105 0.0225255 0.000747299 0.00012463 0 0 0 0 
1173 0.0526788 0.919628 0.0269899 0.000351921 0.000351867 0 0 0 0 0 
1174 0.138893 0.761564 0.0709876 0.0282646 0 0.00029098 0 0 0 0 
1175 0.601373 0.134945 0.255739 0.00720791 0.000630836 0.000105207 0 0 0 0 
1176 0.516595 0.305119 0.0728732 0.0792134 0.0146088 0.00767238 0.00194395 0.00150946 0.000463727 0 
1177 0.473546 0.285024 0.158616 0.0587991 0.0133914 0.00703302 0.00178195 0.00138367 0.000425083 0 
1178 0.136788 0.765177 0.069912 0.0278364 0 0.000286571 0 0 0 0 
1179 0.0955003 0.882791 0.0194833 0.00178429 0.00044093 0 0 0 0 0 
1180 0.0482889 0.926325 0.0247407 0.000322594 0.000322545 0 0 0 0 0 
1181 0.0680327 0.909946 0.0214618 0.00027984 0.000279798 0 0 0 0 0 
1182 0.578373 0.117578 0.296413 0.0069278 0.00060718 0.000101262 0 0 0 0 
1183 0.00115354 0.952184 0.0455796 0.00108259 0 0 0 0 0 0 
1184 1.05764e-06 0.910101 0.0856377 0.00283017 0 0.00143024 0 0 0 0 
1185 0.258526 0.713723 0.0172252 0.00598191 0.00385195 0.00069162 0 0 0 0 
1186 0.18359 0.797737 0.0115908 0.00402521 0.00259196 0.000465389 0 0 0 0 
1187 0.11879 0.796074 0.0607131 0.0241737 0 0.000248865 0 0 0 0 
1188 0.564266 0.114924 0.313355 0.00676353 0.000592371 9.8792e-05 0 0 0 0 
1189 0.128972 0.778595 0.065917 0.0262457 0 0.000270196 0 0 0 0 
1190 0.259028 0.656143 0.0736845 0.00633379 0.00407853 0.000732304 0 0 0 0 
1191 0.228752 0.745299 0.0161067 0.00559348 0.00360182 0.00064671 0 0 0 0 
1192 0.248083 0.629985 0.111258 0.00606617 0.0039062 0.000701361 0 0 0 0 
1193 0.00124227 0.948506 0.0490857 0.00116587 0 0 0 0 0 0 
1194 0.132765 0.772083 0.0678558 0.0270177 0 0.000278143 0 0 0 0 
1195 0.167201 0.829978 0.00239559 0.00025545 0 0.000170439 0 0 0 0 
1196 0.120099 0.852601 0.0245018 0.00224388 0.000554503 0 0 0 0 0 
1197 0.308092 0.625884 0.0470841 0.018747 0 0.000192997 0 0 0 0 
1198 0.262279 0.708338 0.0182384 0.00633379 0.00407853 0.000732304 0 0 0 0 
1199 0.233582 0.7493 0.0165227 0.000356929 0 0.000238147 0 0 0 0 
1200 0.114877 0.85901 0.0234365 0.00214632 0.000530394 0 0 0 0 0 
1201 0.516596 0.30512 0.0727401 0.0792885 0.0146669 0.00767238 0.00194395 0.00150946 0.000463727 0 
1202 0.600907 0.122126 0.269031 0.0072003 0.000630836 0.000105207 0 0 0 0 
1203 0.244887 0.727362 0.0172252 0.00598191 0.00385195 0.00069162 0 0 0 0 
1204 0.0503918 0.923119 0.0258164 0.00033662 0.000336569 0 0 0 0 0 
1205 0.524543 0.310094 0.0889301 0.0498318 0.0148336 0.00779042 0.00197386 0.00153268 0.000470861 0 
1206 0.228752 0.589455 0.0161113 0.161433 0.00360182 0.00064671 0 0 0 0 
1207 0.7839 0.21324 0.00118754 0.0014182 0.000254911 0 0 0 0 0 
1208 0.00117025 0.951491 0.0462401 0.00109828 0 0 0 0 0 0 
1209 0.121118 0.851989 0.0241361 0.00221039 0.000546227 0 0 0 0 0 
1210 0.102942 0.873658 0.0210015 0.00192333 0.000475288 0 0 0 0 0 
1211 0.138894 0.761563 0.0709876 0.0282646 0 0.00029098 0 0 0 0 
1212 0.127163 0.781706 0.0649886 0.0258761 0 0.00026639 0 0 0 0 
1213 0.00115354 0.952184 0.0455796 0.00108259 0 0 0 0 0 0 
1214 0.04346 0.933693 0.0222667 0.000290334 0.00029029 0 0 0 0 0 
1215 0.128979 0.770617 0.0738881 0.0262457 0 0.000270196 0 0 0 0 
1216 0.0927318 0.882774 0.0223772 0.00165013 0.000466715 0 0 0 0 0 
1217 0.123672 0.787694 0.0632081 0.0251671 0 0.000259092 0 0 0 0 
1218 0.0772765 0.902312 0.0186476 0.00137511 0.000388929 0 0 0 0 0 
1219 0.0927318 0.882774 0.0223772 0.00165013 0.000466715 0 0 0 0 0 
1220 0.680439 0.138273 0.172304 0.00815052 0.000714329 0.000119132 0 0 0 0 
1221 0.218979 0.777079 0.00334725 0.000356929 0 0.000238147 0 0 0 0 
1222 0 0.942843 0.0571572 0 0 0 0 0 0 0 
1223 1.04334e-06 0.911316 0.0844805 0.00279193 0 0.00141091 0 0 0 0 
1224 1.1354e-06 0.844684 0.150741 0.00303828 0 0.0015354 0 0 0 0 
1225 0.136788 0.750025 0.0850635 0.0278364 0 0.000286571 0 0 0 0 
1226 0.0103315 0.93862 0.0436078 0.00574315 0.00169784 0 0 0 0 0 
1227 0.00118746 0.950778 0.0469201 0.00111443 0 0 0 0 0 0 
1228 0.0762984 0.903548 0.0184116 0.0013577 0.000384006 0 0 0 0 0 
1229 0.112894 0.759702 0.104203 0.022965 0 0.000236421 0 0 0 0 
1230 0.0115651 0.931291 0.0488147 0.0064289 0.00190056 0 0 0 0 0 
1231 0.0532338 0.893061 0.0409296 0.0072925 0.00548356 0 0 0 0 0 
1232 0.270983 0.698278 0.0190802 0.00662612 0.00426677 0.000766102 0 0 0 0 
1233 0.0899637 0.886273 0.0217092 0.00160087 0.000452783 0 0 0 0 0 
1234 0.266877 0.70285 0.0187911 0.00652572 0.00420212 0.000754495 0 0 0 0 
1235 0.0534892 0.918391 0.0274051 0.000357335 0.00035728 0 0 0 0 0 
1236 0.0913268 0.88455 0.0220381 0.00162513 0.000459644 0 0 0 0 0 
1237 0.0913268 0.884534 0.0220545 0.00162513 0.000459644 0 0 0 0 0 
1238 0.134747 0.768681 0.0688685 0.0274209 0 0.000282294 0 0 0 0 
1239 0 0.945364 0.0546356 0 0 0 0 0 0 0 
1240 0.16116 0.835287 0.00301666 0.000321677 0 0.000214626 0 0 0 0 
1241 0.122001 0.790563 0.062354 0.024827 0 0.000255591 0 0 0 0 
1242 0.0119218 0.929176 0.0503167 0.00662672 0.00195904 0 0 0 0 0 
1243 0.0534892 0.918391 0.0274051 0.000357335 0.00035728 0 0 0 0 0 
1244 0.270983 0.698278 0.0190802 0.00662612 0.00426677 0.000766102 0 0 0 0 
1245 0.194854 0.800851 0.003647 0.000388893 0 0.000259474 0 0 0 0 
1246 0.00124227 0.948506 0.0490857 0.00116587 0 0 0 0 0 0 
1247 0.0534892 0.918391 0.0274051 0.000357335 0.00035728 0 0 0 0 0 
1248 0.20556 0.728207 0.0572123 0.00534452 0.00311618 0.000559513 0 0 0 0 
1249 0.248083 0.625676 0.0310547 0.0905789 0.0039062 0.000701361 0 0 0 0 
1250 0.0548717 0.874386 0.0575735 0.00751688 0.00565228 0 0 0 0 0 
1251 0.121946 0.850333 0.0248787 0.0022784 0.000563034 0 0 0 0 0 
1252 1.18781e-06 0.899036 0.0961778 0.0031785 0 0.00160627 0 0 0 0 
1253 0.0104711 0.93779 0.0441971 0.00582076 0.00172078 0 0 0 0 0 
1254 1.18781e-06 0.899036 0.0961778 0.0031785 0 0.00160627 0 0 0 0 
1255 0.248083 0.628169 0.113075 0.00606617 0.0039062 0.000701361 0 0 0 0 
1256 0.138893 0.761564 0.0709876 0.0282646 0 0.00029098 0 0 0 0 
1257 1.18781e-06 0.883652 0.111562 0.0031785 0 0.00160627 0 0 0 0 
1258 0.200831 0.794742 0.00375922 0.000400859 0 0.000267457 0 0 0 0 
1259 0.00124227 0.948506 0.0490857 0.00116587 0 0 0 0 0 0 
1260 0.311322 0.604481 0.0413677 0.027923 0.00831191 0.00436532 0.00110604 0.000858832 0.000263844 0 
1261 0.0516907 0.89616 0.0397432 0.00708112 0.00532462 0 0 0 0 0 
1262 0.270983 0.698278 0.0190802 0.00662612 0.00426677 0.000766102 0 0 0 0 
1263 0 0.928716 0.0712843 0 0 0 0 0 0 0 
1264 0.298752 0.672291 0.0179741 0.006242 0.00401942 0.000721691 0 0 0 0 
1265 0.0413911 0.93685 0.0212063 0.000276509 0.000276467 0 0 0 0 0 
1266 0.0913305 0.870611 0.0359737 0.00162513 0.000459644 0 0 0 0 0 
1267 0.524543 0.325197 0.0738262 0.0498318 0.0148336 0.00779042 0.00197386 0.00153268 0.000470861 0 
1268 0.262894 0.707285 0.0185106 0.00642833 0.0041394 0.000743234 0 0 0 0 
1269 0.0534892 0.918391 0.0274051 0.000357335 0.00035728 0 0 0 0 0 
1270 0.0511294 0.921991 0.0261961 0.00034157 0.000341518 0 0 0 0 0 
1271 0.011921 0.929177 0.0503167 0.00662672 0.00195904 0 0 0 0 0 
1272 0.0117403 0.93025 0.0495543 0.00652631 0.00192936 0 0 0 0 0 
1273 0.25108 0.72192 0.0167596 0.00582024 0.00374784 0.000672928 0 0 0 0 
1274 0.200831 0.794742 0.00375922 0.000400859 0 0.000267457 0 0 0 0 
1275 0.134747 0.768681 0.0688685 0.0274209 0 0.000282294 0 0 0 0 
1276 0.0532338 0.893061 0.0409296 0.0072925 0.00548356 0 0 0 0 0 
1277 0.19501 0.800694 0.003647 0.000388893 0 0.000259474 0 0 0 0 
1278 0.00993413 0.940964 0.0419476 0.00552226 0.00163253 0 0 0 0 0 
1279 0.0861081 0.891147 0.0207788 0.00153226 0.000433378 0 0 0 0 0 
1280 0.191977 0.803791 0.00359337 0.000383174 0 0.000255658 0 0 0 0 
1281 1.16981e-06 0.900566 0.0947205 0.00313035 0 0.00158193 0 0 0 0 
1282 0.011921 0.929177 0.0503167 0.00662672 0.00195904 0 0 0 0 0 
1283 0.216214 0.779359 0.00375922 0.000400859 0 0.000267457 0 0 0 0 
1284 2.67279e-06 0.900565 0.0947205 0.00313035 0 0.00158193 0 0 0 0 
1285 0.134747 0.753757 0.0837933 0.0274209 0 0.000282294 0 0 0 0 
1286 0 0.994914 0.00384643 0.00123931 0 0 0 0 0 0 
1287 0.0548717 0.88977 0.042189 0.00751688 0.00565228 0 0 0 0 0 
1288 0.0526788 0.919628 0.0269899 0.000351921 0.000351867 0 0 0 0 0 
1289 0.269766 0.701276 0.0179741 0.006242 0.00401942 0.000721691 0 0 0 0 
1290 0.0913268 0.854253 0.0371992 0.016761 0.000459644 0 0 0 0 0 
1291 0.234852 0.594184 0.16086 0.00574264 0.00369787 0.000663955 0 0 0 0 
1292 0.0115651 0.931291 0.0488147 0.0064289 0.00190056 0 0 0 0 0 
1293 0.270983 0.698278 0.0190802 0.00662612 0.00426677 0.000766102 0 0 0 0 
1294 0 0.994991 0.00378815 0.00122053 0 0 0 0 0 0 
1295 0.633834 0.128805 0.228993 0.00759214 0.000665403 0.000110972 0 0 0 0 
1296 0.120374 0.793355 0.0615226 0.024496 0 0.000252183 0 0 0 0 
1297 0.0150508 0.940376 0.0400842 0.00448937 0 0 0 0 0 0 
1298 0.0451533 0.931109 0.0231342 0.000301646 0.0003016 0 0 0 0 0 
1299 1.15235e-06 0.90205 0.0933068 0.00308362 0 0.00155832 0 0 0 0 
1300 8.39211e-07 0.928667 0.0679517 0.00224568 0 0.00113486 0 0 0 0 
1301 1.15235e-06 0.90205 0.0933068 0.00308362 0 0.00155832 0 0 0 0 
1302 0.138893 0.746182 0.086369 0.0282646 0 0.00029098 0 0 0 0 
1303 0.524543 0.309814 0.073831 0.0652107 0.0148336 0.00779042 0.00197386 0.00153268 0.000470861 0 
1304 0.00102212 0.767771 0.230248 0.000959416 0 0 0 0 0 0 
1305 0.0109135 0.83673 0.144495 0.00606813 0.00179349 0 0 0 0 0 
1306 0.0913268 0.854316 0.0522727 0.00162515 0.000459644 0 0 0 0 0 
1307 0.625268 0.127148 0.225873 0.0209442 0.000656411 0.000109472 0 0 0 0 
1308 0.0614807 0.899782 0.0381005 0.000318175 0.000318126 0 0 0 0 0 
1309 0.011921 0.929177 0.0503167 0.00662672 0.00195904 0 0 0 0 0 
1310 0.011395 0.932301 0.0480969 0.00633436 0.00187261 0 0 0 0 0 
1311 0.194836 0.800869 0.003647 0.000388893 0 0.000259474 0 0 0 0 
1312 0.0117403 0.90899 0.0708136 0.00652669 0.00192936 0 0 0 0 0 
1313 0.107115 0.868536 0.0218529 0.0020013 0.000494557 0 0 0 0 0 
1314 0.248083 0.70969 0.0237205 0.0138986 0.0039062 0.000701361 0 0 0 0 
1315 0.0518925 0.879429 0.067985 0.000346753 0.000346615 0 0 0 0 0 
1316 0.121946 0.850333 0.0248787 0.0022784 0.000563034 0 0 0 0 0 
1317 0.0115651 0.931291 0.0488147 0.0064289 0.00190056 0 0 0 0 0 
1318 0.00124227 0.948506 0.0490857 0.00116587 0 0 0 0 0 0 
1319 0.197793 0.797847 0.00370226 0.000394786 0 0.000263405 0 0 0 0 
1320 0.0534892 0.918391 0.0274051 0.000357335 0.00035728 0 0 0 0 0 
1321 0.0115651 0.931291 0.0488147 0.0064289 0.00190056 0 0 0 0 0 
1322 0.00124227 0.948506 0.0490857 0.00116587 0 0 0 0 0 0 
1323 0.258526 0.713723 0.0172253 0.00598191 0.00385195 0.00069162 0 0 0 0 
1324 0.194889 0.800816 0.003647 0.000388893 0 0.000259474 0 0 0 0 
1325 0.535151 0.319076 0.0716216 0.0483442 0.0143908 0.00755787 0.00191493 0.00148693 0.000456805 0 
1326 0.462931 0.534302 0.00234951 0.000250537 0 0.000167161 0 0 0 0 
1327 0.0117403 0.93025 0.0495543 0.00652631 0.00192936 0 0 0 0 0 
1328 0.00110613 0.954149 0.0437064 0.0010381 0 0 0 0 0 0 
1329 0.24811 0.656533 0.0846833 0.00606617 0.0039062 0.000701361 0 0 0 0 
1330 0.197788 0.797852 0.00370226 0.000394786 0 0.000263405 0 0 0 0 
1331 0.106327 0.872158 0.0196556 0.00144944 0.000409952 0 0 0 0 0 
1332 0.16685 0.740717 0.065917 0.0262457 0 0.000270196 0 0 0 0 
1333 0.0782801 0.901043 0.0188898 0.00139297 0.00039398 0 0 0 0 0 
1334 0.120099 0.852601 0.0245018 0.00224388 0.000554503 0 0 0 0 0 
1335 0.102946 0.873654 0.0210015 0.00192333 0.000475288 0 0 0 0 0 
1336 0.244637 0.727612 0.0172252 0.00598191 0.00385195 0.00069162 0 0 0 0 
1337 0.0927318 0.882774 0.0223772 0.00165013 0.000466715 0 0 0 0 0 
1338 0.011921 0.929177 0.0503167 0.00662672 0.00195904 0 0 0 0 0 
1339 1.18781e-06 0.899036 0.0961778 0.0031785 0 0.00160627 0 0 0 0 
1340 0.690595 0.140335 0.116901 0.0513232 0.000724991 0.00012091 0 0 0 0 
1341 0.0983216 0.885591 0.0144385 0.00132229 0.000326761 0 0 0 0 0 
1342 0.200831 0.794742 0.00375922 0.000400859 0 0.000267457 0 0 0 0 
1343 0.266877 0.70285 0.0187911 0.00652572 0.00420212 0.000754495 0 0 0 0 
1344 0.011395 0.873478 0.0803932 0.0328329 0.00190119 0 0 0 0 0 
1345 0.136791 0.765174 0.069912 0.0278364 0 0.000286571 0 0 0 0 
1346 0.0152823 0.939458 0.0407008 0.00455844 0 0 0 0 0 0 
1347 0.0927318 0.882774 0.0223772 0.00165013 0.000466715 0 0 0 0 0 
1348 0.138893 0.761564 0.0709876 0.0282646 0 0.00029098 0 0 0 0 
1349 0.270983 0.698278 0.0190802 0.00662612 0.00426677 0.000766102 0 0 0 0 
1350 0.121947 0.850332 0.0248787 0.0022784 0.000563034 0 0 0 0 0 
1351 0.0980999 0.879656 0.0199644 0.00182835 0.000451817 0 0 0 0 0 
1352 0.011921 0.929147 0.0503463 0.00662672 0.00195904 0 0 0 0 0 
1353 0.123672 0.760327 0.090575 0.0251671 0 0.000259092 0 0 0 0 
1354 0.107142 0.841775 0.0352301 0.0153585 0.000494557 0 0 0 0 0 
1355 0.200831 0.794742 0.00375922 0.000400859 0 0.000267457 0 0 0 0 
1356 0.011921 0.929177 0.0503167 0.00662672 0.00195904 0 0 0 0 0 
1357 0.774807 0.222374 0.00117033 0.00139765 0.000251217 0 0 0 0 0 
1358 0.524543 0.309814 0.0739611 0.0650806 0.0148336 0.00779042 0.00197386 0.00153268 0.000470861 0 
1359 0.0548717 0.88977 0.042189 0.00751688 0.00565228 0 0 0 0 0 
1360 0.0534893 0.918391 0.0274051 0.000357335 0.00035728 0 0 0 0 0 
1361 0.680439 0.139396 0.171181 0.0081504 0.000714329 0.000119132 0 0 0 0 
1362 0.138893 0.746357 0.0861945 0.0282646 0 0.00029098 0 0 0 0 
1363 0.200831 0.794742 0.00375922 0.000400859 0 0.000267457 0 0 0 0 
1364 0.633834 0.129087 0.22854 0.00776332 0.000665403 0.000110972 0 0 0 0 
1365 0.516595 0.320323 0.0878067 0.0490767 0.0146088 0.00767238 0.00194395 0.00150946 0.000463727 0 
1366 0.0753447 0.904754 0.0181814 0.00134073 0.000379206 0 0 0 0 0 
1367 0.0490817 0.925175 0.0250892 0.000327137 0.000327088 0 0 0 0 0 
1368 0.121946 0.850333 0.0248787 0.0022784 0.000563034 0 0 0 0 0 
1369 0.129657 0.84658 0.0217092 0.00160087 0.000452783 0 0 0 0 0 
1370 0.711844 0.160038 0.11872 0.00852652 0.000747299 0.00012463 0 0 0 0 
1371 0.0511294 0.921991 0.0261961 0.00034157 0.000341518 0 0 0 0 0 
1372 0.118306 0.854801 0.0241361 0.00221039 0.000546227 0 0 0 0 0 
1373 0.114877 0.85901 0.0234365 0.00214632 0.000530394 0 0 0 0 0 
1374 0.266877 0.702849 0.0187911 0.00652572 0.00420212 0.000754495 0 0 0 0 
1375 0.011921 0.929177 0.0503167 0.00662672 0.00195904 0 0 0 0 0 
1376 0.0445744 0.931993 0.0228376 0.000297779 0.000297734 0 0 0 0 0 
1377 0.678963 0.236109 0.0417274 0.0281658 0.00838419 0.00440328 0.00111566 0.0008663 0.000266139 0 
1378 0.167597 0.816159 0.010083 0.00350161 0.0022548 0.000404851 0 0 0 0 
1379 0.701058 0.142462 0.117999 0.0376218 0.000735976 0.000122742 0 0 0 0 
1380 0.270983 0.698278 0.0190802 0.00662612 0.00426677 0.000766102 0 0 0 0 
1381 0.0503884 0.923122 0.0258164 0.00033662 0.000336569 0 0 0 0 0 
1382 0.0873561 0.88957 0.0210799 0.00155447 0.000439659 0 0 0 0 0 
1383 0.200831 0.794742 0.00375922 0.000400859 0 0.000267457 0 0 0 0 
1384 0.0534892 0.918391 0.0274051 0.000357335 0.00035728 0 0 0 0 0 
1385 0.200832 0.794741 0.00375922 0.000400859 0 0.000267457 0 0 0 0 
1386 0.00112149 0.953513 0.0443135 0.00105252 0 0 0 0 0 0 
1387 0.0152823 0.939458 0.0407008 0.00455844 0 0 0 0 0 0 
1388 0.0927318 0.882774 0.0223772 0.00165013 0.000466715 0 0 0 0 0 
1389 0.194836 0.800869 0.003647 0.000388893 0 0.000259474 0 0 0 0 
1390 0.00122345 0.949286 0.048342 0.0011482 0 0 0 0 0 0 
1391 0.00124227 0.948506 0.0490857 0.00116587 0 0 0 0 0 0 
1392 0.138893 0.761564 0.0709876 0.0282646 0 0.00029098 0 0 0 0 
1393 0.121946 0.850333 0.0248787 0.0022784 0.000563034 0 0 0 0 0 
1394 0.0927323 0.882774 0.0223772 0.00165013 0.000466715 0 0 0 0 0 
1395 0.0117403 0.93025 0.0495543 0.00652631 0.00192936 0 0 0 0 0 
1396 0.19197 0.803797 0.00359337 0.000383174 0 0.000255658 0 0 0 0 
1397 0.0945435 0.884505 0.0188037 0.00172205 0.000425549 0 0 0 0 0 
1398 0.0534892 0.918391 0.0274051 0.000357335 0.00035728 0 0 0 0 0 
1399 0.200831 0.794742 0.00375922 0.000400859 0 0.000267457 0 0 0 0 
1400 0.270983 0.698278 0.0190802 0.00662612 0.00426677 0.000766102 0 0 0 0 
1401 0.0783914 0.900932 0.0188899 0.00139297 0.00039398 0 0 0 0 0 
1402 0.270989 0.698272 0.0190802 0.00662612 0.00426677 0.000766102 0 0 0 0 
1403 0.134747 0.768681 0.0688685 0.0274209 0 0.000282294 0 0 0 0 
1404 0.00124227 0.948506 0.0490857 0.00116587 0 0 0 0 0 0 
1405 0.0503884 0.923122 0.0258164 0.00033662 0.000336569 0 0 0 0 0 
1406 0.121946 0.850333 0.0248787 0.0022784 0.000563034 0 0 0 0 0 
1407 0.516596 0.335423 0.0727068 0.0490767 0.0146088 0.00767238 0.00194395 0.00150946 0.000463727 0 
1408 0.121946 0.850333 0.0248787 0.0022784 0.000563034 0 0 0 0 0 
1409 0.0117403 0.93025 0.0495543 0.00652631 0.00192936 0 0 0 0 0 
1410 0.0534892 0.918391 0.0274051 0.000357335 0.00035728 0 0 0 0 0 
1411 0.0913268 0.88455 0.0220381 0.00162513 0.000459644 0 0 0 0 0 
1412 0.382158 0.596585 0.0131956 0.00458189 0.00295043 0.000529752 0 0 0 0 
1413 0 0.979721 0.0190394 0.00123931 0 0 0 0 0 0 
1414 0.200831 0.794742 0.00375922 0.000400859 0 0.000267457 0 0 0 0 
1415 0.0548717 0.88977 0.042189 0.00751688 0.00565228 0 0 0 0 0 
1416 0.121946 0.850333 0.0248787 0.0022784 0.000563034 0 0 0 0 0 
1417 0.200831 0.794742 0.00375922 0.000400859 0 0.000267457 0 0 0 0 
1418 0.189188 0.806641 0.00354129 0.000377621 0 0.000251953 0 0 0 0 
1419 0.121946 0.850333 0.0248787 0.0022784 0.000563034 0 0 0 0 0 
1420 0.00124227 0.948506 0.0490857 0.00116587 0 0 0 0 0 0 
